svm_type c_svc
kernel_type wgkm
L 10
k 7
d 3
M 50
H 50
nr_class 2
total_sv 2301
rho 0.100185
label 1 -1
nr_sv 1224 1077
SV
0.9410181557308029 CCATTGCCCGTTCTAGACACTTCCAGAGGAGGTCTTTTCTTTATTTTGCACAATGTTTCAGGAGATACAACTCTTTGTAGAAAACTTTCAAATCAAGCACAGGAAGGCAAGGGCAATATCTTCCAATTTCTTTTGGCCAATCAAGTTCCCTGAAAGCCTCTCGGCCCCACATGCTTGACTATTGAAGAGCTAGCCACATGAAGAAAGTGTACACATTTTCCATTAATTAAAACGAAACTGAAATTGGGGACGAGACTCCTCTGAATGGACAAAGACTTGAGGTTAGACTACTTGCAAAAATGTTCAAAGTCCAAGGCTGAGACGGAACCGGAACAACTCCGTCGGGAGTCTGTGTGACTGCATGTGGGCCGATGTTCGGATTCTACTTACGGATATTCCTCTAGCTGCTCATCCACACGACTTGAGCTCATCCCGAGCAACCTTGACTTTGCCAGCAGCCGCAGGCCAAAGATGAGGGGCTGTCCCCTCTCGGCAAGTAATTTGTTTTGAGCCTGACAGCAGCCCACGAGGCGTATGAGTAACACCTGCCAAGCAGGAAAACGCACACACACGCACACACGCGCGCTCAGACACGCAGGAGCAGTGGCCATAAATCCTAGCATTTACTTCCATTTCAAGTCTCGACTGCGAGATGGGAAGAGTTGCTTTTGAAGTCGCACACACAATTTTGTAACCCTTTTTCGGCAGCGATCCTAGTGTGAGGGATGGCAAGAAGCCCCTCTAAATATCAGAAATATGCGGGCTTGTGGCATCTTACTAGTTAAGGCAAAAGCAAAGCATTGGGAATGGGAAAAAGCGACGGGAGCGGGAAAGGGGCAGAGTTCAATGCAAAAGGCAGCCCCCAAAACTAACAGCCGATGAGGTGACAGGGGGAGGATAAACATGTGCCGTTGCTGGCTGCCAGCCTAAAAGCAGGCTTTGACTTCGACTGCGTCTGGAGCACACCACTACAATGCCGGCAACCTCTAAGCACACGCATAATGAATTACCACCCAGGCAGGAATCGTCCTTCGTCCTTCGTTCCTCTTCCCTCGCCCTACGTCCCCTCGCTTCCTTCGCCACCAACTGCCGATGACATATTTCTCCAGACAGAGGCTGCCATCCCCTTCCTACCGAGCAGCGCCTAAAAGGAGCTAAGAAAATTTGCGTTTAACTCATAAGTGCGTGAAAGGGTTGCCAGGACCTGAGTCCCAGTCGCCATCCCATCCCGGTCCATCCCATCCTATCCCAACCCAGCACATCCTATACCCGTACCCAGACCGAACAACATCCCTGCCAGGGATTGCCTCTGTGCACTGTCAAGGAAATTGTAGTTTAAATGAAATGGAAGTTGCTTTTATCAACGGCGAAGAAGGTGGTCTGGGGGCTTAGGGTTTCGGATTGGGAATGGGAATGGCAATGGGAATGGGTGGGGGTTAGTGTGTGTGAGCTTTCTTAGAACTTCTCCCCCGTGTGTCAGTGAGTGTGTGTGTATATAAATTAAAATGCCTAAACATATGCATTAGTTTTTGTCTCAGTCCCACACCCCTTTCATGTGCGAGCTTGTGTGTGTGTGTGTGTGTGTGTGTGTTTGGAGGCTTGGGGTAACTCCAAAGTTTTTGTGGTTACGACATCGGTTTTCGGGGGCGGTGCGAGCGAGGATGCTTGAGACAAGCCTTGGAACTGGGTGGTTCTTGGAGGAGTGAGGCGAACTGTCAGTCTCGAGTCGGTCTCGAGCTGTGGCCCGACAACTTAGTCTAATGAGAATTCAAATTCGAAACCCAACTACGCAATCGTGCTGAAGAAATTAAAAGAAATTGCACATGATGTGTATGTGGTTGTTCCTATTTATTGAACCGTATGATATATATGTTCAAACATGAAAGCCTGTAGGTAAGAAATCAAATATTTGTTTCACTTTCTGGCAATAAACTACAGAATATTGGTTCAAACTCAAGCTGAAGACTTGAAAACAAAACAGTACAAGGCCAGCTGCAGCTTTTACGGTCGAAAAGGGTCTTATGTTAATTAACTTATTTATAAATAA
0.6746549774167414 AAGAAATTGAAAATATATTATATAAAAGCGCACATATATTTGCAGATAAATCGCACAGCCAGCGGGCATCACCTGAGTGAATATGTGCGGGCTGCGAAATCTCAGATTAAACTAATTTTTGGCTTGTTGCTTTGGCGCCCGCTTCTGAAGTTGCCTTTGAATATTTAATAAGCCCAGGAAGGAAGATGCCAGCCAACGAAAGAAACAACACAGGAAGTGAAATGTAAAACAGTGGGCGCCACATGGAAAACACTGTGGGCAACAAAAACGGACAGTATTTTAGTGCATACTCTACATTTTCGGGCTATGATAGAATAGGTATTGCGAAAGCATAAATGAGTTTGATCTCAATGATGTATTTTTACAGTTTTTGTGTTTATGTAAGCAGCCCAAACGGAAAATGTGAAAATAGCTCACAGAAAACACTTCCTTTCCCAGCGAAATAACCAAAAAATTCCGCAACCCAGTTTAGAATTTTTTGACCAAACTTCAAAGAGAAAATGCTCAACCGAAAATTTGTAGAGCACACCACACACTCCCACTCGATTGTCCTGAGGGAAATATGAATGAACTCGGCGGAAAAGCGGAAAAACCAAAGAGAACCAAGGTGAATACTACTTCCACTTCCAGTCCGTAGCCGTGGGTCTCTTTTAGCCATGGCCATGGCCTCTCGCCCGGCTGGAATTTTCATGGCCATAAAGGGACCTCGTTTTGTACACGAAAATAATTTGTTCACAAATTATTGAACGCACAAAACGAGTACAGTGCGTTTCGGGAGTCTATTGGCGTTTGTTATTTCACATATAAGTAATATTAATTTTATATTAAGTTTAAGGTTATTGCATTATATTATTATTTTATTTTTTTTTTAATATATTGTTTAAGCATTTTATCAGTCAAATATATATTTTTAAACAGTTGCAACCATAAGGTCTGCGTTAAAATCGTTTGTCAGTTAGCTAAAAAATAATAATGAAAATGAAAGAAAAACCAAGGCACAAGTGTGGCCTAAAACTAGAGCCGCACAGACACTTTTTCGATTAGAAGTTTTTGTCGCCGCTTCGAAATAGAAATAAAGTTGGGCGGGCAGCCATTGTGCCCCGCCCCTGGCCAGCAACCGATGTCCTGTCTTCTGTCCGTCTCCAAGTCCGTGTCCTGTGACCACCTACACAATTTCAACTTAATGACACAACAATCACGAATGCCATAAAACATTTTCCATACCAACGTTATATATGTACCATATATGTGGACGTGTGCGTCCACATATATCAGTCCACATATGTACGTATATATTTCGGGTTTTCAAAACTATTTTCGCTGAATGCCGATCGAAACGCAGAGAAATTTTTGCTGCTGCTTTTAAGGTTGTTACTCTCGAATGGGATACCTAAACAAAATGATTACAAAAAATCACAGCAAATATTACAATTACATTGAAATTCTTAATATGTATAGATCTTTTAAAGCATCTTGTGTAAAGTACACTTACTGTACTTAAAATGTGCTTCATAAAAAAGAAATTGGCAATTAATGGGTAATTTATTTGTTTAAAATTATTATTATATCATAGACTTTTATTATATGCCAGGGGATTAATTTTGAGATGTTTTCATATTCGAATCTAAAAACCGGCAATACAGACTGCCTTGTTTAGATTTTTAGCTTTGTTCAGCCTCTGGGCCCCCGCAAAAGTTTTTCTATTATATTCAAATTAAACTTTGTCGCTACCTGTCGGAATTGTTTTGCTGGCCCGGGTCAAATTTGTTTTATTGCAAAGCGAACAAAATGTTGCACACGTTAGATATTTGATGGCCGTCTGCCTCTAATGGGACTTGTTGGCCGTGACTTGTGGCACGTTCCATCATTAAATTCAGAAAACGGGCCTGCTCTCTTAAAAGCGTCATTAATACGTGGCCACAGCCAGTTCAGGCGCACTTCCTAGCCATTTATTTTGTTCATTTAATAATAAATTTTCTCTGCACCTGAGCTGGGTAGTCCGAGTCCAGAGCAAGGACTTGGTGCGCCTTGTGCATTTTAGCAAGTT
0.6235111774190402 TTAAGTAACAAACTACATTTTAACATCATTCTAATCTCTAAGTTCACCTGATTTTTTAGCAGTGCACTTACAAAATGCCTGGCGAAATGTGCGTGCCATCAACGTCGCAAATAGGCTAGGAACGGGAAAAACGGTGGTAAAGAGGAAGTGGGAAAAGGTTTCCTGGAGTGGGAAAATGGGGGAAAATATGGCGGCTAATAGCTCCTTTTATGCTCCACTTGAATTCCCCTTTTCGGCGGTTCCGCTTTTCGGTGGTTCAGTGTTTTGCCACGTAGGCGGCATAAAATTTTTCGGCCGTGATTATTACACGAAGGGTCGAGAGGAGGAAGTGAAGGTCGTCGTAATTTCATTAAAATTTTATTAGCTCGATGTATGAGGCTCAGTTTGGCTGCTGCGAGTGTGTGAGAGTCTCAGGTTTTGATTTGGCCAAATGAAATTATCACCTATGCGAGCTATGAACATAAAACCAGCAACAACGGACATGCGAAGAAGGCTTTCACTTTTAAGTATGCCGCATTCAGCGGGCGGGCAAGGGGACAATTGGTAATGGCTGTGGGAAGAACCCCAAATGCCCCCCAAAGTTGCAGCTTTTCAGTCAGGCGAGTGCGAGTCATTCAATTTCACCCCTGACTCGCAGCATTTTCCTTTTTGCTCTGGCCGAGTGCCTTTTAATTTCCATTTTGCTATTAATTTCAACCTCAAAGGTTACGAAGGTGGCAGAGGAGCGTGGAAGGTGGAAGGTGGAAGGTCGAGGAGTGGGGCATATCACTGCCGCACAACAAAGCCGCAAAGCCCTGCCTTGGCTTTGGTTAATCTGAGCACTCGCACATACGCACACATCCAGATAGATCCGGCCACTAATACTTGCAGAGAGAGAAAAACGTCAGACCTTTTCGGAGCTAAATATTCGATATTCGATTGGTATATAATGTAGTAATGCATCAGGTCTGCCGCCCGAATGCCATTAAAATAATAGATGGGCTTACTAACTGGTAAAAGCATTTCCTTGCTAATAATGATTTATGCGTTTTCTAACCCGAGTCTTTGACGGTAGGTAGTTTGCAATTATTTATTTATAAATTAATGGCCTTTTCATTGAAAAATCACAATTAGTCTGATGTGTTTTTAGACTCTCGACTATTACAAATTATGCGTACGGCCAGGTTTTATTTCGTGTGTGCAGCGCCTTTATGTTTTCTTGATTGAGTTTCACCTTTTGCATATGAAATTCAATTTAATCAGTTTGCCAGCTCACGATGGGCCTGGCATCCTGGCAGACACACGCACACACACATACTCACACACACACACATACACAGCCGCACAATGAAGCCAATAATAATGAAGTCCTTTTGTTGTTCGACATTTTCTACATACAGCTACATACAGCTACAGCAAGGGCAAATTTGCTTTGGGTACGCAACAATTTTCATGACGGAGCCGAGGCCAACCTCAATAATGTTTTCACTTGGAAATCAATAAATACAAATAACATATATTTGCGAAGCGCTGGGGCAGGGGATGTATATGTGTGTCTATATACACCCCGATGCGGACGAAACCAGGGCCAGCTCTTGACGGCCATAAACTGGCAAATTGTATGCAAATAAAAACAGAAACGAAACGCAGTGCCGCAAGACAGGCCAAGCAGCACGCGATGCCATCCAGGCCACCCAGAACACCCAGGCCACCCAGGCCACCCACTCACTAAAGTGAAAAGTGGAAAACCAACAAACAGCTGAAGCGATAGAAATGCTGACGCTGCAGCCGCTGAATCTGAATCTGAATCTGAATCTTCGGAAGCCCCATAAAACAACGAAGCGATGGAAGAGTGAATTCGAAGGATGAGGAAGGGGAGATCTGACCGAGGAAATACAAGGCAAAACTTGCTCGACGACAACTTTTTATTAACTCTTTGGCTTGCTGGCTCCTTGCCGCTCCTCTCTCGACTCCCTCCTGACCGCCTGGGCTTCCCATTGTCCTGCGGCGGCAATTGGCAAAAACCCAAGGCGCAGACACAAAAAGGACTTAAGGAGCGGGTACAACA
0.4261352883207228 TGCCATTTTTGGGTGTGCGGATGATTTTTGGAAATAGTTTCGACCGAGCGCTGAAAATTCGCAGCCGGAATTCTCAAACTCGCAACAATGTGAGACAAGAGGAATATTATTCACAGTAAATATACGAAATTAGGAACTTTTAGGCGAGAGTTATGTTAATTACAGTGTGCATTCGATGGAAACGACTTTGCACAGTAAATTAAACAATATTGAGAACTCTTAGAAGATAATCAGTGCGATATATTAATTTTTAAAATTAAGTTTAATTACTGAGCGACTACTGTATAGACAGATTTCCTTACATGTGCAAAAATTCCACAGATTTTCAGTCTTGGGAGACGAATTTAAAGACATTCCTCGAAAATATGCCACACATTTTCGGGCTGTGAGGCGGTGAAACTAGAATCGAATATAGAATCTATATGCGTAGGCACTTCAAACACTTGCGAAAATGTTAACCTGGCAAGTTTCGCCCTCTCCTCTATTTACATACAAAATTTCCCAATTATGCAATCATTCAACTTGATTTGGCTTGCTTTTCTTGACTGATTTTCCGAGGGAAAATTGGATGCGGTGCGGTGCGGGGCGAAAAGTCTGCTGGAGCTGAAGCAGGCAAATTAATTGTTAACTTTAAGCAAACAACAAACGCAATCAAACGTGGAGCACACCGGCAGAATAAAAAAAAATGCTGAAAGGAAAGAAAAACGGAAAGGGAAATAAAATTAAATGTTTCCCGAGAAACGACACAAAAGGCAAACAGTAAATGCGCAGAAATCGCAGGGGTTACCTTTATATTTCCCCCGCCGAAATCCGTTTCCCACCCTTTATTTTTAGTTTTCCTCGATATTCCTGCCTTTGGCATCGCTTCACTGAAGTCCCAGATTGAAGCATAAAGCTCAGCTCAAAAATCGAGAGTTCTGGGTTAATACTCTAAAAGATTTTCCCGCGAACGAAATGAAAAGCAGCATCAACTACAAATTGAATTGCGCAAATTGAAGAAGGTTTTGGCTATGAAAAAACTTATATTTTTTGCCATGTAGCCGACTATTTCAAGCATTTATATTAAAATCTCTAGATATATCTAATTGTAGACATGTTATCCACTCTCACAAAATTACAATATATGTTTAAAAATCTTAGAAACTCTCAACTTCAGAGTATTTAAGCACGAATATTTTGGCAAACTTACCTTCGAACTTTTCATATGCAGCGAAGCTTAACTTTTCCGGTACATAAGATGAGCCGCGTCGCGAACCAGCACCCCCGGCCACGCCCCCCGCCGCTGCGCCCACGGCGATTTCGGGCGGCAGGGTTGCCACCGTCAGCGATGAAGAACATGGTGTGGCCAAGAGGGTGGTCTCGTCACTGGTGGGGCACAAATTCGGAGGATTCGAGCTATTATTGCCCGCCGAAGACTTCTCGACCGTGAAGCTGGCGACCTTCTTCAGCACATTGCTTGACAAAAGGGGC
0.6507819981919936 CCACAAATGCAGGTTCAACCGCCAGTTCTACAACTTCTTCGCCATCCATAAGCACTTCAACTTCTTCCCCAACAAATTACAAGATTGCGGCCTGTTACAGCATCTACAAGGACGGAGGTGAGCACACGGCGTTGTTTGGAACTCGATTGTTATACAAGATTTTAAATTTAAATGTTTCTCTTTTGACCAGAGTTAAACCGTGGTTGTGTTAAGGTGCCCGAGAAACATTCCGGCTGCCAGGCTGTTCGAAATGAGCTTGGCATAACAGAAGACTCTGCCGATCAGTGCGATATCTGTTTGACGAATCTATGCAATGGAAGCACTAGCCTGAAGGTTTCACTTGGCGCCATGATTCTTCTCTTGGCGATGGGACTTAAAAACGTGCTGTAGGAGAGAGCCGGAGAATACTATGAATGATGTACATATATATTTGTTAGTAATTTGAATACATTATTAAATAATAAACGGTTACCTTATATCACTTCACATACTTTGGCACTCGACGCTTTTTTTATAATGCTTTATCATAGAGCTTAAATTGTTTCATTTCAATTGATTGATGGATTAATCCCCAAACAGCTGTCTATAAGGAAATGAACATGACTTAAAATATTAAACTATATTACTTTCGTGAGCGGGAAAGAACCTTAGCCTCTTATCTAAGGTAAAGATTCTTGAACGGAAGTCAAAGCTTGCAAAATTAAGTATTTGTGACTTTATCCAATTACACAGTCTCTTCAAAAACTATAAATTAATAGTATATCTCAATAAACAAAATCCCCTCTTAGCAATTAAAAAAATCCTTACACCCCTTAAACTTGTATGACGAATATGGTTTTACACTTAACTAAATAAAAAAAAAGAGAACACTATAGTAACCCGCAGACTGAGTATGAGTAACTGGTATAACAATTCCACAAAACGTAAGAAATGAAGCGTTACGTGAACTAGATAACGTATAACAATAGAACTACGTGAATGAATGGTTGTAGATTAGGAACAGAGAAAATATTTCATTTATTTTTTAAGGCACATCTTTGCTCTTAGTGAATGTTTAATAAATACAAATAGTAGATTAAACAAAGGTTTCCTATACAGTTTTTAAGTTACATATATAAAGTTTTTAACACACACACACGGAAAAACATATATACATTCACACAAAATAACACATTCAAAAACATTATGATTACTTAAACTATGATTAGCCAGCTAAAGATTCGGTGACAAACACATAATAGCTGATTCTCACGAGGAAAGACTGTGATTCTGCCTGTTTTCGAATGCCTGTAATCAATTTGTAAAGTATTTAGCATTATTTCTTTTTCGTGTGCTAAACGAACGAATTAAAACGAACCTTTTGGGCGATTTTCAGCAGACTCTCATAGGTGGCGTGACCCGTTTGCTTCACCATACCGTGGAACACCTTAGAATCCGCCAGCGTCAGCAGTTCATAGGGCGTTCCAAACTCCACCGCTCGACCAGCGTCCATCACCAAGACTTTGTCCGAGTCCATGATGGTGTGCAAACGATGAGCTATCGTCAGCACAGTGCACTCCTTGAACTTGTTTCGTATGGTGGTTTGGATGAGGCCATCTGTCTGGGGATCCACATTGGCCGTAGCCTCGTCCATTACCAGGATACGATTTTCACGCAGTATAGCCCGTGCCAAGCAGACCAACTGGCGCTGGCCAACGCTGAAGTTGGTTCCGCCCTCGGTGATTTTGCTCTGCAAGCCACTGGGAAGATCAGCAACCACCTCCTTTAGCTTTACCTCCTCCAGGGAGCGCCACAGCTTATCATCGCTATACTCGTCGAAGGGATCCAAGTTGTATCGCATAGTGCCGGAAAACAGAACGGGTTCCTGCGGTATGATCGAGATTTTGCTGCGCAGGTCATGCAAACCCATCTCACTGGTATCCCTCTTGTCTATGAGCACAGATCCATCGTTGTAGGACAGTCGGAACAGGGCATTAATCAGCGAAGACTTTCCCGCTCCAGTGCGTCCCACGATGCCTACTTTCTCCTTAGGTTTTATTACGAAACT
1 GCCTGAATGGAGCGTGAGATTCACACGCATAAACCTCTTCGCAGTCACCTGTAGAAGGGCGATGCCACTCGAGCACGGTTACTTAACTTTTACCGCCGCCGTGTTTTCCGGGGGATGAAAGGAACCGCAGAAGACGGCGAATGGCAACAGCAAATGCTGGCAGGTTGTTATAAGGAAAGCCCCCCAGTTTCGTCCTTTACTGCGCCAGGATGCGAAAACTCACTCAAAATAAATGCGCAATTAATTTTCATGGTAAAACTCGACGGGAACTTGGACCAAAGGTTCAACTGAGTAAAGTGGTGAGAGTTCGGTGCGGGGGTGGGGTTGCAGAAATTGTTGTTTCCTACTACAACTTTTGCCATTGAAGGCAAAAAATAATAATAACAAGCTGCTCTGGCTCTGGCGAAAAGTCCACAAAACTTTGCTTAGAACGGAGGCAACAGAAAAAATGAAATCAAGTAATGAAAGGCAGCCAAGTAAACAGCTGCCGGAACATCAAAAAATATTCTTTTCAATAAAAACAAGCGTGTGAAATATTTATATACTTTTTCCAGTTGTTCAACTGTACGCACAAATTTTTGCAACTACAATAAGCATTTTAAGAAAAGAAATAGTTGTTTAAGTGTGGGGAAAATCATTGGTTATGTATGAAAACACATTTTGTTGAAAGTTTTTATGCATATAAAAAAATTGTCATATAACTTCTGTTTTCAATATAATTATTAAAAAAAATTGTAAAAAAAATCATTTTGAACGATGCTAAAAAATATGTTTAATTTCTTGCCGTGTGCACACTTATTAATTTATATTTCACGCAGAGCTTTGCTGAGTGAATATAAAAATGGAAATCAAAATATTCGGTGGCCACAAATGAGCAAAGTTTTCTTTCGCAGCTTTCACGTACTTTTTGTATTCCGTTTGTCGCTGTTTTTGTTGCTTCCACAACTTTGGGGCAAAGCTGCAGAATTTATTGCTTTCGAAATGCGGTTGCGCATAAATGTGCAGCAAGCAAAACATGAACAATAGAAGAATCTCTTACAACTGCGGTCTCGAATGGACCCGAACTCAAATGAAATGAAAAATCCTCACATAATTGCAAACGCGTGAGATACTTGCCAAATGGCAAAATTATGAAAATGAAATGGAAAAAGCTTTTCGCAGCCTCTTCTGGGCGGTTGGGAAAATCTCTTGGGTCCCTGGCATTCCCGCCCGAATTTTCTGTTAATTTTTTTTTTTTAATATTCCGTTCAGGTTTTTTCGCCTCGAAGGCATTTTGGCGCCTCGTCTTTGGGATTCGCCAACTATTGCCTTGATGCTCTGCCATCTTGGGTACATTTTTCTAATCAAATTCTTAAGCTATTAAAACTCTGTTCTTTTGGGAACAAATTGCTTTTTAGTATATTTTATGTGAATGCATAGCTTTAAATGTTATAGCTTATGGCACACATTTCACAAT
1 AGCTCCGGAGGAGGTGGAGGTGGACATGGCAGACATGGATAGGCTCGAAACGGATTCATAACTGTACTCTCGAAAAGTGGGCACGTCCGCTGACAGACCTACTAAACTGAAACCAATACCAATACCAATAAATATTAAAATGCTAATTCTGTTTTTGGAAATCCAAGATGTTGTTTTCGTATATTAGGTTAATAACCAGTTTATGAGTCGGGCATTATTTATAGATCTAATGACGTCAAACAAGATTTCTCTAGCCTCCTAAAAACAGACTAAGTTAACAGCGGGAGCTAATATTAGAAACTATGTTTTAAAATGTATCTAACAACTTGAATTACAACTGAAAAGTATGCATTATATATATATAGTTTTTGCAAATAGTTAGTGCATCTCAATTTTAATTTAATTTATTTTTATATTTAAAATCATTAAGCTCATTTCATTCATCATTTGTTTGTACAGCTTACCCGGAAATCCAAACAATTTGTGAGTTTTTTTTTTTTGTGTGATTACTTTTTTTATGTAATTAAGTAATTGCATTTGCCACCCACAACAAGTCTTGAATTTGGCCACTTACGGAGTGACACACTCAATTTCAGCAGGTCTAATAAATCGAAGATATTTTTTCACAAATGAAGTCCGACGTCTCTTGATATATTGTCAAGCTTCTTAAAACTCGGGTTTGCAATATTTAAATTTGCAAATTATCAACATCTGGATAAGTTTCTACGTTTACGGTAGCCAAACCTTTCCGAAATAAAACTAGTTTTATACCCCTTAATCGTACAGTAATAGGGTATGCTAGGCTTATTAGAATGTATGAAACAGATAGAAGGAGCATTTTCAATCTATATTGCATTCAGATTTTAGGGACGTTGCACTTTTGAAAAATGCTTTTGATATTTTTTTGTTTAATTACCATTTTTTCCTATCTATTGATGTGCCAAATGAACTAGTTGAGTAACGGGTATCAGATAGTCGAGGAACTCGGCTATAGCGTTTTTTCTAGTTTTTAATTCTAGCTAAATTATCTACATATTATTATCATAGTTAATTTTTGCACTAATCAAAGCACACAGTCTGCATATCAATGATGTTTTCGAAATGTCTGTTCTTTTCTGTTGCTCTAGAAAGTGGAACACACATTATAATTATAATTTGTAAATCTAAAGAGTAAAATATTTTTCTTTGTTTATTCCAAAAAGACTACAAACATTTTTACAAAATACGCTTTCAAT
0.8432193257872794 GGCAGCCAAAGAAGCGGGGCCTCATTTCTGCAATGCTGGCCAAGCAAAAATTGCAATCGATTCAAGTGGAGTGCTTTAAATTCTACAAAATAATTGAAACGATTATAGCCGAGTCTGATACAAAAGGTTCTTAGAAAGATAAATTCCCTCTCTATAATTTGCCCGACAATTAATCATAATACAAATGAGAAACGTGGGCTGAGGCATGCTAATTAACTCAGGTTTGGCAAAATTCCTGCGAAACTTCCGCCCAAATGAGCTTCGCCCAATTCAACAAGCAGATAAATACAAAATGGTATCCAATGAAGAAGTAATAAATCAAATTAATTGGTTTTTACAGCACACAAAAGGAGTGAAACTAAAAACATGGGAGGACGCTCATCACAATTCGGCCATTATAATAAACTCCAATTAATAAGCATGCCCAATTGATACAATAAACACGCACAATTATGTCAGATCAGAGAATCCCACCATTTTTTTTTCTTTTCAATTAAATCATCTCCCTTATCGGAAGAGCGAAAGTGCGGAAATGCGGCCGCAGGACATTTTTTACAGCTTGACTCTCGTAATATGTTATTGAATTGGCTTCCGTCCGTGGGGAGCGTGTGTTTGTTTCGGCAGCCCCGGGTCCTTCCGTCAGCAGCATATGAATTTTCAATTTCATTTTCAACAGGCGACTGCCAGCTTGTTTAGGTATAAATTTAGCAACCAAAGAATGGCTGGGTGGTGTGTGTGTGTGTGTGTGTGTGCCCCAAGTTGTCAAAGTTGTCAAGCGGAAATCCCCTTTACATCATAAAAACCCCACACATCACACAGACCTACATACGTGAGGCAAAATATCGAAATAACAAAATTATTGTTATTGTTTTTTCCCCTTCGCTGTGGCGTAAGGGAAATTGCGCGGATTTGTCTGCTCTCTCAAGCGGCACGCACTTAAGTGCGTGTCCTTATCCCTGCGCGCATCGGTATGCGTGCGAGGGCCCATGTGTTTGTGTGTGTGCCTTTGTAATTTTAAAGCCGAGTATGCGGGACAACAAGAAGAGGGGCCAATTAATAATACAAAAATGCCAAATATGTGTCAGCAATAAAGCCAACAATTCTGGAATTGCAAGTAGCTACAGTGGGCATAACTTAGTGAATACCCAGCAAATAAAATTGAATGCCTTGAATTGCGTTTGGATAAATATTAATAATAAATTAAATGTCATATTCAATTTAAAGTGTGTAGCCATGGTATTCTGCTTGACATATATTTAAATTTATGGACTAAAATTTGTATTTTCTATTTGCTTTCTTTTCTATCTTGTTATCTATTCCCTCATATTTTAAATCGCTTTCCAACCCCAGTCCAGCTAAATAATTAATTAATCCGGCTTTCGTTTCGTTACCAAAGACAAGGGATTAAAATCTCATTGCATGGCCCACAAGGTATGCAATAAAGATTGATACCAAAAAAACCCCATTTGCATGAGCTTGAAATTCAAAATGAAAGAAAACTTGCTTAAAAAGCAATTCAGTTACGCCCCTTCGTCCCTATTTATTATCTTTGCTCCTTTCACGACATCGAAGTAACCGCAAAAAAATTGATTTATACGAAATTTATGCAAAGACTGCGCCAACAGAATGGATAGAAGGAGGTGGAGAAGGGCTGGGAATTTATTGACTCACCTGGAGTCCTGCAATCCATGCTCGGAAGACTCCTGGACACGCATCGCATACAATTCCTGGGAGAAAAGCTGCGTGGCAGGGGCGAAAAGTTAAAGTTCACATTTCGGGTCATTAGAAGGCGGCTGGGCCTAATCCATTAATTAGTTCAGTATGATCCTTGCGGGGGGGAGTACTTACCTCGCCGTTTTCGGGCGGATCACCGTTGCCAAAGGTGGAGGCCACAACAATTAACAATGCCTCGTGCTCAATGGAGGATATATCGTAGTCGGACATGCAATATATCTAAATGAATTAACAATTTAGTGCTGTGGGTAGCCGTATTCTGTTCATCCTTTCTCTTTTTTTTTTTTTTTTGCTAGCCAAACACTTTTGTGGT
0.7069410356193403 TAAAATTTACGGAACTCACATTTCAAGTGATTGAAAATTCCTGAGATTTAATTCAATAATTTAAATCCATTTCGCATTCCATTTCCTTCTGAACTCATTCGATGGCTGTTCGGTAATCACTCTTTGTGACATAATTACCATTCCATTTCGCGTATTACGCGCCATCAGTCTCGATTAATAAGCTGGTCTTCAATTTGGCTGCCAGTTGCACTTTTCATTTACCGTCTGCCGTTTTCCACTCGGCGCCAGCTCGTTGTTCATTAACACATATTTGTCAAACTGACGAAAGTTTTTCGTGATATATGAAGATAATAATTGACGATATTGTCAGACGTGGAAATTGCGGGGGCGGTAAATTTGGTCAGGACTCACGAACGCACTACATACGCGCCTGATGAGGTGCGACAGATGGTAGGACGAAAGTGAAAGTTTTTTCCATTGCACAACGTGAATTATTAACCCCTTATAGCCTACCACGCCCATCCGCCTACATAGCAGTACCGTGCTTTTTGACAAATTGACTAAATATTTGAGCTGGCGCCGGGAAATGAATAACAATCGATAAGTCATAATGTCTCTGAATCAGACACGCAAAAACTGCCAGGCGAAGAGCATATTACGGATATCGAGTGGGTATTTTGGGTGAACGGAATGGAATGGAATTAGAATTGAATGCGATGGGATGGGATATGAGGTGGTGCGTGGCGGTGCCATGGTGGAATCATTATTATTTAATCACGCTGACAACCTGGGCGTTGAAGGTGGCAATGAACTTAAGTTAACTAGCCGGCTGCCTCGACACTCAATGAATCAATAAGAGAGACGAGGACACGAATCGATTTGATTGGCAGCAATTCGATTCGATTTGGTTTCGGATTGGAATTTGTATTGAGGAATTGAGGAATGCTATCTTCGGTGTGGTGACACACGTGCCCAATTATCCTTGGATATTGCTTTAATGCCGCGCCAAGATTAAAGCCGAATTCCAAATTGTTTTTATAATTTTCTATTGCGCAGGCAGTCTAAGCCTGCATCTTTTTCAAATTTGATTT
0.9474775562710844 GTGTATTCAGTGTATGATGCTGGGGTACGGTCACCATATCCATAATTAATTAAGGCACAATAATGGTAAATCAATATCTGGGCCTAATAATACCTCAACAGGAGTGACATCGAGCCTGTCTCTTTAGCCCCTGCCCCCTGACCCCACCATCGCTTTCCGTATCTCTTGTGCGTGCCAAATATAGCGTCAGGTCCTGGCCAACACACACACACACACATACAAACACACACACTTACACACACAGACACACCCGTGTAGGCTCAACTCATAAATTGAATTCTTTTGTGGTCCCCGTTGCCAACTAAATGACATTAAAAACGCTAGCTCCAAGGCTCAAAAGGATACCAACACGCGAGGATTTAGAACAGGATGTGAGTGAAAAATGGCTTAGGCGCCCGATAATAACAGAACTTTAAAAGCTATATTAGAATATAATTAATATTAAGTTAATTGGGATGATGATTAGCATATGAAGTCTTTGCTATTGCTATAGATTAATTGCTAAAATATGAAAGAACCTTGATACCTAGTATACTTAATGATCCTATTCAACATGACCGCAGTCCTGTAATTATCCCTAAATAACCTTTTGAACTGGGTGCTCTTCTTTTTGTAGCGCTTAAAGCCCAGATAAGCATAATTCGTGCCTTCTTTCTGTCTCTGCGAAACCAAAAAACCCGCAATTCCTGGCGCCACAATGTTACCATTGTAACCACCACCCTGCTCCAATCCTGTCTGCCCGCATTGGCGCCACGTTGGGCGTCCTGTTTGCGTGTCCTGGCCACATTTTCGGAGCTACAAGCGAAAGGACTCATACACACACTCGCACAATAGTTCGTTTTCCAGGCAGCTGGAGTTTCCTAGTTGCCGGTTCTTTGGGCAAAAGTCGAGCTGAGCCCGCACATTCTGATTGTAGTTGTCCGAAGTCACAGCATTTACTGACCTACCAAATGACCCATATTACAAAATGTTCACAGTGCAACGAACTTGTGCTTCACTTATTCACTCACTGCTTCAATTTCTCAATTCAAATGAAAATTTGGCAAGCGAAAATATGACTAACTTCTCTAGCAATTCGTACATATGACGTGTGCAGACAGGTTTTCCTTAGTCGCCCTGATAAGGCTAATACATATTTTTTATGAAATCTTTTTATAAACGCTTATCAGTTTAGTTGAACAGGTGCCTTTTTTGGTTCTAAGTGATAACTCTTAAAAATACTAAAGTTCGTAAGAATGGGAATCCAAAAAACATACATATGTTATCAGCTTAGTTGATTAGAGCTCATTTCAGATCTTCTACAATAAATAAATAAATAAATAAAATAAACTATGAGGAATTGATGATTCGATTTTTATGAAGTGATTATGAGTCACACTTTTAAAAATGCGTTATTGAAACATATTTTTTTTAATTATCAATTATGATTCTTTGACGTTTATCTGTGCATATTTACCCCAATCTAAGGCTACCGAGTATAAAAGTATCATAAAATATTTTAGCGGTTACTAACAATATCTGAAAGTTAGCCTTATCATAGCCGAAATGTTATGTCATGGCGACACACTGATAGTGTTTTAGCTTTAACCTTTTTTTTTTTTGTCCATTTCCATGCGACCTTATCAAAATTCGACACAAATTGTGCTTAGATCGCTTATAATGATTATTCCTTTCGACACAACTAACCTATCTCCAGTTATTAAATATCGCACTTATACAATGCTAAGTGAAATGCTTTTGTTTGTCGCTTCAGCTGCGTAAACATTTACAGATTATATAGCTTGATTTAATTTTTTATTGTACAACTAGTATACACCGCTAGTAGAGATTAGAACACCCACATCAAGGTTGACGACTAAGCGATTTTCCAGCCTCAGAAAGTTCTCATTGAGGGCTGATATTCCAACCTCGCAATGAGTTATTATTGCGCAACAATATTATTACTTCATAAAATAAAATATATGTCA
0.652288002275039 AATTATGGAGCATTTAGAGCGGGAAATAAACCTCCTGTTGCCTCTCAGGATAATTACGGAACACGAAACAACAACAACATTATGAGGCAGAGGGAACAAAAAATGTCACCCAACAACAACAAATAACCGCAACTACTTAGCAACATTATACACTTCCGTGCCAGCATCAGGATCTGAAAAACCCCACCCAAAACGTAATTATTGTTGCGGTAAATGTCACACCCCACACCCACGCCCCCCCGCCGTCGACCTGCTCGACCACAGAACAGGCTTTTTAATTTTTCTATACACCAAAAAAAAGTATAGTTTTACGACTATTTAATACCCCATTCGTAAAGATACTTATTTGTCCGAAGTAATGTAAAATTCAATGTCAAATGTAATTTAAAGTAATAAAATGCAAGCATATACCCATACTTAAATATAACGTGTGGATAGTGGCTATATGACACTCCAACTAAAAATAAAATAAATTACACATTAATAACAAGAGCTATGTCCAGCGGTATAAGATACCGCATATACCCAAACAGTAAGCGGTATGAAAAAAGAGTCGGAAAAACAAACGAACAGAGTGGGTGCTAAAGACTGAGCGCGAAAGAGAGGTATATATGTCAGCGTGCCGCGAAAATTAATCCATTTGCTGTGACAATGACTTTTATGCGGTTTCCAGAAACGCGACGGTGGCCACCGCCATCCGGAATCGCCATCGCCGGCCAGGAAGCCACTGCGCCCGGTCAGTTGGCAAAGTCAAGCCGCAGGCCAATGCGGGCCAGGGTGAAACTTCGTGGAAATAGACAAAGGTAGCCTGAGAAAAAAAATCGGTTGGGCGGCTTCCCAAAGCTGCGACATGTAAATATTTGGCGACATTTATAAAAAATGTTTTTCGGGACAGCCCCGAGCTTCTTTTTTCGACCGAACGCGAAGCCTTATCAAAGCAATTATCTCTAAGATGCCTCGTCGGCGACCTGCCCGCCCATTCTGGTTAGTAATAGAGAGCCACATCGCACAGTGGAACAAGAAGTCGTAGCAAAAAAAATTAAAACGATCTATTCAAAGTCTTTTCCTATACAAAGGATAATTCTTAATCCTTAAATTAAAAGAAAACACTTTGTGTAAAAGGTTTGGGTTTTGATTTACAGAGGTGATCAAAAGTATTTAAGGTCATCAAGGTTTTTTTTTTAATTTGTTGACAATTGAAAAAAAGCTCGTTGTTTAAATACTTTTGACCACCTCTGTATATTTCTTGTTACCAAATGTTAACTTTCCAACCACTGTGATTCGCTGACAATGACAGTGACCGTCGTCTGCTTTTGTGAATTGGACCCTCCGGTTGCCTTTGCTGCCTTTGTTTGATTTGGAACAGTAACGGAGACAAAGTACATAGCATTTCTCTTGATTTGCTCTATCTCTTTCCCGGACCACCATTTTTGCGGCGGATTTGGCAAATGCCGAAAATTGTCAAATGTTGCGGTCAATTTGTGGGGTCAAAGGGAAGTGGAACGAGGCGAGCTTATTTAATGGTGTTTAAAGGAGACCAGGAAATCCAAATCCCTACTTTTTGGGGGATAGCACAAACTGCGCTTCAGCTGGGTTAGAAGTTAATCAAGGTGATAAGAGCCAGTAGTTAACTTATTGGATAAAAAAAGG
1 GCATATAAATAAACTTCTTAAAAGTGGCAACTCTTTAAGAAACCCAATTGTGTGGGCTACATTAGAAAACTAAATCAAATAATTTTTATTAAGTTAAATAGTTTAGTTCCTTTAAGTTTCTAGTAGTTGCTCATGGTCCCGTAGAAAATCGTAAATCATTGACAAAAATGTTTGCACTGAAAACGGTTTGTCTCGATTTCCGATGCTTGCGTCATAAATCTCCCACTGACTGGCACTTTATTAATTCACGATTAGAGCAGAGAGAGAGAGAGAGAGGAAGTTGTGCACCGATTGTAATTAACTGGCAAACTAGAATCGATGTCCGCCTTACCGCCTTAGTCCCGCTTTATTCGGCCACCACACGGATGCACACGATTCGATACGTAAATCATTTTAAATGGCTTTTTGAGCATTCGTAAATGGTTCGATGTTCTCCCCAGACATATCTGCCCTTCCATTTGACCCTGTCCCTCTGCTTCCGTTCTGACCGCTTTCTGCTACGGATCTCCATCTAGCTATTGTTTATTTCTATGTTTGTTTACTTCGTCGCTTTGGTTGAATACCCTGAGCAACCCGCTTTCAACACCTGGCAATTAAAAGTAACCATATTAAATAGGTTTTAAGTTACATTACGTATTGAAATTGAAATTTACTTAAATTCAATGCAATTTTTTTACTTCTAATTAGCTTAGCTTAAAGAAACACAAGTTAATTTATAGATATAGGGATTCTGTGAAAAGTGTTTCAACAGTGAATAATGAAGTGCGTGGTAATTATTGTCATCAAATTATTACTCTTTGAAGTCGAAATGTATCACAAATCAAATTACTTATGGCTCATCATGAGCGATTCTCTTGTGCTTGTTCGTAGACGTATACGTGATACGCCATGCATATAATTATAAAATTAAAATGTGTGCAAGCCGAGTACACGCGTTGAAAGCAATATCTCACACCCCGAAAAAAGGACATCCAAAGGCCCGAAGTGTTCCTGAAGCAAAACAGAACACCACTTACATGAAGAGGATGGCATTTCCAAGGGGCGTGGACGTGTAGGTGACATAAATTTATTTCCGCCACGCACGCGAGCAAACAAATTAAATTGCAAATCATGATTAGCTTTACACGAAGAAGGCAACAACAAGTGATAGACTTTGCTAGAGGGAAATAGAATGCATGGCCACGACTGTAACACAACTGCGCACATAAAATCTCGTAGTATATTTGTATATTTACATACAAGGTACCACGGAAAATGTTTTTTTTTTTTCTTATTTTAACTTTAAAAGGAATTCACAAAAGGTTAATTTTTTGGGGGAAATTTAAACGCAAGTGCTAGCATCCAACAAACTTATTTATCTGACGAGTTCTGTTGAATTAAAATACATCATACCACCTACTAAACCATTTTGTCCTACTTACTAATCAAGAATTTATACAAATAAAGCAAATATCTTCGGAATGAATGTCGGCAAAGAAAATTAACATGAAAAAAGCACCTCGAATGCTTTCCAAAAAGTTTTCCCAAATTGAATTAGCGGACACACACAAATGTTGGCATTCGCATGATTCGCAGACAGTTGGCCAGATCTTCAGAAGTTGCTACGTTCAAATGGCCGCTGCTCCTAACCTCGGGTAAATATTTACCTTGAGCCCACTGCCACACTGTCCTCACCCATCCAACTCCTCTCGTTTGCACACGTCTCAGGTAGGGAAAACATTCTAATTCTATTCAAATCAGGCCCCAGACTTGGCTCATCTCCTGTTCGGGCCATCTTTCCGAGCACTTTAACATGGGCTGAGCTGCTTTTTGGGATATTTTGTTTGCACTCTGTGTCCAGTTATTGAATTCCACTTGTTTAGCTTTATTTTGTTTTGGCTCGTGCTGCTGTTGTAGGTAGGTATTGTTGTTTTTGGGGCTGAGTAAACGTTGCAAAAAAGTTTTGCGTGTTAACAACATTTTTCAATATAAGTTGGCAAACTTTTTGTGCCTCAGACACCCGCACACGCCCTCATGCAACCTCCACATGTTTGCCAAAGCCAAAAGT
1 GCCCATGCGTAAGTATGCGCAAAATAAATACATTTTTTATCTTCATTTTATTATTTTTGGCTCTGCTGGTAGGCATAAATTATGCGCAATATTTAACGCCTTTGAAACGAAAAAAAAAATAAATGAAGAGAAAAAAAAATGAGATTCAGAAGAAAAACTCTGCAGAAACCTTAAGCAGGCATCTATAAAATAAAAGTAAATTGGTTGTCCGGCTTTGGTTTGCCCAACATCCGTATCCGGGGCATTTTGTTTTCCCACTTTTTTTTTCTCTCTCTTATTTTCCTTTTTTCTCCTCTATATTATATATGTGTATGTATATTTTCTGTGCGTTTTTCTTTCGCTCGTGTCGAGTCGTTCAAGCTGTGGCATAATTTTTACGCATTTCCTCGGACCCCAAGGCAAAAGTGTTGATAAAAAAAAAGAAGAAAAAATGTATAATACGAACAGGGGCGCTAGAGCAGGGTGGGCGTGGCGGCACACGCATATACTTCCTGCTTGAACTACTACAAAAAATAAATAATAAAGAAAAATGCTGGAGCCGGGCAAAAAGTTAAACAATTCATGGTCGAAGCTTTATGCTTTATACGCAAAACTTTGCTCTTTGATTTCGGATGTCAAAGCATCTCCATCTCCACTCTTCTCGCTCGACTTTTGTGTTTGCGAAAGAACGCTTATCTATGCCGGCAGCCAAGCCGCACATAAGCGAACTAGAATTTTTTTTTTTTTTTTTTGGAACATGCCCTTATGAATCAAAGACGCTCTGCTGATCAATTTGGTTAACAAACTTAAAAAAATGCAGTTTGTACAATGGAAAGTTCTTAAATTTATTTACTAAAGTGGCCTATTGCTCTTTAGGAGTACAGGAATATAACTCAAATTTTATCTATTAATATTTAGTTAATTGTGCTAAAATATTTTTGCAATTTTATTTTATATAAAAGTGAGGGTAACTCTCAATTCGTCCACTAGCCACTTTGATAGATCGCACATTTTTGCTTGTTTTATGTTTATTTGTTTGGGGCCGCGTCGTTTGCCAAAAACCAAGGCTGTCTGTCTATATAGCTGCGATGTCCCTGCCGCTGCTTTTCGCCCCTTTTCGGGGGGGGGGGGGGGGGGTTCTCCACTTTCTTGCCATCCCTCTCTGCCCGGCAGAAGCTATCTCTTTCGCCTCAGTGCAAGCTCGTTTTGTGTGAGGCCAAAATCCACTTAAATCGATAAAAACTATCAAATCTGTGCGGGGCGTGTGCCTTAGTTGTCGGTTATATTTTTTTCGTTCAATTTTTTTTTTTTTTTTTGCTTCTTCCTTCTCCGGCGGAGTCTGAAGCCGGAGCTTCGTCACTCATACGCCATGTGCGGCGTCTCCAGCGTCGTCGCCACTCATTTTTCGCCCATGTTGCGTATGTTGTCAAGTCCCTTCCGTTTGGTGCCGCTCACTGAAACAGTGTTTGTTTTTCTCTCTGTGTGTATGTGTGTGTGTGTGTGTTAGCCTTTTTTCTTGGCATCGGCCATCGAAATTGTGCTCAGCATTATTGTTGTTGCCGTTGGCATGTCCGTTTTGGCATGGTCTTGGCCCAAACTCATTGTTTGGGGGAATCCCATACCCGTTCCCCGTTTAGTTTGATTCTGCTCTTCTTATATTTTTATTTTTATTTTTTTTTTGTTTTTTTTTCGGGGTGGTTCGGTTAGGCAGCAGCAGCATTTCCGCTCTTTTCCGCTGTTGTCAAGCAGCTAACACACACCATCGCACATGTGTGTGAGTTTATAGGCGCCGGCATTTGAGCAAATTTACTCCCCAAAACGAAGCCCACCACCCAAGAAACCAAATGAGATATGTGTGCCCGCCTCAAAACTATAATGCTAAATGACAAAATATGACAAATTACAATAAAAAAAAAAATAAGAAAAGGAGGAAAGAAGCTCGACAAAACATGAATGTTTTATATGCATATTCGTTCTACGAATTTTTTGACATTTGTCATGGAAATCTTTCCATTCCGCTGATTCATCTTTTGTCTGGCCAATTTTGCGGCCACCTCACATGACAGCC
1 TACATTATTTATTTTTTTAAGTGTCTCGATATATTTATTCTTCATTCATAAACAAGTGTTCTGTAATTAAAGATATCCCCACATATGTGCCAACTTTTCCTTGTGATTTGTCGAACTTCTTCCGCACAAAACAGAACAGTTTACATATACATACATTGAAGTTACATTTAAAAACAAACAATATAACCTCCCTTTTATACACATAATCCCCCGCCCCATTTCCATTGTTGTTTCCACGCAGTTTGCCATTGTTATTTGTTACACTTCCAGTTTACATCAAAAACTGCTGTCTAGGCCTGCCATTTTCTCACTTTCTCCCACCGTATTCTGTGTGCCTAGATGCCACTGCCACGCCTTCTTGGACCCGAGGCCGCCCACTCATCATTACATTTCATTAAGCCGGGCCAAAAAAGGGGGTCGCAGACACAGTCAAGATTCGCTCTCGGGCCTAAACTTCAGTTTCTGTTTCAGTTTCAGTTCTGTTTCTGCCTCTGTTGCTTTTGTGTTTATTAAACGCTTTTCGGGGCGCGTGTTCATTCAATTTGCTTCTCCTTCAGCCGGGTTTTGTGCTCCTTGTGTTCCTGTTCTTGGACTGAATGTTATGTCTACATGCCTGCGTCTAAATAAACAGCTCCAACAAGGATGCTGGGTGTGTGTATGTGTGCTGGCAAAACCGTTTTAATTGTTGTGTTTAAATAACAGCCGAGCCTGGTGCTCGAGAGAGAAATCGGGGCCAGCACACAGAGCGTGTGTCACGTGGGCGTATACTTAATGTGACGCATACGCCGCGTGTTCGTTGTGTTTGATGTCGTGCGACCGCGTCACATGAAAGCGAGCGAATGAAATATAGTTGCTCAGTGAAATTTCGAGCTCATTTACCGAAAAGCAAGAATGAATCCCTAGTCTAAGGGGAATCAATCGGAAAAATTGCATGAACTCTTTAGTATGATCAAATCAATTAGTAATAAAACAGGAATGGATTCACTTGATAGTCCTATACATAGAATAAGTCTGAGTATCTGTAGATATTTTCCGTTTCTAAGTTTAAAACATGTTCAACTTACTTCTATCGTGACCTTCTGCAGCTAGGCCAAGTGCAAAAGTTTTCTGTGTTTTTATTAATTCCACGAGCATAGGAAAATTTATTGAAAATGCCTGTTGGCAGGACACGTAGCAAAGAAAACTTTTCCCAGTAAACGCATTTCATTCTGCCATTTTTTTTTTTTTGTGTTTTGTACGTGATCTCGGCGGAAAAAAAGCGTAATTAAAAACGAGAAGTCGCGGCGCTTGATATGTGTTCCTGTAATGGGGAAGGCAGTTTTGCTGTGGATAAATTTAGACAGCGTTTGCCATCTAATATGATAAATCTACTTAATCCAATAAATAAACAGCGGGGGAACAGACCGAATTGAAGCGTTGCGTTGCGATGCCAGAATGCGAATCGTGCGTGCGCAGCAGGCCAGGGAAAGTGCCAAGTTTTAATTGTGAAAGTTTAGCTGGGGAAAACCTAGGATTGCGGGTGGAAAGCCGAGTGGAAGGTCTGGGAAAAGCTGCCACATACACGCACACACACACACTCCCAGCAGGTGTGGCAAATTGCTGCCCGCACTGGAACATCGAAGCCCGCATGCGACAAGCCATGAATTCAAGTTGTTCCCTTCCTAGAAACGCCAATCCACTGAGAGAAAAAGCTCAAACTAGACGCCATTGAATCGACATGTATCAGAAGCTAATCGATAGTATCGTATGTCTGCTATGAACCTTTAGCTAATTAGTTAAATATTTTATAAGTTTTCCTATTTAATATTTTAAGTCTGAGAATTGCCAAATTTTTTCCTGTGGAAGGATGTTAGTCCTGCCATTCTGCCTGCCGACTGTGCTGTCATTTTGCGTTACTTGTCATCAGCTTCATGCGTTTTGACATTTTTATTAGTTGAATACTCCTTAGCAGCACGCTCCATTGCCTGGGGTCTCTGTCCGGAGTTCTATGTCCCGTGTCCTGTGTCCTGGGCCCCGTCCTGGTCCCCGTCCTGTGTCGTCTAATAAG
1 CTTTTCTCTGCTTTTCTCTGATTTTCTTTTTTCCCACACGCAGCCAAGTATCTTCGGATTTGACTCTTCCGGTTCGGAATTTTAGCCCAGACAAAACGTTCAATTTCCTTATCTTCGCTGCAACAATTGAGAATTTTCTTTGGCCGTTTAAGTGGTTCGGCGTTCGGGCTCCTCAAGTGCTTAATTTATGGCGTAAAATATGGAAATCGGCGGGAAAACAGAAATGCCGACAATGAGACAACATTTTTCATCTCCCTCTGCGACAGTTGCCGTCCCTGTCACTGGCGGTCTCCCCTTGAACTTGAGGGGCACACTGGGCGAAAATAATGATAGTTCACCTAAATTATGCATGCCATTGAAAGTTAATACTTATATATAGAAAATAAAGAAATTCCTTCTATAATTTATATATTTTATTTTAGTACTAGTGTATGTGCCTTGAATTTCTATGATCTTTCGCTGCAAGTTAGCCAGCTACTTTTCGCTCTGTGTGGATCTTGGCAGTTCCCATTTGGAATGCTAGATCACCGCACACGCAGATTTTTATTGATTTCCATGTAGCAACAACTACGGCAACTATACGGATATATGTTGTGTTAATGGAAGGGCGCGGCGCGACAAACGGGACGGGGGCTACTGTAGCTAATGTGGCCGGTGTTTCAGTTGCTGTTGCCACTTCCACTGCCACTGCCAGTGTAACTTCCCCGCTGCCGCCACACGTCGCTAATGGAACCAAAACGATGACGACCCCGTGTTCTCGGCGGATGGAAGTCCTCACCTTCAGCAACATCGCCATTCCGG
0.329292745214603 TGCTATACTTAAATATTTTGAAAGTTAATGGGACAAAGTTGTGTGGAATTTAGTCGCTAAATGCCACTTCTTGGGTTTCTATTAAAGTAAATGTAAGGCAGTAAAGTAAATGTAATCGCTGCTGATAAAAGTTGCTTTTGCAGCCAGGAGTGCCTGTCATATTTATTTTTAATCTTCCGCAGCAGTGACATTAATAACATCATCTCCTGAAACATAAAACTGCCTTCTTGCATGTACTCCTCACTTCGCAGGAAATATTCCCAGAGTGTTTGCCACAAATTTCGTCCTTGTAGTCCTGGTGCGTGTTAAAAAATAATTTCCCTAGATAATTTGACAGGACGCGTGGGCAGTGGCCCCACCCCAAAGTTGGCATCCCAAATTCTGCCGCCATTCCCTTGTTGTTTCGGCTAATAGCAGGCAAAGTTTGAGTTTGCCAAAGTTTTGACAAAACTTCCTTTCGCTGGATTGTTATGTTATTTTTTGGTAAAACTTTTTCGTGTTCGTGGAACTTGTTTTGATTTCATTGTTTATTTATTTTGATGTGAGTGTTCGCAGTATGTTGATTTAATTGAGCCAAATGTGTTATGAGGCCATCAACTTAATAGGGGGGGCGGAGTTAATTATTTATTTTCCCGTTTTCAGAGAAGAAAAGCGGCTTATGGACAACAACAAATACGGTGCGCCCAAAAGTATGCAGCCAAATATTTATAGCACGCCAATTGACTAAGGGACCAAATGAAAAGGAAGGCGCTGCGTTGAGGGGGAGGCGTATTAATTTAACATTATGCGGCAGACAGAGCAAAATAATAAACAAAAATATGCCGTGTATCGTTTAAATTGTTTATACAGCACGAGCAATGTGTTCCCGAAATTCCTGCCCCCTGCAGACCTGCAGCTTGACAGGCTTAAGCCCAGGAACGTGACCTGAACGGGCGGCACATTGTTTGCCCAACTCTTGTTATTATTCCCTTTCAATATTTGTGTGCGTGTGTGTGTTTGTGTGGCGGCAGGGGGCGTGGCAGGTCCTGTCAAATGAAATCCGTCTGGATATGTGTGTGTGTGTGTGTGTGTGTTTGACCCACAGCTACATACGTCCAGTTCGAATCGCCTTTGTCCCTTTTGCGTTGGGGAGGCGAGAGTAAACAGCAAAACAGCAAGTGGAGAAAAAAATTGAAAATAGCGTTAAGCCCAGTCGGCTCCATGGAATATTTCTATTTTCCTGCGGAAAGCCCCCCAACTCCCCACTCTGCGCCTACTTGTGTAAGCAAGTGAGAGTGATTTATGCATAGCGAACCGTCCTCCCACAAAACGCTCAACCGCTCAACCTGTCATTGAATAACGCCCCGCCAAATGCGCGTAGCCCCAAAGCTCCAACTTCATGTCCTTGTTGACTCAGCCGAATGATTGTTTTCGAGTGTCTGGATTTGCGTCCTTTTAAGGCATAAGCATTATACAAATATCTGCAAATTTTGGGGTCTGCTTGGTTAGGGCTTAATGCATCCCCTTTGAAACACAATTTCCATTTCCATCCGGAATACGAAAGCAATACAATTTTTCGAAAATTTCAAGCAATGACAGTGGGCTGTACACTGTGTTTATTTAAGGAAAATGTGTTCTCGTTACGTAGAGAGTCCTTAAAAATAGATATTTTTATTTAATTAAATCAACAAAACTTTCGATTGTATGAAATAAGTTTGTTGCTTAGTAAACTAACCCACTTTTTGCAGACTTATCAAGTAGCTTAAGAAGTTAATTAGCCACGGGGAAAAGGGAAAGTTCTTAAATCTTTTGTAAATACCCAATAAGCAATTAGGAACTAATATAACTCTCGAGTGGCGACTGTTTCGCAAGAGCATAAGAAGTTATTAGCCAATAACAGACCTTAATGACCCGTTTAAGCCCAGACACAAAGCCACTAGCCCAAAAGACCATATCAAAGGCACATAAGCGCTCATTTCAAGCCAAACCACATCACATACTCAAGCCAGCACTCAAACTCGCACCCCCAAGTCCTCCCAGGATATTCAGGAGTTGTGTAATGTAATCA
1 CTCATCATCGAGCATTTTACGGGCCTCAAGCCCCGCGATGACGACCTGAAGTGGGCCAAGAAACTCACATAGTTTCACTGCCCAGCGACTGTATATAGGTAACTTGGACCAAAAGCAGCCTTTAATTGCTGAATATGTCACCTTTAAATGTTTTCATACAATCGGAATGTCTTACAGAATGAAGTAGCTTTAAATGAGACAAGATTGCATACATAAGGTTTATATGGTTAATGGCATAGTTCTCAGTTGCATGTTTGTTAAAAATAGTTGATTATCTGAGTTTAAGTTCGTGTTTTTAAATACCATATTACTATTGTACACCTGCACACACTCTCACAACTGAGCGCATAAACTAATTGATCTCGCCACAGGTTGATCGTACTACGAGTGAGCCTTAAGTATACCTAAATAATAAAATGAACATTTTACTAACTATCGAGCACACGCTTGTCTGATAAATTTTTTAAGATTTACACACAATAATAATACTCGATATAACATATGTAAGCTAGGCGAGTAACTGATTTTGAACCAGGTCCGAGACAAAAAGACATTTTAATACTGTCAACAAACGCTGGTTATCAAAGGCTATAAAGTGAATAAATTTATTTACAACTACATACATATACATTCAAAAGATAATTAAATAAGGCGCTGTATGCAATCAAATACGTGACTTAACCTTTGCCTTAAAACGTTTTTATAGTATAAACTCTTCTGGAGAAGCGAATTCTGTTTTAGTTGGCACACTTTTAGTGGCGAGTGTTAGTCATTGTAAGAGACCAGTTTGTATATTTTACTTTTTCATTGTTTTTAATTTCATTTACAAGAATTAAGAGTAATCGGCGAACCGAAGAGGTGTTCTTGCACAACGCTGTAATTCTAAGAAGGCAATATTCTTTGTGATCTGAGAAAATAAATCAATAAGCTTAAAATCTTTTATTTATGCATAAAGCTTGCCATTAAAGGGGCACATACA
1 ACAAAAAATTCACTTTAACGACAGACGCATCAGATGTAGCTATCGGAGCAGTTTTATCACAGGGTAATAAACCAATTACTTTCATATCCAAAACATTAAATAAAACCGAACAACTTTATGCCACAAATAAAAAAGAATTGTTGGCAATAGTTTGGGCTCTGAAAAATCTCAAGAATTACTTATATGGTGTTGTTGGTATAGAAATACAAACAGACCACCAATCTTTATCATTCACAATCTCAGATAAAAACCCGAACGTGGAAATGAAAAGATGGCACTCTTTCATAGAAAGTTATACCCCGAAAATAATATATAAACCCGGAACAACTAATGTCGTAGCTGACGCATTATCTCCAATAAAAATAAATAATATTACAAACAACGACATAGAACAATCAATCAGCTTTGTAAGATGTAATACATGAGACCCGTAAACCGTTAAATCAGTTTCAGCAAGAACTGTTTTTAACAACGGGGAAGTATACAATACATGAGTAATGTAGAGTTTTTGATAAGACACGACATATAATCGAACATGACCCACCAGAAAATTTATTAGGAATATTAAGAGAATATTTACCACCAATTAGGAATTCATTGCATATTAGAAGGTCTTTATCATATTCAATTTCCTTTAAAAAATAAGTTCAGTAACAAATTTCTTTTTACTAAAATATTTCAACATGACGTAGAGAATAATGAAGATAAATCTATTATAATAGAAGAAACACATAGTCGAGCTCATAGAGGACTAGACGAAAATTACAAACAAATCGATTGTTTATATTATTGGATAAAATTTATTTATCAAATTAATGTAATACATAAGAAATTGTACAATTTGCAACGAAAACAAAAATATTAGGCATCCAATTAAAATTCCTATTGGGGAAGCTCCTAAAAAAGGAGAACATTTACACTTCGATATTTATTTCGCGCAAAATCTTATTTTCTTAACTTGCATTGACGCGTATTCAAAATTCCTAGTAGTAAAAGAAATTCAAAATAAACTAAACATCGATAATGAAATAATGGAATTACTTCAACAATTTCCCCACGCCAAAGTAATTATGACTGATAATAAACCACGCTTCAGCTCTGCACAAGTTAAATCCTTTGCACAAAGATGTGGTTTAACTTTACATTTCGCAGACCCCAGACACAGTACCTCAAACGGACAAGTTGAAAGTGCACATTCAACATTAACAGAATTAGCTCGTTGCATATAGAAAGGATTTAATCTCACTGACTATTCAGAAATAATTATTAAAGCCGCAAAAGGATTCAATCAGAGCATTCATTCAACAACAAATCAAAAACTTTTGAAATTCTCTATAATAAAATTGAACACGAAAACACTTCAAGAATTCTTAAGAACACACAAGAAAAAATGTTAGAAACACATAATGAAGGTCGTAAGGAAAGTTAATATCATGTAGGGCGGCAAGATGTTTATGAAAAGAAACATGGTGAAAGAAATAAGCTAAAAACAAGATATAAGAAACAGGTTGTTATAGAAAACTTACCTAACAAAATAATATTCAATAGTAGAAACAGAATTATTTACAAAGACATTATTAAGTTTTAACAAATATTATATTAAAATTACAGAAAATGCATTTCCTAATGCTTATAACACCATTCGTAATGATAGTCAATCAATGATAGTCAGAAATAATTGATTACTCCAATCACTAATTTTTCCTGTTCAAAGACGAAAAGGATGTTCTTACTTATGAATCATATGCCAAATTATTCCACGTAACTAATTTAAGTTTTTATAAATAAATAATCGATCTAGAATCAGGATATATAAAAAAGGTTCAAATAAAAGGTCACAATGGGAAATAACTTACGAACTACAATTAATCGAATTAATTTTGTCACAGCTGATATAAACTAGATCAAAAAGGGGAATAAATGAGTTAGGCACTGCTTGGAAATGGTTAGCTGGAACTCCGGATCATGATGATTTCATTACAATACAGAATAAAATAAACCAATTAATTGAAAACAATAACCAACAATTTATTATCAATTCCAAATT
1 CATGTTTGTACATATGTATATGTACATTAGGAAAAATGAAATGATGAGCGATCTGTACTCTTTGCAATGTGTATGTATGTACATATGTACCTCCCTTTAATGAACTAGCAATTCCGTCACGCACACGAAATATTTTTTTATTTGTAAATCTTTTTTAAAGTTTGTTTAAACAATTTAGTTACTATTAAAGCTCTAAAATTCATAAATAAATAATAATAAATGTATTAATTAGGACAAAAAACAACTTAAAACATATACGTTTATTTTTGTAAAAGCGTTTTAGGCAAACGCTAGCTGGTCGGTACT
1 CAATTAATATCTGTGTCATAAGCTGCTTGGTTGGCTGCTGGCTGATAACTTACATAATTCCATTACCATTACCCAGCAGTATGGTGAGTAGACAGCCCAAGTGACCAATAGTTGGACACGGTAAGGCTTGTTATGGTCGAAATGCTTGATTATGTTATTGTTCGCTGGTAAATAGAGCAGTTGATCAGACCATGTATTTACCTCCATACATACCCTAATGTAAATACTCTTACTTTTTATATATCCTAACACATTTCGCAGTAAAATGTCTTAATATATATATATATATATATATATTAAAATAAATATACATTTTTGGACATATTAAGAAACTCGTTTAGCCGGAGCCGGAGTATCCACAATAGAGCTCAACACAAGTGGTTAACAGCTGGTGGTTTGACTTCTTCTACGGTGATTGAATTTGACATTAGACTATTGCGAGCTCGTACATGGCAGCCGGAACAGTGTTCAAAACAAGTTTGGCTTTATTTGCGGAACATAATATTTCTATCACGAAGTTTCGAATATGATTGAGGAAAAGAAGAATCCATAGTACTGTAAAAACAATTCACTTAAAAATAAAACTTTTTCGGATCTACGTTTAAAAAAAGATTTCAGTTCATACATGAACTGAATACTTATCCATGGTTGTCTTAAAATCTGGTTAAGTGCTAACTCTTCTAGGACTAGTGGGTAAAGTGTGTAAGCCCTTTGCTCTTTTAAGTTTTTGCCTCCATTTGTATTTCTAGCAGAGTGTTCTTCACTGAAGTGGGCATTACTCACCTGTTTTAAAAAGCAGTAGGCACAATCCCAGCAGGCACAGAATGTTTATTCGACTTGTTGAATACTTCATATTGCAGGTATGGCGTGTCGTCGTAACTGTAACTGTAAATTTTCTTGATGTGGTTGGTTCAGTTTCGTTTTGGGGTTAGTTCACAGAATTTAAAATACCATAGGCAAGCTCGGATAAAAATAGTGGTTGGAAGCGCGGGAAGTGGGGAGCAGCAGCAGCCACCGTACCGATGACGGAGGCAGTTACCGTTGAGAAAACCTCTGTTTTGTTGAAAACAATTGCTAAATAACTAAGAAGGCAGTGTCGCAATTTTTCAATTTAGATTTTTTGAGCCTTGTGTTACAGTTTTCTTAATGGTGTGTCTGGCTTATGCCGCGACTGCGGCTTTGTGGCTGTGCCTTCACTTGGTTAGGACATGTTTGTATTGTTGTAAGCAGATTTAGTTTCTGCCCCTATTATTCGAGCTTTCGTTTGGCTTTAACCAACGCGACGATGCATAGCTAACACAC
0.987391890407721 ATCACTGGGCAAAGCCAATTTCGAGTAATCTAGCGTGTATTTTATTGTGCATATCTACGTTTGTGTGTATGCGGACCTTTATTTGATATACTAAGCATACATGTGCACGCGATCGGGCAACCTAAGTCCGAAGTCCAGCAAAGTAGTAGCTGATTCTCCCTCAAATATTCAAACCAATAAAACTTGGCGACATTGCTAAATGTGTGTGAGGAAATAGCAAAGCAGTCGATTACACACAAGTACACTTGTATCTATGTATCATAGATTTCCTGCTCGTATCGATTCAGGGTGATCGGTTGACCACTCCTGGTAACAAAATTTAATGCATGAAAGGGTAATGAAACGGTTTATGATTATTATGCAATAGAGCAAAATTTAAGGTTTACAATAAATAAATAAAGATTGAGCTGTAGAAGGAAAGTCTTTGCGCTTAGAATAGGTACATATGTAAGTGTGTATCCCACATAAAATACAGAAATACGAAGAACGCAAGGCGAGAATAGGTCGGCTGTTTAAGCACCAAAAGCGGCAGAGTGGTTATCAAGTCGCAATTATTTCTGATGATAATACAGGGCTGAATATAAACATTTTCGAACTCGTTTCGCCGTATTCTCGTGCGCTGGCGCAAGGTCAGATTCAGTGTCGGAATCAGCAGCTACTTGACGTGAATGCAAATAATCAGGCCCTGCGAAACCTACTTGTAGCCAGACAAAATGTTGAGCAGCGTACTCTTGCCAGCACCCGATGGTCCCATTATGGCGGTGAGTTCTCCAGACCGGAGGCGTCCACTGACGCCCTTCAGAATGGTCTTGGCATCTGTAATAAAAACACACAAAATTAGTGTTTGGGCCAATCTCTTGTTGGGACTAAAAATAGTTCGCGTTTTGATATGTCTTACGTCAATATCTAAGTGCCGCCGCAGCTATCA
0.6967437772581808 TAGAGTACATGTTCTACGCAATAGATCAGATGGCTGTTCGCCACAGGAAAACGCATTCAGCATTTTTTTGCGCTAGCCAATGAATAATTATCCAGGCGATTTTCTACTGGAAACAACACATACTCGAACTAACCCTATCCGCAATAGGCGTCCGCTTAAAACAACGCGACTTTGCTGACTGTTTGCAATGCCCGTCGCCAGTCCTTTTGGTCATTTCAAATGAATTTCCATACCGGGAATCCACAACAAAACCAAAGTTGCAAACGAATACAGGACATTGCGTTTTCCAAGCAAGCACACGAACACTACCCCAGTGGTCAGAACGCCTAGCCACCCACAGGCTGTCAAGTCAGCCACGGAAAGGTCTAGTGCTCACCAGGAACAAAGTTCTAAGCCAACTGGCCATAGGTCCTACGACATTTGCTAAAGCTTCTCGACTTCTAGGCAAGGACCTTCTTGCCATCTTCGGGCGCCTTCGTTTCGGAAAGTCCCGAAGTCTATAAAACAACAAGTTGCCATTTCCCGAGAGAGCTTCAAATGTATGTAAAACATCTTGGATAGCCAAAATGTTACTGTCCAAAAAGCAGTTACCCTTATTGGCAAACTTTTCTATAGTTGAGACCAGTCCGAATTAAACTGGTCTTGGTAATCCATACCTGTTTAACTAGTCGGGCATTTAATTTACCCAGGAAAGAATTGTAGAAAACCGCCGAAGAAAATAATTTTCTGCCCCTTGAATCGTTTCTAGCATTTCGTATCGAGTTGCCAGTGGTCACTTGAAGGTTCGTCGCTACTGACGTTGCCCAATGTCACCCGCCACATACTTAGATTTCACCAACGCGGTTTCCACTGCGCATTTAAATTATTTAGGTTAAAGAACTCGACTCCTTTAATGCCACAGTTTTGTCAGCAGGGTGCGTGTATTGGCCAGAGAAACAACCAAATTCGCTAAAGTGAATTGTCCCCATAACTTTCACCCTGCCTTATGCTCAAATATCTGTGTGGATTTGAGTAG
0.3300098269656161 GACCCCTGATGATGATTATAAACATTGTTTCATTTTCGCTACTTTAATCAATTTGCACTTGAAATTTTGGACACGACTTCTTTTAAAAAAAATAATCTAGAGTCTTTAGTAAAGACCCTTTACAGCTTGGAGTAAAACGTTCCCAGGTGTATATTTGCGTTTATGTACTACATATGTATGTACCAATAGACAAACAATAATACATATTTGTATGTGCATTTATAATATCTCCCGCTTACTTTTTGTGTTTTTCTATGTATCTCTTTTGTCTGCTCGGCATTTGGCGGCTGACTCTCCAATGTCAGCAAGAGATCAATAAACTTTTGGCAAATAACAAGAAACGAAAAAATACGAGAAAAGAAAACAAATTAAAGCGCATAAAAAACAGATTACAGCGAAAAGAAATAAATAGCAGCCAAAGTTTCGACACATAAAGCGTGAAATGGGAAGGGGGTTTGGGGTGTAAAATCTACTTTTTATATAATCACAAACAATACAAAATTCAAGACTTATTGTGTATACAATACATAACGGTCTATTTTCCTTCTACCCTGCTGCTTTTTTTTGGCATCTCAGTTTCTCTCCTGATATTTTTGGCGAACGGAGCGTCAGCGTCAGTGTCATTAAAGTTTTTTGTGTATGCCAGAGGCCACAACAGAAATAAATATGCCATAATATGCACGCACCATTTTAAATCTTTAACAATTTTTCCGGAAAATATGAAAACAAAATTACAACCAATTAGATGTCTATATTATGAATACTTATTTAATATTATTCACAAAGGTACGAATTTATACATAGTTGTTCTTAAATTAAAGACATATACAAAGGTAGAAATCATCACTGATTGTTTGTTG
1 CTTAAGCACTTGCCGTTTCGTTTACCCTCGAAAGAATTTTATAATTGAGCTCAATTCCTGCTCACCTGTATTTTTTGATGCGTGCTGATTGCACTTGACTTAAACAACTGATGACAGCTGAAAAATACCTTTCGGAAGTCTGTGAATCGATAGCATTTTAAATATCACTCGGTGTTGTGTGACCCACTTAGCGATTATAATAGATTTTCGAAAACCGGTCATAACCAGGAAATGAAATACAAACATGCTGTTAGACCAAGCCCAAAAAGAGACCCACTCTCTAAAATGACAATAAATCCGAACAAATAATATCGAATTCGGTACACAGATATGTATACGCCGGCTTAAATATATTAGCAAATAATGATAGAGGCTAACAAAAATTAATAGAGATGTTCAAGGTTTTTTTTTTTTTTGACTCGACGACTCATCTTGAAGTCGTATTCGTGGCTAAACACGAGGCAAAGGAAAACAGCTATGCTTGAGAACTAAAAAGAAGAGGACAACGAAATGTTTTCCAATTGGGCAAATATACATAGTTTATTTTTGCCACTTAAAGATTATGCAAATCGTCAAATGAATAAT
0.965920407999208 CCCAACTCTTGCCGCTTCCAACTGTCCCACTCTATCTCTTGGTTTGAGTTTCGATTTCGATTTCGGTTTCAGTTTCGGTTTTCTTAATTATGTTTGCTCCGCTTTGGAGCATCCGTTTGTAGATCTTTTCGCGAGATAGACCAATTTATGATTTACGTGGAACATTGCCCTGGAATTTGATTTGGTCTTGATTTGACTTTGGTTTTGGTTTTGCTCAGCTCTTTCGCTCTACATTCCTTTTTTTTTTTGGCTGTCAAGTTCACCACTCCCTTGTAGACGAACAAAATAGAGCTTTGTTAATTTAGTTTAATTGTATATATATTCTATTTTCAATTGAAGCTCAACTGCTTTCGTCTTCTTTATTCATTTAATGTTCTAGTCTCCTTTTCCCTTTCTCACTGTGTAGATCCCTTTCCTCGACTCATTGCGTAGAGATCGAGGTCAGCGATAAGGCCGCGACTTTTGTTTGGCACGTCAAAATCAAAAGGCATTTGGTCCGATTACTCCCCAACTGGAATCGACCACACAAAAACCACCGAGCACAAAGTCGGGCCCGCATTCTTGGCCTTCGCTCTGTGGCTGTGGCTCTAGCCGGTGGGACAGGTGGGTGAAGTAGCGGCATGTTGCCCCAAACGAACCCATCCAATGCCTTCTTATAATTATTTTATAAGTGCAGCGACACCGGGCTTATCCCAACCCGAGTCCCAGCATGATTCACTTGGCGTCGCTAAATCCCGCGCAGGAGAAAGACTGGCAGGGAATTTGGAGAGAGAGAGCGAGAGAG
0.7282726192271358 ATTAAATGTGGCTCACAGCGAGCCAAATTTGCGGGCCGAAGGAGGAAATTGGAAGAGATACGTGGGGAAAATATTAAATGAAAATGCAAATCGATGTGCTGTCTATCTAATTATCCCATTTACCCTCAGCTGCTTTCAGCTTCTTGTTAATTTTTCTTGAGCAATGCACCTTGTATCGATACTGTGCTGCAGCTGCAGGTTGCGATAAGGCAGCCGATTGATAAGCTGGAACAGCTGAGCTCGCCGCTTAATCTCGGTCGGTGTTTATGAATTTGCGAATGTTGCACGTGCTGTTCTGCAGAACTATTGCTATCAAAGAGCTTCCCCTCAGACCCTCTCTTTCGCTCTCCTTTGGCGGGTTATAGTCGGGGGTATGCAGAGCCCATATCGGAGCAGCAGGCGAACGTATGGAGTCTTTATCTCGGCACACCTGACCCCGTCGTCATGCATATCTCCTTGGGCCTGGCCGATTGCGTAATCTGGGTCAGCCAAGTATTTGCCAAACAGCGCGTGGCCGAGAGCAAAACAAGAGCAACGGAGCAACCGAGCAAGCGAGCAACAAGCGAGGCGGAGGCGCCAAAAAGTACGCACACAATGAGCTTCGGCATCTGCAAGATACAGATACAAATGTATCTGCCAGTCGATTTCTGGGTTCCTGCGCTCCTGTTCCGCCACACACCGGGGCACACACACAAATGCACCTCGCGGAGATGAGTGTGTATGTGTGTGTGCAAAAAGGATGCACTGTGGAAAGTGTTGTCTTTGCTTGCTAGAACTAAAGTGCTAGAAACAAAAAAAAAGGACGAAATTAAAACTAAACTATTTTTGTACCACTATTGAATATTCCTAT
0.720520740980133 CCTCCCCTTTATTTTTCGCCGACCCTCGGGTTGTCGTGGCAGCCCATCAACATGCTACAATGTTGCAGGTTTTATTGAGGCGGCGGCACACTGAGAAATGAGCTCATGCGATGAAATACGCCAGCTGATTATGATTTCAGCCTCTTTCGTTCAAGTCGGATTTAAGAAATACACTTGAAAGAGCTTGACAATAACTGGGTATGGATTTGATTTATGTTGGGTCAGCGCACATATCCCCAGTAGCCAGCCGAGATAAACACTTCCCATGAGCAAAATCACCTAATCGCCGCAATTTTTTAGCAGTCGCTGCGTTTTTTGTTGTCGTTTTTGGTCTTTGCATAAGTCGCCTAATAATCGGGCATAATTCATTATTTATGTGTGGCTCTGGCCCAAACATAGATATCTTGATAGATCTTTAGATCTTTGGCCACCACCGACAACACAAAGTGCCAACAACAGCGACGATAGACACAAAAGACAAGACAAGCCAATGACTGTTTAAAAATTCAACGAAAAATTATCGTTTATATTTCGTCTTTTGCCGGGCGCTTGTTGTTGCTCACAGTCCGCTTTTCACATATCATGTTGGCATTAACTTCCCTTTACGCACACATCGATTGGGTCAAGTTATAAAAATGATTGACAATTTAATTTGCAAGCCAAAAACTCTTGTGGGGATTTATAAAATACTCGGCTTTGTATGGGCCGTGTTCTACACACAAAAATATGCAAATCCGTTTGGCCATAATCATCATCATCGCCAGCTTTCAGTAACAATGGGCCAGATTCGATGTTATGAATGTTAGACAACCCACACGAGGAATTCTTTTTCGTCCGAAAGCTGGTCAAGTCTTCGTGGATTTTGTGGAAGTGTGCACTTGACAAAATAGTTATAGG
0.3956588675161744 ACCCTCGAGTTATTTTCGCGCGCCTAGCTGATGGTCCACTGATGCCGCACTTCAAAACCAATGTCAGCTATCAAAGCCACACTCGCCACAATTTGTGGAACTTGGAGAAGCAAACATATGTAGGCACTTTATGTTCTGAAAGAAACATCTTCATCCATAGGCTAGAAACGATAGATAACGAGAGTTTAGAAGTTTAGTAATCAGAATTGTAATAAAAGCAAAGTGGCACCTCTTTCCCCACAGTGTGTCCCCCATCCGAATCCCTGATCCAATTTCAATCGCAGTTGCTTATTTGAGTGTCCTTCTATTTGCTTTCGGCCTGAGTCAGTTTGTTTGTTTATTTTCACAGCATAAGGCGACAATCATGCGGAATTCCATGGCCCAGGGCGGATTGGGATCGGAAAGGAGGAGTCCTCCTCACCTCCTGCCATCGACGGGCCGTTGAAGAGACATTTCAGCGTTTAACTAAATCAAATCGATATCGAATTTAGTTGTCAGCGCGGCACAGAAGTTTTCGTTGCGTTTTCAGTATGTCAAAGTGGAGCGGAGGTGGGGTTGTGGGTTTCAATTTCGCCCGAACTCGTTTGGGGACCTCAAAGTTGGCAATGAAATGTGAAACAGAAACAGTAAAAGCACGGAAAGTGAACCGAATCCGAAGCCGAAGCCGGAGGCAAAAGGCCAAAGGAGAAGTTCTCCGCGTGCCCGGGCTTCTTATCCACATCCTTGGCAGGATTGCGTGTCCTGCCAGGGATTTCTGTCTGTCTGTCTGTGCGTGTGACCGCATGACAAAAAGCCACAGGTTATGAGTTTTTCATTACATTGCCTTGGGATGCCCCTGCCATCGAGTCCGCACCATATCTTCTTACTTTTATGCGACTTTTGTTTAGTCCCTGGTCCCTTGGCAGGCCACCAACTCGTAATTGCTCGAATTAGTCTGCAGTTTATTGGCACTGACTGACTGCGCTGATGAACTGTTTGAGTAAATCGCGAAGGAGGGGTATTGCATTTGGGGGGTGAAAAATGTGTGGAATATATAAATATGATTGTTAAAACCACTCGTGATATATTGGAAACGTGATTAGCCACTAATGGAAATTACACAGCTAATTAATGTATTCTAGCTTTCAGTGAATAAATGCATGTTTCATGGCTCTGAAGCACTAAGCACCGGTTGGCTTTTAATTTGTTCAAAAGCCATGCTATTGCGAATGAATCATTAAATCAATGCTTGAAACAGCACTAATTAAATTGATTTATATTAAATAGCCAACAGAGTAAGACCTAAATCTGTTTGTTGGCTTTAATAACCTGTCGTTACACAAAAACATCCATTTCCCGCTGTCAAAACTTGAAGAAGAAGAAGCTCCAGCCATGCCTGCTGCAATGGTAATCTTCTGATTTCGGTACAACTGGAATCGATGGCTCAAAATCCTGGGACACAACTCATTTTC
1 AGGCATTAGGAAGATGGGGACTGATTTCTTTATCTGTACGCCCGTCAGCAAGGGGCACTCGAAAAAGTATGCAACTCAAATGCGCAGTGACATGGGGTGGGTTTTTCAGGGGGCGGATGAAGCTGGGAGCTGCCGCAGCAGCGATGCGGTTTGCTGCATATCGTTGTGGTTGAGTGCATCAAACATCAATCAATTCAATGGTACTTGGAACCAGGCACACAGATGCTCGCACATGCAGATGCGTTGCCGAAGATACAGATACCGAGATAGGGACACACAGAGCAACATGCCAGGCAACTTGCAGCCATTCAAATTTAAGAGGGGCCAAATGAACACACACGAGAAGAGCACGTAATGAAAAGGGGAAGACACTGGCAACCACAATATTTAGTGCCCCATAGAGCGGATGGCAGGTGGGGTGGCACAAACCACACAAATACCTGAACGAAGAGCTCTGGTTTCGTGTCCAGCTGGCAGAAGGTAAATTGTATTCCTCAGCCATCAGGGCATTGGAGCAAGAGGATCTGAACATCCGAACAGACAAAACCAGGCCGACGCACATCAACAACTTTTGTTCTGGCCTTCCATCATAGCAAATCTATAATGACAGCTTCGATGGCTTTGGCTTTAACCCCCTGGAAAAACAGCAGTTGGGCGGAAAACTCGTATGGAGGCATGTGAAGCAGCCAGTTGACCGCTTGAGTCAACTCCGAGCCGAAGGCAGCCAGATAAATGTTGTAAATATGCGGGAGGAGTGGAACCCAGGTCGAACCCATTCAAGTGGGCCACACATCTTTTATAATAAAACGTTTCGTGATTGCCATGTGTGTTTTCCAACTTCGATTCTCGTTGCAACAGGCGGAATTTGATAAACAGCAGTGATAGGTAGACAGACATCAGGAAAAAAAGAAAGAAGTAGAAATGTATAGGAAAAAATGATGACAGAATGCAAATTAATGCTGAAATCTCAATTTCTACTCCTAAATTTATTAATGTAAAGGCGGAACAGTGGAGGCCTGATTCGCCAAATGTAGAAAATGGTGCCCATCGATTTCTTTTAAGAAGGAAATCTGGCGGCTAATCAACGAGGCGTTGCACCTTCAGGCTGGAGCCACTCGAGCAGACTGTTGGTATCGCTGCGGAGGAGGACTCCTATAAATTCCGGAGCCAACCCCCTCGCAACAATAAATTTTCGCCTTTGTCTCATAAGCCGAAATGCCGCAAATCTCAGCCGAGCCAAGAGCCCAGAGACCAAGACCGCAGACAACTGTGGCCTTGCCGCTCGCTGGGTTCTGGGGCCCAACAACAGTTTGTAAATAAAATTGTGGCGCAAATTAAGCGTATAAATAAGCCACGAACATCGCCCGACGCACGTGGTCATAGAAGTGGGCCAAGGCCCCCCCTTGGGTACATCCGGTGGCCCAGTGGTTGCCACGATTCCAGGATATCCTGCGACAAGGCCCGGCTCATCATCGGCATCATTTCTGTTGTCTGGCCTCCTCCATTGCCATGGCATTTTAATAGTCGCCCCGCCTCTGCGGAGTCCTGGAACTTTGTGCTTTGCCAATTGATGTGGCCGCCGCCCTGCGACTCAAATGGGCCTAGAAATGGACCCTCGAGTGCACTGAAAAATATACAATTCGGTTTGTTTAAGAAATACCTATTTCAAGCTGGATCACAGTGCCTGGAGTGGAAAGTTTCTCTGCCTGTGTAACTGGGAAGGGAGTTTCAGGTTCCGGCAAGGTCACAGCGCTTGTCGTTATTAATTTATTATGAAAATCTAAACGACTTAAGTGGAATAATATGGGATAAATTATTAAAATTTATGTGCTTTCGAAGCAGCCATTCAAGGATGTCGTCTAGTTTTGGCCGCCATCCGGTGGAGCAACTGGAGTGTAGACAGCGGGGGCCATTTGAAAGGCAGCCAAAAGTTTTTGGGCATACTTCACTTTAATTTCTTTTGGCTAACGCCTCCTCGCAGGGCAACGATGGCCCAGGAAGCGGAAGTTGAGTGATTAAGTGGGCCGCTTTTTGCACTTATGCTTTT
0.9465759166011396 GAGTGAACTTTAATTTAAATTTATACTTATTTCCATTTTGTGCACTTCTTTTGGGGGGGGAGCTTGTTCTTTTTGTGTAAGGATTTACGGGTGAGTTGATGTTTAATTTACTCGCGAAATGGGGGATGTTTAGTCGGGATAATGGTCGTAGTATTTAAGGTTTAAGCGGCTTAAAAACTGTCTATACTCTAAATGAACATTTATGATCACAGCCATAAGTATCGTTTGCGTCACGAAAATGTTCAAATATAGAATACAATTTGCATTCTCTGAATTTATTTTCCTATACTAGTATTCTACCTCTGAGCTCCTTCATCTGGATGTACTCCCCTCTTTTATTGGACCATCTCCATTCCAGCCTGGGACATGCAAGCGTTTTGCTTCAGCTCCTCCTCTCCGTAATCTATGATTTATGACTGAGCATTTATGGCCGGTCTCAATTAGGTTGCCATTTTGTAAGCCACAATAACTGCAGACATCGAGACACGCACTCATAACATTGTACAGACTCGAGAACCAAAACCAAGGGTAATAATCTTTGGCAGTAAGCCACAGCGCCAAGATTAAACCGACTATAAAAAGATAAACAAGCCACGATAACTGGAGCAGAAGTCGTGGAGTCTTGGGGGTAGTCGTGGGAAAGGGTGGGGTTTATATGGCTTATAAGAACGACAAATGCTCACGTGAAAATCACATCAATTGTCTGACTGGGAAATTCTAAATATAGTTAGAAAACAAGTCGTTTTAGCTGACTATGGGGAACTAGGGATACCCTATGAAGTAAGAGCAGCAGAATGAAGTCAAGCAGCAGAATGAAAAATATGCTTAAGGATTGTTCTGCAGACAGATTCACAGCCTGGATAGAAAGCACACAGATACCAAGATTATCAAGACCAAAGGTCGTTTCAGAAATCAAATGCGAACTTATTCGCTCAACCCATCTACTTAAGCTGAACTACAGGGCATTTGCTATGAGGTTGGAAAACGGCGTGCAGGAGCTCTTGCCAATTGAATATAAAAAGTAATTTCCGTCTTTTATTATTTGCACGTTACAGCACAAGCTGGGCGATTTTAGTTTTAACGAGCCGTAATCATTGCCAGCCCCCACATGGAAGCCATTTCGATGTATTCAGTCTCCCGTATGTACTTTTTATTTCAGGCAATCACGCAATCGGAACCGTGCGAAAGTTTCCAACATTGCCGCTAAATGGAGGCGGAGCCGTCGGTGCCGGTGGCTCAAATTCGACAGCCGCAGCTGGGCAGAGTGGCCATGGCCTGTGGATCGATCCCACCAGCGGCGTTTGGCGACAGGCAGCGGGTGGCGGCAATCCTGGCGGAGTGGGCTCGTGTACGACAAAGGAGCAACTTCCGGG
0.8950745474758762 CCCAATCCCCCACTTCCGTTCCGTTCCGTTCCGTCCCGTTCCGCTTTGTTCCGCTCACAGCTTCTTATCGGCTACATAATGTTTTATTGTCCCGCTTATTGCTACAAATTTGCGGTTACTTCCGTGCTCTTTGTTGGGTTATTTATTCGGCCATTCAAATGCCTAATGCCGATTATAAAAACAAGGATTCACGATCAGCCGAATGGGCATGTGATAAGGACAGGTGTCTGCCATTTACCTCAAAGGTAACCTCCTTTGGTGGTCAAGATAAACGGAGTAATAATGTGGGCAATTGAGTCGAAATTGCCTTCGAGAGATATTCCAGTTAATGAGATTATAAAAAGAATATTAAAGCAAAATAAATACGAATACGAATGCATGCTAGCCTGAATAAATTAAACAGCAATCATAAAATGTAGTTCCCTTAGCGAATAAATAAATGGATAATGGCGCTGAAAGTTATAAGAAAACACAATGATTTGGTTTCAAAGGAAATTTCGCAAATGGACTGCTACAAATTCCGCTTTGAAGATATCTACCGAGTATCCATTTCCGGCAAGAATTCACCTTGCCACATTGACAGCAAGAAGCAAGCAGTGAGAAGTGAAAGAGACAACTGCCCAAGCGAAAAAGGGATGGAGAACGAGGAAAAGCTCATCAGTTGACACCTCATATCCTTGGAGCATTTTCCAATCGAAAGACTTATCTTGCCTAGCTCCATTAGAAAAATTGCGCGCTCTTCGTTCAATTCCTTTATTACAAAAATCGTTCGCTCTTTTTATTTGTTTTGTTATTTCGTATTTCTGTTTTTGTTGCATTTCGTGAGGACAGTGGAGAAAAGACCAGAAGGACTTGGTCCAGGACCAGGTGAAGCCGTGATTGAAAAACACTGATAGACTCGGTAAATAGATGAAATGCTGGCCCAGATGTACTCCAATATATGGGAAAAAGTAGTGGGAAGTGGCTGCCACATCGCCTATTCAATTGGCTCTCCCCATTGCACTTTGCGAATTTGATCGAGTGAATGGCGTCACAAAGCAGCAAATCGAAATTGAAGTTTTTTAAGCTCTTTTTTTAGCTTTTTTCTGATGTATGTACCTTGTACCCTTTATCGATATCGGGTATAGTAATGTGTTATATTTATATCGTAACACTAGATGTTATACTTAAGAATGATTGTTCTTGGTCTTCTTAAATCAGTTATAGTCAGTCGGAAATAATGTATCTAATAATTTGTATACCACAGAAAGTGTATTTATCCTTTGGATAATTTTAAATCTTTTCCCCACAAGAGCAAAACATTTTTATTTCGTATCCAACGCGAATAAATCAAATCAAGCTCATAATGGACGAAAAGGTCGAGTTCAAATGAGAGAAATGAGAGGAGTAAGAGCTGCAGCCAAACGGTGGCCAACAACTGAATGTGTGGCAATTGGGGTTGCATCCTGGTGGGCCCACGGATGGGGAAAGCCAGGATCAGGACACGTGTGAGAGCAAAGAACAACACGTGGCCACAGCCCAGTTTTCTGGGCCTAATCAACATCAATTGCGCTTTTTGGTCTCCTCTGCGGCTGCTGCGTGATATTTTGTAATTAGAGAAAAATCATTTTTCGAATTTTCAGCGATGAAATTCGCAATGCAGTGGGGTAGCTGGCCGGCCCAAATGCAAACAATACGCGAACATGGTAAAACTCATTAGTGCCAGCGGCAGCTGCAATTTCAAAAGACAAGCATTTTGTGGCTGTTCGATTAAAATGCTAAATTTTTAGGATGTTTCTGTGTTTGCAGCCTGCCGCCACGGTCAAAACCGTATTATTGTTAATTAGTCCCAACGGATTAAAGTTTTGTGGCGCTGTTTTAGGGCAGTGCATAAAATTGCATCCATCATGGCCAAAATGCTGGCAATTCATTGGTAATTTACATGC
1 AATGAAATAATTTAGTGGGCTCTTTGGTCAGCCACGCCCCTTTTGCCGTGGCACACTTAAGTTTGCCGAGGCTGTGCGTGGAAAATATACATTTGTTTTGCCTTCGGCGTTTCCCCTGCATTCATTTGTTTAATTGAACACCTCCGCGAATGGAGGAGTGGCCCAAAAGTGTGGGCTTCACAGTGAGATGTAGATGCAGATAGATTCAGATGGAGATTGAGATGGAGATGGCCCAACACTAATTATACAATTGCCGCGCAGAAACGACGGCTGCTCCTCTTTTTGGCATGCGAATTAATTAAAGCTCTGGCCTTGAAGAATTTTGCATACCAAAGAACCGTAGCTCACTGGTTCACAATGTGTTCTTGGTAGCTTAGAAATTCATACCGCGTTCCGTACCGGTAGGCCTGCTCTGCGATTTGTCAAAACTGAAGTTGCCCCACAGACCATTTCGAGTTTAATGACTTTGACAGCTAATAGCTCGCATTAATTGCTCCGATCTCTGACACTAAATAAACTTTAGCCAGGCTTCAGCTTTGGGCAATGCGGCCAAAAAAATTAAATTACTTTAAGTAAATCTCCGTTTTCGTCACCCAACAAGCTGGAAAGTAAAACCACGAAATACATAAAATGTTTGTGCAATAGTTAGTGAAATGCTTAACACATGAGTTTGCTTAGTTTGGGCAGATGCTTTTGTAAGATTTTTTATGAGTTTCAGATAGAATTAGCCAGAATTCTGCAGTTCGTATCAATGGCTCAGTATGTCATGTTCTTCAGCAATACAATGCACCCCATCTATCTTGAAATCTGTATCCCACAGAGCTGCATAACGAAACCGACCAACTTTTATTTTTGGAACGTTTTTCCCCTTGTGAGCGACATTCCGTCTCTGGCTTCAACTGCCGGCTGTCAGTTGGCAGTTAGCAGGCAAATTGCGGTCTGGGCCAAGACGTTTGCTGGCTGGCTCTTGACGGTAATGATGACGCCTGGCTAAGAAAACAAAAAGCCAGACAAAGT
0.4778448947582883 CTCTATTGAGAATCCTTTGTGACGTATTACACCTATTTAGCATACACATAATTGAAACGTAGGACAAGAAAAATGGTCGCCAGCATTTATGCGGCTTTAAAAATACCACAAAAACAACAGCAATCAGGACCGAGTTAGGGGAAATGAGCATCACCGACGAGAACATAAAAAGCCAAATTAGCAATGTTTCACATCAAAGTGCGCATTAAATCCGAGACGATAATCACACACACGCCGCACACCCAAACGCACACATCGTTACATAGGAGAAACGACGCGTCGTCCTTTGCCTCTTGGTATGCGTAAGGACATACAAAAAACATAATTAACCGCGACCTGACGACGACAACAGCAACAACAACAGAAACAACGCGAAAGCGACGAGGACGACGTGTTGGCGACCTACAAAAAGCCGTCAGCCCAAGAACCTAGAAAGTGCACTGGGAAAAATGTAACTACAGAGTTTCTAAAACTTTACAAATAGTGAGTTTTTGGTAAGTGCTTGTTGCATTGAGGAATTTGCGTGGACTTCTCACTTTCTCTCAGTGTAATCCGCTGCGCACTTGGCGAGCGTTTTCCGCCCTTTTTCCATTTTCCGTTGGCATCATGTTAATGTGACGAGCACAGCTGCTGGTGCTTTGGTAGTCGCTGGGGGCGATGCCGGTGGAGCCCGGGCCGACATTTTTGCAAATTACACACTTTTGAATATAAAGTACTCGCATAACGCACCCGAGACAGCCAGTCTGTGGCCACTTTTAATGGGCCACGCCGGAGTTTCGCCTGGAAACTTATTCGCAACAACGGAATGCGAGCTGGGTGGCGCAGTCTAGACATCGCCTGGAAAATGGCTTTGGGTCAACTGAAAAGCTCGCAAATTGCGAGGCCCACTGCCACTGGCCCTGAATTGCAATTAAGCCTGATATATGGGGCAAAACTGGTTCTGCTTTCGTTTCGCTTGCTTTGTTTCGTGTCATTCTGGGCAACATGGATTTATGAATTCAAAATGCCATTGGCCATCGGGGCGGGCCTCTAGTGCCATTTGTAAATCAAATTCTGACTTTGCGAAACATCAAAATGCTTCGAGAGCCCCCCTCAAAAAACGAAAATTATTGCCAAAGTGGTTGCATGACATTTGACTTGTCGCATAGCTCGTTGCCAAATTTAAGCCTCTTACTGCGGAAAATAGAAGAAAAGGCTGGAAAACATAGGTAGCTGTTTTTACCAGAGGTTCTTACCTATATCTTTCATTAAAATGGAAAATGTAACCAAATGGCAAGCTACTGATAATGTGGTAATTAAAAAACAAGTTTAATTAAAATTGTAATTCAATGTCTTTTATATGGACATATAACCATTTTATCTAGCATATTTCGAATGGATGCAAGCCTCAGACAAATTTCTTGTAAAATGAATAAAAACCAATCTTGAGGATTCAGTTAAGCCTCGAGAAATCCCTTCACATTTCACTTACAATTTCCTTGCTGGATGTTCCACATTTCCACTTACCCATAATTGTCCATGAATGGCAAATCACTCTCGAATGCAATCAAATTAAGGAGCCAAGTGCAGCTTAATCCCTTCACAAACACATTGAAATG
0.6931095056418286 AGGGGTTAATCAACGTAGCTTTAACTACTAATCCAAGAGATCTATAAATTCCTATTTCTTTGCTATGCCTACGAATTACAGGGTATTTGGGGCCAATCTGAGCACAGCGAAACGACACGTCTGCTACAACAAGAGAGGCTGCCCAAGTCGATTCAGACACAAAGGCCGGAGCCCAACAATTTGGGTCAATTGACTCACAAGAAGCGAGAAAAAAGCGGCAGTCGCCAAACAAAAAGACGAAATAAAACTTGTTCTCAACGCTCAGACAATAATAACTGCAAAAAAAAAAAAATGTTTTCTAGAGGAGCGATGGTCAGAGAT
0.4638305898938401 CAGAACCAAATAATATCCTCATCTATAAGCGACTAAAACGACTAACTGCAGGAATTGTGTATTGTTACACCTAAGAAATATTGAAAGCCATGTAATAAAGCATAATTCAACGTTTACTGAACAAAAGTAAAGTTCGGAAAACCGGGTGTGTGAGTCAATTACGGATCGTTTAAAATTGCCTTGGCAATCGGTGTTTATTACAGCCTACGAAGAAATGACCGCGCAGCAGGTGACGTAATCGGCCAACATGTGGGACACAATCAGTTGGGCAGCCACCTCCCCAAAAGTCCAGCTAAGGGTGAACTTTCCTTAAAGCTAAAAGTTAAATTAACGACATATTTTTTGGGGCACTGGGCACGGGTATACAGTAAACTTGAACCCTTACATGGTTTCAAACATGAGCTTACCACCAAGGTCCACCCCAGAGTTTCACCCACCTGGAAACCCACTTCTACACCTCTCCTCCTCCCCTCCCCCCTCGCTGGCAACACAATGTGAGCAGGCAATGGTTGTTCAGTTCGGCGCTGACCCACGGCTAAGGGATGGCCATTGATACTTTTGGCAGCCGGCGGGCTTCAATTAACGTGTGTCAATATTGAGCTAGGCCAACAAGCGGGCACTTCCGTGGAAGGGGGAAGGTGGGGCTGGAAGGTCCTGTCCCACTCGATAACCCAATAAAACTGAATGGCACGTTCGATGATGGACTCACCCCGAAAGCCAGCACTCGCCCTCCTTCTTACTCCCGTCGCTCGGTCTCTTTCTGGCGCTAATGCTTTATGCATAATTTACGGCAGCGTCCAATCATAAAGCGGGTGAAAAGTTGAGCACGAATGTTCCCAATAATGCCAGACACGCCCCTGCCCTGGGCCACCCAACTTTCGCAGGACCCATCATCGCCTGAATGCCAGAATGTGTAACTCGGACCATGGAAAAATAAATACAAAAATGAAGTGAGCAGTGGAAAAAGTGTGTATTGATTCGGCGTCAATTTGGAGTTAGCATGATGGCCTTACTTTACAAACCTATTAATTTATCCAATGGATATGGATATTGGATAGCTTTATTGAACAATTGAGTCAAAATATAAGTGAGCTT
0.3867727258138273 AGAAATAGAATAATTTCCTCGGGGATTGCCACATTTGGGGACTTTTGTGCGTTGCCCAATCAATCATCGAAATGCTAATGCCGTAGATGACTTCATCATCTGCCGGCAATTCATTCCCTTCACATCCATTCTTATCATTTTAATGCGACTCCTCGACTCGACTCCTCCCTCTAAATATAATATTGTATAATATAATATAATACCAAATGCGCTGATAAATATCAAATCAAACCCCCAGCGAAACCCTCGCACAAGCATAATTTCGGAAACCTTTGCTGCAAAGCGTATTTCCCATTTCAGCATTTTCCGGCAAATAGTTTTCTCTTTTTCATGTGTGTGCCGGCTAACATATGTTTTCATTCCTTATTTTCCTGGGGCTCGCTTTTTTATTTTTGTCTGCAATTTATTTTATTGCCGCAATGCAAAATGGTTGTGTGTGCTGTGTGAGTGTGTGAGTGTGTCTTGTTGGCTTGTATCCGTATGTTTACCATTTGTATTTGGCCTGTTTAGCTGCTGTTGTTGCCTCGCCCGCTGGCTGTGGGCCGCCGCCCCCCTAACAACCCACCCACGTTTTCCACCCAGCTTTTCCAGCCCACACGAAATGCTGACACAAATGATGTGCTGCCTGCTTATGGCCGGGTACAATTAATGCGGCATCTGCTGCTGCGTCTGATGCTGCTGCTGTTTGTGCCTCAGTTGCTGCTGCGGCACTCACACCTGAATCTGCGGAGGGATTGTGGCATGCCGCATGGCAGCAAATGCAAATTATTGTTGTGCTTTCTCCAAGCGAAATAGTTATGTTTTCGATGCGAAGTTGAGAGATCTAATTAATTTTTGACTCGTATGTAAGCCTTTGTTAGCAAATAAATATTTCTGCACTTGTTATGAATAAGTAATTCAAAAAGTTAGCACATGCTATTATTTTTGCCTTGAAACTAGATTTATCTACATACGCATGAAAAGTGCGTTCAATTAGGTTAACATTTCGCATGGATTTTAAGCCTCGGCTTACCAGCGAGCACAAAGTTTTGAAAGAATTCTTTTTGGCCAGATTACCGACTTGTATAACTGCATGCAAGTTTAAATTTAATCTCCGTGCTAGATATCTATCTGCACGTTGCAACAACGGAATGGCTTTTCATTCGATTTTCTGTGCTGATGCACTGCAGCTGATGTGTGAATTTTTATACTTGCACCACTAATTCCGCCTGACGCCAAAAACTTTTGCGGTTGAATGACTTTTGTGGCATGTTCTCTGCCAACACACACGTGTGTGCCTAACTACACTCGCAAAAAACCTGTCATACTTTTGATTTTCACTACCAAAGGAAGTTTAGCCATTTGGTTGAAAGAGTATAGAGAACTTAGGCTGCTTTTCTACCAGTGCAGTGAGCTCGTTGTTGGTTCTGCGCCATATTTATGTTACGGTTACAAGGCTGCTTAAGTCCACATTAAGTTCGCACATCAGTTCCGTTTTCTTCACCGGCAGGAAAATATAAAGAGGCAGTCGCGGGTGGCGAAAATCCAGAAAAGTCGAGCAAGTGAGAGTCAAATCGATGGCGGAAATGTGGCATTTCGGGCCTGAAAGGTTTTTCTTCCTTTGGTTAAAAGCTTTCGATACTCGTATATTCGTGCACCGCAAGTCAAACAAATCGTTTACTAATTGGCAGTCATGTATGTCTGACCTTCAAGCGCCACAGTTGGCTGTGGCTCGATTTAAACAACCGAATGCCAATGGCAAAAGTTAGATTCTCAGAGGCCAGCACTCATACGCACCGTTGCCAGGAGGCAGTGCCTTTGATATCGCTGACTGCTGATGGGAAATGCTTTTGCAGCACGACGAACAGATCATGAAATTTAATTGGCTGGACTATGTGTGCCCATACATGCTGAGGGTAAGGAGCTTTAACTTTTCCCGGACCCTGGCTGAATGAATTTTCCTGTCAAAGCAATGACTTCGTCCTGGGGGAAAATCAGGCTCATCAAAAGGAGCATGCAATAAAACCTATTTTAAAATAATAACCCTGCAAAAACACCAGCGAGGG
0.869420049748455 AGTGCCCCCTTTTAGCCACATCCATCAGATACACAATATATGTATATACATACATATGTACATGTATCCAAACACGTGCCCAAAGCGTGAGCTTTCCATTTGCAAATTTGTCAGCATCGGCTGCTAAACATTTTTGTCCTTGCTGAATGTCAGCTTAAATCACTTTCAATTTCAAGCCCACCAAAATGTATCTATTAATTTTCCATTGACTCGAGCAATTTTGGCGACTAGAAGTTCGAGCTATATACACTTTTGGGTGATAAATATTTTCAATTCAACTAAATTGTGGATACCGTCACGGCGTCGGCACACATTTTTTCAAGGTCAATCAAAGGTTATTAACAACAACCAACTGACAAAAATATCAAGGAAAATTTCCCCCATTTTTCCTCTCTCATTTTTATTTTGGCTACCATTTCGGTTTTTGTTCGTTCTCAAATATATATATATGTACGTATGTATATATAAGTTCTTTCAGGTTGTGGAACTTTTATAGGCCCGATTTTGTTTAGTTGTCCCCCCACATGCAATTAGCTCACGCAACCATCTAAATAGAAATATATGAACTGACGACGATTGTATCTTATGGATACTTAAACAGCTGTTGTTGTGCGTGGATTGGTACTTAGAGTTAATTGAAGACAACTTGGCGTCCATCGGTCTCTAAACCAATTTATGCAAATTGAAGAAAG
0.5669012400177674 TAAAAAACTTAACGTGGCAAACGAACGTATTTGTTAAGTTCTTCTCTTGAAAAGCAAGTGAATAATTAAGTGCGAGTGGAAAAACAGTTGCCAGTACCTGCCAGTAAGTAAATTTAACGGCAGCAACTGACAGTAGAAATTGCTCAAAATTTCATTGTCCTGCGCTTTCCCCTTTTTTCTTGGTCCTTCGCGTCCCTTTTCCGGAATTCTTTTGCTTGGTCCGCAGCTGGTGACGCAGGATATAAATTACATTTGGAACAATAAGAAACAACAATTTTAGCAACAGCAGCGACTACAACAAGTGTTTCAGTGAATTAATAACAAAACGGCGACAATAACGACAAAGTTGAAAATCCTGAAGGGCTGTCCAAATGAAATAATCCGAGTTGACAACTTTGCAGGCGAGGCTTCCTTTGGCCCGCAAAGAGAAACTCAAAATTTCCCGCAATGCGTGAATTAATTCAGAAGACACGGGACTCACACACGCGATACGCAGAGTTTTCCGGGGCGAAATGCACGTGCGTGCGGGAAAATCTTTTAGGGGGGTATTCGGAAAATACATTCTCATTTCCGGTCGCACTAATTGTGACAGCTCACGAAATAATGCGATAAGACACCATTCGAAGGACCTCTAATAGTGTGGCCAAACTATTAAAGTTTGCATTTTCTAATTATAAATATTTTGCAGTTACTTTTGAGTATGAGATGGAAAAGCATCGGCCCCCTTTTGTTGCGCCTCTGGCTGAAGGTGTGCTTCTGGTGTGCCGCATGCTGTTGTTACCTCACCTCCATTTTCCGCTCTCCAAGCTCCGCGCTCCCTCTCCCTTGGTTTTCGCCACTTCGGAAGGATTTCGCCCTTCAGCCCCTCGACAGCTTCATAAAGCCAAGTGTTTGCGCTTTGAAGTTTCCGCTTCCGCAGTGAACAACGCACAGTTGTTGTTGCTGGTTGTTGTTACTGAACGTTGTTGCTATTGCGGCACAGCATAAAACATACT
0.5162688155608662 AATTAGTTGGAGATTTTTTCTGGCTGACTCTTCTTTTATTTTTGCTCGGTTGAAAAATTTAATTTGCCGCATTTGCTAACGGGATGAGCGGACGGACTCGTGCGTAATTAATCGTTAAACTAACATTTCCTGGCCAAGCAGGAGAAAAAAAGGCAGCGACTTAAAAAGTTATTCAAATGTTTCCACTATCGCAGCGCATTACATTCGCAATGGAAAACAAAGTTTTAATGAATTTCGGCTCGCATTAGTTGTAATTTAGAGAGCATTTTGAGCGCAAATAGCTAAGCAACAATAACTTTTTAAAACTTTCAATGATTGCAAAGCAACAATTCTATTCCAAGTCCTTGGAAGCCACTTAAAAATCAATCAATCCTTGCTTTCGACCTGTTGACTTTGTGTGCTCATCAAAAAGTGCTGCAATATTCAAATGACCGCCACTTAGAGTCGTCATTGGAATAGGAGCCATAATCACTCAATTGTCCATCGTGAAAATGGGTTGTTTACAATTCAGTTGTGGGCAATTACTTAAAAATGGCCATCAAATTGATGGGCATTGAACGCATATGGAAAATCACCAAGTAATCGCTTTTGGCGAATACAACTTTGCCGAAGGCCAAAGTCAAATCTGGGAATACGCAACTCCCGGGGCGAATCAAGGATAGATGAATCGCTGGCATAAACAGGACATTAAGGAATAAATATATAACCGAATGTAGGACAACGAGTGAGCGAGACGGCTAACCGTATAAATAATTTACCAGAGGGGACAAAAAAGCGAAAGTGGGGGGACACTTTCACATTTTACGACTATCGAATCGACCACAAATTTACTTTTTAGCACTTGGTCCCTGCCCCGGGCGATCCAATGTCCGATGTTAAGGACCCTATCGTCCTCTATATAGGTGCACAGAAAGAAATAATCCCTTCAAATATTTCAGAAAATAATAATAATAGTAATATAATTCATAAGCAAGTTTCACATCCTCCGAGAAATTGGGATATAGTTGTGTCAAATGGGTTTATTCCTTTTACAATTGATTTCATGTTATTTGCGCTAGTTTTTTTCAGTGCTGCTATATTATATTACTTTCGTTGCTCCGCTTTCTGCGGTGTTGTTTTTGTGTTTTGGTCTGGCGAGTGGATTTACGAGCAACAAATTTATGTTCGTTGCCTATTTTTATTTGCCTTGCGTGCTTAATCGCCCGAGCAGAAGGAACAAAAAGGACCTTTTCGCCCAGGGCAGCTCGATGACGATGATGAGGACGAGAATGTCGGGCCTTCGATGAACTATAGTTTCCCTCCGGGGGAAATCCACCCAGCGGGAGTGGGCTCCACTCTCTAATGAGCCTAATGCCCGGCACAATTGACATTTTACTTAAGGACCTACATCGAACTGGTGCTGCGCACAATTAGTGTAATTAGAAAGCAATAATACTTAGCATTAGTCGAGCCTAATTGCGGCCACATTTCTTTCCGCTCTCGTCGGGAATTTCGTTTTAATTATTGCGAATCGGACTAAAAACAATTGCCGACTTAAGTTCATTAATTAGGATCGCTGGAATGGATTTTCTTCGCAGCTTCCGCAGCTAAGAACTTTTCAATAGCATTCAATTGGCCGTGTCAATAAATTATATTCAAGGATTTTCCACCCACTCACACCCGACAAAAATTAGCTTCCTTTCAATGTAAACAATGCTAATTTAATTTGTTGCTCAGTCAAGTGCAGCTAATTGAACTTTAAACAGCATTGAAAGGAAGTTTGGATTTTTGGTTTCGGCTCGTTAATGGAACTATAAATTGAAGGAAGTGGTAATTAATTTGAAAGTATTTAAATAATGGGCTTCGGAACTTCTGAAATGGTTGAAATATAGGTGGTTTAACCTTGTGAATTGCTTAAAAACGTAATTCAACGAGGACAATGAAGTATTTTAAAGTAAATGTCAACATAAATGTTTTTTAAACTTTACAAAAGGAAAATCAGTGCCAAATACATGTTACACATGTTGTAAAAACTAAATGCAATCAGGAAAAACTTTTTCCATCTGGC
1 CGAATCTCTAAAGAACCCTTGCTATGAAGTACTATAGAACTATTCTACGCAATTGCACTTATCTTATCTCTCAGAACAAAGACGAGCCCCCTTTTTTGACTGTTATCTACAAAATGACTATTAAACTTGTGAAAAGTACAGTTGGGGTACAAAACATTCAAATATTAGATAATAATGAGAGCTAAAAAGCTTATAGATGGTTTTCAAAAATTAGCATAGGAATATTAAGAATTTTTAAAAAAGTAATATAAATTAGAACAGACTTGGTGGTATAATCTATATTAGAGATATGTGGGTAGACTTTAGAGAACCCTGAGATAAGGAATCCCTGCGCTTTTTTTTACCAGCCCCTAAATTAAAAGACGGTATCATGCGGCAGAAACGTGATCGGGAATTCTGCCAAGTCAGGCACTTTAGTAACACCCCAGTTCGACCTAGTGGGAATGTCATCGCTGCCGTTCCACAATCAATAGCTCCCCTTATCGCACTGTTTGCTAATCCTTGATCTAGAGTGGGGCATTGAAAAAATACAACAGGG
0.3024921802369193 TATAAATAGGAAAATTCTTCGGTATATAAAATTACTGATATCTTGTAGATCCAAGTCTCATCAAACAAAATAAACTATGATGTCGAACTGATGGTCATTAGGATTTCTTCAATCAGTTCAATGGTACTCCACCCTATAAATTGTGCCTATATATCATCAAATCTGCGCAATAGTTGGCCCAAGGCTCTCCGCGGGTAAATGAACTTTAGGAACTGCCATGACCATCGAGTTGGGCCTACAAAACGATTCGCCTTGGAAATTTCATGCAACTTTCAGCGTGTAAATAATTAAACCATAAAAGTCAATTGAAATTGAGAATGTTCCAATCGATCCAATCGGAACGCTTTGAGGGAGCCACAGCGAGAAAATAGTACTTATTTATGGCATTTATGGGCCGGGCCATAAAAACTTATGGATAGCCAAATTCACGGATAAATTAAAATAATTGAAATACTTTGAAAACTTAATTGCGATAGGCGAGGCGAGCTTGTTGATGCTAACGATCAAACATAAATTTCAGTGGGCCAAGAGCAGGCCCAGATACAGATACATGTGGAGAGGGAAGAGCAGATACTTAGATATAGACGCAAGTGTATATTTTACCGGCCGGCAAGGCGCGCATATGTATGCAATATGTTTTTTCTCTCTTTTTGCCTTTTCTCGCTTTATTTTTTTCAGCTGGCCTCGAAATCACTCGCCTCATTTCCATGAACGCATTTTCATTGCGCGGCCACAAATCATAAATGTTTCGTTCTCCCAGCCACAAAATATTTAGACAGATTTTGTTGCCAAAAGCCGTTTACAGGTGGCTGCGGAGCTGCGCGGATTTGAGTTGCTTCAGCCGGGATATTTCCTTGGAGAAGCCACTATGCAACATCATCATCCCAGCTGGGCGGCGTGGTCAAGGTTAAGCGGCTACTCCAACTATGCATAAATGTATCTGAATCCGATGGATGGTATCTACACGCGGAAAAACACAAGCAAACAAACAATTGCTACTTTGAGCATCAATCAAAAGCACTCGCCTTTTGTTTAGGAAGCCTTGCCATCTGTTCATTTTAAATACACTTATGGTGTATGTAGTAAATTAAATACCTTTTTTCTCCCTGTGTACATCTGTATCTGCTGGCCGGCGCTGCAGGACATCATCATCATCGGCAGGCGTGCGCTTCTTTTAACGATTTCAACAAAAATATTTCGCTTTCTGCGCTGCTCATTAATTCGTTTCGATTAAAAATTGCCTTTTTCTCTTTTTCCCCTGATTTTTTTTGCCGCTCATCTGCAGCTTGTTGTGCATAAAAATCACAGCAAGAGATCGCCCCGGAAAGTCCCGGCTTCCTTGCCCCGCGGCATAAGTATCTCACAATCACAATCAAAGTATCTGAATATGGATTTGATTTTGGATTTGGATTTGGATTTGGTTTGGATGTGGATTTAGATTTGGATTTGGCACATCGTCTAGCGGTGGAGAACAAGTTGCCGTTGATGCGAGTGCCTCTGAAATTTTTATGTGCCGCTTTTTCGGTCGGTTTGGGCGGAGCAGGGGCGGGGGCTTTTGTTTTGGTTTGTTTATGTTTAAAACGTACGCTACGTGCAATTGCTCTGGCAGCCCATTTGTTTATTATAAGGTCTGCGGCAGACTTCCCATGCGTGCCACTTGTTCTCACTTTGGGCTTTTCGATTTGTTTAGTTCGGGGATTCGGCCACTTAATATACAGAAATGTACTCCTAGCTGTTGCTGCAGACGCCTTATTTATTTGGCTTGGCATATTTTTTATGCGCAGGGTTTTCTCCACTGGCGGCTCGCTCTCACGTAATTATTGCAAATATTTCGCACTGATTTGGAATCCCAAGACTTTGTTTCTATTTTCTACTAGCTATTTGCTATTTGCTATTACGCTATTTTTCGACTCGTTTTGTTTATTTGCCAGTCGCCGCGCGTTTGTGTGTGTATTAGCGGGAAATAATAATTGAAAGTGTATTTCCAAGAATAGAATTTCAACAATTTGTAAGTGTTTTAGCCAGTTTTTAGCGAATGCAAAAATCA
0.7532183628505733 AAAATCGAGGCCTCTTCTTCAGCTTTTGCCATCAAGAGGCGGTAAAAAAGGGTAAGCCACTCTTCGCCCACAGGTAGCAGCTGTTACTCATGCCCGCTTTTCCCAGTCCGGCTGCGCAGCGCCCCAGCTTTTCCATTTTCCGACTGCCTAATCTCCTGTGTGATGGGCTGGCAACCTGTTACATGATGCCCCGCCCACCCATCCTTTCCACCCATCCGCTTTTCCTAGCCGAGGCCAACAAATGGCCTCCGTAATAAGGCGCTGTGAAATTATTTAGAAAATTTAGCTAGCCAAGGGCAGCACCTTTTGGGGCTTTGGATGGGATTGCCTGGTCTGGGGGGCACAAAGTAAAATGGAATTTGTTTTCATCTCGTAGAAAAAGTTTTGCGGCTGCAAAGTGGCAAGACCAAGAAAGCTTAAAAGGTTTAGCTGCTTATTATAATCTCTCAAATCATTTTCGGTTTACCCTAGCAGCTTTTATTCACTGTCTCGTGGGAAATTGATAAAAACCACTTTGATATACTTATGAAAACTTTTAAAAAGGAATTTTTAAAAATGTATTCAAAGTTAATTTTGGACAGACTATACAATGCTTTATTCAAAGCAGAAATACGTCATAAATGAATCCCACTGTGCGGTCCACAATTAACTTTAGTTTCACTCCAAGGCGAATTCAGAGCTCCGTGGCACTTGAGCAGTTTCCGGCAGGAGTCCTAAGAAGCCAACTGGAGTTGCAGGGCTTTTTGAATTGTTGCCAAAAACAATTTATGGCAGCACACTGTGTCGTTCAGAATTTTGCGCACAATTGAGAATTGTGCAATTGCATTTTGGCCGGCGGAAGACGTCGAGATAAGGGGGAAATGGTTGTCCCAGCTGCCGCTTAAGTTTTGCATATTTATTCGATAACGAAATAAGCGGCAGTTTAATTGTAAATAAGATGTGCAGCAGCTGGC
1 GTTGAACACTTTGCACTCATCAAATTGATAAATGTGCTAGATTAAAATGCATCAATTTAATAATTAATTTACATAAATAAATAATACAACATTATGGCTTTAGGTAAAAGATAATATAGATTTATATTTTGGAAAATTAGTATTTATGCCATCATCTTTGGAGTATACAAATATTTAATTTCTCCATCATTTATCATAACATACTCGTTTTATCGGATAATTTACATTTCGTTACGGTGTACTCACTCAGGCATTAAATATTAATTGGCAAAGAAAATCATTTGATTAAAATTCCATTCCTGCTATAACATTTTTCATATTTTGTTAAATATTAAAATCCAATTTCTTTATGAACTTTAAATAACTTTGCTAAGCATTTGAATATTGTTTTGTGGTGAATGAAAGCGTAATCTTTTTAACCTACCAAACTCTATCTAAATTAAAATCATCATGGCCCAATGTTCAACAAGTTGTGACAGCAAAGTTTTTGTGCTTTCGCTTTCGCCTCTGCATTCTAAATCAGGTCCTGCAGGACGGCATCCTCCACATCCTGCCGCATTAATGCAGCAGTGTGTAAACACAGGCGGGCAGACAGGCGCCGGGCTCCTTGGCTAAACATTTATTTGTTTATTTACCGCTCGCAGCTCCAGTTCACAACGCCAGGCACGTCAGCAATGTCAACGACAGGAGCTACCAGAAGCCGCGGCTTTGGACCGCAAAGCATTTTCCTGCTGGCGCCGCAGGATATGCCACGAAATGACAACGGAGAAGGAAAACCAAGAAGGACATTTCGGTAAATCCAAGCTAATGCTTTTCAATATCAGCTGGAAACGTGCGGCGCCCTAACACGAACATGAAATATTGGCGGCCCAAAATTAATCGACAAAGAAGTAAAGAACAATTCAAAATTACCTTTAAAGGGTTTAAGGCTTATTTTAAGCTTAAACTCGCCTGTCGCCTGCCTCTTTCAGACAGGCTGTTTCACAGCAAACTTTATAGACGAACTGGCTTTCTTGGCACTGAATACCTGTTCACATATTTTATCCATACTCTCTTGCACCGCAATTCAATTAAAATTTGCTGGAAAACTCATTAGGCGAGTCAAGCGACCATAAAGTTGTCAACTATTCCCGGCAAACCGCAAGCGGGCGCACACTACGTATACGTAATAATATTCTGAAATTGCACTCAATTGGTTCGTTATGAGGCCCGAGGTGTCAGACGGAGCCCATTCTCCAGCCACTCCGTCCCTATTCATCAGGCTCCCACTCCGCCATTTTACTTCCTAACTTCCACTTCCTGCTGCCACTTTCCACCCACCAAAGATGGATATTGTCGCTTGGCAATTTGAAAAACCTGCCGCTAACAAGAAAATCGAACACCTTCTGGCAATTGTGGGAGTGTGTGTGTGAGTGGGTGTGGATGTGGGTGTGAGAGCGTGGATGTGCTTGGGCACGTGTGTGCGTGCGAGGACATCAACCCTTGACAACTTTGCCTTACCAGACAATTTTGTAAAGTTCTCTTTTCTATGCTTCCTTCGCTTCCCACTGCACTCGAAAAAGTATTTAAACACCTCTTGAAACACATTTCAATTTATTAATTAATTGTTATCTGGGTCTGAAAAACATATTTTTGCCCACACTCAGACATGTATTATAGTAATTGATTTTTTTAAATTCATTTCAATGATACATTTTTTTTTAACTGTAGGATCTGAACGTTTTCGTCGTCTCAACTTATCGAAAGAGTTAGACGAACATGAGGCGAACTAGCGTGCTGACACACACACACACACACACACAACCAGGCCATTGATAACTATATTAGTAGACTTTAGTATGTCATGAGTTTCAATTCGCCGCTTATCGACATGCTCACACATTGAGCTGCCTTCCCTTTATACTTATTTTTTATTTTTCCTGATAATTACTAAACGTTTTTATTGCAGCGACAACTTGATAAAAAGGCAGAGGGAACCGCCCAGAATATTAGCCCTGCTTTCAGAATTTATGCTAATGGTTTCCCAACGCCTTTTGGGGCAACCTTT
0.9363714800918893 TACGAAAGGTGAGTGGCAGTGATTTCAATCAGGGGAACGAACGTACTTCTAGTTCACTCAAGCCACACCTACATGTAACATAATTTGTAAGAAAAATTTTGTTTTTAGTAAGGCTAAGCAATTGCTACGCATCTCAAAACTCAGGAAGATTCAACTCCTATCAGATTTAAACACTTATTAATCTTCAGACTGAGCCTAGCAACTTTACGAACATAATGGCTTATCTAATCGAAATTCCAGGTGTATCATTCAACATGATGACGTTGCCTTCGTAAACTTTTAGCTGCCGTGACAGAAAACACATCTACTATGTTTGAATCAACCTTTTCTGCTTTATTTGACTATTCAATGTGTAATAAGTGCTTTGAGTAACCTAATCAAACCAATCACGGCGTCTACAACTTCTTATTAATTTAAAAAGCGGAGAGGCTCGATGATAGACAAATGCCAGGCGAATAGAAATGCGAGTTG
0.6180492039787125 TATAGAGCGTGGCGGCATATTTGCAGATTTAAATATCGAAACAAATCGCACTGGTTCCCCCAAAACATCGCAATTTCTCTAATCAGCTTAGATGAAAACAAGCGGAAAACGCTTTTCCAGGGGGCGGGGCGAAAAGGAAAAGCGGCCTGGGCAATTTCTCCGCCCAAAAGTCGACACGACTTAGTTCGATTGCAATTAACTAAATACACGGAAACCCGAAGCGGTTTTGGCACGGCCTAATGAATATGCATTCCATTCATTAAATCAACATTAATTTATGTAATGTATTGTTTCAGTATCATTGTTTTTTGCCCCCAATTCTTTCTTGCGCACAAATTCTAATGAACAGCCCATACATGCGTGCCACAATAATTGATATTGATGGTTGTAATCTTATTTAATCCCTAATTACAATCGCATTCAATGGAATCGAGCAGGTCGTCGGCTGGGGGCCCAATATGTGTACAAGCATCCACTCTGCGCAGAACAAATATCATACATAAATTATTTTTACACAGACAAGACATATTCAGTGTGCATAAGCCGCCCTCTGAATTGCTAAAAACATGCAAATACTTGTGGGCACACCTCCCTGCCTTCGCCCGAACGAATGGAAATAATTTCCTAATTAGTTTGATTAGTCGAAGTAGTCGCGAAAATGCCTCCATGCCGCCGCCGACTTGCCACATGGCTCAGATCCATTAATTAGCCCCGCCCACTTGGCCCCAAAGCATCGGCTTAATTGGACAAACATCGCGGGGATAGCCGGTTAAAGCCATACCACCGCAAGTCCTGGTTTTATACAAACAATAATTTGCTTGATTAAGAATCAATCATAATTCGATTGCCAAACATTAAAATTTGAACGAAAGTGTTGCACATGGGTGATTCGCAATCGCAGCTAATTAACATCTATGCTCTAATTAAAAGTCAGTTGTCATCTATGCTGGCTTTTTATTTAATTAAGTTATTGATTGCAAAGCGTGAACAGCACTAATCATCACTGTTCGTGATTTAT
0.8837997111435051 GGATGCGAGTTTATGTTTTTTGCTCGGACGGAAGGTCCTGCGGTCACTTTCACGCAGTTGCCAACACCAGTTGGAACCGTAGCCTGGCACTCTGAGCACTCAACAAAAATATATAGTTTAATCCAAACTAAATCCAAACATTAGGGAGCATTGGGGTAAAGAAGCCTAACGTTTTTTTCTTAGTGCAGAAACCCACCTATCGGCTAGTTCCTTCGCATGCTCTGCGGTCATCCCACAACATGGCCAACATGACCACACGAGCACAAGTTATTATTGTCAAGCCGGGCCAGACAAAACATGATTTATTAAATGGCAGAATTCCCTTCAATTTGTTTCCTATCAACTGGAAAAGGACCAATGGAATCGGGCTGCCGAAGGGGAAGAAAATTTTTTTGGCACAAGGAAGCTCTGCTGCTGGCAATTGTTAAACGGAGATATGAGATTTTAATAAGTTATGGCTGGCAACTTTTTGATAAAGTGTGGTGATCGAGAAGTTTGTCAATAATTGAGCTAATGTGATATAATTATGTGTGATTGGTGGCTCACTCTTCGACTTGTATGCTTCTGTTCGAACTTTTTAAAGCGCATGTTGCACCTTTAATATGCCCGCTTTTATTGGTCACCCGATTCACACCTTCAAGTTGATATATTTCCATTTTTCCAAAAGGTAAAAAACTCCCTGCCAAAAAACATCCCCCAATCTGCAGTCTTACAATAATTTATGTGCCGTATTAAAAGGACAGCGACAACAACAACAGCGGCTGTAAAAAATGAACAACAGCAGTAACAACGTTACGTATACGTAATTTTGATGGCACACAACCACCGGACGCTAGGCACTCTGCTCCTCACAAGCGATGGTTGGGTGGTTTGATGACTGTTTGGGTGTTTTCGTTTGCCAGCAGAGTAACAAAAATGTGTGCTCTTTTTTCTTGTACCTATATAAAATCGAAAATTTTCACTTTACATAAGCACAGCGGCAGCAAACAAATACAAATGTTGTGGGTAGCCAGGAAAATGGGCAGAGGGAAAATGGGAAAGCGGGCGGCTGGCACTGAACGGAAGGCAAGAATGGTGTCCACATTCGGTGCTGATGCTATGATATATTGTCTTCAACAAAAGCCAAC
1 TACAAATAATTGCTGAGAACTCCCGGGAGCCACGGACAATGGCAGCGCATCTGGGGAACGGAATCTCCTACCTCAGTCATGAATACCATAATCGTTCTTCGCCGAATTGCCTTCGTTCCGAGTAAAGTGGATGCTAAAACTATGGCAAACTGGGAGATATGGGGGGAAAATTTAACTCCAGTGAGTGTATTAAGCGCTCTGTTTCAATGGAAGCCAAATATGCAGTAATTCCGTTTTTCCCCATTTAAATAAATATTTAACCAGAACGTTTTGTTTCACTCGTCATGGCTCCAAAAAAGGCCCTTTAAACTGCTTATTTGTGTGGCTGTGTTTATATATGAGCGGATTATCGGCTTATGGAAGACTGTTACATTAATGCTCATACTGACGATTATTTTTGAAAAGAAGTGTAGTTTATCATGCATGGCTCCATTTTCTAACCATACCTGAATGAGATTTAATAAATATTTTTCATTTATTGCTCACTGAAATGTGTTGAATATATAAAACACGAGGTGAACAAAACGAGAAACTGTTTTATTTTAATAAAAGCCGTGTTGAAAAGGTCATTAAATATCTTCATTTAAAATTAGTTAATCATTTAATATTACTAAAAATAATCCCTAAAATCCATCTAAAGTCTATTTACTTATCCCTTCTAATTGGGTAACAAGTTCTCCAAGCAGAATATCCTGTCGCACCGCAATATCCTTCATAATCCTCCGGGAAGACCCTTGTATAAAATATGAAAAAGCCAAGAACGGAGGCGAACGAAGGAGAAAGAAAATACAACTGTTGACGGCTTAGATAAAATTTCAAATAATGTCAATGACATAAAAGCAAAGCGCGAACTTCATAACTGCTAAGGCTTCGCTAGCCTGCAGGTTATTAACTTGGCTCAAAACGATACACTAGACGTTGGCCAACTCAGTGGGTGAATGGCCATGGCTTTGGAGCAAACTCCCACTCCTCCGGATGCCTAGCCGCTGGCACATTGGCCTCTGACCAAGTCCAAAGTGCTGGGAAGCCCAGGCAGAGATTTCATTTTAGTGCCGTGGAAAGTTTAAAACGCTTTTCTC
0.5970176976508389 AATTTTGGAAATTAGTAGGTGGTATCTATAATAGTTCAATTATAGATCAAGGCTAGCCCATTGTGAGTGAGCTGCAAAGCTTGAGTATTTTGATTTTAAACTCTGCCATTCATTTCTCCCAGTGCACATGACACACAGAGCATTTATGTGTGTGTGCTTCGGGGGGCGTGAGGGTGCGGCTGTGCAAAAGACTGACCCTCCTTATCATCTATTGGGGCAAACAAACGACTTATCTATCGGTCGGTTGGAGCGACTGCACCAAGGAAATGGAAGTGCCATCGAATTGAAAACCAAGCCGATCCGATCCGATTCAATCCGAGTTTCTGTTTCCAGCCCAGTTGGCCTTGAGTTCGGATTCGGATTCCGATTCGGATTCTTCTAATCAGTGGAATAGATGTTCGTGAGCCAAGAATGTAGCCCAGAGCATAATTTGATTTGGTGTAACCTTGCCGCCACTTTATTCGTTATATCTCTTGGCTATATAGTCGCCTATGTGTGCGTGTGTGCGTCGTATGGGTGAAAGAATGCGCCCCAAGTGGCTTGAAATCTTCAGCGGGGCGACAGAAGAATTCTATTTTCGGACTATAAAAGCATGAATGAGCGTCACTTAGTGTCTGCCAGTTGTATTCTTCTCTTCTTGCCCAGAATTGTGTTGGATTTCTCGCTGTTATCACATCGAGGGAATAAAAGTTTGTTTTTCCAAAAGCTCTATCTATGTGGGGCAGTTGAATTTTTTGCGCTCTTCCATCGAAGAAGTCTAGACGATAGATGGAGCTATCAGCTGGGGTCAATGCGATACATTGTTGCAGCCTTAAAGCTGCACTATCTACATAAGATTATAGTCTTATGTAAAGTTAAACATCTTGCTTGCAGACTGGGCTAATTTACATACCTAATCTCTTAAGATCTAGGAAGCG
0.9096962386414736 CCCTAAGCGTCTTTAACACTTAAGATACAGATAACGTTTCCGCGGTGCTACAAACTCTTATAAATTTTGGTGATAAGTTAGAACTTATAGGCAGTATTTCAAGTCACGAGTCCACCACTAACTTAAATATGGCGATTGAACGACAGCCTGACGTAGTCGTATTTGATCGCACCCGAACCCTGAGAACTTTCAGTACTGGGATGTGAATTCCATTATCGAGCAAAGTGCGTCCAATTGTACTTGCCATATTTCGTATCTAACAGATGCGCGATAACGAGTCGAGTGCAATTGTACTCGAGCCAATTTTATTGTGTTTGGCACAACTTATCTTGGGGCCTCCCGATAGGCTGACACAAGTAATTAAGCTGGGTGGCGAGTGTACATACGTATA
1 CACCACCACAGCAACATCGGTAGCATCAACAATAATAGTAACAACAGCAACGGCTGCAGTGCAGCAGCCTTTCCACTTGGCAAATACGTTAACCACAGCAGCAACAACAGGCAGCACAACATCAACAATAGCACTAGCAACACGAGCAAACAGAAGCCAGCCTCCACGAGCAACAAGCAACAATCAATGGCGCCACCTAAGAGATTAGCGAGCAGCACTGCTGCAACAACGGGGGACTTGGCCGCAACTGCTGCCACCAACAGCAGTAGCAGCAGTCACTCGGCGTCCAGCGGAGATGCTGGAGCCACCGGCACAGCCGCATCCTCCTCGTCATCGTCGTCGTCGACAAACAACAACATCCTGAAGACATCCACGAAATTTATTTACAACAAGCCCCAGAACCAATACGAGTTGTTGCAGCAGCAGCTGCAGCTGCAGCAGGAGTTCGCCCAGTTTTTGACCAATGTGGCCAACAGCGCCGCAACGCCATCCAGCAACGGCTCGGCCAACTCGACAAACCAGCGTAATGGAGGAGGAACCATCGGCATGGGTCTGGGAATGTCGGCCAACTCAGCCGGCGGAGGTTCGGGCAACAAAAACAGTAACGGCAACAATGGCTATATGCCAACCTGGTCGAATTGGTTCTTTTAAAGTTCACTTTGGTTTGTCATCAGTCCATTTCACGGATCCTTTGTAATTTTAGGCAACGATTACTCAGTTTTTGGTTTATTGATATAAGTTTGAATTGCGCGAAATAACAGAATTGTTCACGTTTTGAGTTATGAATTTGTTTTTTCAGTGAAATAATGTAACCATAATTTCTTACGTTGACTAAGTTCTGAAATGGTTTTTTTTTTTTTGCTTATGCTCCCATTATTCTTTTAAGATTACATTCAATTTAATGTAGAACTTACATCTTTCGTTAATGCACTTTTAAACTGTCTAGTCGACTCTCCCGAAGAAAAAAGCTTCCATGAGGAAAAGGGAATACAGAAAAGATAATGCTATAGTTAAGTTTTTGTTTGAGGTGTAGGAAACGCATACTCTACGGATATTTTTAAACAAAGAGTAAAAATACAATTTGCAGGCATAGAAGCCCCAAACCACCAAAGAATGAAAACAAACTTGACAAATATTTAAGCTATAAATAAATGTATAAAAGCGATACGAAAACAGAACTGAATGAGTAAACAGATAGAGGCGTTTGGCTTATAGTCAAACCACTTGCAAATAGACAATGCAGAATGAGAAGGCAGCTAGATGCGAAAGAAAACCAAACAAAGGAAAACAGAAAAGCAAAATAAATAAGACATACGCGTGTTTATGTTTCATAAATCTAATGTAAAACTTTTGCTAAAAATAAATGGTGTATGCATAATACAACAAGTAAACCTTTTATTCTCCATTACCATTTGTTCGATTGCCCAGTTAAACTTCGCCTAGCCACTTTCATACATATGTTAACCATTACCTATCCTTCGGCACTACACTTAAATATAGACTCTCTAAGATCTTAACAGGGACATTAGCATGAGGGACAGAAAGCCGAGAGGAAGGGCCCACGAGAATTTCTTCAAATACAACGAATAAATATTTAAGAAAATTTGAAACCAGCAAGTGGAAATGCAACACCTGTCGAGTCAGAGAGAGAGAGAGAATTCAAATACAAAGTAACCAGCGATTGTAAAGCTTAAACAAAAGCCAGCTAAGTACGCTAAGCACGCCACTCCAATCGAAGTTAGTTAATATAACTAAAGACAAAGATCAGAACAAAGTCCCTCCCTAGACAAGCAAGTGAGAAAATGAAATGAAAACTTACATACATAGATGACAAAACGCGTTTCAGCCTAACGAATTTGTTTAAGCCCAACTCAACAGCAATAAAAAAACACAACGTAACGAACAAATTAAACAAATTGCCAAACTAAATATAGCAAATTTTAATAAACAGTAATGGAC
0.787256887289262 ATTTTCATAATTTTGCACTCCGACACCTTCACCTCCTTCTCCTGTTTGAGAATCGGAAGCCCCCGGGCATATTATTCTCGACTCGTTGGAAATCCACATTTACATGGAGCTGGGCGAGAGCTGTGAGCTGGAACCCCTTATTAAAATGGCACTAATTATGGCAATTTGTTATTGGCCAAAACGAGCTGAGGCCAACGCCCATGCCCACTTCTAAGTCATCAACAACGATGGTCGTTAGCTTTTGGCCAGATCAAAGTTTATTAGCGAAAGGAAGGGAATTGTGTGGGGCGGAGGAAGGCACGCCCTCACGCATAAAGTGGTAAAATATTTAAATTATAAAAGGCAAAAACAAACGAGTAAATACGTTGGACACACACATCTATCGCCGAAGGCCAAACACGCTCTTGTACACGCATATTGAAATGTGTACATTTTTATTTATTATTTTTGTTTTTTTTTTTCGTTTTTATTATTTACCCCTTTCCACGTTGGACTCAACTTCAGGCACCAGGTGATGATTCGCTATTTGCTGGAATGGGGACTCGTTTCGGTACACCAGGGGTTAAGGAGGGAAGTTGGAAAAGGTTAAGACGCAGTATGTGTACATGTGCTACAAATTGAAGGCTTTTTATAGTTCTACCCTTGCCCTAGGGGTTCCTTTGTGGGCCCAATAAGTTGGGCTATAGATCAGCAATCTATAGATCTTAGCTGCGTGGCTAATGAGTCACTTAAACCTATAATTACAAGGCGTCTGATGCTCTAATTCATTATAATGTATCATAAACTTTTTAGAAAATATGAACTAGTTTCTACCCTATTTAGCACTATAGTACCACCCTTTTTCCATAGTTAGAGTATACGGAGTTCTGCCTGAGACTCGCAACTTTAATTTCACTCCTTCATCATTACTTGCTGCCCGCGAAGCTTTTCATTTGATGTCTCCCCTCGTTTTCCCATGGCCCCGGCCAAAAAAGGGAGAATTGCTGGCCGCGAATGGGTCTGGGGGGCAGTTGAGGGTTAAGTATTGGCATTTCCGACTGGGAGACCGAGACTCGTCTTCATTGAAATCGAGCTCGGAGCTCAAAGCTTAGAGCCTCACAATCGGACTGGGGACCCGACTGGATCCCAGTTTCAACTTGCACACGGCATGGCAATCAAAGCCAGTAAATCTACACCAAAAGCAACAATAGCCGGGCTAACAACAACAACCAGAGCAATATTTGTGCTCATTAAGCGTAACTGACACACGAAGTTTTTTGTTTTTTTTTTGGAGGGTTTCTTCATTTCGCAAGTCGCCAAAAACTACGCCAACGGGACTGAGTTTTTTCAACTGAGGCTGTGACTCAAGATCTGGCCCCCAGTCCCCGTTCTTCCCTTCGGTTTTTTGTTTTTTTTTTTTAGAGAGAGAGAGAAGAGTTGCTGCATTGTATTGTTTACCCTTTACGAAGGGTATAAGTATTCTTTTGATGGTTCCTTCAAGTCCGTTCTTACTTACATCGTTGACTAGGCAAATAAATTTATTAGGAAACTAGGATTGTCAAAACGGATGGTATAGAAAGAACATAGACTGCACACTCTTAGATAGTCTTGGTATTCTGTGAAATAGGGTATCCGAATTGCTGCCTTCTTGACACTTCCACTTTTCCCTTTTTCGCTTTGCATTTTCGTTTTTCCTTTTTGGCCAATTTCAGGCCCCCCAAACGGGCTGAGAGCGATTGCTATTATTTTGAGGTAATTCGATGATTTACAACCGTTGCCTTGTTTTGTAAGTTTTCTTTCCAGAATGCCACAGATCCCACTGGCTGTCCAGCGGAGCTTTATGTGTGTGCCTCAGACCCCGGGTGTCTGCGTCTCTGGGTGCAACAATGAAGGGACCAGCCTCGACCAGGCCCTCGCCACATTCCTTTGTTATTTTCGCAATGTTTCCCCAGTCTCTTATTGTTTTTTTTTTTGTGGATTCTTT
0.4682058098577522 AGTGTATAAATTTGTAAGCCAAAGATAAATAAGTTTTCCTGCTGCGACGACCTTCACGATGACGCAACATTTCTCTTGCTTGGATCGATAAAATCTTTGGTAATTTATAAGAAGGTAAAGGCGAAGGAAATTTACAAAAGCGTGCCCAACTGAATTTCAAAATCCCTTTACTGCAACACCTTTTTCATACCATTGATATGTGTACCTTACATGGCGCCTGAGTGAAACGCGTAAAAACATTTATTATTAATTTTGAAAAAAAAAACTGAAATCCACTTTCAACAATGGCACGAGGTGAACGAGGGCAACAGCTTGCTGCTTAAAAATCATTGTAAAAATCATCGTGCGATGAAAGTTTAATCGATATGCAAGCGCGTATAAATTTCACAGAATATGGCCAGCAACAGTTGGCTTTAATGGAACCGATACGGAAAGCGGAAAGTTGCCTACTTTTTATGGCTCACTTTTAAGTCTGGTGCGGATGAATATATGTGTGTGCATATATCAAACAGGGGGATATGCTCCACGCATTCGCATCGTAACCTCTTTTTGGTAGATATCCCACCTGCTGGCAAGCGGCAAATGTAAATAAGCATAAAATCCAATTTTCTGTTAGCTCCCTGCGTGTTTGCACGGCGTCTTCTCCTTTTTTGGAGCAGCTCCTCGGTCTTCTTCTCTGCTGCTCATGTCCTGTCTGGATAGGATACATGGATACAAGAACAGGGGGGGCTGTCAAACCCACTTGAAGATTTGCAATCAACGCCCGGGGCAAAAAGCAGGCAGGTGAGCATCAATTGAAACCATTCCCCTTTTGATCTGACAGCCGAAAGCTCACTGAAATTCACCCAATTTGGGTCATTCTGGTGCCTCTGGAAGAACTGGCATATTACGTAATAATTTATGATTACCCCATGTGACAGGAAGGCGGCTGAAAAAGGTTTACTGCCAACTGACAACCGACTTCTGTGGCTAATCTAAATAACATAATCAGATTTGTCAGGCGAAACAAAAAAGTGGCAAGAAACTGACCGGAACTCGCATATGTTCCCACTTGAGTTAAGCACATTTGGCAAGCTCATTTGCATAGTTGACTTGATAAAAAGGGTGCCCAGAACACAGCTTGCTTTAGATTTTTTGTGAGTAAATACAAAATTCCACTAGGGGAATTTTTGAATAATATTCATACATTACTTTTATATATACAAATTTACCAAGTTTGCAGGAAAATTATAATACTCAATCGAATAATTAACAATTATTATTATGATTGCTTACCAATAAAGCAGCTTCTTGATTGCCTTTAATCGAACCACTTTTCTGTGAAACAACATTGCAGCTGAATGCCCCACATTAGCCCATATTATTCGACGGCTTTCTTTGCCATGCAAACTCGTCCAGTTTTAGTTACCGACTCATCTGTAAATGCATTACCAAGGCACCCACATGCATTAGGGTGCGATTGTTTGTGAATTTGTGTGAGAACATCCATCCCCCTTGTAGTTCCCATCTCTCATTTGAATTTTGGCTGCGAAATTGTGTGTGCATCAAGAAAATAATAGATATGAGGGCATTGTTGATTGCTGAAATTTTTGAGTTATGAGCTGGCTTGTTATAGCTTCATGTAAATTGGTTTTGGTACACAATTGGGCCTTTCAGTAATGGTTATTAAATTCTTCCAGTTGTATAATTTGGAAACAAGCGGCGCTCATAACCGCAATCCAAAAGGTCCTTTTCGGTTTATTTACAGGAATCTCTACAAATAGCAGTTCTATTTCATATAAATAATGTCATCCTTTTTTATTTTAGTATGAAACTTTTGAACATTGTATATAAATTTGTTAAAATTTGCAACTTTAACTGGCAGTGACAGCTGTGTCAAGTGTCTTCAATTCGATTAGCATAAAACTGATAATAAACTAAACTTATGTTGTTCCCGAAAAGCCAACAGCTTGAACATCAGCAGAGTGACATGAGTTTTGTCTCTGGAAAATGCTGGCGAACATTTTGGCAACCAAAATACCAAAGATGGCTGAGATACTCGCAAAGC
0.5578665068523899 GCCTTTGGCTTTTTGGCCACCTGTTTGCACCAACACTCTGTTTGTTAGCTCTTTTTTTCGGGTGATTCACGCCCGTTCGTAGGAAAGTCTCTTCGGCCAGGTGTTTGGTTTTACTTCTTATCACCCCACACGCTTGTCGTTCGTTTACGACCCCCAATTATTTACACAAAGTTCGCTGCAATGCTCGATATTAGTTTGTTATTTTGGTTTTTTTCTTCTTTTTTTTTTTTTTTTTTTTTTGGTGTCTCTATATTCGCGCTGAGACGCTCCGTCGCTTGTCGAATTATAATTTGGCATTGCCAGCCAGGCAAACGTCAATGGAAGAGCTACGCCGCACACGAATCGTTATCACCGCCCAGTTGGCCGGAAAAAGCTTGGGCCCAAAACATTTATTTAGCGAGCTTTCGCTTTCGCATCGAAGGGTGATTCTAATCAGCTAATCAGCTGCCTCTCGATGGGGTGAGAGGGCAGCTACACACATGGTGACACATGCTCCTTATCGGACAGCAAGTAGATTGCGCTGCTAGATGGCCAATATGGGGCCATTAATCCAAATCGCCCTTGTCTATCTGTCGGCCCAACTGGCTATCTGTGCAGTTTTCTATCTGTCAATCGCCTGATCGATTGATCGTCGCTTCGAGTGCCTTTAATTTGATTCGAACACTTGGCTCCACCAATTTCACACCTTTTTCGGGGCGTGTATGACTGGCTAATGGGCAAAATAAACAAACGGCTAGTTTTTGAAAGCTCATCGAAATAGTCAGGGTTTCTCGACTAGCCCTTGCTAGTCATATAGATACGCAAAAGTGTTGACATTGGTTCATTCGAACTTGAAAAGATGTGACAAAAAAGCCTCTAAACATTATCATCATTAGTTCATCAAACAAAAACAAATTCTATGTGTACTCCTAGGGTTAAGCATTCAAATTATGACAAAAACTCGCACCCTCAAACTGCATAGAACGTCGATAAAACCACGACGCCAAAAGTAAATGTTTTATCAATTTTAAAAATATAATTTCGGAAGTCACTCCCTACATGGTTCAAACCTACTTTTTATGATGCCCAGCCCAGCACAGTTTTAAAGCCCATAGAAATCGGTCTAATCAAAAAGCAACGAAGTGACGTTGCTATTCAAATTTGTACTATATAAAGCTAAACCAAGCAAATGTGATTGCCTTGAACTATCATGCTCACTGGTAAAAAATGACTTAATGCCATTAGTGCCAAGTAGTGAAGCATTCTTAGAAAATTCGAGTGGTGCGTAATAAATTTGTTATCGCTGAGAAAACTAGAAACTGACCAACTCGACATGACTCATAGCACAGTAACGTAATGCAGAAATATCTGTAGAAATTATATGCACATGATAAACCTTTT
0.7918620007095735 CAAGATGAAGAGACTGGCCGTCAAATCCCTGTAGATTTGTTTCAATTGTGCCATTTGCCGCAAGGAGCGCACCTCATTAACGTACACAAACCGACCATTTGTAGATGTTCCTCTCAAATGCCAGAATAAAGCAATATCTATTTGTTTCCTATGGAGCGCCAAAACAAAAACCTCAGTTGTGCCAACTTAATCTGGATCATACAAAGTACTACACTGTTTAAATGCAGATAAGCAGCCTATCTCTTCGTTGAGCAAGATAAGTTTTGTAACCTTAATCTATAAAATGAATTAGGTTAAATACTTCAACGATATAAAAGGAACGCAAGTATTTGCCAAAATACTTATATATTTATTGAAATATTTAAAATTTTCGTTACAAAATGATTTATATGCTTTGTGAATGGTTTTCGAACGCAAGCTACATTATCTTTCACAGACACCTTATGCTGAATATGCATGTGAATTCGAAATGGTTCCGAATCTCTTCCCATTTAGCACTTGACGGGGAAGCAGTTTTCGTTGGACACATATGCGATGTGATTGCGCAGCGTTTTGATCTGCTTCTGGGCGGCATCGAAGCTGTAGGAGAGTGTGTTCAGTTGACCCTGCATCTCGCGGATGACAGCCTCCCGATCGTTGACCGACAGCGAGGCAGTTGCTCGGCACTGAGCCAACTCCTTCTCAAGCCGATTGATCTGTTCCTGTTGCTGGGACTTGAT
0.7639456500777703 TCCATTCTTAAAAAAAAAACCCATTTAAAATAGGAAATATACATTTGTTTGTTTATGCCAAACGCAATGAAAATTCAAATATATTTATTTCTGCTTATCCGCAACAATGGGAAAATCGTGGAAAATATTTTAAATGGAATTTTTTGCGTATAAAAATTAAATATCTCTGATAGCACACAAAACACTATAAAATTAAGTTATAGCTCATAAAAATTAGTCAGAAATTTGGATCAGCGGTTTTTGGACAACGCGTGTCGCCATTTAAATGATCTGTGATCACACATGCCCCCGTGTATTATTGAAAGGCATTCAGGAAACAGCGCCACATAGCCAAAGAATAAATATTTATGTTTTCTTATGTTTTGCAGCAGACAAAGTGGGGAAATCTGGCCAAGAGCAACGACTTCCAGTGGCCAGCCAAAGTGTGAAAATCGCGGAGCCGACAGATCCGCCCACGCATTTTCGCAGATTTAATTTTATACTCTGTTAATTATATGGGTATATATGTATATAGGTATGTATTTCGGAGTGACTGCAACGAATTTTGCATGATCGAAAAAAAAAC
0.7615751690080059 TGGAACAGTGAAATAAACAAATGGAGTCGGCAAACTGAGATATATGTTGCTATAAATACAGCAGCAATCAAAATAATAGCACTTTTTATCATTTCAACAATTGTGGGAGGTTAATTTATGAAATTTTCAATATTCGTAAGAATCTTATTTATGGTAAAAACTGACATTTCATTTAAAATTGATTATCCTTTATCGCATCAATACCCTTTAAGCCCAAACATTTTAAACATTTAAGTTAAGAACTAATTTGCGTTTCACAAGTGTATAAACGAAGAAAGTGATGGCAATGGGACTCGTATGAATCGAATGGCAGTGGCAGCGCTTTCAAGAATCCTTGCAAACATTTTCAATTAAAAAGCTACTGTGCCATTTGTCAGCTGCTGCCTCCCTGCTGTTCGTTTTCTTCTCTTTTTATTATCTACGTTCCACTTCATCCATTCTTCGCTTGCTGCTATCAATTGCTTATCAATCACAATCAAGCGACTACGCCGTCTCCGCCTCGCATTCATATCTGTCTCAATGCAGCTGTCGTTCAGTGAATGTCAAACTGCGGGTTTAGTCCAAAAAAATAGCTGGCGAATTAGTTTGTTGTTTCTGATTTTTCACTGACGAAATTTTCAGGGTGATAGAGAATTGAAAAATTGTTAAAATTTAAGATTTGTTTCTAAAAGTTTGAGGATACAAATTTAATTATTGCAATCCTCACTAGCTAACTTTTTAAAGTATATCAAAACAAAATTAATTAAAAATTCTCATATCTAAGAATATGCCCAAACATACTCAGAACTTAACACAGCTTTCAAAATTAGCCAGCGAATACGAAACATATTCGAAGGGCTGAAATTACCTTTGGTCCCCAGGCACTCATTCAACAATGACTGTAAAACTGTATTCGATTGGCTGTCTGCCATCAAACTTGGACTTTGGATTTTGGTCTTTATGGATCGCCTGCAGGCGCTTCAGAAGCCATGGAAAAGCCAAAATGCCGCTGCAAATTCAATTGTTCTTGTCGAACGTTTCGCAAATCGCAGGCCAAAGTTTGTTGATGTGGCTGCTGCTGTTGGA
0.8859681159182027 AACGTTTTTGATCAGTTTTATTGCGTTGGTTCGTTCAATTACCCAACTCCCATTTCAACAAGTCAAATATTTGTTAGATTGATTGCTTGATTACTTGTGGCTATTTGGCCAGCAAGGGAATTTTTTGCGCTCAATCAGCTAAAGTTTGGCAATCAGAGAGTTCTCCCCCAGAAAAAACCACAAAACTGCCTGCAAAACTCCAGCTCCTTTTGTTCCCTGTTTACTCTCCCTGAACTGATTAAGGTGCTTCTTTTGGACATTTTTGTGCTGTTTTTTTTTTCTTTTCTTGTTAACCGTTAACGGCGTTCAACTGTGACAAATGCTTTTGTCGGTTCACCCCACACGGGCACACACAAAAATTCAGATATATGACGGTTCCATAGATACTCCGCAGCACGAGAAACACGGCCAAAACTCATAACATATGTTGCTGTGCATGTTGGGGCGGCTTAGAAAAATTATTTATGAACAAGGCGCTCAGACAATGCCCAGGATCTTACGACATAGCCTTGGTATTCGCATTTTATACACGTGGCAAAAAAAACAATACAAATTATGCCATATATCGATATATTCTAAAATGTTTTAGAAATCCATTCGCTATGCAAATTGTTTTAGGATTTTTTAATATTTTAAAGATTTAATACTTTATATAATTTATTCTCATTTGGCCTTTTTTTAACAGTGTATCCCATCGTGGCATTTGTAATTTGTGCTGAGGTTTTTTTCGCCTTGTTGCACGTTTAGTAAATAAATCACGCGTTACGTGGCTTGGCCATTTTTTATATAAATAATTCGAGCCAAGTTTGCTGTTTTAGTTTTCCAAGTTGGTGTGTTGGTGGTTGTGGAGCATTGATATACTGATACAGTGACCTGTGAACCGCTGACCATCGCACCACCGCCCCCCATTTCAGGTTCCTTTAATGATTTATGGCGTGTGGCCTATTAACGTGTGTGTTGCGTGTTCAGCCACGCCCCCTTATTTTTTTTTAGGGAGAACTTGTGTATCATAAATAAACGCAAATCTATAAACTAAACAAAACTAACAAGTGGCAAGAAGGGGCAAGTGAGGCGATGCGATATGAGGCAAATCGGGAAACAAACTAAAACATGACGCGCTGGTTGTTTATGTCTTGGCTAATAAGCACGAACTTGTCAATGTGTCAATTTAATTAGACAAGCAAACTCACACTTACCAATTGACATCGAATATTGAATTATGCGACAGCAACACCATCCGTTGCCAGAGCCTCTATTTGACCATGTCGTATGTTTACTTACATTTTGTGCTACGAGATGTTAACATTACAACAATCGAAACACTCACACACACTCATGAATACAGGCCATTTGACGCACTATTCGTTAGGTAGGTGTAAAAGTATTACGCATACGCCATGTGTGCTTGTCAGGAAGGGAGTGCAAAGTAAAGCAATAAGCAACCAACACAAATCCATAAGTTAAGTTATGATAATTAATTGGTGACTATTGAGCTTCCATTTATTGAGTATTAAGTTTGAGCTACCTAATAATGCTTTTATATCTGGAATCTGCTTAGAAATCGAACATACATATATAAGACTGCCTTCTACAAGGCCTAGCTATGTATTACGTTATTTATATAGAAGTAAATACTTATATATTCTTATTTCTTTAAATGTCATAGAAAACTGCTTTGAAAACGAAAGTATTGGTATTAAATCAATTTGTTTCAATGCAGCAGCAGCTGGATTGACAGCC
0.5687213990341576 TATTAGGAAAATATAAAAAATAAATAAAATAACCCCTGATTGTGATTATTCCATATAAATTTGAAACTTTTATTCTGTTTATCAATAATGCCTTTTGTAGAGCATTTTTCATTCGCCCACGTTGTGGGCTCTTTTCAATGTTTGTTTTTTTTTCTGGATTTTGCGATACTTATTCGTACCCTTTCAGCACTTTTTTTTTTCTTTGCCCATGCTGTTTTTATTTATATATATATATAATTCTTTCTTTAACTGCTTCAATCTTTCTTTGGCTTCTGTTTGCCGCGTTTTGTTTTCGATTCTCCTTTTTGCCTTTTGTTGGCTTCTTTATTGGGGATTGCTTTTCGCTTCTTCGCTTTCAAAATGAGCCCCAGCAGAGAGAAAATCAGAAAAATTCAAAGCCTGGCGGTTGCTTGGTGGCAGAAATGATGGGGCAAGGCTGCTGCTCTAATTTGTATGCGTAACATGTCAAAAATCGTAGTGGTCAATACACTGATTGCTTTTGCATGTATCTGTATGTATTTATCTGGATCTGGATCCGTATCTATATCTGCTTTGGGTATCTCTCCGCCATCGGAGTATCTCGCAACTGAACAAACATATCTGAGTATCTTTTTTTTTGGTCGCTCGCACGTTTCATGTTTCGCTGATAAATTTATGGCTGACTGTTTTTCGCCACCGGTTTTTTTTCCCTTGATTGGAGTTAGCGGGTTAAGTGGGCGTGGGGCTTAAGGGCCTAAAAAGGCTGGTTTCAGGT
0.8873417943027698 CTCCAGGGCAATTTTAAAGCCTAATTTCCATTTTCGTGGGTGGGTGGTGGTCTTTTCTGCAGGTGAACGAGAAGGTGTTTTAGGGGCAGGTCTAATCTAAGTTGAAAAACTTTTGCCTACCTTAAGCGAAAGTCTAAGAAATGGAGAGGAACTACTTTGCGTAATTATGTCAATTGCCATTAGGGAAATGTTTTTGGGGACCAAATACGCATAAGCCTGCTATTTAAACACCCCTCTTTGGCAGTCATCGATATGTTCCCCTCGCATTTTCCTTCCCGCGTTTGCCTGTCTGTGTGTTTTGTCCTTTGATTTCCATCTATACGAGGAATATGTCTTTGTCTGCTTTTCCGACTAGAATGCTCGGGGGGAATTGTTTTCATGGGCTTTCGTAGTTGGAGGACTAAGGGTGCCTGCTAACCAGCATAATCCTTAACACTTCAAGGACGAAGAGGGTACAACGAGAAATCGCTGTTGCGTGCCCAAAGACATTCCAGCCAAAATACGCTTAACTAGTGCCGCAAAATCAATCAAAAGTCAGTTTACGATAGCTAAAGGATTCGAAGGGATGGAATTGGGGGTTAAAGTGGCAGGGATAAGCGAAGTGAAGCCTGATTAACAAACATGCCGCCAAAACGTTTGTCATTAATTTTGCACATAATTGAAAATTGATTACACACGCGTGGAGAATATCAAAAAGACTGGGAAAATATTCACTAAATTAAAAATAAAAGCTACCTTTAAGCATAGCACATTTTTTTTTTTTTGCGGCAAAAGCTTATTAAATATGAATTAATTTCAATTAATTTGTCATTTGTGAAGGTGATGTGCAGCACTCATAATCGCATTTGATTTGATGTTGATATCAAGAGGGGTACTTGTGTTAATTGGTTACCT
0.5332175819830777 CTAAATTACAGAAATGCCACTTTGTTGCCAACAGCAGTACAAGCTCATGGAGCTGCAAAAAAAAAACTTTTCAATTACCACGCAACGGCAATTTCCGGTCGTAGTCCTGACGGCGGTTTCCTCCGCCTCCGCCTTTTCCTGTGCCTCATTTTGCCAACGGCCTTCCTCCCCCTCCCCACCCTTCGATGAACTTAACAGGTGGACGACAGTTTGGATAAACGAGCTCGTAAAAAACGCATTTAATGTGTTTTTGATGACATGTCAAGTTGGAACCCACCCACCAACTAAGAGCGTGGCACCTGCGGCAGCGAAAGCAGCAGCCAAAAGCAAGGGACATCCATTTTTTTACAGTTCAAATTTGTTTTGTTTCGTCCTTGTGCCCGGTACACTCAAACCAATTCCCGCACAATTGGTTGCCCAAGAAAGAAGAGTGAAATCTTCGTTTTCAAGCCGCTTGTCTTGATTTTTATCTACTTCTATAAAGAGAATGATTTTTTTTTGCGAGTGTATAGTAGCATTTCACATATAAGAGCCAGCATATTTGCGGCCGTATTGTGTTGGGGACACTGCAAATAACTTCCTTACCGTTAACAATGCTTGTTTGTTTGAGCCTGTACACACTCACTAACGCACACACACACACACACGCACATGCGTGCATAACATGGCATAGCACTTAGGTGGAGGAAAACACGTATACGTATTACGTATACGACTAGTTTTCCATTCTCAACCGTAGACAGCGGCCAGAAGGCCGAAAGCGAAACAGAAAGAGAAACACTGGCGACGTAGAAGAAATCATCTCGAGAGTTTGGCGAAAATGTGAAAAATTCAAACCTCGAAGGGTCCTCTAAGTGCAGATTGTGCACGTGAGCTGAAATTTTAATGAGCAGCCTACGTAGTCCTGATAGAGGCATATCCTCGGACACGGACACTGGCACTTGGGGTCGGGTTCAAGTCTTTCGCCCAGGATCGACAGCCAGCCAGCTGCCTTTGTATGGTAAATAGTGGGGCGGTGTGCATGTGTTGGTGAATGCGTTCGTTAGACTGCTAAATACGTGGAAGGGTGACTTTTTTACACTCTAAACGCACACTGCAAGAAATTATATACAGACTTCGTTAAATACTGTACTGTCATGTGTATTTTCCGCTACAAGTATCGGTGAAACATAAGTGCTTGTAGTTCTCAGTGCATGGACACTAACCGTGGTGTGTATAAAAACCTGATGGCACTTTGTTAAGCATACGCAACGTGGGCCGCAACGAAGGTAAGTGATTTTTAACTTATGCCAGTCGGTGTAGTGTAAGTGTTGTTTTGCGGTCTCATGAAGG
1 TGCTTATACTGATTGTTCGCACTTTGTATGACATCTTAAATCGGCAAAAGCTAATCCGGTGGTGGTCAGTCATGGAATTTAATATAAAGCCAAGTTCTTGTATTTCTGCATTAATTAGACATAAATGAACTCGAATTTAGATTACGTTCGTTGAGTTGAGTGTTCTCTGGGGTTAGTCTTTAATTAAAGAATAACTATTCCATCCATCAAGTTGTTGCTTCTGTGGCATATTGGAAATCTAGATATTTGTACAAATGCCAGCCTGTCATGAATTAAACTTCGTTCTGGAGCAAAAGGTGCTGAATCCATTCGCCTGGGAAATGTTCCTCTGGTCTGGTTGCATGCAAATGAAGTTTTCCAATCCACAATTGGACGCGTTTAAGTTGTCAGAACTTCACTCAAATTGCCAGGATGTGGATGTGCGACGGGGTCAAGGGTGAGAGAGCGATAAAAGCATAACACAAATCAAATATTCTCAATTGTCTCCCTGGCTTGCTGTTGTATATCCTGCGAAAGGAAGCAGTCCTTTTCGAACCGAGTTCGGGCACTTTGCACAATTTCGAGTCATTAAAAATGCAAACGGCTTATTGGCCAGACAGACTCGACTTTGACCAGTCCATCCCTGCCATCTCTCCCTCTTTCCCGTCCTTCCCACAAGTGGGCGTGTCCTTGTCCACTCCCACAGGACGACCGCTGGTCGGAGGACCCAGCTGTTTGTGTATGTGTGTGTGCGCAAAGTTTGGGCAACTTTGCTGTTTTTCAAAAATATTGACACGCAAAGTTTGTGCAATCACCAAACAAATTACTTCATCAATTTTACAAAACAACAGAAATTTAAGATCTTTTAAAAGTTTTCTGCCAAGCCAGCATCGCAAACGTTCCCAAAAACACGGAAGTGAATTTTCGCCCTCACTTTTAGAAAATTAGTGAGCTAAGTGGGATATGATGCCAAAAATTACACCAATTGAATGTTATAAGGAGTTCATCATTTAGCTACAATAATGAGTAATTCCATTGCATACTTTTTATACACCATTATAAGTAGTTATTTGAAAAAGAAAGATTGCATAGTCTTCGTTGGCGATTTTTGCTTTAGTGTAGCTCCATTGGCAGACGCACCACAGTTCTGGGCAAGCTGTAGACCCAC
0.6219511516432054 ATTTTGCCCCCATTCCTCTTCGATTGATTTATTGAGAGATTAATGCCAACGATTTCCTTTACTGCTGGCGCGTTAGTTTTTTTGCACTCTGCCATATTGGTGCCATGAAAGCGCTGCTGTCACTCCAGTTGCGGCTTTCTTTTCTTCCAGTGAGTCTGGATCCTGGGAAATCCTCGGTTTGCCGGCAGCGTACACATGAGTTATTGGCTCGATAGTGCAAACACTTGCAAATGCGGATTCGCATATACATGTGTACACAGCATATATAGGCTAACAGGGGTTAAAACAAGACTTTGTATTGCACTGAAACATTCATAAGTTTTAGTGAGATTCCAGCTACCTACCTTCTAATCAGTTCTGGGGCCTCGAAAACGAAACGACTAACGAAGTTATGCAAATTCCAGCCCACTGTCGGCATGAATCTCAATTTGGGGGCCGCCAGCAAAACTTGGGCATCCTTTGATGTTTGCTCAATTAACATAGGCGATAACCTCACAACCTCACAACCTCTGAACCTCAGAACCGCCGGGCCTGCAACACTTAAGCGGATTATGAAAGCAGCAGAGTCTGGCAGGCGTAAGTCGTGATTTTTTAATAGCTAAACTTCGGCAGCGCCGCGAAAAGCGAAATTTTGCCGTGGAACGTGACTGATTCGCTGGGGAAACTCTAACCACAATGGCTCAGACACAATGTTTGGGTCTATCTGGGCGATGCAGAAGCGCAGACCTATCTGCAACAAT
0.2106943642940903 TTCAATATTCTGTTTAAGCATTTTATAATATTATCATTGTGCCTTTTATATTAAATTCCAAGGATCGAGCAACCAGCAGATTCATTTTTTTATGTCCCATATCCCGCCCACGTCGCCGATTCCACCAAGATGTCCTTTCGGCTGAGTATATGTTAATAAAGTGCGTAAACTCGACCAAAATATGTACATTGGAGGCCTGGGAAATATGCATGATTGTGTTTCCCCCATAAAGCAAACACACGTACGGCCGGGAAATACTCGCATGCATACGAGGAGGACATAAACCAGGCCGAATGACAAGAAAATCGTATAAAACCCGTCCGTTCTGCCCGCTGGCAGCCGTAAAGTGCAACGCAGTCACAAAATAAAGAAATATGGAGTCAATAAAGGCAAATGTTCCTCCACGGATCCGATAAGGGAGTTGGCAAATTGCAATTTTCTTAAGATTCCAGAAGGAAGTCATCGGCGGTGGAATTAAAGCCATCTCTTGATGGAGATTTTTGTATAAATATACGGATACGGAGTCGTACACGATTATATGATCGAAATGGTGCCATGCTAATCCCCTTTATAGAATCCCCCTCACAACGGCAAACAATCCCTCATTGTTAACTTAACCTAAGCCTAAACCCTAAACCATTTCCAATCCAGCAACTTTCTATTAAGCATAATTTGTTTTCATTACGCAAAAGTTGTGCTGAAAACTTTCCCTCTATTCACAGGCGCAGCTGAAAATTTAATTGGGCCCATGCCGTGGAGTCGGATGAAATTTATTTGCATGGTGCCTCCTCCATCATCACAAAGGCCAAAATCATATAAAATCAGAAGCCAAAAATCAAAAAATTGCCCGGGGCCTGTTATTTGTTCTACAATAGATGAAGGAGTGGAGGGGCATGAGTTTGTTTCAGCAACCACAACAAACTTACAATCAAAGTTAAGTGCAAAACTTTGCTGGCCGAGTTCAGAGTGGAATGGAAGTCATTTTCATTACTGTCGCGGCGATTACTCAGCGAGTGATTTGTGTTTGATCTCTGGGCCACTTTTCAGGGGTTGGGGCGTTGTTAAACAAATGCTTCGGCATCCATGATGGGACGGTAACAGTTCATTTGCCTCGTCTGCGAGCCAACTTCTAGTGCTCTAATGAACGATATCCTGCCAGATATCCTGTCGCTTGCTGTTGGCCAACTGGCAACTGGTTTTCGGCCCCAAAAGCGGGGCTAATATGCAAAGGCTCTTATCTGAAGTGTGACGTGGGTAGGCGGCAATGCTCAATGGTAGATTCTCAATGGTCGATGGTGCTGGATGGGTCCAGTCGAAAACAAACCCGCACAAAGCCGGAAAACGTGGCAATTGTGTGCTGGCCCAGCATCTCAAACCCATGTCCTCCTTCTACATGGCACCTGGAGAAAAAATGGTCTCGAAATTGTATATTCGAGTTGTGTTGAGCAACATCTATAAATTGAATGGAAAACCATCAATCTGTTTTTTTTAGCAGTGTAGTTCGCCCAGTGGCTAAGGCGAAAATTTCCATTGTCTTCGACTCGTTGTTAGTGTCGTTGCCAAAATACAAATATTCATTTGTGTATAAGCTGTGAAGGTCGTTTTATGAGAGCAGCCAAACCGCAACAAGCCATTTCCACCGAATCCAGCGAAGCGTGTCGTCCTGTCGTCCTGACGTCCTGACGTCCTGTGGTCCTGTGGCCCAGACCCCAAAACCCAGACTCAAGCCCAGGACCCTGCCATTCATTTGGTTCGTTGTGCTTCATTCATTAGCTTGCTTTCCGTTTCCGCTTCATTCAATTCACCCGATGCCTTCGCCACTGCCATTCCACTGACTTAATGCCGTCGACATCGACTCCGACTTTGACTTGGACCCGTAACAGTAGCCGTACCCGTAACCGTAACCGTACCCGTAGCCACAGTCGTGGTCTATATCCTGCGTTAAATGTTGGCTGGATGTTTATTTCTATGCGGCAATTTTCGACTGACTTCTCAGGCACCCAATCCTCTTCAATCCCCAATCCCAACTTCGCAATTCATTTTCAAT
0.6529139785611342 CACTTTCCACCGCCCCAGCACTTTTCCACTTTCCCTCCGGCCGTTGATGAGCATGCAAAAAGGACGAAGGGGCCGAGGCACAAGTGGTGAGCACAGGATCTGGGGAGTTTGTGTTGACAGTGAAAATGTGTGACCATGTCTGTATATATATAGTTTGTGTATCTGCGAGAGCGCTTGTTTGTTTGCTGGCATGTTTACCATGCGGCAGCGCAATTTCTCCACGTTAACGTGATGAGTTTTTGTTTTGACTGTAGATTTTACTTTTGCAGACAGAACGCAGTTATGTTCTCCGTAGCCATGTATGTATGTCGCAGCTCAATTTATTTGCGACAGTTGTTAGTTGTTTGCGTTGTCTCAGCGGGAAACTTTCGAGAATTCCCGATTAGCTTTAATCTGCACCCGCACCTGCATGCCACCGCCAAGACTTGAGTGTTTTAATGTATTGCAGAACATTGCATGACCCTAGCCCCAAAGCACACATTGTTTTATGTATATGCCCCAAAAAACTCGCGACTCATAAACCGAATCATAACCCTAGGTTAAATACTGTCTGTACCTGTAAATGTGTACCTGTTCCAAGTTGAAGCGTACCAGAAAGCAGACTCTCGTTTGTCGTATGTACAAATGCCATGGCACATTCCATGCATATAACGCATTCCAGACAGACCAATCAAGAATCAACTCTAATCACTTGCCAGCCCATAGAAACAAACTAATG
0.1634606896136297 GTTATTACTGAACAAAAATTAGATCCAGTTAAGGGTAATTGAAAAAGTTAATCAATCTCAACCTTTAAATGTCTTTCGGAATTAATTACTCATTAACTTGCACGAGTAAAATTCACCTTTCTCGAATGCAATTGTAAATTATTTTCTCATTTTCTGATTTCTTCAATTTTGCAAACTTATTAGAAGGTACTTCTTAGTTCCAGCAAATTATTTATAGCTAAAAAGTGCATTTCTTTTTTCCCCTGCACAGCTCTCAAATTGTTTATAATTGGGTTTTCATCAGTCGATGCCCCTGCATATTTTGGACACAAAGCAGAGAACTATTTTCGAGAGTATTTCATTGCTCGAAGTGAAACAAAGGCTAAGCGGTTTAAAGACTGCAATTGCAAAGGCAAATTTTAATAACTCAGTGTGCTGCTGTGAGGAACAATAGTAGCAACTGCAACACGACGAGCAAACAAACAAGCAAGCTGGAAAACTGGAAAACCGCATTTTCAAGGTCGTTTGCAGTGGATGCTGCATTTGTTGCAGCCTTTGCTTGGGCCATAAAAAAATGCACACGAAAAATAAAATGCTATTCAAATTACAAAAAAAAGTAAAATATAAGAAATTTCGGTGTTATTTCTAAGTGTATTTCTAGATGTAACATTTCAACAAATTAACATAAAATTTCCCATGTAGAATTTACTTTGAGCAAACAGAGTAATAAATTTGAACTTGAAAAGGCTAAATTTTAGTGACTGTATCGGATTCTAAAATTTTGTTTACTGCACTTTATTCACTCAGTGTGCGTGCATTGTGTTTGAAATTTTTAGTTGTTTTTCGTTGGTTTATTTTTGGGCCATGAATTATTCAGTGAAGCATAACGCAATTGAATATTTCATATTTGCAATACAATAATATATATATAATACGGCTAACAAAGTGTAAAGTACTGCAAATTATGACTACAATGTGTTTGTTCGATTCGAATTGGGTAAACAGTGCGTATACTTATTATGAATGAAATTGCGTTCGTAATTAGAATATATATTTAATTTGATTGAGAAATACATATGATTGGAGTACTGGTTATGACGTAAGAAAAGCAAACAGATTTATTTCTCGGCAAAATGTAATTTCGTCGAGAATTCTTTTCCTCTTGTTTGGCTCAACAAAATGATTTTCTTTCAGGTGAAAGCTGAAAGTAAACTTTTCCGCACGAAACATCCGCCTGACCTTCAAGTTACACATGCCTATGCCAAAGTCATATCTGTTTTCTCAACTATAAAAAAAACATACGTGAAAAGCTAGAATTACAAATACTCACATAGCTAGGTATGCAGCCGTAAAAAATGCGTGTGTTTGGATGAATGACTTTCGCTAAAAGCATTCCTTGTATCGCATATATATATATATATATATATATATATATTTCTCGCCCTTTTTTTCGAATCTTGCTGCCAGCAAACGTAAATAAATGCCGAATAAAACACATGGCCGTTGGCCTTTTAACGCAGACGTTTCACTGGGAGACTGGGACAGGAAGCAATTTGTATGCGAGTGTGTGCCCAAATGCCCAGTTGCCCAGGTGAGCAGGTGGGCTGGTGGAAAGGTGAGGTGGCGAACAGGTGAGCTGGTGAACTGGTGAGCACCTGGGGTCAGCGAGCGGGCGTCACAA
0.7079219852295151 CTTTGTTTAACCCATTTTAAAGATATTATTTCCTGTACGAGACTGCGATTTGGTTTTATTTTTGTGCCGCCATCAGAAGATCGTAAAAATTAAAATGATTGCCCAAACTTTGTCCGCTGCACGTGTAGAAGTTTTGTCATTATGTTGAGTAGCGCTGTCGTTAATGGGTTTCCATGTGGGGGCGAAACTACAGAGCTCCCTGGTAAAACCCCATCTCCAATTGCCATCGAGCTTTAGTTTACAGCAGCGAGCAAATTGTCGACATTCGCTTGTCGATGGCTCAAAGCAATTGTATTGCCATAAATCAAAGGTCCACAAAGTATTCTGAACTATTTTTTATTGTTCCTTGCTGTGAGTAAAAGCGTAGTTAACTTAATGAACACGTTCCATTTGCAGACAAAGCCAAGCAGCAAATGAACTTTGTTTTCAAACAATGCAGTGACGATATAAAGCCCTTGTTTGTCCTAAAGACTGAAATGTCGTCTTTCATTTTAGTGAGTGATGTTAACGTGGCTCTGTTGTGCAAACACGGTGCGTATGAGTGATGTTAGTTAACAGAGAATAGCTTATCCTTTGTATAATCTTAATATATTATTGTTAGTATCAATGTAGTCCGCCCGCATATGATCTCCGATTAGTTCTAAATATATATAGCAAAACTTTTGTTTCATACCAGCATCTTTGTGCGGTTAAACAATAATTTCCCAACAATTCCCCTTGGCTTTTGATATTAAATGTAGCATGCCCCGAAACCAACCATTTCTCATTTCCCGTTTGGCCAACATCCACAAAATTTCTATTATAATCGAAACTTTTTATTGGCGCAATGCGCACTTGGCGAAACTTTAGCATTTCGCACGAGCTCAAAATTACTTTGTCCTGGCGAGAAAATGTCCTGCGGCCACTTGACGCATTAGCGAACTACAAAAGCGTTACATTCGCAGCCATGAACATCATAAAATGCGGTAATTGAAACCAGCATTGTTTGGCAATACAGGGAATTTGCCCAATCCAATGAGAATTAGTCTTTTTTGCGGCAGCTGATCAGATTTTGGAGGATAGCAGCTTACCTGCCCACTAATTACGCTAATTATCTTTACGATTACCTGGCTAACTTTGCGCTTTGTTCGCTCCTCGCATTAGGGTATTTATTATTCAGAAAATCTACTCAAAACTTGGCACAATTTTCCATGGTTCATGACGAGCAATGTTGTAAATTTTTAATTAATTTAATCTAGCTGGCTGCTTTTCTATATTTTTATATAAAGTGTGTAAAAATATATATCATAAGTTCTGTTATTTTACATAAGAGACCTATACATGACCCGCAGAAACTGAATGAACCATCTATTTTGCTTTAGCAGAAACTACACAAACTTTTTAATTAGCCTTTTAAAATTTACTAATCGAATTTATACTTTGTTGGCATTTTTCTTACTTACCAGAATGGGCATTTCTCCTAATATTTAACACAACTGCCACCCAGCGATGGATTCAAATGGAAAAGTTGACTCGCTGGCATGTAAGTCGCCTGGAATGACTTTCCTCTGTGACTACACGGCAAAAAAAAAGGGGGTGTCCCAAAATAACACGGAGCCCAACCGACGGTCCCATAGAGTAAACACAATTCAATTAACTCGGCGCTCGTTGTCGGTCGGTTTTTGGGGGCATTTTTGTGTAAAGGAGCAGGCACCGTCGACGCTAAAATAACTGAAAGCGACAAGCCGATGATGGCACATTGCCAAGGACTGAGGAACAGGAGCAGCACTGCACAAAACCTCCAAATAGTGTATAGTATATACTAATTTTAAAAGAAGTAAATTTTTGTAAGAAATAAAAAGTCAGTTTCTAGTTAGATTAAATCAAGAACTGTTACTTCAAATATTTTGATCTGTTTGGGAGTTTCGAATTACTTTATCCCAGTGCACATGCTGCAGTTACTAGGTGCATGCAACAAGCCACAAGAGCAGCGCGGCTACAACAAAGCATTTGCATTATTAAAATTTTCATTTGGCGGCCTCTCTTGAAAATAAAGAACCGGCTAATT
0.7752970524347294 ATTCAAATCGAATTTTTCGAATAAAATGAATCACTTGAACAAGCATAATTTTAATACATTCATTTATCACTGTTTGCTTCCTCGTCCTTCTTCATTTTACTGAAGTTTTCACCGCCCGTTTAATTTCATTTACAAATCAAACGTCAAATCATTTCACATATCAGTGCATTCCATCAGGCTCAAATGTTGTCGTTTTGCCTCGTTATAGCCCTCTCAGTATGTGTACGCCCCCTGGGCCTTTGAGCTTTCTGCCTTCCATCGATATTCAAATATGTCAGGTCGCCTCTTATTGATTACATTGCCAAACAATCCGGAGACACATTTGGAGCCATTGTTGCGCCCATTTTGCGCTTCATTTAACATCGCCTGCTTTTGGGTACGGAAAGTGTTTAAATGCCGCTTCCGACTTGATTTTCCCTTTCGCCCCTAACATTCAGATGATTTGAGCAAGATGTCTTGCATGTGCCAGTTTAATATTTGAGAACATACACGAATTGTACGTGTTTTATTGATTTTCATTTACCAAAGTATTCATAAAAATTGGTTTCTGATGTGTTTTTTATGACTGCGTATACCTCATAGGACATCTTGTTTCGGATACCTCGTAAACATTTTTATTTCAATGTGACAGTGGGTCAATAAAAAAATGTTCATGTTCTCTTTCTTTTATATCAAATATCCTGATAAAAAACAATGACTTTATCAGTGTAAAATGTCAGAACTAAAAAGTAAACAAAAAAAATAAACACTTATTCTACCTTTAGAATTTACAAATGCAATTATTCTTAGAATCAAACAAATTTCTTCCACCGTGCTCGTTAGTCGCTCGTCTTCGAAAATGATGCCTTTTCAGACAAATTAAGTGCATTAATAATGCATGAAAACATGTTACAAAAATATTGATAAAGTCGCGCTTAATTTTGGCAGCATTTCCCACAGCTACCAGAGGTGGTCTAAGCACTTCAAATGTGAGCAATCGCACGTGGCACATGCGGCGTATACGTAATTTTCGCATAATCATGCGGTGTCCCATGCTATTGAACACACTCGCACACACACAGCAATAAACCTGTCAGTGCGGCATTAAAAGTAAGTCTCTAAATGTTATTTACACACACACACACACAAGGACAATCAGCGGAAAAAGGAAGAAGACAAAAGGATCTGCAATGGAAGGAGCATCCAAAATGTTACA
0.3529897197732215 CGGCTCAAAAATGCAGCAATGGCATTCAATAAATTCGAAAGCATTTGACACATCAGCAGGTTGGTAATTAATTGATAGACAGAAATAATCGAGTGAATTATGTTCGTATAATTCGATTTCAACACGTGTCGCCATCAATTTCTATCGAAACAGCTACCATGTGCGATGCCCCACAATTAACTAAGCGCTTTTCCATTACTTGGCAATCATGGATCATTCATGGGATGGATTAATTCCGCCAACCGAGCCACTTCATCATCAACACAAATTTCTAGAGAAGTGAGTGTAAGACTGACTCGATAATGAAGTGTACGGAAATAGACAAAGATTTAGGGGTTTCTTCCGCTCCCCATCGGGATATTGACTTGCTGATTATTTTTATTTGGCCAGGCAGAGCGCTTCAATTGAGACATAAAACTATGCCAACACACGAGCATAAACATTTATACACACGATTAGGAGTGCTGTTTGTTTTTATGTTTGGTTTAGCGCTTCCGTTTGTGGCCACCAAGAAATGCCAGCACACACTGCGTATACGCATTAAATGGCCCAGAATGAGATACAAACAAACGGACAGTGGGAGAGAAAAAACAAAAGCAAAAATTGGGGAAACGAAGGGAGCCGAAGCCCAAACATTTGGCGCGATTAAAGTGTGCACTTCTAGTTGTATAAAACATGGCCCATAAATCAATGAAAAACTAATCTGAAAATCAAAAGGAAAACACTGGGGGATTTGTTTTGTGCGAAATGAATTTGGCTGGCCAATAAAACGCACGTGAGAACCCATACTGCACCGAAAAG
0.5413475573451513 CACTTTTTTCCGTTTGATAAATTGAATGAACACGCGCTCATCAAACGGCTTTCCTCAAATGCTCGGATGTATATTAAATCAACTCAAACTTTCTTAAGTAAGTCGCACTCACACAGATACGAGTGCGCACGCACACATATGTGGAGCCGTGGAGAATCGTGAAAGATGAACCCAAATATATATATATATATAGGTCATTGTGCGGCAATGTGGATAACGAAATTAGAGACCCGAAAAAACGTTATTTCATCCAGTCGGTCATTCGGTCGGTCGGTCTTTTTTCCTTTTTAATTTCACTCATTTCTATGCACAAGCAAAATGATTTCTAAACCAAAAAGTTAAAAAAAAGCTTGCTTATATTCTAAAAAGTTAAACTAAGTACTTAATTAAGCATTAAAATATGAGT
1 TAATAGAAAATTCTTCTGAGACTAGAAATTGTTTTAATTGTTTCGCACAGTAATCATAAATGAAAAATTGTCACCATTGATACAGCTTTTCTATGAACTTATTGATAACAAGTTATCAATGATACCAAAAATATTCACGTAACTCCTATCTAATCGAATATTAAACAAGTGGACTTATTAGCCCTCTACGCCAAAATTACTCTTTCCAATTTTTCCTTAAGTCCTCAACATTTTTCCTAAGACACTAAAAAGAATATTTATAAATAAATTATAGCTGCATTTAGAGAGAGGGGCTGATTTGAAAAGAGAGGAAAAGAGAGAGCACGAGGCGAGGCGAGAAATAAAAGAAATTTCCCCAAGGGAAATTCCGTTTCATTCGATTTTCA
1 AAACCCCCGGCCGCAGCTGCCGCCGCTTAGTACTTAGGTCTATCTATACTTACCGATAAGTAATCAATACACAATGTTCTAATAAAATCGAATTCATTTTTGTTTGTAAATGTTTAACCACAAAGGAAAGCGTTCATTCATATATTTTGTTCAGACTGTACATTATTAGTTGTGTCTCTTAAATTGTAATTGTTGTCTTGCTGTCTCGGCAACAATTGAACATTAATTTGAATGGTTTCGTACAAAAATACATATATTCTATTGTATCATTTTGTAAAATGAGGTAGACCATGTAGTAAATGCATTCATTTTTCGTTATTCTAGTACATATGTATATCTAGCATGTACTGGAATGAAAAGTATCTTTAAACTATGTAGATTTCTGTGTGGTGGTGAGCTGCTCCCCTGGAGCCAAGCAGTTGAAGGTCCGGACAAAAACAGGCAGCCTTGTCAGGGAATTTATGGGTGAACCGCCCTCGACGAAATCGCTGCCGAAATACAGGGTTTGGCCGAAGGAACTCTGGCCAAATCTGAAGA
0.5487187517777735 ATTGTCTTTGGTTTTTTTTTTGCATCCTGCACTTTTTTGCGCACATAACGTGCCTTTGAATCATTCATAAGGCATGCGACGTCAACCTCGTTGAGCGGCAAACTAGACAAGACTTCGGGAAAAACCAGTTTCCCACGCACACACCACTGCCACTTGGCAAGGCTGCCTGGAGGGGCAGATGGAGATGCAGATAGAGATGGCGATGCAGAGGTGGAGAAGTGGGTGGCTTGGGCAGGGGCAGCAACACTATGCTTAAATATGCAGTTGCATGTGCGGCAAGACCCCAGAAGAGGCAAACTTCAGTGGCGCTCACTGGAGTGCCCTTTTTAGGGCATGTCAGGCCATCAATAATACATTTGATAACAAGAAAACGTAAAAAATATATTTCAGTTTTTTACAATTATCCAAGGTTTCTACATAGGCTACATTTTTTTGAGTAATTAATAATTCAAAGCAGTTTTGGAAAAAAAAAAAAAACTAAAAATTGAAAGGTCATCTCATGAAGCTTTCAATGCCCTGAAAATGTGATTTCACATTTGATGAATGGTTGACAAAAACTTGCTCCATTTTTTTAGGCTTTTCAAGACCTAACCCAAAAAGAAAAAGGTTAGAATAACACAATAAAATCATGATAGCGTATTAAGAAACCATATTTAAGCAGCTGTCAAATGAACTCGCTCTGTATTTGTCGCACTTAAATTAATCAAATTGTAACAGCTATGTTTTCACGGTTGTTTATGCTGCTACCCCATTCATTTGCATGCATATTCCACTACGGACAATTCAATTTCAATTATGTCAAATGAATACATTTTACAATTTCAGAGTTCTGCGCTTGAAAAGAGCATAATTGGTCTGGCAAAATGTTGAAATTCAATTAGGCCCACATATCGTTGAAATCCCAATGGTTGGGGGTTTGCTGGGCTGCTATAAACAAAAATAAACGTGGTATGAGTTGCGACTGTCGAAGTCACGCTTTGTGAACTGCTAATTGACAGGTAATCAGTTTAAGTGATGAAAACAGCAGCGAAAGCAAACAAATATTTTTTACATAAATTGTGGCAGGAACCTAAGAAAAAAAGAAGAGTTAAATTCCAATGCGAATTAATCACTGCTATTAACACTTTGCCATCATCACTGGTCAAGAATTAATTGAACAATCCGATAACTAATTTTATTCAATTCACAATTATAAACTAATTTGAATCCAATTCAGAGTAATTGAAATTATGAGCGATTGGAAAATTGCTGGAATGATTAAAAAGAGTGAGAACAACAAGTGTGAACATCTAGTGTGAACAGTTTGAAATAGTGACTTCTGTCAGCCGCTTTCTCAAACTTAAGTAAACATTTAAGGATTTCTAGAGCCGACTGCTCCCCAAAACAATAATTAAACTTCTCCAATCTGATAATGGCATGCAGTTCATTGAAGTTTCGCAGTTCTCAGCAGTAATTTGCTGGAAAACTCTTGACTCACTACTGCTGAGTAGTGTTGCTGTGCCGACAGCAATTGATGATTTATGTACGACAATCAACTTCAATTGTTGCCGACTTCTGTGAACTTGAGTGCTGATTTCTGTCGCTCTTTCTGATTTCCGATACGTGGGTGGTTGATAAGGATTGAATGTTTGTCAGTTGGCTATGTGAAGTTTTGCCTTTGCTGCACTGCAGCAGCAGCAGCTCAAATTCTTCTTTTGTAATTTAATTTTGTTGGATTTTAATTAAAATAGAGCGCGAGCTCAGCGGTGCGCAAAAATTCACAGCACGTAACATTGAAAAACTGTCAAACTGCCATAAATTGAAATATTCTCGTGCTTCACAGCCCCCCCTTGTTTTTTTTTTTAATTCCTTTCCCTTGAAGTTGGCCCGTTTGGACTTTATCTTGGCCGGGTCCACACAAAGCGGAAGCTAACATTTTTTACAAGACCTAAAAAATAAAAAAAGTTAAAAGTGGAAGTGGAAGTGGAAGTGGAGGGCGGGTGGCGATGGCGCCTGCTGAAAGCTTTTCAAGCTGCGCTGTGTTTATTGCCACTGATAAGGCGGCTGG
0.6246503112441018 CTAAAATATGATCAATCGATTGGCCGCTTAATAACTATCTTTATGGGGCAATACAACTGGTTTGATGAGTCATTAATTGCAGCATATCTCAATCAATCACGATTGAATATGTGATTTTTATTAATATTTCCTTATATGTCTTAAGGATTTAAAAGCCGCCAACTGGTAGTGACCTTCAGCAAATCGATAACTAATTTGATAAGTAATACTTTGCAGTTGTGATAACAGCTCATGTGTGGTAACTTCTTATCTTTATGCCGCTTATAACAACCAAAACCTATGCCAATAATCATGACATCACTGAAGTGAGTCATTCTTTTATTGAAACAAATATTTGTTCACTAAAATGAAGTATATCTAAATATTTTGTTTTCCCCTAATTAAATGCATGCAAGAAATGTGGTAGTAGTATTTGATTATTTATTCATTGTTTATGTGTTTTATAAAATGCGTGAATATGTTTCCTTGCCCGTTTTCTGGATAATCACACCAATGAACTTATTTCATCAGCCGTCATTCAGTTGACCCCAAAAAAAGTCCTTTCGTTCGGTTCACTACCCCCTGTGTATATGCAAACGTCCTGAAAAGCCTACTTCAAATTCTATTTTCATCACTCACATCCCTACTTACGTATGTATCTCCTAGTCATTGTAATTGCGGTTATCTGGGG
0.8815851154880597 ACTCGCCTGCCAGCATTCACCTGATCCGTGGCGTTGACGATTTGAAACGGATTTGCATGGCGTATGAATTATTTATGCGTTTTTTCCTCGCCTTCCACTCGTTCGCCACCAGCTTTATATTTCCCATGATTCCTGCCACGCCCCGCCAGTCCGCGCCAACTTGAATATTTGCAGCTCATCTTAAATTTATGCCAAGTGGCTATTAAATTTTCCTTCTCTCGCGCTCCATCTCCATCTACTTCAGCCAAAGCTGCTGCTCTTGGGCGGCACAGTTCGAGTGCAGGGTATCCAGAGTGCTAAACTCCCAACCCTTGTCGGCGAACATGCAGCAATTGTCTTACAACTTATAAGGTAATGCCCAAAAATACTGTCGAGTTTTCTTGTGCCACACTCACCTTTGTGCCGCGCCTCAAAGTTCTCCACATAGTTGACGGCATTCGGGGGAATTCCTGTGGGCGATAGAACACCGATCCTTACCGCATCTGAACTATAAGCGTAATGGGTTCTGAGAACTACTTACGATACAGCTTAATTGTGCCGTCCGTGTCGCCCAGGGAATTCTTGGCCACGCAACGATAGGATCCAAATTCGGCCTGTGTGAGGGGATTTATATGAAGCCGCATCGAATTGCGATAGCCGCCGATTTCCGTGACATTCGCGGAGTATTTGCCACCTGTTTGGAGGTAGGGCGTTTGATATCTGAGTTAATATTTCATTAAAATAATAAACTAATTAATATTTAATTGAAATTTTGCCTTATTTAATAATTAAATGCATGTCACGCGCACATCGACCGTAAGTACGGGCGGGCAAAAGTTTCAACAATGTTGCTGACAGGCATAAATTTATGCACGAACTCATGTCACACCGCAGGCCAGGATCAGAATGGGGTACTGTATGTGTGTGTGTGTGTGTGTGTGTGTGTGGAGTGGGGCTGATTCGGTTTTTCTGGTGTCAATTAAAATCTGCCAGAAACAAAATTGTAAATTAATTTAATTTCCAGTTATGACAACGACTGCGAATGGAGGCAGCAAAAGCAGGAAATCAGCAGCCAAGCCGCTTCTTCGAGCCATCGCATTGCCACTTTCACCGACAGAATGAAACCGCAGCACTGCGGTCCTGTCGACCGAGTATACATCCGTGTTAGTGCCGCGACTAAATCAGCTAATTAACAACTTTTTCGGTGTGTCTGCGTCTGTCGCGAGCAGCTTGCACTCGGCGGTCATCAGTTTGTTAGTCGCTAGTTGGCTGGTGGCTCCGGCGGGAAATACAACTTTTCCTCCAAGGGTTTGGCGGCCAGGAGTCTGATTTGGCTTCGGGCTTGGGGCTTAGTGCTAATGTGCTAATGTGGTCGTCACGGTTTATGACCTCTTAAATGTCCCTTAGCACTAACCGAATGTGAGGTAATAAAATGTTGGCACTCAATTTAAATAGATAACTTTATGTGAAGCGGACAAATTGTACACTCAAATAAGGTACTTGACAGCTTTTTAACGTGGAATTTTTAGCATCTAACTTATGACGCATATATATTATTACTACAATTAGCAATGTATCTGATGGATTGTTTCTCGCCAACCAAAAGGTTTCGATTCGCTAGGAGTTCGGTATACTTTTATTTTTTAGTACTATTTGTGACTTCTCACCTGGTGGCACAATCTCTCCACGTTCCCTGGTCCAGTAATTGATCGACTTGGGATATGCCTCGGATTCGCAGTCCAAGGTGACACCCTTTCCTTCTACAGCGCCAATTAGTTGGT
0.7788842243113898 AAGGACATTCGAGCGCCCGCCCATCTCTCGGGGGCTTTCTAATTTGAGTGGGGCTGTCAAGGTTCACGCGTGCATTGTCACAGATTTGCTGGTAGTCCAAGCTGGGCGCTATTAAGATGATGAAATGTCCCCGAAGGTCACTAGGCAACACTCGACCCCGATCACTTGTTGCCAATTAACCATTATTAATATTGAGTCCTTTGTGCGTAACCTGCTTCTGGGCGAGTTTACACTAACCCGAATGGGGCCAAGTCCATTCGCGTCATTTGGGGATTGGCATATCCGTTTCGTTTTCCAGTGTAGGCTTGTATCTGGGCGCCCCTTGATAATGCTTAATTTGCTGTTTAATTATGCGTAGAGCACTCTTTGTGGGCCACCCGATGTCCCTACTAATTACAGCTGTTTGTTATCTGGCAGGAAACACTTTTCTGGGTTGCCGGCTCCAGTTTAAAGCGGCTTAGTCGACCCATCTCCACAGGTTCACACATTACTTTCCACTTCTTTTCCCATTTCGCATACATGTGTCTACGCAGGAGACTGACAATTTACCAAAGGCAACAACTTAATTTGGCCAACATTCCACTTTCGCTCACAACGTGGGCAACGTGGGTTGGAGTTGGGGGATTACAAATGGACAAGCTGCGTGCAAATGTAACTGCCCCGACATCCAAACACGTTCGAAAAACATAAACAGCTTGGGTCCCATTTGTATTTGGGGCTCTGCTCCATCGGTGCGGTACGGTGCTCTGCTGAATTTAGTGAGCTGGCCTCGTAAATTTTAAATATACTTTGCTGGTTTGCTGAAGCAAGCAGGCAAAACGCCTTACCGACTATAAGATACCCGCTACTTACAGTCCAGATGAAAGATACAATGCATACCTAAAGGTGTACCAAGAAATGTTTTACTTTCTTTTTTTTGTGATATTAAGTCACTGGATATGCCTGAACCTTTTTTTTTGACATCCTTCAATACATGTCCAATATACCCTTGAGCTGTAGACTAAGGAATATGTAAATCCTATACTTTTCTGAAAGTATCTTAAGAGAAGATGGTTGGAAACATGGCTGCGACCAATATACAGATACATTGTCGATAAATATCTGTTTAGCCCAGAGAACACACATGACTAACATGAAAATAAAATTGTGATTACCTTTCAACTATGAAATAGATTCATCTGGTATTGGCCAAAAGTATACAAATGCTGAACTCGACTGAAAAGCATACAGTTCATTTAGTTTAAAAGCCTCTTTGTCATTAGTGGCCAAAGACAAATTTTGGAATGGTTTCCTTTTTGTCTGCCCCTAAAGATGGGAACTTCCTCCTATTCATACTGAAAATACCGCATCATTTGCGAAATACAACCGCAGAAGTTATTTGCTCGGGCATAAATCTCGGCGGAGATATATAGAAAACACTCTGCGCGCATAATGGGGATCTTCCCGACCGGCGCTTAAAAGCCGTTTAATAAGTCTGGCCACAACACACCCATGACAAATGTACCCCCGGCTGCATTGTGCGAAATCGAAGGACGAGCTGGTCGAAGTTGCCACTGGAGTCGGGTTGGTGTGGTCAGGAGCGGTTTCTGTTGCAGGTCGATCGGGGCCACTGCACTGGCCATAAATTTTATTGGCCGCCTATTGAAACGTTGACATGGCACAGATATTTTGTCGCATAATTTTTGATAAATGATAAAGTGCTGTGGCCATTCCCGAAAGACAATAAATTAAGCGAGTTGCGAAACAAGATAGGTCAATCAAATTAAGACGCGACCAATAAAATGGCAAAACCAATTAATTTAGGAACAACCATTTTTATCGTACAACGTCTAGCAAAAGGCAAAAGTATTTTTAACCATTTCCATCAGCTTTGCACATTCGAAAGAGTCAAAGTGCAGCTAAATGACT
