svm_type c_svc
kernel_type wgkm
L 10
k 7
d 3
M 50
H 50
nr_class 2
total_sv 1079
rho -0.0437085
label 1 -1
nr_sv 546 533
SV
0.9891339267103003 CAATTGCAAATGTTTTTTTATACGATATTCGCCGACCGAGTCACTTGCTGTTGTAGATATAAATATAGCTTTTTTATGGTAGAAGTTAAAAATATATGACAAGTTCGCCGCTTAAGTCTTTTTTTGCCGGACATGTCACTTCCGCCGGTAAGGTAGACTTCTCCCAAGGTAGACCAATAGGAAAATTGCCGAGACGAACTTGAGACAACGAGCAGAACGAAACTCTTAAATGATATGCATGAATTTTCGCTCAACTCACTGACAAAATCAAATCTAATCAACAAATTAATTGCGCATGACGTTGACAATTATGTGAGCGACGAAACGTTTAAGCCAAAGTCGAACTGAAAATTCTCGGCTAGAAAACTGTCACGTTCTGATCATAGGCACATCGATCGTACGCGATATGGCTAACGTGTTTTATGCTGTACTAAATATGTCAAGGTTCCCATGCTCACCAATTTAATTTTTGTTTTTTTTTTTTTTGCTTGGCTCGGCATTCGGCAGCTGGGGATATTCCGACCTGCCGGGAGGGTGACATCAACATCAGCGAGTGCATCAAGCAGGGCCTCCAGCAGATAACGCCACGCATGAAGTACGGCATCAGCGAGCTGAACATTCCGCCACTCGATCCCTTCGAGATGGGAAAGAGCTCCTATAGCTACACCTCCGGCCTGCTCCAGGGACGGATTTCCATGAAGAACGTTGTGATCCACGGCCTCAGCGAGGGCATCGTGGACAAGGTCAACTTCCGGCTGAAGGATGGACGCGTGCGCATGGAGATCCTTTCGCATGTGCCACAAATGTTCGTCGAGGGCTTGTACAAGGCGGACATCAAGCTCAACGATCTCAAGCTGAATCCCAAGGGCGCCTTCAACATTACCATGAGTAAGTAACGCAGCAGAACACATGTAACTGCATGTTAAGTATTATTAGGTCACATAACAGTTTGCTATTAATATTATTATATTATTCAATGTTTTTGCTTCGCTTTTTTTCTTCTGCAGCTGATGTCGCGATGAGGGCGAGACCCATTGGCGAGCTCTACGAGCGTGATGGTCACACCTATCTGCGCCTGACCAAACTGGAGACTGAGCCCAAGGTGGGTGACCTGAAATTCTACGCCAATGGACTAGTTCCCGATCCGGTGCTGAGTACGTAATAGCCAATCAGTACTTACTTATAGTACTTACTAAACTGCTTTGTTTTCGTTCAGACGATGTCATCTTGGACTTTATCAATCAGTACTGGCGCCAGCTTTACCAGGCCATGCTTCCCGAGACATTGGACACCTGGCAGCCGCTGATCCTGAAGTCCACCAATGACTTCTTTGCTGCACTACCGTTCGATATGCTTGTTACCAAGAATTGAGATACCTAACTTTAATATTGTTTTACTATTTATACCTTCCGGATTCATCTGTTCTACTCAAGGTGTTAACATAGTTTGTACCGAAATAAAGATACAATTACCTAAATATAAAATATTTAGAAAATATTCTTATCTATGTTTGCCAGTTTATGTAGAATGTGTATTTTCTAGAGTGAAAGGTTGCACTTACACTAAACAATCAGTCATGAGTCAATTTACAAGTCAAGAGCAATTAAATAGGGCTTGAGTGGCAGATTGAAAAAGTGGGGCTATAATGGTCACATAAAAGGT
1 GTAGGCAAATGGCATGACGACACTAATACCAAATTGCGGCTATATTGTTACTCGCTATATACAAACATACATGCATACATATGTACACATTTGTTCCACTTGAATGCTCCTCGCTACATACACAGATTTTCAAATACATTTTCCAATCAGTTAATACATCATAATGTCTTTAAACGACGAGTTTAATGAAATCAAACTTTTGATTCAAATCAACATAAAGATATTCGTGCAATTAGACAAAACTTCTTAACAGACTATTGTATCTTTGACAAAAAATACTTTTTGTTCTCTCCGAGGTAGCAGATGGTTTTGTCTGTGCGGAAAGTTGATTGGACTTTCCCGAAACAGGAGCAGACGACTTAGACCGAGGGCCAGACAAGAAGGAAACAAAGAACAAGGAACCGATGAAATCTGGAGGTAAGAAAGCAAACACAACTGAATGCCGGTGTGTCTGAGTTTGGATTCGGGGT
0.879176089010766 CAATTATTCCAATGGGGAAATCCTTGGGCGTCAGAGCCGCTTTTTCGCCATGCATAAATCATGTTGGTCCTCCTAGGGCAACGCCCACCGCTCGCGGCCCCGATAATAGTTGCAGTTGTTGCTGTGGAGCGCGGCAGGCCCAAGGCCAAAGGCAAATGAGTTTGGTTTTCCTTTCAGTTTGCCCGAGGCAAACTAACAGCGCCGGAAAAGTTTGGAAATGAAAGCGGTCTTTGCGGGACCGGAGGAATTTAAACAATGAATGTTGACAACGCTCTACAAACCTAACCGCTAAATAAGGCGTGAATAAAAGATAGGCCAGTTTTGTAGGTTAAACTATCTGGTTTAAAATGAACTTATTTCCAATATTCGGATAGATGAAATTGTAGAGTGTAGAGTGGTAGAGTAACAATTCAATCATACACATTTAGGGTACATAAATGTTAAGAAAATTTGTGTTGTTGCCAACGAAACAGCTTTATCAGAATTAATGAGAAAAGCTGTCTGTCTCGAAACGAAAAACCCTTTGGCAAGGAATCATTCATTAATTACTCGCACGAGTTGGTGGGCGCTGACCACGCCCAAACACACACTCGCAGGCCCATGTGTGATTAACAGAAAGCCACGAAAAGCATAGCATACATTTAAGAGCAGAGACCCCGCCTTCGCTGTGTGCATTAATGAATTGACTACTAGTCCAGGGCTCAGCTTGGGATTCGAGTTTATTTAAAGGACGCAATTAAGATCGCTTTAAATTAGCACAATACCGTTATGACACAAAAACTTAGGCACAAGTTACAAATGCGGACTCGGACTCGTTAGACATCACCAAAACACAGTCGAAGCGGGGTCATCTGCAGTGACCATCACTTATTGTCAGGCTATTGCACAGCCTTGCTAAAAGTGAGTCCAGATCCTTGGAGATTTTGACATCGCCTTGTCGATTTCTTCTCTGCAGGATCTGCTGCAAGCTTCGCACTGCCTGGACTCTGGCGAAATGAGTTTGCATACGTGGATTGCTACAGAACTGGTTGTTGCACTGGATTGGATCACACTTATGGTGTGGGCTCGGGTATTTGAGGTCCTTGCACTCCATGTATTGCCGGTGACGCATTTGGCGGAGGTAATCGCGCACCTGGCGCTCTCGATCCCGCCGGCGCATCTCCTTGATCAGCGGAGTGTCCTCTTCTTTTGGCGGACAACAAATCTCGCAGGGGCAGTCCTTTTCACTCCGGTTGTCCTTGGTATTCTTATCCTCATCCTTATCTTTCGGTTTCTTTTTACCCTTTCCCTTCTTATTCATGCCTTTCTCCTTACCTTTGCCCTTGTCCTTGTCTTTTCCCTGGTTTTGATCTACGATACCGCTTTTCCCGTCAGGCTGGTTCTTGCCTTTTTCTCTATCGCCATCAGGACCACCGAAGTCGCCGTCACCATGGTGACTTTCTTCGGTCCCGTGAGTAGTATCTTTACTTTGGGGCACTGGAGGACGGTCCTCAGAGGATCTAAAGTTTGGCTCTTTGGTCTTCTTTTCCTTGCCTTTTTCCTTGCCTTTTTCCTTGCCTTTTTCCATGCCTTTTTCCTTGTCGTTTTCTTTGACTTCGTTCTGTTTTGCCGGTTTTTTTTCCCCTCCATCTTTTTCAGATCCCTTGTTTCCTTCTCCATCACCCTTTTCGTGCTTGCCCTTATCGTTCTGTCCACCTTTTTCACCGTCACCGTCGCCGATACCTTCATTTTCATTGTCACCATCACCCGTTTTCCCTTTGTCTTTTCGCTTGTCTTTGTCAATGTCCACGTCTTTGTCAATGTCCACGTGTATGTCAATGTCCACGTCCTTATCCCTACCCTTGTCCTTATCAACTGCCGACTCACCATCTCCTCCGGCGCCATCCGGAACGAACTCGCTGCAACCCTGTGCAGGTGGATCTTTGGGATCCCTGCAGCACTTCTCCAGCGCTTCGCAGAGATCATTCTTTCCATTTGGGTCTTGAACGAAACAAGTTACCAGCGATTTGTACAGTTCATCGTAGTTGCGGGGCTCCGGTTG
0.8884803409725938 CATGAATATTAAGCTAGAGTTTGGCAATCCCGAAACGGCAACAGAGTGTGTATAACATAATCATTAGCATTAATTGCAACTGAATTCCACCACTTTCTTGGACAGGAAAACTGCCCTCAGCGTGTGTTTGGCTTGTTTGTTTTGTTTATAAAGCCTCATGAAAATTGTGTGAGTTGTTTTGTATTTTTATGGCGCTGATTCGAAAATCGAGAATCCGAATTGAGGGGCAGCCGGCTGCGAGTAAACATCGAATGGACGGACAATGATGGGAATCGACAACAGAAAAAGAACAGCCGGACAGACAGGGACAGGCGGACATTTGGACCAAAAAAGTCAGACGGACATGACGCTGTTGCTCACTTTGTGTACATGATGTGCACACAGCCCGGGCCAACACAATAGACCCCTTTTCACAAACCATCTAGTATACATCAAGTATATACACAAAGCCAAAAAATGGCCGCAGAAATCAGAGATTTTTAGTAATATATAAAATCGTCAAAAAGTATGCAATAAATATATTCTATCTATCTATTGTTCATTTAGTTTCATGCTAACACTTTTATCCTTTACTACTGCATTTCGGCTGTCAGGACGTTTCCGGAATTATCTTCTTGGCCGCAGCTGTAGCGGAGAGTACCCAGTACCCAGATACATTTGTATCGGTGCGTGCGAGAGTGTAAACAATGCAGCGCCAAAACTAAATATTGTTTAAGAACAAATATTTGCCTTTTGTGCAAATCACGAAAGGCAATTTCATTATTCCGTTACGTTCAGCTCCTTTTATATATTTTTTTTATTATATACCAAAAAATAGTATTTTTCGTGCCACTCTCCTAAATTGATGACGCTATCGATGATATGGCTCAACTATATTTAGTCAGATCTCGGAAAAAGGTACAATAATCATCGGTGGGATGCGCTTCACGAGCTGCTAATGGGTCAATTCAATCGAAGCGAATATTATTGCCTATTTTCCAATTAAATGGCCTTAGCTTGAGCGTTGGGTTTGTTGATTCTAAAAATTTATGCGGCGTAGAAGTACTCGCTAAATAAAGTGAATCCAGGCATTGAATCATCGGATGCA
0.7539584888037494 CGTAATTTATTTGCATTCATCGTATAAATTATATTGTAAGCAAACCACTTCATTCAATTTCAATTTAAAAAATTGTTATCTCCGTTGACGGATGCTGCCGCATCCACTGACAACAAACAGCCCAGACAAACGAATGCTTTTTGGAGAGCAGAAGACAGGACAGGACAGTCCTGGGAATGGACATGGATATGGGCTGTGGGATATGGGATATGGGATGTGGATCTGGCTATGGATGTGCTTCAGTTTGTGGACACGGACAGAGTCCCAACATTGTCATTGTCATTCCTCTGACGTGATTATCAGCATCGTTACCGCTTCCTAATCTGACTAAATTCCGTGAAACAGGAAAAGCTGCCGCTTTTGATTATTAATTTTAATCAGAATCATAAGCCGAAATAAACGCTTTAAAAAAATAGTACCAATGCCTAAGAAAATTAATGTATCTGTGACCAAATCACTCCATTACACAAAATGTGCATATTATTTGCATTCGGGGGCATGACAGCCGATTGGGGCAAATACCAAACCGGCGGGTTAAAGTTAACAACATTGCCGAAAAGACAATGCCGAACAATAAATCTCCAAATGCATGCCACACCAGCAGCAGCAGCAGCACTTCCAAGTAACTCTCGACTAGCCTTCAGCCAATATGGTAAACCCAAGCTTATGTCACTGACATGTCTGAGGATCGTCCGTCTGTCCGTTCGTCCGTTTGTCCGTATGTCCGTCCGTCGGTCAGTCCACTGTCCGTTTGTCAACCCGGTCCGTTCGTGCGTCCATTAAATAAGGAAGGAACTGCACATAACGAGAGTCAATATTGACAGGCCAACAGCAACGCGTGCAACGATAGCGGCCAGCGAAGACGACTTATAAGGGCAGAAAGGCAGCCACAAAGTCAGGGATTCATTCGATGGACAGTGGACAGTGGACACTGGACGGTGGACAGCGGACCGTGGACGGTGGACATGGAACCTCAACGATGGGGCGACCAAGTGAAACGAAACAAATCAAGTCGCCCGGTCGCCGAGTCGCACAATGACTGACAATCGAAACGGCGCACGGACAGGTCAACTATTTTGCATACATCTACTATAACTTATGGAACTCGTCGATCGTCGATCGTCGCAACGTCGTCGTTGCAGATCGCTGATCTTGGATTGGGTTGCTGCTTCGGCTGCTGCTGCTGCTGCTGCTACCATGCATTATTGTCAATCAATTGGAGCAGTGAAGGGGTGGAGGCCCCTCCGAAAGGCTGCACCACAAAAGTAGTTAAAGGATTACCTACACTTAAACAGAAAGTCACTGTATTGAAGATTCGCTCCTTAAAATATACATAGGTTCTTGAAACATACAAATTTCTGATCATATACAAATCATTAATAAGATTCATGAGAAGAAGAAAACTCGGTGAAATTTTATTGTCATTTTCATAAAATATATTTCTTAGTGTGTGACTGAGGGTCGACCTTTATGTGAGGACCTCTCTTTCTCGCTCTCTATCTCTGAGTCCTCTTGGGTTTCTCTCGACTTGTG
1 CCAAATATCCACCCATTGCCGTCGTCCGGCTGAAATGTCTACATAATTCAGGTTCAAGGTCTCTCGGATCCGAAATGTCCATATTCTCCACGCTTGACCGGGACATTTGGCATTATATTTATATTTATACGCTATGCAATCTATTTATAATTGTACGCTTACAGTGGCTATTCTAAAACAGATTACTCAGAGAAAATGTTTAATTTGCCTTTTCCGGCGATACTCGCACTCTTTATGGCGCTTAAGCTAACAACAATACATATATCCCAAATTAGTTTGCACAATAATTAATTGCTATATGTGATAAACCGGGTGTTCGGTTCATCTAATGCATCTATGTATTTTAGATCCGCATATAGATACTATTGACGCACTTTGCCTTGTTTTGGGCACCATCAAATGGTTCTATAGGCATTGCGTTCCCCCATATATATATATATATATAATTATTTGATTCCGTGCAATGCATCATCAGAAACCGGTTTATCTTTATCGGTAATGACGCGTTAGACTGCGATATGGACGGATGGATAGATGGCCTACCATAACAAGTTTGCTTCATTGGGGGACGATAGAAATTTCCTCAATTGTGGCTACCGCCAGTCGGTAAAAATAAAAATATACCCATTGTTTATATGCGCCCTCGCTCTTTCTCTTATTTCCTTGTATTTCTACTCACCGTATAAACAATGGCACACGCCCAACAAGCAAATGTACATACATATATGTGCCATATACATGTGCTCTGGCTAACCCACTGTATCTGAACAGCCTGCCTTTCCTTCCGCTCTTCTGTTTTTGAGGCTTCAGATTTTCGGATGAGGGCTGCGTTTACGTGGCCCTTGTTGACTGTGGCTGCCCGCCGGTCGTCCGTCCGCAAACATCACGTGATTCTGGCATGCGCATGCCCTCCGCCTCGGCGATGGACCCCACACCCCTTTTGCACCACCATCATTGCCATTGCCTCGCCATTGACCCACAATGCTGTCGTCATCGTCTGGCGGTCTTTTGTGTGCCCAATTTAATTGGCATTTCGCTGGGCCTCTCCTGTACTGACTAAATAATCGCAAGG
1 TGCAAGTTATTTAAGCCATAAACTATAAGCACCGACCTTTGCAACTCGCCTCGTGTTTATATCCCATTTATCCACTCTGACACCTTGCACAAAAACCTTGGACCCCTAATTTACTCTCTTTTTTTGCAGCGCAGCCAATCAATTATAGTTATAAAAGGCAGTGAAAAGGGAAAACCATTAAAATCTTATCTTTTAGCCAATAATGTGGCAGATGGATCGAAACGAGTGAGACAAAAAGGCCAGCCGAAACATCTATTATTAGTGGCCATATCAAAAAATGATTAGCAGAGCCGCCAAAGTCGAAGTCAAAGTCGGTCGATGGTGTTGGTCCGAATGAGTGGATGGGCCTATAAGGTACATACATCAAAAATTATGAAGATGGACGGGTTCGCCTGGTTGGCTGGCTGCATCCACAAGACTGATTATAGACTTTAAGGTGTAAGCGGGGAGAGAAAACTACATAACACTAATTTCATTTTAAACGAACACAAAAACGTTGCGGTGCATATAATTTAAATAATTGCATAGGCGCTGCGAATAGCCGGGCTATTGATGATGTTATCATGTTATGTTCGCATACGATCCACACTTATACTTAGTTGCTTTCTTACAATCTTATCTACTCGTACAATTTCCGCTGCCAGCAGCTGCTGTGGTAGTCGACGCTTCTGGTTCCCCTTAATTATAATGTATCGCCTTAATGGGCTGCACTTGGCTGCTTCCTCTCTCTTTCGGCCCAAAAACATTGTACTTCGTACTTTTCTGATTATTGGTTACTAAAAGAGGAGCGCCATTTTAATCCACTGATAAAACAATTCGGCCTTCTCATCGTGGACTCGTTCCCTCATTGGTTCCACCGCCTAAATTATGGTTACAAAATTTTATGAAGCCATTTATATCACTCACGAGATGTGCCGCCCATGGCATGTAGCAAATCGATGGGCTGTACCATGAGCTCTACTCCTTTTAGCCAGTTTGTGG
0.6540830963651146 CAGAAGGCCAAAAGAGCCAGCCACCAAGGAAACAATCCTAGGTTAACGAGCAGCAGCTACGGCCAAAGAGAGGCGTATCAGCCATACGGAAGCCAGTCAAAACTGGGAAAGAAGGAAGAGGAACTGCTTCGGGCCCTCAACATCATTTACAAGTCAATAAAATCAATTTGGGCACCCGAAGAACAAACGAATTGCCGACAGCGAACCACACAATACAGGATATTAGCATTAGGGACAACACATCCATATATCTTACATCTTTTATGGCACGGCCCCCGGCCCAGACCAATTATAATTCTAACGATAGCCCCAGACGGACACAAGGCTCCCTTGTTCCCTTCCATCCACAGGACCAGAAGCCGGCCTCTAATTAATCAATTATATAAAATACAACTAATGCGATGATCGTGGCCAGGGTGGGCAAACGGACGAAGAGGGATAAAAAAAAGGGATAGGCGAGGACTCTGGTCCCAGAGTGCTGCATATTCTATAGCCTATAGACAGACAGATGCCACTGTCCAGAACTAAAGCGAAACCCAAACTGAACGAATGGAGAGCTGAGTAATTTTTTTGCAGATAAGAAAGAAGACGATGACTGAAAAGCGATGACTTTATTTCGTTTGGGGTCACCTTTAATAAAATTATCGTTGGAG
1 GTCGAAGCTTTCTTCCTCTTTCATTTCTGCAATTTATTACTGCGGTGTACTGGTTGGTTCTGTTGATTTTGCTGCCTTATTGACATTGTTGTGTTTGTTGGCTTAAGTGGGCGCGTTTGTGGCTGTGAATGGTGGCTGGCCGGCGAAGGGGGAGCGACTTCTCAGTCTGCCCGCTTATCTCTGGCGATTGCAGACAGACACAGACACGCATTGATTGTATGGCATGGCCCTTATGTATGTTACTCTTCCACTGGGAGAAGAGGAAGTCAAAATGATAGCTTAATGGTGAAAATCAGTTGGGCATAGAAATTACAAGGTATTTATAGTGTTTACCCCAAGAGTTGTTTAGTGCGTGGAGTTATTTTTCTCAAAATAATACATCCACTGTGTTGTTGTGAACTGGAATTTTCCCGAATTTACAGATTGCCTGATCCCATACTCAAGAATTTTCCCCCCCAACGATGAATAGTCATGAAGGAGAGGCGTGCACAGCGCTTTGGGTATTTAGCACATTTTCTATTGCCCTGCCCTGCTTCTGCTGTTATTTTTTTCGATTTTTTTTTTGG
1 GTCAATTTTCCGCTTGCATTGCCCGCTCACAAAACACAACAACTGCAACGCGGGTGCCGCATAAAAAATGCAACCAATTAAACTGTCCCCGGGTTATAACTGAGCATCAAGCGAGTGTTTTATAGCCCGCCACCTCTGGTCCAGAGTCCCTCATATTTTGCCTTTTTTCAGTTGGCTGCAGGTGAATATTCTGATCTCCCTCTCTGCAGCTTAGTTTATGGTAAATGGCGCCCATGAATATGCAACTTTTTGTGGCGCTCTGTTTCGGAGCATTTGGATTTTCTGGCTTTCACTTGTCTACGCTATTGTTGAGTGCTGAGTTTCGACTGAATTGCGTGGCGTCACTTTCAGCTTTAAATATTAAATTTGCTCAAACTGAAATTTGTTTTTAGATGTTTCGTTAGGAAGATCTTGGACCACTAGCCCTAGTAGCGCTTACAACCCATCCTAAATGCCCAATTCCCCAGCTAACATACCACTACCTTGCTAATTTCAATTAGACCACAAGTAGTGGCTCAACCCTCGTATTCCCATATCCGTGCGATATATATATGCACACATATATCGCGCTTCTTCCTGTTGGCCGCCTGACCAGCACACACACACACACACAACTTGTTGGTTAATAATGCACACAAAACTAAATGCATAATTGCAATGGCAGCCATTAGGGGGTTGAGTCGAGAAATTCCCGACTAGCGAACTAGGGGAAGTCACCGTCACGTGCAAAATGTTAATTTCTATTATGTGTGGCATGTGAGTGCGCCGATGTGGCGATGTGCCTGGTGCTCGGGGCTCCTATGCTCGGCCTGCTAAAATATTTATTCGCACCTATTTCGGTTTTTTTGCCCTGCCGCTCTAGTTGTTGTTATTGTGTCCAACAATGGGAAATTAGCGTTATTTATATATGCAAATGTGTGTGTGGCGTGTCTGGCAAGGAAGGAAGCGAAAACTAGCAGCTCGCAACGGATGCAGAGCCTGAGGGCCCGGAAGATCACAGGCGCCCTGCAACTGAGGCGTATGCATATGGGGTTTGAAATAGTGGTGTCCTTACACAGCAGAAAAATTTGTATATTTTGTATTTTCTAAATAACTATATTCCAACTAACCTAGTAAGACTAAACACTATTTTAATAAAGCGATTTTGGCAACAAGCACTTGGCACCCATTGTTGGTTTCACTTCCACGCCCCACGTTGGGCGCCACAAGCTGGGGTTTTTTTTTCAATGTACTCACCACGCATTGTATTTAGGGCCGACTGCTTCATCATCATGTGCTTGCGCTTCACAAAGACCATTGCGCCAAAGGACAGCATAAGAACGGCCAGGATGGCGCCCAGGAGTATTATGAACCAGGGCTGCGTCAGCACATCGTTAACATGGTCCTGATTGATGGGATAGCTGGAAGCACCAAACCAAAAATATAAATAGAAATTATCCACTCACTGCTGAAACCAAAACCAAAAATAGACAAGTCTTAAAGGACTCAAACCTACCGCTGATTGATGAACGGATCGAGTCGCTTTGTGATGGGATCCAAACGCAAAGTAGCTGGGACACAATAAGGACCAACTCCAGCGTTATTTCCGGCCGCCACGCCCACGGTGTACATGACGCCTTCGGTGAGATTGGCCAAAACCAGAGTAGGCGAAGCGGCATCGATGGTGACATTTGTCAAAATGCGTGAGAAATTGTGGGCAGTGTCAATACCTCGGACTATAACATGATAGTTCAAGAGAACACCTGAAAATACAATAGAATAAGTAAAATTATTTAAAATGTGGTGCTTATGGGAATGACTTATTTTCTATTAAACCTACCATGCCGATCCTTGAGTTCTGGTGCCTTCCATTTGAGGAAGACCGCGGAGGAGTTCAACAGCAGAGCCTCCATTCCATATGGTGCCTCAGAGGGAACTGGAAAGGAAACAAATTTCGGTTGGGTTAGATTTGAATTTTGGGTACGGCTGAGATTGAGGAGCAAAGTTAAATGGCTTTTTGATTGTGGTGCGTGATGTCACCCAGCTGACGTCCGCTCTAATGAGATTT
0.7921508818402789 TGAGTTAAAGTTGAATGCAGCACGGCATTTAACCCACCATCATTAGCAGGGGCGCGGAGAACGGCGGTGGTCAAATGGGTTAAGGAAGAGGCCCAAACACGTCGGGCTTTTGGCCCTCGGGCGCATGCCACACAACTCACCTTGAAGCCAAACTCAGAAGCGAAGATTAATTGCCGTTGCCTTTTGTTCGGCGACTTCGTATCTTGGGCCTCTCGGTGCTTCCACCTCTGTTGTTCATGTATCTGAGCTGTGCATCTCGAAGTTAGAGATGGTACACAGTCACGAGGAAAAGTACATTACGTATTACATATTTATTATATTTTGATATTATTAAGCTATGCGAATGAAAAGTGAACAATGCATCTGAAAATATTCTTTCAACCGATCATATCTCACGCCACCATCCCGAGAATATCCCTCTTCGGTGCTACTTGCATGGCGATAAGGAATTTTATTCAGGGCTGCTAACCCCGAACCTGGTCGATCCACCTACTACCATACGAGTGCGAGTTTATGTAACTCAAGGGGCAGGCAGCACACGTAATTGCTTTTTGTTTGGCGTCTCATTTTAGTTACGGTCTGCCAACTGATGATGCTCATACGCACGGATGTGAGTGCGACATGGGTTCCCAAATCGAGTGGATAGTGGTCGGTGGAGGGGCATGGGCATGGGCGGGGATGTCGCGCCTACGAAAATAGGTGTCGCCAAGGCGATTAGACCTGGCCAAGAGATGATGATGCGGAGGAGGGGCGGCGGACCAGTGACCAACGACCATGAATCAAAACCAAGGGAAGAAGCCGGGTTCCATTCGTTAGCTCCGCCGACTGTCAGTCGCACACACAACTCGCTTTGAGTAATGCTGCTCCCATTTGAATTATAGCTGTCGCCATGACCCCGCATTCACCAACCTCACTGTTAGTTTTTTAGGCCAGTTGGCTAAAAAAGGGTTCTTATTTACCCAGAATTCAAGTGTCCTAACACACCATTCGACCCCGGGAAATGATGATGGTGATGCTGATAGGAGAAGTGATGTG
0.8280717746595097 ATCTGGGTGGGTGGTGCTCGGTGGTGCCTCGGATGTGGTTGTAGGGGACCGATTTTGAACGCGAAACCGAGGCTAAGTTACCTTTTCGGTTAGCAAAGCAACAAATTATCTGCGAGATGCATCTGAATATTGCAAACAAAAGATAAAAGCCGAAATGCAACGACAACCGACTCATAGTTGGCTGCCACAGCCGCAACATGCCACGGATGCTGTCCGCCCGCCTCCCCCCGAACACCCTCTCGCCGACCTTCTGTGCCCCCCTGGCCGCCCAATCGCCATCTCCATCTCCATCTCCATGTCCATGTCCGTAGCGGTTCGCATTTCGCTTGCAGCCACGCAAAAGGTGATTTATTTGAACATGGTTATCAACTTAGTAGAATAACAGGAGCAGCCAAAGCGCCGCGCCGCCAACAAGAACTACAACAATAAGCAGGCAGCGGATCCCCCGAAAAAATGGAAACGATTGGAAATTATGTTCTAAAACTCTCTCGAACTTGCATTACTTAGCTCTACAATTAATTACAATTTTAAATAAATAGTTAAAGGGTTCATTATGCAAACTATAAGTATTAAATATAATCATATTCATTGGATTATTACTTTATCATTCAGCGATTTTAATCAAGCCCGATCAACAAAGTTTTCCAAGTGACTCGAAGTGCCGATATACCTTGCTAACCTTCTCATCCGCCGGGTATCAAAACAACAATGAAGAGCAAACAATGCCAGATGGAGAGCAACAACGTGCAACGTGCACCGTGCAACTTGAACTTGTGCTCTGACTTTGGTTGTGGCATGGGTTCGGGTGTGGGTTTTGGCTAGAAAGTGCACTGCCGTAAGATACGATTGCATTTACATGCATCCCATATCAGCGCCTGCATCGGGGCGTGTGTATGTGTCCGTCCGCCCCCTGAAGCCCCCTGTCCCTAGCCCTATCCCCGTCCCTGTCTATCTGTCCGTCTCTATCTCGCCGTCTGTCTCTGTGCGCACCCAAAACACACCCACTGAAGAAGGCAGAAGGCACCAAGCCAGGGTCCTCGAAAGCCAAAGTCAATACACTCAGGGAAAAAATAAATATTTGCTCTCCTCTTTAAATAAAATGTATACAATTCAATGCTTTCAAAATTGATACTTGATATCAATTTAAAATTTTATTTTTACTGAAAGTTAAATTCAAATAAATTCAGATTGGAATGATTTTTCTCAGTGCCCCACACCCATAGACCGACAACTATCCCGAAAAGAGCAACCGGCATACAATTTGGCCGGCAGCGAAATTTATTTGAAATCAATGCTTCTTGTTGCATTCTTCAGTTGCAGCGGCATCGACGGCAGCAGCCACAACTTTTTGACTCTGGTTGCAGTTGCAGTTGCAGCCGCTGCCGTTGCCGCCGGTAGTAGAAAAGGGTTCTACATTCCGAGCGACCGAGCATATGGGTTCTCGATGG
1 AAAGTTTGCGAGTAAGAAAGTGTAAAGGAGGCGGTAAGGGCGGTGGGCTTTAGTTTATGGAGAAACGCATTCGCATAACTTGCACATTCTCCGAAACTTGCTAAATCTTTGAAGCCCAACTCGAGCTGGCAGCTGGTAACTGGAATCCGGTAACTGGGAACTGGGAACTGGGGGATTATTTCAGGTATTTCTGGGACTTTTCTTAACACTCAACTATTTAAAGCTGCAGAGTTGCTCGTATATTGCCCCCACATAATTAGTTGCGCTTAAAGTTTGGTGCGTCGTTCCTGTTTTTTGTTGCCTTTTTAGTGGGTGCTCATTCCCCGAGAGGATGAGGATGTTTGGCATACATATATATAGGTCAGGGGGTAAGTTACGGTCTGCAGTTGATTTTACTTTTTATCTTGTTTCTGTGGTGCGTGGTCTCTGTTAACTGTCGGGTTTAGCAGCTCTGAAAACGCAAGCCGGTTGTTGCAGTCGCCTGTTACGTCTACGATATTGGCTTGTGGTTTATGTTAGTTAACAGTGTTACGTTACCTACGATATTTGACAAAA
0.4250130879046942 CTCAGTTGTCGGGGAATAGAGAGGTTAACCTAAAGGGGAAAGAGGGAAAGTCAAGTTGCAACCACTCCAGTCACGTCCTCTGTTCCCATTCCCGCCCCTCGATTGTGCGACAGTTGAACACTCGAAATGGGTCGAAGGTGTTGCATGATTTATGGATGGATGAAGATGCAGGGAGTCCCTCAAGGCGAAGTAGATGCACTAGGTGTTTATGTTCCAGGTGGTTAATATCCTGTGAGGAGGGAAACAACTCGAACAATGGGAAC
0.130313998793485 TGGGCGTTGGGCGTGTCGGTCTGCTGTTAATGATGTTTGGCAACTTCAACTCCGGACGTCACACACACAGATACATGACCGCAGCCATACACACATACAAACACACACACACTCACGCGGAGGACACCTTCAGCATCCAATTAGCGGCAAAACGAGTTTCAGGATCTCACTCACACATGCAAACACTCGTATGCCCCATCCATCTGGCGTCCCTTTCCCACCGCACTCGCACTCTTTCTAACAAGCACTCGAATCGCTCTTTTTTTCACAGGGCAAACGCAACTCTCATATGTTTCGTGTGCTTGTGTTGGTTGCTCCCACACACACACACTCGCCTTTGTGGAGCGACAAACAAACAAACAAGCCAAAAACA
1 AAGTACCCATGCATAAAAAACCAACAATGGATATTAGGCAACATTTATGTAAGTGGCGATTATTGCGCCATTACGAGTAGTTTATGTGGTAGCAACAAGACCAGAAGATAACGCCAAAGACTTGGCAACAGTAAATGAAACGAGTGTTTACAGCCCGAAGACAAAGTAAATTAATGTGTTCTGTTGCGGGATCCGAAATAGTTAGTGTAAACAAGGAGGCACTCTTGAGAACGCGAGGGGCAACTGTTGTGGAAATGCCCGAGATTGAATCGCTGGTTAAATATTTATGAAATCATAAAATTTGATGTCTCCCTTCCGTTGGCCACTTGACAGTAATGCGACCATTACGGCAATGTGTCGAAGAAGAACCCCTGGTCCTGAATCCCGACACAACCCAACTCCAGAGCGCCGGTGCTAATGATGATTTTGATGTGCAGTCAACGGATTGGCTGCAGACCCACGAAGACCCGGCGATTACGTGGAGTACTACCCATTTGGCTTCCCATTTCGATTTCCCCATGCCCATTTGGCCGTGCAATGTTTGTTTTATG
0.8347451681156776 GATTCGGAAATTTATGCGGCTGATTAGCGCTTCCCAAACATTTTTAGCAGCCAAGCAAATTAGCCCCACTTAAGAGCGTTCAGAAATTATTCCGTCAAAATGAGGAGACTTCCCAAAAAGCGAAACTGGCCAACACCCGAAGTGTCTATGCGGACACCTCAGCAACATCCTATGCCCAGCTCCGATCCGATCTGCTCCTCTGTCGAGTTGAAGTTGAAACAAAGATATAAAAATAAAAACAAAAATCATATAAAAAATCGTTAATAAATTTCACAGACGGACAGAGGTTCGGGACTGGATCTGGATCTGGAGATATTATGTGGATGGGGATCAGTTCGGTTCGGATCGGATCGGTTTGGATTGGATCGGGATGGCAGCTGCAGCCGATTGTGGAATGGGTAGAGCTACCCTTTTATGCGGCCAGCTTTGGGCCCCGAGCCAGATAATCTAAAGTAAAACCCGTGGAGCATAAATAAAAAAGAAATTACTTAATTTCTTAATAATGTTGATGCTGTGTTGCTGTGTTGTTGCCAATGGCTTGTTTCGACAACTTTTTTATAATCCTTTTAGGGGCTCTCCCAGGCGGCAGCTGCACTGTGAGAAATGAAGCCTGTGCGGGCCGCTGTTTAGGGCTTTTTGTTTTACATTCTGTTGAAATGAAATCTTTATTTCCTTTCGTGACTATAATTAATAATTTTTGGTACCTTCTGGGCGAGGAGCGGCGGAGCAGCCTCTGACCAGCGATCACACCACACACGCAGATCATCATTATCTCCAAGACGATGATGATCGAGTCGAGGTCTCTCTGGCTTTCTGCCTTTGTGGCCAGCTAAAATTGTTTTATGTCTGAAAATTGTTGGTTTGCCACAGCCCTTGATTTTGTTCCTGGCTTTAATGTTTCCCTGGTGGCCAGCATGTCTCCTGCGGTTTCGCTTTGTGTGTCTTCTCCAACTTTTTGGGTGTTTCCCTCGCCATATGTGTATTTGTACGGAGTTTGTAGTAAATCATTTGCTAATTAGCAGGCAGGATCGCAGGCTGAGGGCGAGTGGGCAGGCAGCGCTAATTTGAATATAATTGTAAGGAAACATGAAAATATATAATCTAAGAGAATATGTAAGCTAGCTGGAAATGCAAAATTCTTACCAGTTAATGCGATATATTCTAATAGTTTTCCTTATATCGGTCCTTACTTGTAATAGATTTAAAAAAATGTTTGAGCAACACGAGTGAAATGATTG
0.8142477816156448 ATTAGGTAAATCTATTCGTCTTCCGTTCTATTTTTGATTGCTCTAAAGTCATTGATCAAAACTAGTTACTCAGTGTAACGATAGTCTATAAAAAAGGGAGTTTTTATTGTGAATCAAGCACTAGAGTACCCAGATGTTTCTCTCTGCCCCCAGTCAGCATGCTCAATAAAAACGACAAAACACAACCACGTATCGTTATCTGTAATTTATGCACTTGTACTTTGAATCACTTAGTTGCTCCTGTCCTGCTCCTTGATGCTCCTCCCGCTCCCATTTTATTTATGCCCCTGTCAGTGGCTCATTGTTGTTGCTGTTGTCACACACACACACACATCCGCACAACACAGAAGTAGCGATTAAGGCGATGCGATTGTGATCTTATCAACAATGGGCAACGATCAACCACAACGACAACAACACCACGAACAGGACACACAAGGAGTTGCCGACGGGAATGGGTGCGGGAAGGAGGAGGAGGTGGAGGAGGAGGGGATGCGGATGGGGCAGGAGCAGGAGTTTAACCCAAACAAGTCACCAGTTGAAGGGGTGCGTGCGTAGAACAGCTTTATAAATGTAAATTAGATCTCGTTTAGCATCGACTATGGGCCTCGTAAATAAATGCCAAATGACATCATTATCATCAATGCTTTGTTCGCTGCACACAGTGGACTCTGCTCCTGCCGCACAGTGGTACAGAAACGTGTGAAAACGGAGGGCAACACATGATCGGAATGAAATAAAATTAACTATAAAGTTTGGGTGTATTTTTTATAGTTCGCAAAGCTTAATAGCCCCAAAAAGTATGCAAATACTTTTGCACAGTGAGTTTCGCAGTTTCAAGCTTGTGAGCTATATCTTAACTTTATTTTTATGTATATTTATTTGAGCTACACAACCAGTGTACCTTTTGGAAACCTAAAACTCGATGCTCGATTCCGATTCCGATCCCGATTTTATCCCTTTTCAGTTCGCTGTTGCTCCCGTTTCGATGACTCTGCTGCTCGTTATCTGCTTGTTGTTGCTGCCTTTGATGTTGTCGATGGGCGCGGTGATAAGGGGTGGGGGTCTGCAGAATGAAGGGATGGGGTGGCAGGATGGCCTGACCAGGAGATATCCCCGCGTCCACATCGCAGACCCTTATCAGTGAGTGGCGATCGGCTCTTGGACGGTGATAATGACTTGTAAGTACAAAATGGGTTGTCAGGATGGTTGCTGCTGCTGCAGATGTTGCTGCTGCAGATGCTGCTGCGGTTCTTGCGGCAATCTTCTGCTGCACGCTGCAAGCTGCACTCGGCAATTC
0.9444507100665518 CTCTATGCTGAACATGGTCAAGAGTCGGTGGCCAGTTGGTCCTCCAACTCCCCGAGTTGCGTATGCATTTTTCTTGGAAAAACCCTCGCCCACATAATTTCCCATTTTTCGTTTAGTTTAGTGACTGACTCTTCGTTCTGGGCGTTCTCGGCTTTCTCGGCGTTCTGACCACCGGATGTTGACGATTGCCGCTGCGGCTTCTAATTGCCGTCGGAGGGGTCAGAGGGCACTCGAGGTGCCTTTCACTGGGACATCTGGTGCTCGCTGCTGCGGCGGCGGGGCAACAAATTTTCAGGCAATTAGTGAAAATGTTTCAATTTACAAAACATCCAAATGATAAGCGGGAAATTAGTAAATAAAGACATCAAAGCGCAGGGCAAGCGGCGCTAATGGCGCTAGAGAAAGAGGATCGGACAGGTGGACAGGGAAGCGGGCTATACAACAGGTGATTAATTATAAACACTGACAAAACATAAAAATAAAAAATTAACCACGCACACACATAACTGAAAGGAGGGGGAGGGTTCCCGGCCAGAAGGAACGATGTGTAGGCAGTCGGAACATTTTTATTTTTATAACCCCCATTTCGAGGGTATGTGTGCGTCCATTAATCGCAAGTTAATTGCCTACAAAGCGGCAGCTAATTGCCCGAGTTGTTTGAGAAGCCATCGATGTGGGGAAATGGAATTTGATTCCAACCTCCAATTTTGGGAGACTCATTCCTAGCCAGGTTCGACTTACCGCTATGCTTTACTACTACAATTTAGAAGTACATCCCTGGCTGCAATCTTTCTAATCGCTCCTTTTATTTGCTGTTTAGCATCATTTG
1 AGCTGCAAGGATATTGCCCGCCCCCGCGCCATTAATATTAGAATTTATGGATGCCAACTAACAACGGCAACAGCAGCAGAAGCAGCAGAAGCAGCAGAAGCAGCAGCAACAATGGCAACAACTTTGACAACTTGCAACTACAGCGACAACGACAACGAAAACAACAAGGCGCAATGTTAACGCCAGCGTGCATTGTTAGCAGATTCAAGTGTCTGGCGCTACAGCAGCAGCGGCAACAACAGCAGCAACATGCAACATGCAGCAGCATCAGCAGCAACTGCAGTGCCGTGCGGAAGCAGCAACAGCAGTTGCTGATAACCATAACATTGAGTGATATACGAGAGCGGAGAGGGTTGATTGCTCGACTCGACTCGAGTGTGTGTGTGTGTGTGTGTATTCGTGAGCAAGGACCTCCTTTATTGTGTCGCTGTGTGTATCTGTGGGTGCTGCTTCATTGCTTAACGCAGCATAAGCAGCATCGCACAGGCAGTCAGCCAGACAGCAGAGACAGCAGCAGCGGCAGCGATGTGGAGGGGTTGTCGATGGCCCCACTAATTTCTGCTGCACATGCAATTTTTTTTATGCCACCCACGCAGCCCCACACTTTATTTCCCCCAAGGCACCCACACTTGTGACGGTTTTCAATACGCTTTCTTCTGCGAGAATGGCGCATGCAAATGCGAGGGGTTAGCAAATCATCTGCGCAGCACTGAGAGTGACAAGTGGCTGCACTGAAATATAGGATTTAATGCACATCCTATAATTCATACGGTTCATTTTTCGCTTTTTCTATTTTACGTTTTGAAAATTGGCAACAACGTAATAAACTTATGAAATAGAGTAAGTGCTCAAAAGCTATAGCTCAAAAACTATTATTGCTTTTAAAGTATGTTGTATTGTTAACTACTTTTTATTAATTTTTCTATATTTACTTCTGTTATATATATATTCCCGTGAAAGAGTATATCCTTTCGTGTCCTAGTCATGCTCTCTGCTTTTTTCGCTTATGTCAGCCCGACACTCCCAAACACACACACACACACACACACTCAAATGCAGTGAATGTGCAACGGAACTGCATTAAGCGCGCTCGATTGTGAGCTTTAAAAATTATGGCTAGCCCGATATTTTGTTTGGAGGTCAGCCATATTGTAAATTGACTGCCTAGAGCTCAATCAAAGTTTATATTATCCCAGAAAGGGCACCCGCTGGGGCCAAGAACACGCCGCTGCCAAGAAGTTGGAAGGCAAACTCGATAAGGGATACACGAAAATATATTGTATGGGTTTTTGTGACTCGACATATAGATTGTTCCGTTCGAATGGAACACAGACTCGTGAAAATGCTTGTTGGTATTGTGCTGTATTTTTTCGTTATTTTCTGGGACTCTGCTGCCTTGTGGCTTTAATCGAGCTTCGTGCCGCTTTCGACTTACGACGACTGCAGCTGCCAAATGTCTAGCAAATATATAGAAGTCTATTAAGTTTATGTCGCGTAATTTAGCAAACTGTCAAAATCGCTGGCAAGTGAACAGCAACTGAATTCGGTACCATTCAATAAGTTTACTTGACATTGCCAAGTTGTGGATG
1 TATTTCTGGCCAAATTAGCCGTTGCGTGAATTAATTTCGATTTTCTCGCTCAACTCGGGCCTAAAAATTTTGGGGCGTTGCCGTTTTCTTTTTTTTTTCGCAGCATTGACAATTTTATGTTGTCGCCCATGGAAGGGGGCGTGGTCAACGAGGACCAGTGGTTGGGGGCAGTCACTTTTCTAATTGCCCAAAGTCAACCAGAGCCTCCGGCGGTAGATATATTGCTCTAAGAATGCTCTAACTTTATCACTAGCCTACAAGAATATATTGAAATTAATGATAAGTCACACAACCATTTTGATTACCAAAACTAGCTTAAAAACCTCTTCCAAAAGATTAGGATTACGAACAAACAATCGGTACCTTATCGAAAATGGTACACCTTTGCTTATAACTAATCCCAAAATTAAACATACAGTGGAGTACCAGTTCACATGGTCTCTCCTTCTCAGTAACTCAGGATACAAACGGAGTGACACTTGGCGGACAGACTTATCGAGGGGGTTAGTGGAGATAGAGAACTCTACCCTACGTATTTACCCAGCTGACTAGTGTCGTGTGTTTTTAGGTGGCAATGGTGCTCTAGTGGAATTCGATTGATTTGAGTGGGGCAGGCATACAAATTTCGATAATGCCCCCGTTTTGTTTGTGCAAAGCTCGATTGCAGGTGAGGTTTTCGACATAATCAGTCGGTTTTCAAAAGGGGAAACTACCCCATTAATTCGCAGGAATTACATAAAAACTTTATTTACACGATCATAACAACATATTCAACATATTTATGATGTTTATTCGGAGATTTGATGGTTTTCCAAACAACAAAGTGGCTTTCTTTAGGCACTTAAACGATTTTCT
0.9026121938807969 CTTTTCAGCTCGAGGATGCCCCAGGGGGCCAAAGATCGCGTAACATTTGACTTTTACTTTCCACGCAAAAAGCAAATAAAATAAAAAAAAAATAAAAAATAGTAACATACTGCAAAGACAAAACTCGTTTGACAAAGGCAGAGGAACCACCGCACCGTTTGTGCAGCAAACCATAAATAAAATATCAGCAAGGTATAAATAAAAATATCACATGCCTTCGAAGAGCAAAACGCAGATAGCGGACAAAAAATATGCAAATTTCAGTCCAAAAACTGGTTCAGTGTACTGGAAGTTCTCATGGGGTCGACGACAGTTTCTTCTAAGGATGCACAGCAGTTGTCGGATGTTTGTAAGACCTGGCTAAATGTCAAGATCTCTCGATGTGATTAATGGCGGTCTCCATAGCCAAGCTCGGATTTCTAATTACCCAGAACAATGGGCAATTATTCAGGCGGTTTATTAAAGTTAATTCGGTGTAAACGCTTTGATTTCGCCCTATAAGCCTAATGAATTGATTGACTGCAACCAGCTGCCGCGATTATCTGGTTTATGTATGTGACAGAGGCACAAACTCAATTTATGCAGCCAGGGTGCGAGTGTAGCCACTGTCCTCCACTCTACGTGTATCTATCAGATACAACTGCCCCGACATTCATAGGCTCTGTCTCAGCTGCGCGTGCTAATCGCGATGACTTCATTTCGTGTTGCTCTTGATGTTGCTGCGGCTGCTGCTCATTTTGCTGCTGGGTTTTTGCTGCTGCTGGGTTCGCTGACAGAGGTCAGGCCCATGTATCTCACAGATA
0.8923096912239546 CTTCCCGCGATATTTCGATTTTGCTGAGCCACTCGAGGATGACTGATGGCAGGACATAACGAACCGAGAGCTCTATCTAGTTAGGTGGTCCATGAGTCAATCGCTGTGATCAGGTTTAGTCATTTCCAGCGCTCAAATAAATAAAAGCTTTGAGCGCCACATGTCGTCGATTCCTTGTAATCCCGAAATTGGAATGGGAAGGGGAATGAGAATGGGAATTGTAGTGTATACGTTCCCAGGGCACGCCGAAGATCCTGCTTAGGATGGGGAGCCTCTTATAATGTCTTATTTATATCGGATTATGGCCATCACACCATTGGCCCGCTTTTGTTGCTGTGTGGCCACCATCAGAGGGCTCAGAGCACACAAAGCCAGCGGGCGCATTAAAATGTCAAAGAGCCGAGAATGAAATAATAAAAAATAAAACAGACAACGGACAACAAGTGAAAACGCAGGCATAACAAACAAAAGAGTTGTCAAGTCCATGGAGGATGGTCCACTAACTAACTTGATACCGAGGTGTTTCCACTTTTATCTGTGGTTTTTTTCCCTGGTAATTCAATTAAGTTCCCACTGGGAGGAGTAGGAGGTAGTCCCATTCCAAATCCAGATCCCCCTATCGAATGGACTTCCAGGGACCTCCATGCCCGTCGGCTGTCCGTCTATAAAATTGATCGCTCTCTTAGCCCGGCTAACTTTATTTTCGGGGCTAACCAATTTCCCAAACTGATTTGTGCCCGGCGATAAATTCAGCAACCTAATTGACAGCACAGTCCCCTGTCTCCAGGCATCTTCTTCTGGGCTGCAGGGTTCTCCGGTTTCGTTTTCCACTTCTAGGTGTCAATTAATGCACTGACTCGGGGAGATTGAGCCGGGCTGATAAGGTGGAAAAGTCGGGGCAGAAAAATGGCCTCAGGCGATTAAATTGTTGGAGGTGCACTCGGAAAATTGTACTCAAATTGAAAATCTTATTCACTTGAAAAAATCCTTCCAAAACCTTCCGAATTAAATTTTAAAGGATAATTTTAACAGAAATCCATTGCTGCTGGAAAACAGCTGAAAATCAATAATGCCATAGTAATTTCTCTCAGTGCCAACACCCAGACAGTTGCTTTTGTTATGGCCAGTTAAGATTTGTTCGGGCCTAAGTAAGTTATATTTAAAACACCTTCTTAAGCAAAAGTGTCAAAATAGCCGATCGATAGAGGCGACGACCATAAAAACGAACCACCCAGTGAGCTCGAAATTGAACTCGCCTCGAGTGCTCGTCGTAGGTTCTCAGTCGAGTATATGAGTATATGAGTATCTGAGTATCTGCGCGCCAAAGTATCTAGGTATCGGTGTATCTGAGTATCTCCCCACCAATTTTAGTGTCGTCGCCTGACGGCGAAGAGGGGAGAAAAGGCTTGTCAGCCGAGTTTTCCGATCTTTTTCCCCTAAGTAACTACGCGTGTAGTGCAATTAGGCTGCGACATTGTGACACATGCGACTACTGTGCGCCACAGTCAACAACGACACAAAAAAAAAAGAACATACGTGCAACAATCAAGTGTTGTGCTGTTTAGCAGAGACGTGGCTGAAAGGGTGGCCTAAACGAATTGGGGGGCTTTCAAGAGGGCTGATTGCAGTATGATGTCTAATAGTTGTGTCCTA
1 GTAAGAAACAATAAATTGAGAAAACTGCCTCGAGCAGCCGAAAAACCAGTTCGTGCGTAGTTTTCCATGTCATGTTTTCCCCATGTTTTCCACATTCGGTGTCGAAAAGCGAGCTCCAAACAATTTCCCATATCATCGTTGCAACTTTTTTGCCGTATTTCTTCACCTCCCCTTCGTTTACTTCTCTTCATTTACTTGCCTCTTCTTTTTGCTGCCACACGTTACTACTCATAGACATGAATATATAGGCATATAGTCATTGGAATAGGAACTTGCCCGCTCCAGCTGCTTCTTCTTTCGTCTATAAGTACCAAGGTGCGCGACAAAATTGTATGTTAAATTGTATGGAATGTTATCTGAAAAATCCGATTACATTTTTAAACGTTCCGTTGTCAGCTGATCTTGATCTTCTGTCTGCATTATGTATAAACCAAACCTAACAAAGGTGTGCAAAAAAAAAAGTCATAATGACTTAATGCTACTTAAACTTATACTTTCGTTCGGCATCTGTCCACCGATGTTGGAGGCACGAGTTGAGCGCGCATGTACAAAAGCACGCAGCGATACGTCAGCCCCCCTGCCCCCTCCATTTTCCATGAGCGCCCACACGGGCATCATCGCATCCACATCCAAAGTGTAGTAAGTGCACTTTGTGAGTGCGGCCAGGGTTGCCAGCGCTATTGCAAGCGCTATTTGAGCAATTGTTGGGTGGGAACGGGCGAGGAATTCAATGAATGGGAAAACAAGGTGCACACAAAAGAAAATCACCCGAAAGAAATTTGCAGGGAATGTTAATTTCGCGCAGTTAATTACTACACGCCGATTATCCACAAT
1 TGCAAGGACCAATTATACCCTGTATTTACTGTAGCATGTTCCCAACTTCCTCCTTCTGGACTCACTGCATTCTATTTCTAACCATTCTCCTTGTTGCTCCTCACATATTTACCCAATGATAACCAAATATTTTCGATGCGAAGACATTTTCCAATTTGAAGCAATGAAAACATACAAGTCGCTGGCGGCCTTTGATGTTGCACGTTCATCTGCGACTTGCCTCGCTCGACTCCTTGCCGCATGAAATTTGAGTGAGTCAGTCAAGTGCTCAAGTGCGTGTCTGCCCTTTCATTTTGAATGTGTGTGTAGATGTTTCGATTCTTTTTTGTAATTAACCGACTTTCGAACACATCGGCGGCACCTCCTACTTTTTGTTTCCTTTTCCGTACGCGATGTTGCCACGTCCACGCCTAAACACTTCACTTGCCGCATGTGTTTCTTGTCCCCAATCCTGGCTGCACTGAAAGAAAACTATATATATCTAATGGAATAAGGTAGATGATTTTATGGTATGCAGTATGCAATACCCATTATATTGATTGATTTCAACTAGTACTTGAGTCAGTTAGCCATATACTTTTTTTTCCGGTGTACTCTGCATATTTTCCACTGCTGTATCGGATTTCCCCGATTCAAAAGACATTAGCTCGAAGTTAGGCAGGCGCCTAGAAATGTCAGCGAATTTTGACCGCCTGCGCCTGTTTGTGTTAATGAGAAAGTGTCATCGATTTGACGTGGCGGCAAAAGACCAAACGCATTTTCCCATCTTGTCATTATGTCAAAGAGGTGTGATCTGACTCGTTTTTTGTGGCCATAACTTGGGGAAGTTGTTCCGCAGTGTGGAGATGTGAGCCATGAATGGAGCTGACACACTTTCACGTGGCCACGGAAGGAAGTCGTTTAATTGGAAGTGGGAAATTCGATCGGGTAAATAGCCAAGTGTTAAATAAATTACATCTTGTGTTTGTCGAGGAATACAAAAGCTAGCAGTGAGATGATAAAGTAAAACGAAATTTTATTAATAATCCAGAAAGAATACATTAATCATATCTTTAATGTGGTATTCTCATTTCTCAAGGTGTTATTTTCTTTTTTTAAAATTTTCAACTGCCATTTTGATCTTCACACCTGAATTCGAGGCACATTCCGAACTGTCCATAAACCGATCATCTCGAGATCCTTCTCAACCATTGGTCATCAAAAATTTGCCAGCTGTTCGATCTTGTTTTTGGTCCTTTCATATCCTGTTGCTGCATAAATCGAACATAAATTCCTGCTCCTTAGCAGCCCTTGTAAAAGTTAATTGCTATGTTAACACGTCCAGGCCAAAACACAATGAGCCGTCTGCTGCTCATTTCAATAAGGCTCAAAAAGGAATCGATTTTTAAGACTATTAAAGGCCGAATCCGCTTAGCGGAGCGTCTGCTTTTCTGACTTCTTAATTGTGTTTCTGGTTTACTGGATTTGGATCGTAGGGGTTGGGGCGGTACTAACGATTCCTCAAACATTCTGCACGCGCTGCGATCATTTGTGGTGATTATATATTGTTTGAATTTCTCCTTTGATTGCGTCCACAGTCCACAGTCCGCAGGATCGAGGATCAAGGATCGCCGAGGCATAAATCAAGGACTCCCGCTGCGGTGCATTCCCAATCGAGGGTATATTTTCCAAAAGGCGTGGCCCAAAGTCGGTCGAACAGAATTAAAGTCAAAGCCAAAGGCCGAAAATAAGAAATAATTGAGACATTTGTTGGCAGCAGCGGCGGCGGCTGTTTCTTTTTGGTATATTTTTGGTCTACCCGCAATGACAATGTGATAAAATGTACCTAAAACAATGACATCAAAGTCGGTTTCCGAATTTCTTTTATTTCGTCCATGGGCGGCAGCTCCTTGCATTTTTCAGGTGACATCTTATTTCCACCTTTCGGCACGTTTCGAACAATGAGTGTCCTTTTTTGTCGTGGTACGCTACTCCCGCTCATCAAAGGATATATGCGGCCACTCTGATCTCTGCCGATCTCGCCTTGATTATGTTGTCACACAAGAAT
0.8963574573451258 ACAGCAACACCTCCTCAGATAAAGATCGTCCGATCGAGGGTGTATATACGGATATATGTATATATAAATTTGACGGGGGGCAGGGACACAATTTGTGCAACGATGTTGAAACCTATTCAAATTAACAAATGTGTTTTAATCTCCGACAACAAATTTGAATTGTATTTTGGTGGAATTTCGTCTTCACCTCCGTCAGTTTGATCACCCGCTGCTCGGGGACAGGTAGTGTGTACTGTACAGTGAGGCATCGGTTATACCGGGCATACAGGGATCCCTCCTGCGAGTGCGACTGCCACTGTCGTTGTTTTTGCTGGCATTGTTGGAACAGGTCGATCGATCTATGACAGATGAGATCATGTTGACTTGCCACAAAAAGGCGCACAGTCAGTCGCCGCAGTTGGGCT
1 TGGTGGCCAATATCTCATTCGAATATCCCGAGGTGCCCTTCGAATTCAGGGCATAAACCTTAAACATATAACTCTGATGTTGATCCAATGGTGCGAGTTTACAGGGGTTCTCCTTAAAGCAATTGAATTCGATCCATTCGTGGTTGGAATTACTGGACGAACTGCTGATCTGATAGCTGGGTATATAGCCATTTCCTGAACAATCGGATAGGGTTTGTTCCCTGGGTGTTGCCACTCTCCTGTAGCTCACCAGATATTTGGTGCTCATAAAGCCGCCATTAAATCCCGGTGTCCAGTTTAGGACGGCATAGTTGTGACCAACTTCGAGGATCTTTAAATTGGTGGGTTTCTCTGGCGATCCTTTGGGTTGCAGTCTTATTGGTGCTCTTATGCTGTCCAAAGGATTTACAGCTCTGCAAATATATTCTCCGTAATCAGAGTGCTGCAAGTGTGCTATCCTCAAAATGGAGGTGTACACATCATTATTCTCCATTCTCGTACTAATTTCATAATGACCATCCGAAGACATGGTCAATGGCGAAGGATTGTTGCCGTATTGCCATTGAAACTCCGGTTTCGGATAGGCCTGAACCCTGCAGACAACCTCAGCGGATTCTCGAAGATCGTAGGCCACTTTGTTGTACTGATGAATGACTATCGGTTCGTGCTCGATCCTCAGATGCATTGAAGAATTGGCCGAATTTACGTCGTTTTCGTAAAGGCAAGTATACAGACCTCTATCGTTCGGAAGTAGTTGGTTTCCATTCGGTCTAGCCTTACCCCTGAATCTCAGTATACTTTGCACCGCCACCACTCCGCCACCGGCATCCGTGGGTGTAGTTCTTATATCAAACATCTTGCGAGTGGGCAGAATCTCGGTACCATCTTTGATCCATCGAATTTGCGGTGTAGGCTTTCCCTTGGCACTGCAGGTGACCGCATAGTCTACATCGCCCACCCGACGTGTCATATGTTGCTGTAGTTTGGCCAGAAACTGGGGTGGCTGATGTACCTCTAAGATTATGGTGGCTATTTTACCAATTCCCAACTCGTTGACCGCATGACAGTGGTACTTGCCCTCGCTTCCCAAGTGAGCTTTCGGTATAGAGTACTGTGGACCTTGCGCTAAAATTTTCTGTGTATTTCCAATGTCACCATCCATATCTCGGAACCATCGGTATTGGGGTACAGGCCATCCGGGCGGATTCGCTGAACAGGTTAGAGTCACACCATTGCCCACATGAACGACTGGCTTATTCGGAGTTATATAAGCCTGGCCCGGCCGATGTCGAACCAATAGAGCCACCGTGGAATTGCCCACACCCTCTACACGTTTCGAACTGAACGGTTGCATAATGTTCACCGATCTGCAGATATAGTTTCCGGCGTGCTCAGCCCTCACTGAACCGAGGGTTAAGAGCTCGCCAGTGTATCGGAAGTCCGGAGCTCCTTCTTTTAGCCATTCGACATTGATGGGCGATGGATTTGCGGTGACATTGCAACGAATCAAAACCGTTTCACCTTCCTCCGCTTCGTGCGTTTTCGATTCGATAAACACAATCGGCGGATATAGAACATCCAAGACTATATCTTTTTCGCCAGTTTTGCCCAAGCCGTTGTCCGCACTGCAGGTGTACTTCCCGGCATGATGGCGATTTACTCTATATATGGTGTGGGTGGGCGTGGCACTCACATATTGACCATTTCGGGACCATCGCACATTGCTAACCATCGGTTTGGCATCCACTCTGCAGTCCAGTTTCGCCACATGATCCCGTTCTACTTTTAAAGGATTCTGGGGTCCGACCTCCACTCGGGGATAGTCTAAAAAAATGTGAAGGAAATAAGAGTAATTTTAATAAAAAGTTTAATATTATTCTAAGTAAGCCAAATATGAGAGGTATATCAATTTGAATTTAATATTCATTGGACTTTTTATGCATGTAGTAGAGGATTGGTTTCATCATTAAATAATGTTAAATTGATATGAAAAACTAGTATAGTATTCATTTTAATTAAATCAGTATCAACGCATCAATAAAACGGC
0.3919155360180762 AACTGATCATGGCCACTGAATAATAGTCTAGAAACGACTAAAATAAAATATCCCACTTTGTGCGGTGTTTAAAACCGTGTGCTTTTAAAATAAATGCCAAAGTATACATCCAGATAGCGGAAAATACACGTGTGAAAAGAAAAATTAAATTAATTCTCAAAATTGAATAAATTACGCGAATTATGTAACAGGCGAACAGGAATGTTCATTGAGCAGCAGCAGAAGCAGGAGCAAAAACGAAGGCAGCTGGGAAAACCGCTTAGGAGCACTCACATCCACATTCTCTGCCACTCTCACTCTGGCGAACACACACATTCGCCGCGGGAAATGCTTTTCCCCCAAAAAGTCAAATAGTATTAAGTACGTGGAAGAAGAAGAAGCAGCAGCAGCCGAGTCACTCGAGAAAAGCGGCGGTAGAGCGAGAGAGAGGAAGAGAGATGGCGAGCGGGCCATAAAACATTTTCACATTTTCCACCGCCACAAATGAAGAGGGGTGGCTTCTTAAGGGGGTTGTCACACTATCGGCAAATGACAGTGGAAGAGCCATTGAGTCGGAGAGGGATGGAGAGATGTGTGGAGAATCATCAAAGGTTTGCCGCAGCGGCTTTTCCGCCTTTGTGGCAAATCCTCAAAGGAATTTTCCGATATTTGTAGCAGGCAACCAGCAATCAGCAGCAGGAAAACTTGACCGAAGAAAAACCAAGCACACACACTCAACCCCGACATCGAATTTTCCGACATTTTCG
1 TATATTTTACAACTCGCACACAGTGGCTCACACCCTCGTAAACAAAATAATGCTATTAAATCAAATTGAACATGTGAATTCTCTCAAGAAGACGCCACTTTTTTTTGGGGGGCCAGCTGCAACTGCCACCAATGTTTACTTTTATCTTTAATGGGCACATGCCTTACATATACGAATTTTACACGATTTTTCAAGTGGCGGTCGAGAGTGGGGTGATAATTAATTAAGGTTGCCTTTAGATAAAGTATTATAGAGTTTCAAAAAAATGAAACTTAAGAATGGAATAGCTGCATTCCATTCTATGTAGATTTCCCTTCAAAATTATTAAAATCCGTTGACCTTTGTTCATTTAGCAATTAGAATTCGTCTATGAATAACAAATTAAATTGCGTTGCGGGCAAATTGCTTTAGGCCATTTGAAGTGCAACTTTATATCTCAGGGCCAACTTCTCGGCGCGACAACAATAAAAACATATACATAGATACACATATCAGATGCAATGCAATCACCACAGCGTGACGTCATTAGTCTAGGCTTGAAAATACACGGCAAACTTGTTTATAACTCTACGCTGATTACATAAGCCGCAAACACGACGAAAAAACATTTGTTTTGGTTTCAAATCCATGAATGACTTTCATTAAGTGCAGCTGTAAGCTGAGCTTTGCCATGCGCTGACCCATATTTTCAGCCTCTCGTTCTCTCTGTTTCGCAGATACTGTGAATATTAGTAAAACGATCCATAGGGGCTGTAGTTTATAATCATAATCAAATAGGCATAAACAACCACCAGCCAAGGGCTGTGTAACTGATATTTTCTCACGCTCCATGATGTCACGCAGCCAAAGGTGTAAGTAAGGTAAGCTAAGAGGTTTACAATTTCAGGCCAAAGGGCGCTACTTAACCAAAGCACTTGAATGTCACCCATTCATGCAGAAGAGCAAAAAGAGAGAAAGGTAAAGGTAACGAGAGAGCGAGCGGGGAGAGAGCTTAGGTGAAATGCGAGACCACGCGTAACTCTTATCATTGAAAACTTTACCACCCTATAAAGACGAACTTTTTTGCGTCGTATATGATTTTTATTGCTGGTGGTTTTTAAAGTGAAGGAAAATGCATA
0.5103458790346613 CATTAACACTGCACTGTTCCCCTCGAAATTGTTTGCTCTTTCGCTCGAGTGGAAATGCGGGGGCTAAAGGTTGATTCTAGCCATACATACATATTTACTTTGAAATCCAGACAATAGAAAATCCATGTTGGATTTTCGAGTATTTCGTGTGAAAAACGCTGGAGGGCAGGGGAACACTATTCCATCCATACAATAAACACAAAACGGGGCCGACACTCCCAGGGAAAAGGCCAGACAAGCTGGCGGGCCGAATGTATCTGTATCTGTAACGAATCCGACTGTATCTCTGGAAATATTGTTAGAACTGAGCATTAGATACACAAAGCTGCAGAGAGGTGAACCCCGGGTCACTGCAACATGGCCAACAGATGTGCGCAACAGGCTCCCAATCAACGAAATCACCAGAAATCAGACAAAAGACGAAGGTCTCGGAAAAGGTCCAAGATGTCACTTGGAGTGTGGCTGGGCCCTAAATCAAAGTCAGGCAATGCTACCCGATTGTTCTTGGTCTTTTTTTTCCTTTTGCTCCGTCAGTCTTTTGGTCGGTAGCACTGTCCAGCATCTCATGGATACCAGTCTGCGTATCTGTATCTCTGCAGCATGGAAATTTTCGTATTGTACCAGAAATTTGTGTCAACGTGGGCGACACTTTATTGTGTGCCCGTGTTGTTGGGTGTGTGTAAAAATAAACCAAAGACATTTCATGTTGTCAGCAACA
0.9218786055545115 CATAGAAGACTGGTCTTCTGTGTAATTAAGAACAACACTGCAATATCATCTTAAGTCATTCTTAAGAACTATAGAATGTAAAGCTTAGATGCAAATCTGCATCTATGCACATATAGCAGTGCAATTTTTACGCCTGTACCGCTGAAGTTTTCACCCATCTGCCGCTGCAGAAATGTAGAACAGTGCGTTGTTTGTGAGGGGGGAGGCGTGGTGGTGCAGCATGTTCGAGACGAACCTGCATGAAAGCCGGCCACTAGGTGAGCGGAGCAGCTGAGTAAGCCTGAGTAAAACCGATCCGCTGCGCAGAGAGCCGCATGTTGTAACCGGTTTGCGGTGCTCTCAATTTTAAAATTCGGTTTGTGTGCTGCGACTGAAGTTCCAAGGGGGGCAGTCGGTGGGTGGTGGTAGCGACAGGGGAAGGTGGCGGTGGCGGTGGAGTGGAGTAAGCGATGACGCAGCTTCTTACGTTCTTTGGCCGATCTTGCCCCAGCCCCAAAACAAAGAGAGTAACAGCGCGAGAGCGACTAACAAATCCGTTA
0.7683653725084941 GGATATCTGAGATATGGGGGGAAAACTCGCCTGGGCTCGTTGATCTTTCACACCTTGCACTGGAGTCAGCTTCCTACAAGTCAGGTTACCACCGCGGAAAGAATCCCAACCATTGTTGTACCGATTTTCATTGTTTTCCGCTTGGCGTTTTCCAGGGATCAGGATGCGATGTCCTTGCGATATAAATCGCATTAATCACACGATGGCAACAATGGGTGAGCAAGGTGTGATCACAGTTTTGACAGCGACAATGACAAGAGATTTTTATTTTTATTGGCCAAGAACCGAGAACAACCTCTGTCTCCGCGCCCCTTTCTTTCCATAGAATACCTGACTAGTCGAGCTGACATTGTGTCTGGCCGATCCATTGTTTGGTTTTTTTTTTTTTGTCAAGATCTCTCTTTTACGATGGGACTCCCCCTCTCGAATGAAATCCAACCCCGAGTCATTCGACGGCAATTTATTAATATTTAATAAGCCTCCAGCACTGAGCTCTTCATCGTGTGGGTGGCTCTCGATGTGGGCACATTCTTCGCATCCCATTGAAGACAGTCGCGGTGTGTGGTTCTACCCACCTCGGAATCTTCTCGTTCTCGCTTTCTTCCCCTACCCAGAG
0.7340213182973271 GCAAGCGGCTAGTTGCATGGGGAGCAGCGTGCAACTTGCAACCTGCAACACGTGATGCGCAGTCGCGCATGGCCACTGACATTTGGGAACGGCAATGAAATATAATTTATAGAATTTTGTGCTCTTTATGAAAGTCTAATTAATTACCACTCCGTGTTTTAGTCCATGTTGCTATTCGTAGTCGCAGTATCTGCCCCTAAAAGGGTTGCATGCCATCGACAATGAATGCAGTTGCACGCGACATGCGTCATCAATTTCTAATGATGTATGTCTGCTCCACGGACATTTGTTATTAATTTCTGTTGGGCTGCTCTTACACGGCCATTAACATTTTAAAGTGTTGTTTGTTCGAAAGGGTTGCACATC
1 CTTTATAAACAGATATATATCTCATAAAAATGCCATCATATCCCAAGTATAACCCTCCAAATCAATCCCATATCTGTCACAATTGTATGAATGCAAACCGCCTTGGGCACAACCCAAAAAATCCAGCATCCTGAAAACCACACACAAGCAACCTAATTATGATTGATGTGACCGAGCATGGTCCAACCGAAAAAGCGATTCCACAACTATGGAGTGCTCATTAAAACCGCATCAAAAGTCGAACAATGTAGGGATATTTCAAAAGGACGCTGTCTCGAATGCAAATCAAATATGAAATTTTTTAATATTTTGTTGGCACAACACAACAAATTTCAATATAATGCCAGGGAACGAACGCGCCGAGCGTGAAAAATGATCTATTGCCGAGAAAAAGGACGAAGGGCCGAGCCTGATCTTTTTCTGGGCAGATGCAGCAGCATCTTCGAGGAGTCTTCCCCTTTTCGTATTCGTCTACTATTTGAATTCAATTTAGAGCAAACGGTTCAGCTTGACTTGACTTGTGCCTTGTGGCAGCAGTGAAAAAAAAATAGTATAAAGGACATTTGGTTTGTTTGTTTTCAGCCTTCCCTCCGTTAAATTTATGACAAAAGGACATGTGCAACATTTGCAGGCTGCCCCGTTTCGTGTTTTTTTTTTTTTTGTTTTTGGGAACCACCATTTTGAGG
1 AGAACTCGAAGCCCTTTGTGTCGTAAAAAAAATGTGAGGAAAACATGAAAATATTCTGGGTGCCAGGGCGCCAAACTATTAACGGAATAGGAGTAAATTTGTTAATGCCTTTGTCTAAGCCATGTGCGTTGGCAGGTGGGAATGGTATGCTATTGTATGGTCTAGTTTGTCCTGCAGGACCAGCTGAACCCCAAAAGGGGTTAAATGTGTTTATTTGTTTATGGCCCCCCCCGTCGAAAGGGTTGGCTCTATGTTCACATATATATGTACATATATAGACCGATATTCAGCGGACCAGGCTGATGGGCCACTGCGTTTGACTAATGTCTCATTTGCATGCCAAAAGCAGTTAACAAGTTTTGCCTCGCCGTCAGTTCGCAGTAAGAAAGAAATTATGGCTTGTCTTGCTTTTAAAAACAACTTAGTGGATAATACACCCCTAGTGTTAAGCCAGTCAGTCAGTCAGGCATCCATGGGCAGCATACACCGCACATACCGTGTAAAGGGTAGGATGCAGAGCCATCGCGGCAACAACGACACATTCATTTCCTTCTTGGCGCGCCTCAAGTGTTGTCACCTGTCATAATAAGTGCGGAAGCAGCAAACGGCAAACAAAGAGACAGCCAGAAGGAAGGAAAAAGTGCACAAAATGTAATAAGAAATTTATACGAAAAAGGA
0.8723174376891741 TGGTGGTAGTCGTGGTCGAAGCAGTTGATCAACGATCGCACACGCTCCTCCAGCTCCTTCTCATCGCCTGTGACTATGTAGCCGCCGTCAGACTGGCTATTGTTCACCTCGGCGACACCGCCGGGCCCAATGTTTCCTATCACCTGGGAGGGATCGCCCAGAGCAGCCGCCCCGGCACCACTATCGTTCGCCAACTGCGGGGCTCCAGCACCGCCATCAGCCACCTGAGCCGCTGCTGCTGGAGGATCTGCGTTGGCATTGACCAGCTGCTTTTCCTCGGACTCGAAGATCTCGGCCACCTGCTAAAGAGGAAACGAGGCGTTAGTTCCAAAGTTCGCTTGAGCATTATCTAGATGTATCTTACGTTCTGGTTCTTGGGAGTGGGCTGCTGTTGCTGCTGCACCTGGGCCGCTGATGAGGCGGAGCCCACTTGCATCATTGACACCTGTTGCTGCTCCTGCAGCAGGAAGCCACCGCCGTTCGAGAAGTTGTTGCCGCCGCCGATCATCAATTGACTGCCAATGTACAGGATCACCGCCACATTGATAAGGATGCTGCAGCGCAACAACCAATTGCGGCGGGTGAACATTTTCTGGCCCAGAGGCTCAAAACGCATGTTGTAGCTGCAAAAAAAAATTAACATTAAAATATATGTTCATTTGTAAAACATGATTTGAAAAACAACAGATGCGCGAAACTAAAATCATGTCCATGCTAGCATGTAGATATCCATGTAGAAAACATGTAGTTCTACAGCAGCGCCCTCTCACAGATTTAAAAGAAACACCCTTTACGGTAGATGGCGTTATTCAAAGGTTTGAGAATTCATAAGTTTGAAAGTCATTGCTGGCCTTATGCTAGAAAATTGAGCCGTGATAACAGAATTTAAATTAAACTATTTATATTTTTTATGAATAAACTCGCACAGATTTATTGTGTACTTAGAAAAGTAAAAAATATAAAAGTTTATTTCTTATATAAGCAACGCTTATCCGAAGCGTGTAGTTTTAATTGAAAATTGCAGGCTGTGTTTAACAATTGAG
0.6926854280971326 CATTAAAGAACCGCTAGCTCCGTCTGGTCAAACGGAACGGCTGTGACACAATTTCTGTTAATACTCGTATGCACACATGGCACACTCAACGTACATGCATGATTTCAATAAGCCAACGGACCAACTTAAGTTTCGGGCTGCGGTCGGCAAGCTAATTGTGGTTTATTACAAGGCAAACCAGCCAGTAGCCAGCCCTGTGATTAGACCTACTATGAGTATCTGCAATTAGTTGTTGCGACCTTTTTACAACTCCGATCATATAGCTGATGATGAGCACATCCTATGCCCGGAACACCTGGATGTTTCGGATGCGTTGGATATGGAGGCCGCTACGCAAAATGCTCTGTTGTTGTTATCACTTACTGTGCGCGTAGTAAAACTTAATCATGCGTCACTAATTTGTCTGGCTGCCACCATGGCCGAGAGACAAAGGTTAAAGATGGGAATGGCCGGTTGGCCCGCCAGAGTCGCAGCTGCATTTGCACACTGAACCCGAAAACCGGGGGCGCGCGATTTCACATTGAACCCTTTGCGGGGCAGAAAATAATTCAGAAAATCGATAGAGCTCTGGTCTCAGGCCTCCAGCCCACATGTCCTGGATACGCTCCGTTGATCGGCCTAACGACGGCCTCTGCCTCACACCCCAACTCTTCAACTCCGGCGGCCTGCACCCGTTCTGGTTCCATCTGTGTGATGGCATTTCGTCCCGCCAGTCCTCCTCCTTTTGGATGTGCCTTCCTGTCAATCAGCGCTTTGTTGCTGCGAGCGCCTGGCAGCCACTTACTACCGCCTCATTGTCAATGTCGCTGCCTGTCGCTGTCATCCTTCTCCTCCGAAAATGTTTTCAAAAAAAGCATTTTTACATATTTCGCCGTTTGGTTTTTTGTCGAGAAGTTCGGCTTATAATTCATAAAAATTCCCTCACAGGCAGAGGGCCCACACACGATTCACTCGACGATGACAATGTGGATGATGACAAACCGCAGACAAAGCGGGTAACAGGATGTGCTCTGTGCGGAGCGACCGGCGAAGTTTCGGTTGAACCAGCTCCTTCAATTGACAGACCTGAGTAGTCCGGCGGCTGGCGGGGGTTGGTGGGTTGGTCTTTGGATGGGTTGCAGGAACGAGGCAGCCAGACAGGAGATCCGCTTTGATGCCCTCCACACCCGGGGAATGCCTTTGAAGCCGTTAGGAGTTGTGAAAGGCGCATATTACCAGATAAGAGTGTATCTACATGATCTAGTCGGGAAATTTATCCGGCAAAGAGTACTGAAAATGGAGTATGGTGTTTAAGTGCCTACATGTAGTTTGGTGCACACTCTGTTAATACCTAAAAACGACATTATTTATGAGGCTATA
0.918899485271377 ACCTTAAAGGCTTAAAAAACAAAAATGTAAAATTCGATACAACGATAAACTACAAAATAAATTATGTTTTATTACACACTAATTTAAGCAAAGGAACCGAAAAAAATTCGAATTGTTGCCAAACAAAAAGTGCAGCATACTTTTAGGGTGGAAAATCCATTTTGGCACGGTAAACATTTAGAACCGGAATCTGTAGCCGAAGGTTAACCGGTTCACTGTAACTGTAACTGAACCGGAACGGAAATAAAGGTAAATGTTGATTTCCTGTACCGAAGCGGTAGAACTGGTTAAGGGTTTAAACCTAATTGATTTCATTTATACAACGTTTTCGTTTTCTTACGACAAACTGTTACTTACCGAATCAAGTGCCCATCTGAAAAATCCG
1 TCCATAAAGATCGCTGCAAGTTAAATTTGTGAGAGAATGGAAAACTTTTCCAAAAGTCCATTTCGCCGAATTTCGCGGCTAACAATTGAATTTAAAAATTTTTTTTTACTAATCGATAAATTTTTACATTACTAATCGGTTTGTCAACTTTTTAGCGCCACCTGGCTGAATAGCCGTGGTACCACCAAAGACAGTAGAATGACTGTGAGTCTCCGCTATGTGTTGCTCGCTTACGCCGCTAGGTGTCGCTTAGTTAAAATTATAATATTTTTGGAGTCTTTCGGAGTTTTTGAAAATTGCATGCAGTTAAATAAATTAATCTAATATATACTTACTAATACGATTAACCAAAGAATGAACCCTTGCCCCTATGACCTCTGAAGAGGGCCATTGGAATCAACAAGAGCATTAAGGTCAGCAGAAACACAGTTATAACCAGGAAAATCGTAACGAGCGTCGTCGTCTCCACCATTGCACAGAATTCGAACCTTTGTTTAATCTGTTG
0.4929423692345125 ATAAAAACCGAATTCCCGCATTGTTTTTTTGTGACGTGTGTCGTTAAGTGTTTTCATTAGTGAATTTATGGAGTATTTACTATACCAATAATAAAACAGCGGCGTTTCGTCTTAATTAAGTGTCTAGATGATTCAACTCAAGTAACCTAAGACACGTGATCAACTCAGACAAAAAACAAAGGGACGGGTGAATCGGGCATTGGTAAGATAGTGTGACAATCGCTCGGATGTCATAGGAAAGTCAATAAGGGAACGGGAACCACCCATCCACCACCATCATCATCAGCCACGTAGAACCGCTGCCAGGAAGTAACTGAGCAGAGGAAAACAATGGTAATACAAATACAAATATTGTGCTGATGACTTAATTGATTAAATGGATAAAAAAAAAGAGGAGAAAGCTAGGAGTGCTAGTGGCAGTGCCACCACCATGCTATCATATCCATGGGAATATCTGTCTGGTCGGAGTGGAGTGTGTGACCCTAAGGAGGTGTTAAGGTGAGACCCTTTAGGGCGTCTATCTGTCGGACAGGCGGGCAATCAAGCAATGGGATGGATATCATTCATGATGTAATCATCCTCGATTTAGCGATTATGATATCTGGTTACAGGGACATGCTGGTCGAAAGCATTT
0.622650165415388 AACTTCCCGCTCATGGTTAACCTCCCGGCTGTTTAGATCTGCGCATTCCTCCTGCCGCAGCTGCGAAACTCGAGGCGTGAGACAGAGAGTGGCTCCATTGGCTGCCGTGGTCAGTGGACTATAGCTGGCCGAATACCTTCTGGCTCGAGGTGTGAATATATTGAAGACGGGAGCCGGTGAAACCTCCCTGGAATTGGGCTGCGATCGTATGTGTATGTTCTTGCCGAAGCAATCGATGGATGGGGCATTCGGCATTTGGATATCCACCACCTGTTGGCTCTTCTTGGGCGTCTGCTCGTGCTCCTTGGCCGCCAGAGCAGCCGCTGCGGCTGCGCGTGTGGTCATCGGCGTCTTTCCCGATTTGCCCGCCGGCGGAGTCCGGATTATTGGCACACTGAGGCAGCGTTTGAGGGTCTTGGAGCTGCCACACGGTGGCGGCGGATCCAGCGTGTCCATGGGCACTGTCGAGGGGTTCTCCTGCTGCTTCTCCTCGGCGCTCGCTTTCGTCTCCGATTCCATTGGCGTTTATCTAAAAATAGCAAGTGTTTACTTCTTGGTTCCCAGGGTTATTTTTATACCCTTGCTGAGGGTATGGCTAAATTGGGTAGCAGCTGTAATGCAGTATCAAGTGTTTACTGGGTGCATCTGCAGTCAGATGTCTTTGATCTTTCACAGCCTTTCGGTTTTGAAACTCTGGATTTGGGGTATCGGAATGAATATGTGGTGGCTTAAGTCGGGAATG
1 AACTGAACCCGCACAATCCCGAGCACAAGCCACCCGGCTCGAAGGACCTTGTCTATCTGGAGCCTTCGCCGAGCTTCTGCGAGAAGAACCTGCGGCAGGGCATCCTGGGAACCCATGGCCGCCAGTGCAATGAGACCTCGCTGGGCGTCGACGGCTGTGGGCTGATGTGCTGTGGGCGTGGCTATCGGCGAGACGAGGTCGTCGTTGTGGAGCGGTGCGCCTGCACCTTCCACTGGTGCTGCGAGGTGAAGTGCAAGCTGTGTCGGACCAAAAAGGTCATCTACACGTGTCTGTAAGGACACTGCCCGCCTCCAGCCCAGTCCCGTCCTCTGAAGCCGCCCTCTTCGTTCTTTGTATGTGTTATGTATTTTGTCTACGCTTAGCCTTTGTTATTAGCACCTTAAGAACCTAGACTATAGCCTAGTTAAAGATACGACTAACCGCCCCTGAAGTGTACCATGCAAAACCCTTTAAGCTCTCACTTTTTTTTTAGCAGTATTACACAAGGAATATTAACGAATAGATTTCAAGAAGAAGTGAGGAATACAACATGTGTTTGCCCAGTTTTTAGTCATGTAAGCCAGCTCCCAATCGAAGCAAAATATTTTGTAAATTACAAAGCCCCCATTTTTTGTACCCCTAGATAATAGTAATCGATTTAAAATACTTTAGTGTAGCTTAAAGTCTTCGAAGCGCGCCCCCTTTCTGCTGAATCCCTCCTCATGCTGTCGTTTAAAATCTTTTTAAATCATTGAAAACAAGACTGAAAATTCAAAAAGCGCGCAGCTCCTTCCTTCTCTCTAGCGAGCACTGCTTGAACTGCTTGCATACTGCTTTGGGCAGGACCAAAACGTATGCGAAGTGGACAGTATAATAGTTCGAGAAAATCGGTAACCAGGGCTGGAAAACATTTGGAATGCAACAGTAAAAATTCCACTATTGTTTTTCCATTTCCATGGTCATACAAAACAACAAATTCTTTTTTGTACATAAATAAGCTTAAATTAACTTTTAGTTTTAGATTAAATTCATACCAAC
1 CACCGCCCCTCCTTCGACGCCCATGCCAGCTGACAATGCGAACGACAATTCCGCGCTGTCAGCGGCCAGCCATCGAATGCGGCTTTCAAGTTTTAGCGACTCAGGATTGAGGATGTGGATGTGGACGCGGATGAGGTTCAGCTTGAGGTTGAGGCAGATCTTCGGCGCTGGACGATCGCGACATGCAATTGCCGGCCCAACTATGCAACCTGACATCCGACAGATCTAGACGAGAGCAGGCGGTAGAGATAAACCTAAGCCTGGATGTGGCTCACATTGATCCTGATTTCAGCTACTGATCTGCAGATGAAGATGAACCTGGTACTAGAGCTGGAGCCGAAGCTGGCGACCCAGGCTAGCTAAACACACTATCGCCGGAACAAAAAAAGTGATCGTGCTACATGTGTCCACTCTGCTTGACAGTTTTGTTTCGCCTTTTCTTATTGCTACGGGTGGGAAAACAATTTTTCGTCCAGAAAGCGGGATTCCATCGAGATGTTTGATTAGCTCGAGATTTCTCTGAGACCTTGAGCTGAGTGATCTTTATCTAATTGCTCGCCATTACCAAGGCTAACACTATCTTACGTCGCACTATCGAAACACGCCTGTTTAAAATGTTATAGTATTCCCCCACATTCGAAGATGGATTTCTCGCTTCTGACATCATTTGGTTTCCATGTACCTTAACCCACTTCATTCCCATTCCCCATTATGCCACTTGTAATTAGAGAATATATTCCAAATGGCCGGCAAATGATTCACAATCTGTTGACTCCAACGATGCACTGAGAAATAAGTTATTTCATAATTGGACCACATTTCTTGGTATATTATTATTGTTATATTACTTTAGCAATATTTGCTGTTAAATTCAAATGTTGTACTTTAGTAACACTAAGTGCATTCAATTTCTGATGGAGTAACGTTGATACGTTTTTCTCAGTGGAGCACAAAGACAGCCCATTGGGTCTATTGGCATTATTGGGCATCTCATAACCCCTGGGGGCACACAGTACGCCCAGTTAGAGAGTGATGTGCCATTGTTGTTATTTAGTTGGCACCGCGAGGCGACAATTGTTGTCTCCAATGAGTCGTTGTCCTGGTGTGTTGTCGCTGTCTGGTCCGAGGAGACATTGCTCCTAATCAATAAAACTAACGAGAGGATTAAGATTATGTTGGCATGGAG
0.753652634897461 CCCGTTTCTGTTTTAGATGGCTCTTAGCTTCTTGGCCATCAGCTGAGCTCTGTGAGATGTGTTTTTTATGGTATTTGAAAATGATTAGCCGCCCAGATACGAAGCAAACGTGTCTGGGGATGGACGTGGAGATGGAGCTTATGCAAACTCAGTGGCTTGGACGCGAGATTTCCGAGTGACTAGGATAGTGATGGAGTTCAAAAGTGGCACAATTTTTATGATCATGCGACTTGGTTTGATGCTCATTCCTATGTGTGTTCCACCACTCTTTTTTTTTTTTTTTGACCACCAGTTGATATTGTTTCTTCTTTTTATACTTTGTTTGTTGTTACCTGAGCTCGTGGCCTAGCCCAACAACCGGAGAGCATGCCAAAGACCAAGTCGCTAACCTTTTTTATCATCCGAGATGTACACGAAAAAAAAGATGACAAGTTTGTCGCGTGTAAACAATTCGCGGCGGCCAAAACAGAGCGCGGGTGGAGGAGCCATTCAAGGGGGATGAGTTCCCGGAGGAGGAGGGTTCAGAGGTGCGGACTGGATAGCAGAGCAGTGTCACAGAAACGGAAATCAAGAGGAAAGATGTCGGGCTGAGTCGGTGACCGTAACAGAGTCAAAGAGCCTACAGTGAGTAGGAAAAGCAGGTTTCAATAGAGTGGGCAACCGCAATATAATATTGTAATATTCTTAGTGGAATTTTTACAACTCAAGAAGCCAAATATTGCCAAATAAGGTGGGTAATGTAAACTAACTTTAAGTTCTTTGGTTTTTAAATCTGCACCCTTAAGATAAATAAATACCGGTACGTGCAATTGTCTTATTTTTATAACCCCACTTTCACTTAGTTTGATTACAAATGGCAAGCACTGTGTAGAAGCCGAATGCCCCGTCAAAAAATAAAGCACATCCAACACAATCTACAGATACATTAGAAAATATCTCAAAAATCAACACAAAAACTACGGGCGGTGGCGTCGCAGCCAACTGAGACGTCAACTGCGCTGGCGACGTTGCACAGTGGGCTGGATCTGCTTTGTTTTTTATTAAGCTTAAACAATACACTTAATGAATGCTTG
1 CTTTCCATGTAATTTGCATGTGCTCATTAGATACATTTCCCTAGTTGAAAATTCAATAAGAAAGCCACCCCTCGCCGGCAGGGGAATCCCATCAACACTTGCCCTGGCCCAAATACTCATGTTAATATCTGTGAAATTGATCTGATTGTAATTTTAACATCATGCTTACCCAAAACCCTTCCATGTCTGAGCGTTAAGCCCCAGCCTCGGATTCCTTGTTCCTGTGGAATCCCTTACGGTTCACTGAACAGCGGGAAAAACAATGATACTACCCTCCGGCCCTCAGCTGTCTGCGTCTGGTTGGTTAATCCTTTTGGTAATTTATGCGCCCTCATCCAAAAAAAAAAAAAAGCTGCCACTTACCGAACTAATCATCATCAGGCTGATTCCGATTCCAATTCCGAGTCCAATTCCTGCTACTACTCCTGCTCCTGCTCCTGATCACGTCACGTGTCCTCCTCATTGGCAACATTGTTCTTGTTGTCGTCGTGGTTGTATTGTTTATTGTGACAATTCTTGTCAGCGGACCAAGCAAATGTCAACGGCACATTGATGGATGTTCCTCTCCTCCGGCAGAAGCGACTGTGCCCGCTCCAAAGGCAGTTGAAGCCACCGCCAGGTGATGGTGATTCATGGCAATTGTATGCGGTAGATGTGATGGTCAAATGCCCGCTGCCGTTGTTT
0.771224172853413 TTAAAAATTTATTTCCAATCGTTGGTTTATATTGACAGAAAACACTTTTTTTTAGCAACAACAATAACATTTACAAAAAATACACATTCTGCTGGACGTATTCAATACCATTTCACCGACTCCATCGACTTCCTTCGATTTCCATCCCCCATATTGTAATGACATCGATAGCACATCTAAAGCGTATGATTCGTCATATTATTGAAGGTCTCACAGCAAGAGCTGCCATTCCCATAACCATTGTTCGGGGAATTGGATGTGAACTGCAGCAAGATGATGAGATAAGTGGTCAAGGCCCCGCTGATCTGTTGTAAATGATTGTTTCATTAGGAAAATTGCGAAAATATGTAGATATGTGTAGCAACTAACCGTGAAATACAATGTGCGGTCGATGTTGAACAGACCAGCTGCAGTAAAATTAATTTTCAGATGCATCAACTGCATGGAGAATTGCTGCAGTTTCTCCTTGACCTCAGCACTTTTGGTTTTATTGAGTAGGGAGTGCACTATGCCTCCAGTTTTCTCGCTCTTTTTGATGGCTCGATTACTTCCCTCGACAATGGAAATTATGGCGATCAGATACAAAATCATTTGACACGAGAAAAATGTCACAAATTCCACAGTTTTGAATTTGCTTTCGCGCTTCGATTTTCCCAGTAGCGTCTCCAGAACATAGTATGCATCGAAAACGATGATCAGAAATGCTATGGATATAATGGTCAGCAATTGGTAGGTAAAATATTTGTTAGCCGTGGCAGCTGCCTCGCAAATGAGATGATGTATCTCCATGGACTCCTGTATAATCTCCGCAGGATCCTTGGTTACAATGGTGTACATGGAAAATGAATCGAGACATTGTAGAGAGCGCTGTTTTTGATTCACTGCCTTGAGGCTTCGGGTGTCCCATTGATGGGCTAGGTTCTTCAACACCTGTAAGTAGAATCAAACAGAAAATATAAGTTAAAATTTTAGAAATGCCTAGCCAAATTAACCTCGTTAAGTGCACTCAGATATATGCGTAACTTAATCATTACATTTCCAGCCAGAAAAGAAACCGCGCACACGATA
1 TCACATATATTTCCTTTTAGATTCTCCACGCTCCTACCAGAAATCTTTATTAGACTCGCTCGTCTGAAAGTCAAGAACTCTCTCTGCATATCCTGAATCCTTTTCTTTGACTCTTCGAACATCTCGAGCAGCTCTCACGCACTCTTTCAGAATTATGAGTGGCCACTTGAACATATTTCTCCTGTTCAGTTGTGAGTTCATATTTTTCTCGAGTTTATTGTCACTAGCGCATGTTTTTTGTGAGCAGCTTGCTCTTGCTTTTTTTTTTCTTTTTTTTTGAGAAGTTTATGTTGACATACAAACGACGAACGCCTCGAAATGAACACATAAAACTTAAAGGAGGATGTTTACCCTGATGTTGTGCAATGTCCTTTGACGTTGCTGCTATTGCAGCTGCTCCTCTGCTCCACACTTTCCCAAATAGTCGAGGAGAATCTCTTCGCCGGCTCACATCTCTGTTTATTTTTAACAGGAGGAGCTCGCTGCTGTCACTCGTAAATTAACACCTACCCATTCCCTTTGCCAACCAAATGGAGCTCGCATATGAAATGATGACAGTTATGGGAAAAGGATATCAAAAACACGACTGTGATGAGCCTGATTGAAGTTGGAGGGCTCGACTCCTCCGAATGTGACTGCGTGTTGATAGTTTTCAAGAGTGTTGCGAGCAAAGTGGCGGTGAAAGTGATATTTGGATGTAATTTGATATGAGTG
1 CTGATTTGATCTGTCTCGATTGGTCGTGTTACTGGTTTCCGCCTATTATAGTTGCGACCTCTGGCGGCGATCGTGGATAATATTCTAACGGTGAAGAGTGAATCTTTCAGTCTCCACCGATCTCTTCTCCAACTCACACACACTACTCCACTTCTATTCTGAATGGAAGATCATTGCTAAATATAGCGGGAATATGCAATTAGCTACATTCATCCCCCTCCCACCACATTGGTGACTCTTTGGAGTTGACTGAAACTACAACTTCCACGTGAAGACAACAATTTCATATCACACTCATATCTATAACCATATGTATGTATAAGCATACATATGTGCATGTAAGCATATGCACATAATCGGGCTTATCTGCTTCCGAGCTGTACATAAGGTCGTCAAAAAAAAATGCGATAGAACGCAACCTTCCCTTTTTTCCAGTTGGAATTTGAGACCTAGCGATCTGGGCTAGGTTGGTCATTAGAAACAATGGACAAACAAACGAGTTTTTATTTTTTTCGAATGACGTCACCAAGAATGACAACAAAAGGCGGTTTAAAAATAAAAGCAACGTCAATAGTATGTTTCTTTTTAGCCAAGTTAGTTAGTTGGAATTGGAAACGCGGTGTTAAGAGATTTTGCCGCGCTCGCATACCACAACAAAAACAGAGCGCACACAAATACACATGGTGATTACAACGCCAACAGCATTCACCTGTACCCGCTCACTTTCCCCCACCCCTTGCTAAACAACCCACTTTTCTCAAGCGCATGCGCTGACTCTCTCAAAAGCTGCTCCATCTCACTCACTCCCTCGCTCGTTTGCTCTTGTGCTTTGGCGGCTTTTTGTATGTGTCCCGCTATGGCACTCCTCTCTGGTATTTTTGTGGATGTGCCTGTGTGGAGCATAAATAAAAGCAACCGACGCATTTTGCTACTAGAAACCCATAGAAATCGAAAAATAATACTGGGATGTACTGTGTACTGCGTAATCAAGTTTTTTGGTAAAAATTTCTGGACTATTTTCGGTGGCACTACACTGCACTACAAAAACAAAATATGGGGGGACTGGAAGAGAGAGGGAGAGAGAGTGGGAGCCGTTACAATTACACAGTTTTTGTTGGTACGTGGCTGAAGAAAGTATTCAATGGGTTGG
0.7707153187225273 ATTGGCTGGATCTCCTGATCAACTCTTCCTCCTCACCGTCTCCTGACGCCCCCCACCCCCCACGCGCTTTAATCAAGCAGAGCCGCTACAAAAACAGGAGCGGAGTGCGGGGGCATGGGCGAACGGAGCGTAAAAAGAGAGGGCGAGAGAATCAGAATCTTCAGCGCAACGCGCATGGCCATAAGTAATAAAATAAACACGGACCGAGGCACAGAAAGGAAAAAAAGGATGGCAAAAAGGCAGAAGGCGCAATGTGTACATAAATCTTTTTGGTGGAGCGAGAGGCCCAAAGACCTGGGCTATAAGCACATCAATATACATACATATAGTATATATGTATATATACATATAGCGGGCGTGGCCTGGCAACTCGTTTTTGACTTTGAATTTCGCCACGCAAATGGTCGCGCTTAGTT
0.9682666955085607 GTTGTTCGGCTCAGCTTGTTGCTGGCTAGCCATTAATCAGCCCGCCCTGCGTCCAAAGGGTCTGACCCCAATAAACATGACAGGCTCGGACATTGGATTACAACCAGGCAGGAAGACGGACAGACTGAAGAGTGCCAGGCAGCTGGATTCATACTCGACTTTAGTTGAAATGGGGTGGGTGGGAGCTCACACAAAGAAGCCACCGCGAATCAATCAATTAATTGCACATATTTTCTACACGAGTTCATCGAACCCCCGAACTCCGCAGCAGCCCTTAAAATAGGGACAAAAGAAAAGTGCCAAAGGAAAACCAGCGAAATGTATAGGAAAATGATGGGATCGAGTGACAGGAGTGATTGACAACCGACAGTGTCT
0.9923655624393041 AGAGCCGTGTTCCTGCACACTAAACTCCACCCATTTCCCAATCGCAGCCGAAACACGACTTCCTCTGGTGTTATCGTCATTATTAATACAGATATAGAAGAATAGGTTTCTGTGTACCGTTAACAATGATTGTATATTTTATTTTTGGCCCTGTGAATGTATCCATATCAAATGTGATTGTAAAGACACACGAAACTTAAATGGGGAGGGAGCATGTCCGTTGTCCGCTGTCCGTACAGAACATTCCGAATTGACCGGAAATGATAATTGAAAAAAATATTTTCTCTTTTCTTTGGGTCTTGTCAACCAACTTGTGCGTGTGACATGTGTGTGTGTGTGCAAAGGAGGAGTGTGGAGTGTGTGTACTTGCTTGCTACTAATTATGGAATGCATTCATTTTACGTATCGTATCATTTTCATTATGCCACAACTCCAGTACAGCACTCTCGCCCAGCAACAACAATTGTATCC
1 CAATATTTCTCCAACCCCCCTCGTGGTGTGTTGTATAACGCATAACGCCATTCGAGTTGGAATGAGTTTCACGCATAAAACGTGTAGACATCAACAAATTGCATTACACGGCTTAAAGTAACAGTGACAACGAAAAGGTAGCAACAAAATGAGTGCTATTCATTTCAGCGCAGCTGATTGACATTCAATTACCAATGGCCCCACCCCCAACCCCTTTCACGTCATCGTAGCAAGTTTAATGAGTGTTGAGCGCTTTTCAATTCAACTGTCGTCGAATGCTTCGAATGCTATGAATGCTACGAATATATCTACGGCTTTATCAAAAGACAAACAATTGATCGATTGTCGCAGCTGGGTCTCACATGATCATGATTCGCTGTGGTCTATGAACTCAGGAGAAGCTAACACACGAATGTTTAAATTTCTTCTTTTTTCGGTGTTAAACATATCTTTACAACCGGCAAACAATTGTCTTGGTTCTTGACACCTTAAAGTCAAATCAAATCGGGGAGTTAACTTATCTGCATTCAGAGATTAGGTTCGTAGAATGAACTTGGAGATAAACCAAAAAAGAGGTTTGAGCAACAAAACATTGTTAAGCTGGCGCAATGAAAGTAGTCATTTACGAATTAACTAGTAATAATAAACGCATTCGTCTGCACTTGATCACTTGGTCTCACGGCTCAGTTTGTTGAACTCTGTTTAGGGAGTTGTCCTTTATCAGCTCGTTTGAATTCAATTAGCAATCTTTTGATAAGAACTTACAAAACTGAATTAGTAATCTATTGATATGAGTTTACAAAACTGAATTTGCAATCTATTGATAAGATTGTAAGGAAGAGAAAACGCTGATAGCAAAGAGGCGAAGCTTGTGAGTAAAGGAGATTTTTCATCAGCCCAAAAGTATGCTTATTGGCGAACCTTGGGTGGATTCCACGCCTCCCACCACTCAACGCACTCACCTGTGCAGAGAATGTGGCCTCAATTTGCAGAAACGCTTATCGTTCAAAGCGTTAAGTAAACGCAGGCAGGCAAACACGAGTACATGTGTAGCGAGGTTATCTTCGTGTGTGCACGGTGCAAGTTTAAAAAGTTTCAATTACTCCACCAACACACGCCCACCACTCACACACACACACGCGACAGAAGTGCAAGGCTTGAGCAGGTGTCACAATACTGCAACAAGTTACAGTGGGACAAGAGTAGGCCACATTGAACTACATTAGTCCATGCTTATTATATATTTTCTATCATATTGTTTTCTTCATTTACATTATTAAAATTAACACTGTCTATAAACTGCGCGTTAAGCTCCTTGAATGTCTGCGAAATAATGCGAACGGAATTTAAGCTGAACGGTATAGAATGAGATAACGGTTGCTCATAAATTATAAAATATTCTTGCAATTTTAATCTGATAATGTTGTGGACGCGCCTCTCGCCACCTGACCCACGGTGCACAAGAGAGCGCGTAAAGAGAGAGTTGGCGCTGTTTAATGGGGAGAGCAAAAGAGCGCCTAAAATAGTTAAAAATTGTCGCAAAATCATCACTCTCTGGCAGTAATCTATCATGCGCGATCGATCAATGGCTCTCTAAAAATGTCTCTGCCCCAGCCCACCACCCCCTGCCATAGCTCCACTTCCAGAGAGATGAGTTCATAAAGTGGGTGAAAGAGAGCGTTCTCCAGTAGCTCCTCTCAAACG
1 TCCCATTGCATTCACATGGCCATAAATTAAAAACTTAATAACGAGCGGCGCGCAGGAGCCGAACCGAAACCAGGACATGCCCAATACGTGTGTCCTGCTCCTGGCGACATCCGCAGTCACGTCACCAATTCCCTCCCCCTCTCCTCGCCAGCCCACCCCTTCCAATCCTCCGGACGATGGGATGCGGCTGCGGCAGCAATAAATCGCTAACAGCAAATAAATCAACGCGCATAAATTCCAATGTTCGGCGAGGATGCCTGCCCTGACTTTATTTACGACATTGCGACAAAGACAGAGTTACAGCAAAATGCACCCCGTACCCTCGGGTCCTTTGGCCCTCTACATGGCCAACGTCCGTGCCCCTGACTCCGCCCCTGACCCGCCGTTGACCCCCTTGCAGGGAGCGGTACGAGGTCAAGTCAATGGGACAGATGCAGCATGTCTTACAGCCAAAACTCCTTGACATAATAGCTACGCCGCTTACGCTTTTCAAAAATCATCTACAAAGTCTTGTTTTCTTCATTGAAAAGATATTTTCTATAAGAGTCCTTTGTTGGATGAGACAATTTACCTACAAATATATAATGAAAAATGTTTTGATTTCTAACTGGTGTAAATATTTATAATTCTGGAAATATTATCAGTATTCGTTTAAAGTCCACGCATGCCAAAAGCTTGGGTTCTCACAAAAGTTATACCCGTTTTGTGTCAAATTAACAATAATTAGTTGGCCTGGCCATATGAGAGAGAAGTAACCTAACAATTTCGAAAAACTGTTGGGACCAAGCGAATTGCATGCTGCAAGTGGCAAAGCCAATGAACATGAAAAAGGTTGACCTCAGTGTCGTGGCAATATGTCCTGGAAAAAATGTCATCCAGCGCTGTCCGTGGTTAACCAAAGAGTAGTTGCTTGCCAGGGGTTAAAAGGGTTAACCCTCGGCTAAAACAAAAAGGAGCAATGGAAGAAAAAACCAACGAAAATGGTAGCTGGCAGGGCAGTCAACGTCGGCAAGGACGAGTATATTTGGCGCATTTAAACAAAAGGATGCCGTGTGCTAGGCAAATAGACAAAGGACATGTCCGGACACATGCGAGGCGCCAAATCAAGCTGTGATTTATGGCCTAGCCAAAGGATTGCCAAGGAGCTGGAAGAGGAACTTCTCGCACACCGAACCGGAGAAAAAGTGCACAAAACTAGCATTAGCACCCTTGTAAATGTGTAAAACCGCCAGGGACACGGGGACACCAACAAATCATAAAAATCCGAGTGGTATAAAAACTAGAATCTCATCCTGGACGGAACGAATAACCAGCATCCATTAGATGCGCCACTCGGGCCGAGAAACCGAAAAACCTCGAGGCGAGGCGATAATTTATTTATTTCGGATTATTTATTGCACATACATCATAATTTCTCGAGACTCGCTGGCAAATATATTTTATTCCTTAAGCACCCCCGGCCCCTTCTCCCAAGATGCAAGACTTATAACTTTCAACAATGAAGGATGCGCAATAAATTAAAAATTCCAAACTTAAAAACGCAACAATAAATACAGGACTCTCGTGGGGAGAGGGAAACGAACCAGAATTCCTGGCAATCGCCAGAAACAGGACATGCAGTTGATTTATTTCTCCTCTATGGAAAATCACAGAGGAGCGCAATTTTCCACCCCGCATCCCGCCAACTCGGGAGATGTTTCAAAGAACG
1 GGGAATCTTCGATGCAGTGTGCTTCACAGTGTGAATGATTCAAGGAACTGCGCAAAATTGAAAGGACGAGTACGAATAAACCGAGACACATCCTCGACATCAAAATACGTGGCGCATATTAAATTCTTATAAAATCGGCACTCAGCAAGGGATGCTCGGCTTGTGGAGGCACCGCGGGGGGAAGGGGGCGCGAGATGGGATATAGATAGACTAGGGCGCTATTGTTAAAAGTTGCAAGGATTTTAAGGAACCCTCTGCCTCTACCTCTGCTCTATCTCTACCTCCATGGATGTGAGGTCCCGCTGCGATATTAAAAACTTGTTGCTAATAAAAAGATTCGGATATGGTTGTCGATGTCGCATTTTCATAATGCCTCCGATGATCATCACTGGCTGCAGTGGCAGATGATGCTGTTGATGATGACATCAATGACATTTGTTGCGGTTCAATAAATTCGC
1 CATGGCCTAAACCATCCGCCGCCACCTTCTGCGGATTTCCTTTGTGGCAAGGCAAGCTTAAGCCGATTTCCGCTTGTTTGTCACACAATTACAATTTGTCAGTTGAGGCTTAGGTCGTCGGGATTGCTCTTATCCTTCGCCTGATTGGCTGGCAAAGGTGTATATATATATATCCCAGTCTAATGAGGGATAATCGCAAAGGAGGAGGCGCACAAGCAAATAAGATGTAAAATAAAAAATATTATAGGAATAGGTATTCGTTTGCTTATATTTCTCTTTGACTTGGAACAATTTTTTAAATTAATACAAAAAAACTGCATTTAACATTGACCTTAGCTTTATAAACGTTTTTCACAATGTCAAAAAATTTATGGAACTTTTATTTTAACCATAATTGCACAGTTGGCCGTAATCCATCGATAACCAGTACAAATTGCTTTCATATGGCTAGGCGGTAACGCCTATAAGCCTAATGACCGCACGTAGAACATCTTGTCCTGCGGTCACCATAAATAACAGAAAAGCGCATTTGTCATACGACCTCCCTTCACCTCAAAACCCGCTTCCCCAGTCCCGAGTCCCGATGCCCGATTCCCGATCCCGATCCACTCCCCTGCCATTCACCTTTTGGCAAACTGCAGTCCTTGGCCTTTGTCCTGGACGTGTTGGGCTGTAAATCAGCTCATTAGTTAGTTGGCAGCACCTCGAGCTCGGCTAAGACCAGTCTATGAGTAACACGTAGAAGCTGCTACAGTGAGAAAAATA
1 TCACTCTTAATTCTTATCAGTTCTTATTTGTGTAGTTCACTTACTTACAATGATGCAACTGAAACACAAGTAATGTATGCGTATTTGCAATTTAATCTAAAATCACATATTTGATCCCACATCTCAGCTCGTCTCGGATTTCCCCTTGACATCCATCAAATCCAAGCGAACCCGCTGTGTGCAATCCCACATCAGTGCAGCCACTAACGGGTCAACTGCCCATTTCATGTGATTACTCACAAAACACAGCTCTGGGAGGATAACCTCTCCGATTCGCAGGACCCTTCCCCTAATCACAACGCCAACAAGTCCCTGGGCGCAGGACGCTTGTTATTGTTATTGTTATCAACGCTGTCACTGGAAATGGCGACACCAAAATAGCAACAGCCAAAGGAGCAACTGGGACAGGACATTCTGGTTCTACTGGTCCTGCAGTGTCTCATGTGGGCATATGTTAAACATTTTGACACTTTTGCGCACGGTTTAACCGAAAGCCTCCGACAACCGCTGAACTTTGACACTCTAATAGTAGTTGATGAGGGTTCTCCTGCCTCCGTGGAATTCCACACTTGGCAACTATTTAAATTTAGAAATGCTAGATCCGTATTCGGAAAATCGGTTACAGTTCGCCATAGTTGTAGTACACATTGGATTGTGTAATTTGTGTTGTCAGTGCGACGATAATCAGCGAACTGAAATCAACTGCCGACAGAGTTTTACATCGAATTTCCAAATTGTGGGTAGTGGACGGACTAAACCACTATGGTGGTTCGCATCGAGCTTTGCCGTGGTTGTTGTTCGATGATTTTGGGTATAGCACACGGCATGAAGTTATATCGAGACTTAATTAAGTGCCGGGTCCAGAGGACCTAATTCAACTGGGTCCTGGAGCTGGAATGGAAAATGATTGTACGGCGGTTACTAACAAATTCTAACGGATATGGGTTTTGTGTAACAAACTGCTAGTTGATTTTTGGGTTTTACATTTAAATGGAAAGGAAAAAAAAAAGAAAACAAATTTAGGTGCTGGAAAAACGTATTTTAAGCACCACTCTGTGTAACCCAATATTTTCTATGGCTTTATCTACATCTCACACCTGAAAATGATTAATTTAAAAATTTCAATGTACTTCGATATAATCTAGGCGTTCCTCATCCTCCGCTAAATATCACCATTAATGTGCAATAAAGAATTATGTAGAGACAGTTAATACCCGCGAGACAAAAAGCGGCTGGCTTATCTTAGCCACCACCCCGAAATTCGCGTGCAAAACAATTTTCAACTCGCTTCCTTTTGGCTGACGACGAAATTTTCGGGATATACCCCGCCTATTCAGGCATTTCCCCCACATTCTGTCTGCCAATTTACGTTATCGTTTTCAAATTGAAAATTTGCGTAATCACATTTTAAGTGAAAATCGCTTTGCAAATTAAATTAAATCGATTTTTTCAAGACGATAAAATCGGGCTGAGTGAAAATCGTTCTACCAAAAGTTGCAGGGCACGTAAATATACATTATGGCCTTCTTTTTATTTCCGTTTCCGGTTTGGCATTAGAGCTTTAAGCTCTGAAATATGCATCTGCAGTTTTACTTTGGTGTCTGCATAGTCGCGACATTGCATCTCAAAGACCCATCAACGTCATCAAATCGTT
0.6763947200682727 TAATACAATAAATATTGCCATATAGCCCAGGTTAGTTGTTTTTCTGCCCCTTCCAGTCGCCATTCCCATTCCATTCCATTTTCCCCCCGCCCACACCGCACACAGCAATCCAACAATAACATTAACAAAAACAACAACGGGCAGAGCCAAAACACGCGAGCAACGTTCGCCTTGATAATGATGTTCGCTGATAATAATGATGACTGGCCAAAGAACACAACAATGCTGCCAGCGCACAGTGGGACCAAAGTGTTAC
0.7392599099252962 GATATGGAAAACAGCGATGGTAATCAGTAAGGAATTCGATAGATGATATTGGCAAGCATGACTGTCAAAAGGTATAATTTATTAGCCCGAAATTAGCATCGAATTTTGTTTTGGGAGTGGTTCTATTCATCGGGCCCAACCCTCACCTCCCCTCCGGAAAATGTCCTTTGACTAATGAAACGTTTGCCATGGTTGCAGTTGCATTTTTCGAGTGTCCTGCTGACGAGGTCGTTCTGGGCCAAATGATTCGAGTTATTTATGGGCCACAAAATCGCGGTGGTTGCTGCTCCCTTCATTGTTTTGTTGTTTTGGTTGTTTACCTACCGTTTTTGGGCCTACATAATTCCACATAAAAATTTCCAAATATTTCGCCATGCATTTTGGTTATCCTATTCGACTATTATTATTGTTATTTGCCTGGTGTGTCCGCTGCTAATTTGAATGCGATAATACGCCCGCGATTCTGTTGTTAATTAGTGGGATTTGTTTAGGTGGTTTTTATGATTCCGATGGAGCCTCCGCTTCAGGCACGCGACAAAGTTGAAATGGCAAATGCGGGAAGGGAAAAGGAATAAAGTGCATCAAATCGTGTGTTAGTAATGCTTTGGGCAAAG
0.7849681757381611 CACTTGATGTGTTTGTATTTCTAAGCCACCACTAAAATAATACCGATTAAATATCCTCGAAATATAAAAATTCTCTATTATATTGAGTTCTTTAACTTCTTTAGCACCGAGCACCCTGCCAAGCACCCAAGCGAATTAGAGAATTTATAACGAATGACTAAAACAACTCACTGGGAGGCCTGTAGATATCCATGGCTGGTTTGCCCCTCATCTGTCCCGTCTGATTGCCAGGTACGTTGAAAGCCAGACTTCGCCGTTTGTTGATATTCTGAATGAACAAACAATTATATAAATATGGCTGCTAATCGACATCGATATGGTGTACCCACCTGTTGATTTGAGGTGCGCACAAAGCTGCGTTCGCGGGAGATAACGCCGGGCTGAAATTCCGGTGATTTGCGCACCTTCCGCGTATCATTCTGTTGGCCATTCATGCTGGCCTGGGCCAGTAGTTCCACCTTTTCGGCCATCCTGCGATTTTTGCGCGAGTACTGCTTCTGCTCTATTTGGGTAAAACCTAATTGAAGATGAAAGCCTAATCTTTGGTAGATTATCCTCCGGTTAATCGATTCACAACTGGGATTCCGTCGAATAAACGTCTAAATGTGTGGCTTCAGTATTTGAGTAAATTTGTACATATCACAATAGTTGGTTTCCTTTCCTCCTTTATCGAGTTGAGTTCTCTTCTTAATACGATGTTGAGGGATATCTTCCCCTTTTGCAGATTCAGATTGCCGGGTCTGGAATACAATGAAAATTAATTATATACTTCAGCATATCGCATTATATTATTGTCAACATATATCAAGTAAGATACACAAAAACTCTTTAACCCACATGCGAGAGGGAGGCGCAAACTACTTGATCTTGTCGAGCAACCAACCGGCTTTATGGCCGAGCGTAGGAGTTGCATCTGGTTTGGAACCTCTGGCTAGAGCACTTCATCTCCGAACATGACATCAGCCCCCGAGTAATTCTTATTCTGCGGCCCACAAGAAGTCCGAAGTGAGTCTCCGCGAAAGATACATACGAAAGATACATTGTACAGTCAGGCCTCTCTACCATCTATTATCACAAAATGTGGCTTGAATAAATCTTTGACTCTTCTTACTTATATGTACCATCCACTTATATCAATAAAACAATGAACTTGTCAAAATGTGGTAATTAACGAACTTAGAGAATCTTACATAGGTTAACTGCCCTGTGAGAGTGACTACTATCATAGCAATGTGAACTTGCCTCGCTAATTGCTCTACACTTCCCATTCTCAGATTGCCAAACAGAGTGCTCGGAATAAGCTAGGCTGGTATTATGAATCAGCGTCGGATGGACGGATATACTCACCTTTTAGTGCAAAAATATTTCCTTCAAATTGTTTCGTTGTTGCTGCTGCTGTTGCTGCTTGAGCTTTTGTTTATCTCTGTCTATAGTGTATATATAGATGGGTTTGTTTGTGCGTTGTTGCTATTCGTCGATTCGATTGTTGCTTGGTGCCGCAGCTTAGTTGTTCGTATAAAGATATTTATCTACTTCGTAGATACGCTCTTTCGTGTCTCGTTTAATCATGCTTGGCATGCGCCAAGTCAAGCCGTAAACAGTGTCAGAAATAATTAATATTTCGAAGCGTCCCTCCACGCCCAAATAGTCCGCATATGGGGTAATACACTAGATGGTTATGGATTGCGGGCCTCTAGACACAGATACAGATGCAGGCAGATACAGCGGCAAATGCAAAAAAAGGCACAGATACGCATACGCATACGCACTCACACAAACGCACTGTGATCACAATTGATTTTAGTGCCTATTGTTGTTGCTTTTGCTCGGATGACTGGTGGCTGCTGTGCGAGCGAGAGGGCGAGATGAGTGATATGAGCGGGTGGCTCGTTAAGTATACGCACCGTTGGTATCGTCTATTTTTGGTTTGTCGCTTTGTGCTGCTTGTTCTCGGCTCGTTGTCTGCTCGTCGTCAATTATTACCGATTCCGTTTTGGTTTCTTAATTTTTGTTCGCGTTGTTGTGTTCGTTCGTTTTTCTTTTTATT
0.9335644956640827 GTTTCCGTGCCTGTGCCCGTTCCAAGCCAGCAGATCCAATCGCAAACCCTTCACCATCACCAAAACCAAACTAAAATCCATTACACGCCAAGTGTGCCTTCTGCTGCGGACGCAAAGTCGAGTGAGCGCGAACGCCAATGCCAATTGGAGTCGGACATCGCCGAGAGATCAACAGTATTCAAAAGTCAGTCATCGTCGGATCACGAACATATAGAATATAGCGGGGAGACGCCATCCCCCTCCGCATCGCTATCCCAATCCCAAACAAAATCGGAGCCAATGCGCGAGGAGGAGGAACATCAGCATAATCATAATCAGCAGAGCGGACGCGAAGAGACAAGTGTGAATACAACAAATATAAGCGGAACCGATAACTACGGCAAAGAGCACGGTCGGGATGATTCATCATCACCACATCTTACATTTCAGATATTCAACTGTCTCTCTATTAAGGTAAGCAGATTTCCATCCAACACATTTGCAAAGAAACGAATTTACATTAATTACGCACATACACAAGCATGCTCTTACCTGTGTGTGAGTTGGATATATCGCGTATATGTACACGATAATGCCCGCACACACGCGCACTTTTGCGAGTGCTTGCCGTGCGCTGGTGTGTGTTATCTATGTGATTACGACACCACACGTCAAAATAATAGGAAATGATTGGGCCGCTTTTATCCCATGGCCTATTAACAATCGGTATCAATTGTTTGGTATTTTTTCGATGAACCATTGCAAGGCATTGGCCCAGGCCCACGCACACCACGCCACACTCGTACATCAGTGTCCAGCGCACGAATGTAAATATTGCTATGTACATACGTGTGTGTATATGCACGCATGGATGTATGTTAGAGACCTACATACATTAATCCACCAAAGAGATAACATTCGTTTCGATTGTTTAAGTGCGGATATACCGACGTACATACACCTTATATGGCCCCAATGTGTTTTTTTTACATACTTCGAGTACTTTCATTTGTTATTATGTATTTATTTATTTATTGATTTGATAATTTGTGCTCTTAATGCATTTCA
1 TGCCGGGGGATTCCCACACACACTCCCACGAAGACACATGATTGTCGACCCCCACTCAAAAGATGACCCAGGTGGTAGTGTTTGAAAAATGACAGCCAGCTTGTTTACATGTAGTTCTTCCTGATCTGCGTAGTTCCCCACCAAGATCAAGAGTACTCCTCGGCGGTTGATTTCGATCGCCTAATGCCGATCATCTGACAAGTTCATCTTGAAGAGTTTATTCCCCCTATCTTGCTTTGTTCGTCGAAAGCGGTTTCGATGGCGATGTTTTCAATAAACACCGGTCGATTGGAGTGGGCCAGTTGGAGGTGGTGAGATCACTGACTGATCGCCGGTGGCTATTGGGCATTTCTCCAGGTTTCGCGACCATTCTGCTCAAGAGAAGGTTCAGTCTGCCACAGAAAGTCTTCAGTTCCGATCGCGCATCAATTATTAAAATATACCCGACTAATCCTGAAATTATTAGAATAAAACCAACTAGTCCTGAAAGTACACATGTGGATTTGTTGAAAACAAAACAGAATCATATTTCTTATCTTAAATTAATACAACTTTACTATAAAGCCAAAATTTATTATTACTCATGGTTTGCTCTGTGTGTTTAAATGAAGTGATCAATTAATCTACGGCCAACACATTTGAATTCTATTGATTCTATTGATATTGTATTGTAGTGATATGCATTATATATCGAATATACTATTTGATTGATTTCTAAAAGCATTTTATCTTAGTTCACAGTATCGGCCAGCAATTGCGATTGGTTTCACTAGCGCAAATATGTAAATCTTGTGCAATGAGTAAAATATAGTATCAGAGTGAAATCTCTCATTCATGACTAAGTTTAGGTTTACAATCTCTTAGCAATATGATATGTTGACACTGATCGTTAGTGGGGAAAAATCACACATTTTAATGAGACAGTGCACGATAGCAATCGCAAAATCCCCATAATTCGGGCTCTTAGAGATCTGAGTCTTAACAGTCCATAACAATAAAGTCTCCCATGCGCGTCGAACAAGATTTCAGGGGTTGTTAATTGGTAAAAAAAAAAATCATTTCTTTTTAGAATATGAATACGAAACCCGTTTGGGTGTCGTCACAGCCAACTTTGAGATACATTTGTGATCGTACACATGTGTGACGATTAGCGACTCACATCCGAAGGGGTTTTCCTGGCCAGCATTTGTGAAAATCGAATTAGCACAGTCGTCAGAACTCGGTGATTTTTGGTGGTCGATTCAGGCAAAGGTAAACTATTGGA
0.6666834981689963 CGCCGCTATAAATACATAAACAACAATGCCCGACCCCGCCACATTTTCACACAGCTGAATTTTCCAGCCCGTGCGAAATCTGATACCAGATTTACCCGAGAGCCATGAGCAATTATGAAACCGGCGTTTAACTTGTCACTTGCATGTCGTCCGCTTATCGTTCTGTTTTCCCGGCGGAGCGAGGAAATCCGTAGATTTGTTTGCCTCTTGAAACATGAGCCGGTGCAGATCTGACCCTCTGGGGTAAAGAGTTCCATAGTTTAGTTTTTCTTGGGGCTCTGGTCCCGGAAATTACCCTAAACGAAGTTAATTGTGTGGATCTGTTTGGCCTACTACTAACTGGAGTGGGGTAACCACTCCTACGTTCCCGCTGATGATGGACTGGCGACATGATACCATTTTAGAGGTATGGAAAAACGTGTGAAGCGGTGGATGAAATTACCATCTTAGAACACCCAACTGGGAAAAAACGCGAGATCGCTTATATC
1 CAGTTCTTATAGTTAAATTCTTGAGTACCAAGACTGTGTGTCCTGCTGCCATGGAAATTATGTTATATTGTAGTTGACTTAGAACCATGCTGAAATGGCTAACTAATATTCAAACCAATCAGGTACAATTTCCGGAGCACCCTTTCTTCATTTATTTGGTTTGGACAATTTGACGCAACTACCCTTTAGCCGAAGACAATGACTCCATTTTGGAGTGCGCCCTGTGTCAGCGCCACGTTTCACTTCGTTCTTGACATTTTGTTTAAAATGTGTGCTCTGCATTTTGCGACTAGCCGCAACTTCGTCAAGCATAGTGAGGGGAGGGGTCTCCAAAAGTCAAAAGCGGCGGCAAGTTGGCGAAGACGAAAGGCCAAGAGGGCTGTCCAATTTGGCTTACTATACATGTGCCAGCCGAATCCGTGGGTCGTTCACTTCACTTGGTTCGTCTTCAATTCGGGCTGGGCTGTCTAAACGCCTTCGAATTTGCGCTGATTTGACACAAAAATGTGATGTAAAGTAGTCGCCGCCTCAAAATGCAAATTGTGCATGAATATTTACCCCTCTATTCCCGATTCCCAACCGCCTGTCGTTAAAGGTTTTTGTTTACGCTTGTTTTGCTGTAACTACGATTTTGGCCACGGATGGGCGATAAGGTGAAGGATGGCCGGGTTTTGGGTTTTGGGTTTTTTGAGTTTTCCTGCGCCCTGTTATAAATTTCGTATCCAGCAGATACTTACAACAGCTTTGTGGCACTTCGCCTACATGTGGATACTATGGCAACCCAAAAGGGGAGCAAAGAACATCGAAAAATCAACAACTTGTAGTGCAGAGAATTTACTTGGCCCCAAGTTTGTGCAGGCGAAACTTTACTGCAAGTAATGATTGTCAAAAGAATTTCTTGGTACATTCGATACCAGGCCGAAATGACTTTTAACTTACGAGATTATTTGTATATCTCGTGTTATTGTAAAGTTAAGACATTGTGTGTCACTAGTGAACTAGCGAACTTGTATTTTCTGAATTCGTTGTTCACCTGTCAGGAAATAGCGCAGTTCTACGTGAACCTTATCGCAAAGTATATTTTATGCATTCAACCGACATTGATTAACCAAAATATCACGCCTTAGCGCTAATTGAACATTTAGCTTAATGGGAATTCATAAATCGCTCGAAAACCCTCATAAAGTCAAGACGAAACAAGTCGAAAGGTATTATTTGCGGCTCTATAGTGCAGGTGATTAATGCCGGCAATAAATAGTAATGCCGAGAAAAAACCCGAAACTAAATACGGATGAGTCAAAATGGATTGGACTGGGGAACTGGACAAACACAGCCCAGTTCGTCGGATCGATATTCAATATCATTTCAAAATGAGGCCGCCACATGCGAAATCAGTTTTTACACACGATTCGAAATTGTT
0.7724936773778549 GCATGAAGGGAATATGTATTCCTCAGGCGACAGGCGACGTCAAATCGCAGGATTCGCGAATCGCTGAGAGGGCGCATCAAATCCGCTGACAGACGACACGGAAATTCGCTTTTTGCAAGCCCAGGAAAACCCTTTGCCTAGTCGAATATGGGGTAATATTTATTAATCTCGGGCCCCTCGAACGCGGCGATGCGTCAAACAAGATTGACAATGTCTCATTCAGATCAATAACTCGAAGCGAGCTCTGCCTGTTAAATGTTCGAGAGTCAACCCCCAAATGAAATTTTGGTGACACACACGCATTAAAAAAGACGCCGTCATTTTTGCAACCCTTTCGCGGAGTGGCATAAAAAATTGCGCCACTCTGGGGCAGGCGGAACGAACAAGTGCTGGACATATTGCACTGGGAGAAAAGTTTGA
1 AGCATTTCGAATTCCATAATTATCCATCATACAGTTTAATGACACTCACTAGGAGCAAATGTCACATTGCGCACAACTCTTGCGCTTTCATCTTTGAAAAGTGCGTGTTCGCGTAGATCTATCCATATATATAGACACTCGAAGTATTCATAAATCTTTCAACAATTTGTTTGTTTGATGGTTGGTTGACGTCATGTGTTCGTTTGTCGGCCGCCTTCACTGAACATTGAAATGTTTGCACTATGCGTATTTATCTTATAATTGAGTCATAAAATCAACGAAAAGCCAAAAAGGGGCCAGTCGAAAGACGAAAAGTGGAAATATTTACAGACAAAATACGATCGGTTTGCGATGGGCAAAGAAAAGTAAAGTGACGTCAAAAGTGGCGGGAAAAAGCGCAGAGGACCGCTCTTTGAACACATAAAGTTGGCTTAAACTAGCCAAGGTTGCAAGGTTGTGGTCGCACCTCCATAAGTGGATTGATTTTCGATGTACAACTGAGACAGACTGGCGGCAGTGGAATGTAGTAGTATATTTTATA
0.9046545102833323 GCATTGGAAAATGTGAAAATTTGTCGCAAATTACTTTCACTCCCGTATCGTGTTACAGCAGGAAGTCAGCGACGACAGCTCGAATTTGAATCGAATGTCACCAAAATCGAAATCCTTTCGCAGGACTCCACCAAGCGAAAAGGGGGAAAAATATGTGAAAATGTTTGCATGTCAAATTTAATTTCCAAACAAATAGAGCGACAGCAGCTGCGACCCGCAGACGCCGCAATCCTTTGGCCCAAAAGTGAAAGGATCTCGAAGCAGGATATTCGATCGACGTCGATATGCGTGTGCCGAGCCGAACCGAACCGAACCGAACCGCCTTTAATGATGATAAATGCGATGCCCTTACCATTGGAAGCTGCAAGTTCCGCCACATTTAGCTGCGACGACAAAACATTCTCTGTTTTCAGCAAATACCAGCTCGACTCACTCGAAACAATTTTAAAAAGCGGGGTCCCCGTCCTCTAACCCTTGCAGGAATGCCAGGATTGAATTACACAACGGGCACAATAACAAACAAGGCGCGCATGCGCAGCACGCTTGGCCAAAGGACTCGATCGATAGGCGCATCCTTTCGCCCCGCACGCGCTGATTTCGATTTTCATTTTTTCGTGATGAGCACAATGATATCTCCTCCTGCCCATTCCACTTCATTCATTATTGCAGACACTTTTTTATTGGCCCTCGGCTGTTTCATAACTATGTTTTTTTTTTTTTTTGCTTATCATTCACGTTCATGCAAAATAGGGTTGAAAATGCATGTGTATATGGTTTTTTATTTTTTTTTTTGTTTTTGATTTTGATTTTAGAGCCATGCCCACATTTTGTGTCAGCCCCCTTTCCACCCCTTTATTGCGCCATGAGCAGCTGCCATTAAAAATTCCCATTTACGTTGCGCGCTCAAAATTTTGGTAAAAAACAGCAAGTAATTGCCTGAAAAAATGTCAGGGTGCGAAAAAAAATGAAAATCGAATCCGCTTAAGTGACATTTAACCTCTTGAAAG
1 CCCACCTCCACCGGAGTTACATAATTTATGTGGCATTTAAACGCCGGGTTTCTGTAAAATGCTCATCTACCTAACTCTAGCCGATATATACAACATATACATATATATGTTTGTTGGATCCTCACATATGCCGCACCACTTGAACGAACTGGCAGCAGTTGTGCCGCTTAATTAGCGGCTCAAAGGCGTGGCCAAAAGGGCGACAGAAGTGTGCCAGAAGTGAGAGGAAAGATTGTGGTTGCATAAGGAAGGAAATCGAGCTCAGATAAACTGATTCA
1 AATCACATTAAATGCCAACGCATCCAAGTTCAAACCGGGAAAAATATTGATCAAGTGTGGGAGTGGGAGTTCAAATATTGATAAATGACCCGATTTAGATGGAGGAGTGAACTTTTTGAGTGGCCACATGTGCGGTTTGATTTATGAACGAACCGGCAAAGAGTTGAGGTTCATTAAGACCGTTTTGATAAATGCGATAGACGTCTAATTTGCATGGAGCTGGCAAAATGTTCATCGTGCACACATCGAAGCATCCAAAGCACATCCATTTGAATCCATTTGAGTCCATCTAAGCCAGCCACTTTGTAATTATAATGCCGAAACGTTTCAGTAACCCGTCTGCATTGCAATGGATGCCATTTTTCCCTTTAGAAAAAAAAAAAATAGAAGTGAAATCCGCAAATGCCGGAAAAAAGGATAGATGGAGCAGAGTGAGAGGATGCTGTTTAAACGGATATCCTAAATGTCTGCCCGGATGGGCGATGCTCCGCACTTTTGGCCTGACACTCGTTTCCGTTTTGAAGTTTTTCATTGCTTCCCATGGCGATTTTACGGGCGAATGGAGTGTTGAGGTCCTGATGAGCGGACCTGTTGCGCGGAGACAGATTCATGGCATCGTAAAATATGCCATTTGAATTTGGGAATTTAGTTTTAATAACCCAAAAAGGAAGCCAACGATAGCGGAAAGTTGTGTTTATTTAGGTTTTGTTAGTGATGCGCAATATAACAGTTTCACACACTACTATATATTGTATATTCATTTACACAATCAAAGTTATAAATCTCTTATTGGCTTATTATTTAAGTGGTCGCCTGGAAGTATGCAATATTTGTTTTCAAATCAGAACGATAACATCCGGTTTCGAAACCCCTTTATAACCCCTTTATTAAACAATATTTGGACTCTGCAAAAAAAGAGACAAGCTTTTGGAATCATCACTATCTAAGGATTCCGACACAAAATCCGTTTGAGCAAATACACCAAAATCCAGACCATCCTCCCACGCACACACACACATACACGCTTCGGCCATTAGTGTGAGTGCTCGTCCTTTCTCTCTTCCAGCGGAAGTTGTCTGTGTTAATGGAATTACATGAATTCCAACTCTGAACCGCAGAGTAAAAGCGAGAATACACTGGCAGGCGACATTTCCGCAAATGCATGGCCCATAAACTTTGACGGAGGTGGTGGGGGGTGAAAGCAGTCTAAACGAATAGAGAGAGAGAGAGAGAT
0.7395651534163677 TAGAGTGTAATTCCGGCTTACTAACCTCATGCACCATACAATCATCATTGCCCACGTTCCTAACCCAACTCACCAGCACCATCCACATGCACCCAGCCCTATCTGTTTACCCCGTGTCTCACCACCCGATCTCCCCCGAATCTCCGCAGGAGCGCGGCCTGCAGCTGTTCCTGCGCTACGGATCCCGATGGGGCATGGAGGCCCTGAGGGGCCTGGTGGACGTGACCCCCTTGGAGCCGGGACGCCACTGCGGACAGTTCCAGTGCCCCTGCCAGTACAT
1 AAACTTTCTACATTCATAGCTACAAGATCTAAAATCAGTATAATAGAGAGCCTTTAACCTAACAATAATTTGTAGGTGACTAAATATCTATTTAAAAAACAGTTTCCTTAATTATAATTAAAGCATTAATAAATCATTTTTTTATTCTACTCTCTTTACAGGTAAGCTCGATTAGATTTCCCGTTGATTGGCAGTGAGTATATGAAATATTCCCGGCTTTCATCATCAATTACTATTTTTGGGGACCTCCATTAAGTGTTCTAATCACTTTCGACCATAAATTATTGTTGATCTTTGTGCGCCGTGAATTCCCTCAATCGAAAGCAAAGTCCCTAATCGGATTGGGAAATGAGAAAACCGCTGCCGAGCAGCAACAGCAGGACATCTCAATCGCCGGGCTGAAAAGCGAAGCACGAGTCCTGTCGCAGCAGGACTTCAACGGGTGGTCCTTTGATTTTCGGTCCAACACTTTCTAGCCTCAGATTTGCGAGTGGCGTTGCCAGCCAGCAGCTGCTTGATGTTTTTTTTTGTCACTGTTTTTTTTCATAGACTTTTCCGATTTCGTTGAGATTATTTTTTAGATTGCGGTCTAATGTCATCATTTGTTGTTAATTAGTTCAGAGTGCTGTAGTGTGAATCTCCTGGATTTTTTTTTGTGGTCCCACTCAAAACTCTCTGCTCAAAATCCTCGGCATTCTTTCACCGCAATGGAATTCGTTTTGGCTCATTTCATTTGCAATTTACGAGCCATCTTTCTCTTTTCTATGTGTGTCTTCAGGACACACCTTGCGTCTCATAATGCAAAAATAAACAAAAAGCCGCTTTGGGTTTTGTCATGAGTACGTGCTCGGTGCTCGGTGCCCATCTGTGGGATGTCCTGCTGGTTGTGGCATTGTCTGAAAGGAAGTTTTACGACCTACCAGACAGTCTGTTGCATTGAGCATTGTCCTTGCCTACTAGCAGACTTTTTGGCCACATTCCCATAGCCCATAGAAACCTAAAAACTAGCGAAATCTACCCAACCCCATCCATTTGTTGACATTTACGAGGCAATTTTCCAAAAGCCATTAAATTCCTAAGCTGAATATACCAGTGCTCCGGGCATCGCTTGGCCTAGTTTGATTAGCCTCGATTTGTGTATGACCACATAAAAATCTACTGAACTCATCTCATTTTCAATGAGACACTTCAGTGTTGGTTTTTGCATATGCCAGAGGCACCCTGGGTGGCTACATAAGGATCTCAGCTGGAGGTAGGAAAATATTCCAAAGGGATCTCAAGCAAGGTCCTCAGTGGTACTCCAAAAAAAAAGGAAAGAACTCTTGGATTGTTTACTTATAGGGATGGTTAAAGGTTTGAAGTTTTCTG
0.8723298125304856 CCTTCAGCTGTATTTGAGTAAAGGACAGTCGTAAAATCATATATGCGATGACAGTTCTAACCGCTTCTTGTTGTGGCTACCGTAAACAACTAAATGGTTATAAACAATTTTACGACTTTTTCGCTGACAATCCTTGGCGCCTCCTGGACAAATAGAATTGAGGTATATACATTTATGCTTCTCTTGGATGCCTGGCACGCTTCTTGGTGATAAAACTCAGTCCGGTTGTTCGGTTCGGTTTTAGTTTGAATACAGCTGCTGTCAGTCATAAAACTAAGCTATCTATATCTTTAAGTTTGGGGTCAGAAGGTCGGTCAGCTGTTTGTTGGGAAAACATGCTTCCCAAAAAGGGATATGAATATTTCATATTGTTCGCTAATTAAAATGCTTAACCCACATCAAGAGCTGTAAATCCCAAGCCTTCTTATCGCCTCAATGGCAAAAGTGTACAAACACAAACAAACAAAGCTAAAAAAAAAATAAAGGCAAAACAAATCCCAGCCGAAGTGAAAAACCCCTTCGATCAACAAACACGGACACTTTCTCCTCCCCAGAACAAGAAATGCAAATGGAAATGGAAAAACGGAAAACTCGGAAATCGAATGAACGTCTTTTGGGTTCCAGCTAGTTTGCATACGTAATTGTTTTTTTTTTTTTTGGGAGTTTTGACAACGAAGGCGACATTTGACATGAGTTTGAGTTACGATCCCGTTGAGATAAAGATGCAGCAATCACGGAGGGATAGTGGTTACAAGTAAGAAAGGGTTGCCCTGGGCCAGCGGTTTGAACTTCACACATAAGCCGATCGTCAAACCCAATTCCGATTCCGTTCCCGATCCCGATTCCCTCAGGTGATAGTTAACCCCCAGTTCGGTGTCAGACATTTGACATCATTAGTCAAACTTAAAGACGCATTTGTAACTGGCTTGTAACTCTAAGCGCTTTAGCCTAATGACGAGCCATTAATTAGACGGGATCGTCTGTGGTGCACAGCCCCTGCAATTTGTTACAATTCGAGCAATGAGAACCGCGAGAAACCAGTCGCCAGAACGCCATCTTT
0.8488014828604462 ATGTGGCAACACATTTGGGTTTGGAAAATTTCTTTGCAACCGAAAAGTTGCGGGCAAAAGAAATTGCAAGTCAATTACCGTTAGACGGTTTGCATGGCGCCATGACGCAATCGCCACATGTGGCAGCCACACAAGAAACCACACAGAAACCAGCCGTTAGCAGCCACAATAATATCAGGCAAGCCGACGTCATCAGCATATCGCTAATTGATTGCGTCTGCATTGGTTGTTGCTGTTGTTATTGTTGCATTCACTTTGCTTTTGGCTTTTTAGGTCGAGCCATTCTCCATTGGCACACACACATTCGCAATTGAAGCGGCACGAACAAGCGGCTCCGTTTCTCGGGTTAGGACAAGATCAATGTTGTTGGCGTTGGTCAATCCAGGCAACAGGTTCTCCCAAAACGAAAGACTCAGGCAGCGAACTTGAAACGCGTATTGGCTCTTTCTGGACTGCCTGTCATTGCAGTTGATTGCGCCGATAAATGTTAGTGCTCTAACTCACGTGCATTAATTGTTGCATCACTTTTACCCGCCTTGCTTTTCATTTCGTTTTTTGGCAAATATTCACAATATTTTTCGCTTAAGTGCCTGATAGATTATATGTATGAGATGTTGTGGAGTAAGGGGGAAGTAATCTGTTTGAAG
1 AAGTAAGTTCATCCCTATTAACGCTTATTATTAATGTCAATAATGAATTGTTTCAATATCCAATCTAGCCAAAGATATAGGCGTGGCTGTCTGTGGCCAGGTGGCCCTGAAGCCAATGGCATCCCACGATCTGGAGTTTGTGCTGGCCTGGGATATGCCAAAGATTCAGTTCCCCAGGAAGATGCAGACCCATACACGCTACTACACCAAGTACTTCGATGACAGCGGTGATTCCGGTCCCAGGATCTGCGAGTATGCACTCAGGCAGTATTCCACCTGGGAGCGATTGATTGATGCGTGGCAAAGACCCATTCTCAATGATGAGTAGGTTTAGCATGTGCGCTGCTTCCACAGAGCCAATTTTCATCATCTACTTTCTAGAACCCTTCCCGACTGGTACAAGTGTGCCATCTTCAATCAACTTTACTTCATCTCGGATGGCGGAACCATTTGGTTGAAATGTGATTCTTCGCTGGGCAAGGAACTGGCTTATGATGATCCCCGACTGGCTTATGGCCGTTTCGGTTACCTGGAAGGCCACGAATACCGCATGTACAACACCTACGATGTCCATTTCTATGCATCGCCGGCTCTGGCCCACCTGTGGCCCAATCTTCAGGTCAGTCTGCAGTATGACTTCAAGGATGCCATTGCCGCAGAACTAAACGATACTCGTAAAATGCTTTACGATGGCAAGGTGATGCCGCGCAAGGTCAAGAACTGTGTGCCCCACGATCTCGGGGATCCCGATGAGGGTGAGTTGAAGCAAAGGCTCTAGAATATAATCTTAAGTAATAATATATGCATTTTCCAGAACCCTTCACCTTGATCAACTGCTACAACATACACGATGTGAATGACTGGAAGGATCTCAATACGAAGTTTGTGCTGCAGGTGTATCGGGACTACTATGTCCTCAATGAACTGGCCCAGGCCCAGTCGGATAATGCAAGCAAGTTCAGCTCCATCGAGTTTATCGATAAGGAGAGCCTTTATGAGCTGTACAGCCAGGACAACAAGCGCAAGAATTCAGCTGATGAAAAGCAACGTAAGTTAACAACAATTCTTATTAGTTTCCTATGAACTGGAACAACAAACTTTGGCTCTTGTAGAAAACCGTAAATCTGCATCGATGTACATCAACGAAACCAATGGAAAGGTGTATCTAATGGATGCCATTGGCTACTTGAAGGCCATGTACGCATCGTGCAAGGCCATTATGGAGCGAACCATTGAGTACGATAAGGACAACGACGGTCTGATCGAGAACACAAAGATGCCGGACCAGACCTATGACTCCTGGGTGATGGACGGACCGAGTGCCTACTGCTCCGGTCTCTGGCTGGCTGCTCTGCAAGCCATGTCCGCCATGGCTACCATTCTGGACCAGCCGAACGATTGCCTGCGCTATCAGGATATTTTGGAGAAGGGCAAGCGATCGCTGGAGGAGAAGC
0.8154168815993257 ATACGCTTAATAATGGAGCGTATCGCGTAATCACAGCACTCGTAATTGCCTCCCATAGACTCGATCGGAACAGTAGCCACTGGATATAAGCAAATTATGCATGCCTCCAGTCAAGTCTTTCAAGATTGAAAGACTTTTTCACAAAACATCTTACCAGTCATTATAAGCACTTGACATTAATGACATTTTGGTCGCCGATACTTAAGACATTATCTCCACTCAGGTCCCACGAGTGAAGTAGAATAGTCCCGGTGGAGTGGAGGGGAAATAAGGCAAATTGTGTGGCATTTCCTGCCACTTGAGAGTCCGTTTCTCATCTGATCTTTGGCGGCAACCAATAATTATATGCGCCATAAACGCTTTGTCATCTCGCTCACGATGGGGCCTAGAAAATGCAGATTAATGCCCGCTTCTGGCCCGGCCTTTTGTCATGAGCATAATTTTCTCATCGATCTTGTGATTAATCATAAAAATTGTATGCCTCGTCTCGAACTGCCCGCTCTTTTGTCCAAAAGCCGACACATATGCTTCATTAAAGCAACTTCTTTTTCTTCCTTTTGTCCAAGGTGGCGGCAGCGACTCATATAGATTAATTTGTGGCCTGTGGGGCCTGTGAGAGATCACGTTCGATTACATCGGCTGCCAGCTACCAGTGTTCCACATTTGATCGATCTATCAATGATATGTGGGCCATTATAATCGAAATAAATGG
1 CCCACTTCTGGGTATTGTTCACCCCTCTAGTCAGTAAGAGTATTTGAATGGCTGCCTTACGAAACCCATTGATTGAAATCTTCATTTGTTCCTTTTGTGATATTGGTTCATTATTTATTGGCACCTCAGAACTGACAACTTGTGGGATGGTTATTGCTACAAAGTCGTAAAATCGATTTTATTGTCCGAGACGTATATAAAGATGTTCAAGATTATGCGACA
0.5511015316080095 CCGTTTATCCGTCAGTCAGTCGAGTCATCGATCCATCAGCCATTCAATCATTCACTCATTTCGACTGTTGTCACTCACTCGCACTCGAGTGGAAGGAAAAGAAGGGAGCCGGGGCAGACGAGGCAGACGGGGCAGGAGACTTCAGGCAACCACGTTGCACGATTCCGTGGTGCGCTTCAATGAAAACAAACTGATATTTGCCTGACACTTGAGATTGATTGTCATCCATCAAGGGAGCTGCTGCTGTCGTCTGGCTGAGTGATTGAATGGCAAGGATGCGCTGTTTGCATTTCGAATTTACATGCCAGCCCCGTTCTCGTTCTCG
1 AAAAATGACAGGCAAAAACGTTACTTGCCCTCCGGGGGTCGTCGCATCCACCTTATCCGCCCCACTCCGAATATAGCACCATTGCTCCCCCATGGACAACCATTCCCCATTCGGGAGTGGAGCGAACTTGAGCCGACGATCTGAGATTCCGACACGTGCCGGGCGACAATGGGAATGGTCCAAAATGTCCATAACAATGGCGCTGGAGTACAAACAGCAAACATTTTGTAAATTTGCGTCCATTGACACTCCGAATGATACAGATCTCGCTGCTCTCGATCTCGTTTCTGATCCAGAGGGTCACCCTGTTTAACCGGGAGGGCCACATAGCCGGTAGATTGGCCCACGCAAAGTTCCTACCCCTCGCCAGTTCAGTCCCCTACCTGAACTACACTCTCGTGGTACCCATTTCAGCCTTGAGGCAGCAACCACTTTGTATGTACAAGAGACGAATGTGAAATGATGTCGATGCACTGCAAAAATGAGCTGGATATTGAATTAAATCGGTGAATTTAGTAGGTTGACGAAAATCCAAAACATTTACTAAACTAAAAGATACAATCTATACCCCCTTTTCCAGTTCTACGAAAATTCCACGATTTTTCTAACTACCCCTCTCGTTTTTTTTTTCAGTGTAAAAATAAGTAATATTCTGAGAGGGGTAAACGGGTGAAAGGGTGCTGACTGAAAGGGGGAGCTCGGGACCGGTCCTGGGTGCATGTAACACAATCAGGAAGTAATTTTTATGCTATGTACCCATAGCATGTGTCGCCGTCATCGTCGACGTAGCTGATGCTGCTGCTGTCGCTGTTGATTTTGCCCAGTTTGTTGGTGTTGCCACAGCCGAGGTGGATGTGGATATGGATGTGGATGCGAGTGATCCGGCCAGTCAGCGGAGACAGTCGCTCGGTCAGGCGGCAGCCGGGAAGATGGCAAGTTGAGCTGGGTTCTCAACTCTCTGCCGAGTTGTCGGGGGAATTGCATTCGAGCGCCCGAGCTCAAGCTTGAGCTCCCTTCTCCCTTTGGGAGGCAAAGTCGAGGAACTGGGTGCATTGGGGGGCATTGATTGGCAAGATGATGACGACGACGATGATGTGAGGCAATCGCTGAATCAATCTTGGCCAGTAGTTCAGCGTTTACTGTTATTAGTTGCTGGAACATTGCATTTTGATCGTTCCCAATA
1 TCATACGGATGATGTCTTTGAGTGGCTATGACGCCAAGAAAGTAAATGCACCTGTACAAGAACCATGTACTCATCAGCCAGCTATTGATCCGCACCAAAATGAGTGGATCAAACTTAATGACGAACGGCTTCTCCAAATCGATTATTTGCAAATTCATGCACGCGGGATTATGTAGACTACACATGGCGTTTGAATGGCTTTCGGTTTTTTTTCCTAAAATGGACATAAAGAACATATGCATGGCCGTCAACGAATAGTAGCCCTCCCGATGAAGCCATTCATGCTCCTGAACGATCGCCGAGAAGCTGTCGCCCAAGTGGCTAAACATTTCTGCCATGACGGTGGCTCCACGAAAATCGACTGGATGCAGCCTAATAAGCATGTGCGAGCTCAGCGTGGTAATCTGCTCCATCTGCGACCCCGTTGAGGCGACCAAGCCAGTCAGATAAGAGTAGAATTCATCTCCATCGATTGACGTCTCTATAAAAGTGATGGCAGCTATTCCCATGATATAGGCCCTATTCCAATGACCTCGCTTAAAGAAATTCGGCACATAGTTCATTACTTCTTTTTGCCCCGTTAGCATGCTTTTATCTATCGACAATACTTTCACTTCTACACGTTTTTCGACGCACATGTCAATGGCATCACATATCGAGATCATGATAGTCTCTGCAGCGGGTAGGGTGAGCACAATCCTTGAGTATGGCACATTCGAGGCCACAACTCCATATGACACCATATAGCGATAGGTTATTGGCGGGAAAGGCGACTCAAATCCGGGGCAATCGATCTCGAACATTGTGAAGCCCTCGACGCCCAAAAAAGGATATATTGTGCAACTACCATGTTGAGGGCCATTGTTCCGGCGCAGCGTGTAGAACGCATCTGCCCACCCTTGGCCCTTCACCCACACTCTTAGACGGATCTGAACGAGGGGCTCTAGAGTGTGGAGAATCAGATATTTATGAGAGGATTCCAGAGTGGGCTGTGATTCTGTGTCCAACAACCACCACTCATATCTTTTAACCGTACCCGGACAGTCATCGCATTTCGAGATCAGGTGTATGCTGTCCAACGGCGCATAAACACCTAGAGCGCAATTTCGACGGCAAAGGATTTGGGGCGTGAAGGTTGTTTTAGCGACGCCTTTTATTGTTTGGGTTGTGGTCATTCGATTCCGCGGATCGAAGCGTGAGATGACGGTTAAGCTGAAGTCGTAAACGGCATT
1 CTATAATAAGTGTACTTATTGTCTCTATTATCAATCGCCTATATTTTGATCGGTAATTGTGAGATTTAAAAATTGGAGATAAGAAAACATGAGAATTTCATGCAGTAGCAGAATTCAAAGTTTCAAAACGAATAATCACAGAGCAAAAAGCAAAGAGTAAAACTCTTATACTTTCCTCAGTTTTGGTATAAAAGTGGTTCAATGCTTGGCTAAGCTTGGACTCCACCCACTATGTAAATTTGTAGTGTAAAATGTTGAACATTGTGTAAAATGTTGCCTTCTTTCAATTTAAAAAAGTTGTTGAACTAACATAATGCTGAAATTAAAATTAATAAGATAGTTAAATAATAACAAGGTAAAGAGGAAATATTTCAAGGAATTAATAGCTATCAAAAAGCAAAGCGAATACTGAATAATTGAACTCTGTCAAATAGTTGAAAGGAAAAGCGAGATTTGATTTTGATTTTTTTACTGTAGCTTTTACCTTTCCATCTGTCACCAATTACAGATCAAATCCAATCAAAACTAGGGACTACCAGCTAATTAACTACAGAGTTACCTCATCCTCTTGCGCCATGGCCTCCTTCCACCAGAGTTTTATCAACCTTCGTCGCATCGCTTTTAACTGCAATCACTCAGAGTAAAAATTGTCGTCAAGATACGTACAAACTCATACAAGACGCGTAAAAAATGGCAAGCGAAGGAGACAGACAGAAAATAAAACCCGAAAATGAATTGCAGCGAAATGTTCAAACACACTCTACGAAATTGACTTAAATAAATAAATGGCATAAAAACAAAGACAAAACACATGCGCAGCAAGAAAGTGAATCGAGAGGCAGGGGACAACGGCGTGTCATAGAAACAAAGTGCATTCCCAGTGGTGGAAAATTGGGTGGGAAATTCCTAAAGATGAGGCGGATTGGGGCGGGGCCGGTCCGGGCTTGGTTGTTGTGTTAGCTTGTTGCAACATTTTCATTTCATTTTATTCAGTTCAGTTCAGTTCAGTTCAGTCAATGCAATGCAATGCAACGTTCGAATGCAACAATTGCAAGTGCAGCAAAGACAACGCTTAGTAGCTCATCCATTTTCATTTGTATTAAGCAAAAGGCAAAGGACATGG
1 GCTTAGTTGTTCTATAAAATCAGTATGCCTCTGCCCACGAAAAGGGAAACTATTAAATTAGAGCGGACATCGTGGCATGCCTCGGTACCCAAAGCCAAAGCACACACCCAGATCTGAATAGATGGAGTAGTACGAACAGGATAATACTTATGCATAAACAGGGACTGGACATGAGAAGGAAATGAAAGGAAAAAAAAAACCAATTAGAATGGTTGTTTACACGCAAACCAAGTAAGAAATATGAAAATTGTCGTCAGAATGGGGTTTGGGCCAAAGTAAAGGAAACGCCGAACAGGGAAACGAGTTTGCCATGTAAATGAATGAATGCGAGAATGAATAACTGAATGAATGAATCATTTATGTGGCCAATGTGGATGGATACACGTATGCCCACGTATGTATGTATGTATATTCACAACTTCGGCACAAGGGAAAGGGACACACCTTCGTGAATTATTCATTGTCATGAATGAATCTTGTTTAATTGATAAATGCTATGACATGGGGATTAATGAAAAGCATAATGGAAAAATATCAACCAGGTGGCACATAAATTAGGCAGGACTTGGAATATGGAAATTTAACTAGCTACATAAATATTGCTACAAATTCGTATAATAAATCACGCTAAATGCAACAATTAACATGCATAGTTTAAAATTTGATTGATTATAATTTTCAATTTTCTCTGCCAGCAAGTTTTTAATTAAGCAGCTTAATTTCGTAGTTTGCTATGTCAAATCCAGCATTCCAT
1 AAAATGCAATATACGAAAATATGTGCCGGGAAGAAGCCGCCAAAAACAATTTACCAATTTATGTTGAACTGCGATGAGGCGATCTGATCCGATATGTTTCGTATCCGTATCGTTTCTCCAACTTGCAGGGCTCCGAGTCTTCAGAAGAAGCTTACACACTCGTTGACTTCGAACTCCCCGACTGGCAAATCACTAAATTTATATGTTTTCTGATTCAAAATATTTATTGCCAAACCGCGCACAAATCCAGAGGAGTTGCCCCAAAAAGGGCACCAAAGTGTTTGGATTGCCTGGGTTTGCTGGGCTTGCCTGTGTTTTCGGTTGGTTCTACGCTTCAGGAAAGGAAGTCCCGAAGACGCTGCGCTCAAATTGCCTGAAAAATGGGAGGAGGACATTAAAATTCACCAAATGTATTTATTACGGCACCAAAACCACCGCAGCAAGTCAGAAAGTGATGCCCACATAAAGGACGGAGGACTGACTAAGTGCACTTAACAAAAAGGATACAAATAAATGTAATATCTATCAAAACTAACTACATATCTATGAAAGTATTTTATTTTTCTTGTGTATATATGGTATATTTCATGGCACTTTTTACTAATTTAATTTATTTAATTAGTATCATTCGACTATTCTCACTGTGTACCTGGCTCTGGGGTCTCTGGATCTTACACTTGGCTTGGCGGCATGTTTGCAGATTGATTTGCTGCGCCTTCGAGGGACCCGAGACACTTGCCAGACCGACCAAGAAAAAGAAGGAAAACACAGAAATCAATTGTATACCTGTGTGTGTTTATGTGTGTTTGCCGAGGAGCATTTAGTGAGCAATCAAAGGAGTTGGGGAAACAGGCAATATCCACACCATACTATAGCTAGTCTTGGACCTAGGCAGCAAAAATTTATTTGCACTGCCCCTGCAGCTGAATTATTTTATTT
0.6700400648098263 GTCTCCTTGCATCGAAAACCCCAAACAAATTTGTTTACGTGAGTTTTTCTCGAAAAACATATATATACACCAACTTTTTGCTTTTAGCAAAACGAAGAAAGAAAGTAAATATTTTTCTTTGGGGTGCAAAGTGTGTCTAAGATATTCAAATTACTTAAATAGAAAGATGGGTGGGAAGACCATTTTGGAGTTGGGTCATCTTAACAGGTAGTCACGGAATGGTCATCTTTTTATCATAATAGAATTTCCACGAGTCTCGATTGATGCCTTCTGCTGCAGTTTCAGCTTCAGCTGCTCCCCTTGAATTTCCTTTACACTTGAAAAACATAACTATACAATTCAAACAACTGAAAGTGCTATTAAATTATAGAAATCAATAGAGTTCTGTTGTTGCAAGTACGATGTATTGTTGATAAATACTTTTTTAACTCCGTAATGCTTGACTTATGAGATAATTTAATTTTTTGAGTGTACCGATGTCAGGTGCATCGCATTCGGCGCATGCGCAACGTCCGCATTTTCTAGTGGTTTACAACGCTTAATTATATCGAGGAGCCGAGTCCTTAGTGCCCCTGTTGCACCTGTTGTGGCTAGAGTTGATCGCTGACCTTCTGTTAGAACTGTAAGTATGGGTTCGATGCGATGCGGGGCAGGTGAGTAGAGTCGATGGGATTGGAGAAGGGGAGTGGAGTGGCAGCTGTTGAAGATCCTACCCCAACTAAAAGGATTCTGGCAATGTCTCTGCTGTTGCTTTTGTAACTTCAATTGACTTCCCCCTCGCTAATTGTATCCTGTCGCGTTTCCTTTTCCCCTAGCCCTACCCCTCCCTCCCCTCCTCGCTTCCTTTCTTCCTTCATTTATTTTCCTTTTTCCGTGTGACATATGGGCCTGGCGTTATATTCGCCACGATTTATGGACCTCCCTTCGGCCTACCATTCAGTTCGACACCTTTTTTTCCTACCCCATATGCGAATGCTTTTTAGCCAACGACTTTCTTTCCCCTACTTTCTTGTTCTTACGCAACGGATTGTCTATTTTCCTCACTTTTTGCCTCGCTTTTCTTTTGCGTTTTCCGGCCTTTTCTCATGCACAATATTTTGCTGTTTCCAACCATCATTTTCACACTAATTGCGGATATGCCTTCTAATT
1 CAAGTGTTGCGATCCAAGCAACTGCACTTTAAGCAATTCGATGCGCGAATTTTTGCAATTTGAGCGAGGAGCTCAGGAGAACGAGAGAAAAAAAAACGAAATCTAACCCTTGGGACCAAAAACCCTTCTTAAGGAACTCGTGAAAAGGGATAATAGAAAAAAAAAATAAAAAAGGGCTGCTGCCCATACATAAATTCAAATGCTTTAGCCATTTCTTTCTTGGCCAGAGGCTCGGCATTGCAGCCTCCTGTTTTGATCCTTGCCCTGCACTATCGATCGGGTTTAATGGTTTAATGAACAAGAAAAAGTAATCACGTAGTAAATTACGAGGAAATGAAATCGCTTTAAAAATGAGTTATGGCGAGAAAGGACTAATGGAGCGTACGTGCACGCGGCCTGCAACTTTTTCCCGCTTTCTTTCATTGTACTCAGGGTTTCGGGGTCAGGGGTTTCCAGTCATCTCCGCGGCTTAAGGTTCAAACTGAAATTTGTCATTTCGAGGTGAAAGTTTCCTTTCCTTTGCGGCAAATGCAGATACTTTGTTTCGGTTTCGTTTCCCCTTTTCTATTCCGTTTCAAATCCGAATCCCTGTAGGTAGCAAAAGGCTAGGGTGACTATCTCGGAGATGATATGATGAAAAAATTCGAAGAAGTATTTCCTGGAATCTGGTCCAGTGGATAATAAGTGGACTATCGAAGGATCGATCTTTCTCACATGATAAATTATAAAGCAACGGCGACTTTTCGATTAGAAATTAGTTATTTATGCGTTTAACTTGGTATCAACGAAACAGTTATGTTTCGGAATTTATGTGTTTGATCCTAAACTCTTAAGGTTACAAGAATTTTGTCATTTTTTGAACATTTTTA
0.654147395096299 CTCTAGCTGCCGAGGCAACGTTAAACCATTTTCGTAATGGAGGCTACAAAGTATGGTAGTCTTCGCAGACGACAGAGGACCCACAAGGCAAGGCAATGTCCTCCGGACGAAACACAATGCAAGCGGCAACCGGAAATGAGTAAACAAGCGTCAAATAGTGAAAACAGCGGACCCAAGTACAATGCAATACCCAGTTGTCCTGGCTCCATCAACATCCACTCCTCGAGTCCGTTTTCGTGCCTCGGTACGAGAGAACAAATAAATGAAACATTAAACAAGACAAGGAGCGGCACGAAAGGAGAAAAAGTAGTGCTGGAGGGGGAACGCGTGCCGCATAAGGACGAAAAATGAGCACCGAAGACAACAACGGGATATCCTGGAACTTTATAAGGAGCTCCCCCAAAAAAGGACAACAACAACAGCGGCAACGGCAAGGACAACGAAGTTTATTTTAACTTTTGATTTCCGCCTTTTTCGGCACAGCCCTCGAGTGCATTGGCAAATGATTGCATTGAGTGGCAAAGTTGCGCTTTCCAGAGAGAATATCGAGTAAGTCGGCTCAGCATTAAAAATGAATTAAACTGACAATATTCTGTTGTGCTGACGGAA
1 CGGCACACTCGCACACCCAGCTCAATTGCATGCAGAACCAGCCACGCCTCCCTCTCTGCCCACTCGGACGGCCTTCCCTCCCCCTTTCCACGGAAAACTATCCACCCCGCACCTTCCCAAACACCCTACCCTGCACCACAGACACCGCATGGCCGACAAAATAATATCATTTGACGATCAAAGTAATTATTTTGCTTTGGTCTACAGCATAATTGCGGGTTCTACTCCGACTGCGGGGTTGGCCAAGGGTTAAGGCTGGGGGGAGCGAGGTGATGGAGGAGGAGGCACTGGGAGGCGGAAGAGGAGGAGCGGTCTTGGTGGCTTGGGCATTGGACATCGCATGGCCGTCGCTTTGGTTGGCTGATTGCCCGCCCAAATGTACAGTGGTG
0.7055685581395373 GTCTGAGAAGGAAATGTGAATAGTCCTTGGCCTCGCAAATAAATTATTGATTATTATTGCATTCACGTACCCCTGCTATTTAAAATGGAAAATCTGAGCACACACAATAAGCAAATGTGTAAATCAACAGAATGACAGAGATATTCCAATTGTTCAGATTATAACATCCCTACAGGACCAATCATCATCATCGGTGGCACGGACAGGATTGTCGGCGATGACAGGGACAATTGAAGGGAGCCAAGCATAAGGGACATGCAGCTGGCAAGGGAAAGGGAAGAAGCAAAAGAAAGGGAAGCACGAAGAGGAGAAAGTCCACATTGTGCCGCTCGTCTCGCTCTGATAACCACCAATTATGATTGGCTTCCTTGATTCGCTCGCTCGTTCAATCGATTCGTATTCAAAATTAAATGCAATTATCCCTGTGCAAATAGGCGGAGAAATGCTGGCGACCTTGCGAGGATTCCTGAGTGCGATGACAGGTCGAAGGAAATGGAAATGCGATGTATAAAGTGAAATAAAAAAAGAAATTAACTGCGGTTTGCAATCACAGGAATTAATTGGTAATTAAGAAATGCGTTAAATATTTATATGAAATGGCTCATTAAAATAACCAATTTGAAAGCCTATTTTGTACAGTATTGCTATTTAAAT
0.5218607369205249 CGTGTCATGGAAGAAGAGCCCCGTAGACGAATTCCCCGTTTATTCTCGATTTCAGCTGCTCTCTTCCCTTGGCAATAAAGAAAAAATAGATCAGCCTTGAACCTAGGAACAATAAAAATTAAACCACGTATTCGATTCGTGCCAGGACTTATTCGCCCCGAAAAGGGGATGGATTTGGTATTTGAACACATGTCAAGCTGTCAATGTTTATCTATTTGGGGAAGGTGCCTATCTCTTCTGTCGCACTTTCAACTCTCCACGTGAAGTGGCAGCCGTGAATTGAGGATTATCGGGCGTCTTCTTGATTTATGGTCAGGCAAACACACACCGAATGTACCAAAATTCGAGTCAAAATGTGATTGAAAACTGATAAGCCACACAGGATTGCCTTTGGGGGAGTGACTTGGAAGGGGGCGGGCGCTTCAGAGGTGCAATGGGGGC
0.9928755581005306 AGCGGAATTTAAATTTTTAATTATACATGGTAATTCAAAGAAAATATTGTCGCAGGCACACACATTATTTCTCATTACACCAACACATAAGCCATTTAAATTGACATTTTTAAGATTCCATTGTATTTAGCTTTAAAAACCCAGTTTTTAAATGTTTAACAGGCTTGCTTCTTTTCACCCCTAAACGCTTTAAATAATCATTGATTCCAATTTGTAGATAATTTGTGCGAAAATATTAAAATATTCATGCGTGCTTGAAAGATAATTATGTATTAAACATGAAAGAGGAGTGACGAAGCTGGGGTTAAATTTTCCACAGCTGCGGTATTTTAAGCAAACAAGTCACGCCAATCCTTTAGGAAGGGGGACAGCTGGCTTTCTAATAGATTGCCTTATCCTTTAATTGATTACGAATAAAAACAAACAGAGAAAGACAGAAAGTAGTAGGGGAAAACAGGACTAAAAGGACATTTTTCCGGTTCTTATCCTGACTACGTGCTCGCTCTTTGCCTGCGTGCATTTCCATATTTGTTTAGGCGAAGTAGGAAAAAAAAGGTGACCTGCGTGGCCGTGACCTCTAGCTCGTGACACCCCCATTCTAAATCCTTACCCACTCCGAAGTCCTTTCAGTTTTTTGTTTGACCAGGTGCACCAAAAAAAAAAACAACAAATTTAAAACTACATAAATCTTTATTAGCTTTTCCAGCTAGTTTGGTGGAAAAAGAGAAAATTTGAGAGGCAATCA
1 GACGGGATTCTTGAAGGCAATCTGTAAGCTTGTGTAGGTGGCAGCGTCATCGAAGCTATCCTCCACCTGCAGCGGCGCACGACCCTGAAGTCCCGCCAACTCATTTTGTATGGTATTCTTGTACGTATCCCTCTGAACTTTGAAGTCCGTGTATATCTCATCCAGTTCGGCCACGGTCTCAAGGAGTTCGTCAAGGGTCTTATCTGCCTTGGATATCTCAAGGGCGGAGTCCAAAACATCTGCCTCAGCAGTGGGACTGGGCTCATGGACTTGCTGTTCAATCTCACTGGACTTCATCCACTCGGTGATCTTATCGTTGGCCGTCAAAGGACGTGGCTCCAACTGCTGACCCAAATCCAGTTGCTCCAGTTCTCGTACCTTTTCATCGATAATGGTGTCAATCTCTTTTTCCTGCTCGGATCGCAGGCGATGGGCCTCGGCTTCTGCATGGGCATCCGCCGCCTCCATGTCCTCGGGAATATGATCTGAGGTGTGATCGGGCAAGTGATCTATAGCCTGATCGAACGATTGCTGCGCTGGTAGTTCCTGATCCTGTTGCATCGGTTCTTCGAGCTGAAAAGATTGCTGCTGTTCTAGTTGTTGTAAATATTGTTCCTGCTGTAATGATTGCTCTTGTGTATATTGCTCTTGTTGCAATGATTGCTCTTGAGTATATTGCTCCTGTTGCACTGACTGCTCTTGCTCAAGAGCTGGCTCTGATTGCTGAGATTCCTCATGATTAAATTCCATTTCCGAAGGTATCTCACGTTGCACATCTATTTTCGGTGTATCCAAATCGATAACCTCAATCGTTGGCGGCTGCACTTCCCGTTTGGCGTCCAACCTGAGGATCTGCTGAAAGAGATCTTCGTCCGGCTTCCGCTTGAGGTGCCGATGAAGATTCCAGAATGTATGTTTACCTGAGTCCATTGGCACGTACTCGAAGGGCAGGGCCTCGCTGGTAACTCCATCCGAGGGACGTCGCAGTTGAATAAAAACCTAATGGAACATAGTTTCTTTTAAGAGCTGAGGAATCCTTCTTGATAAGCTTTAACGCACCTTGGCGGGCTCTGTGATGTCCAGGGTATGATAGCGCGGCGTCTTAAAGGTAATGGCAGTCTGCTTGTGGACATCCGTGTGCTGGAAGTCACCAAAGGCCTCCCAAACACTCTGGCCATTCTTCTCCTCAAAGAATCGCACGGAGATGTCCTCCTTGGCCACCTTCTCGCAGAGCAGGATGATCTGGGTGTTGCCGAAAACGGTGGCCGAGCAGCTACACAGCCGGCAGATGACCAGGTCGGACATGGCCTTCTTATCGAAGATGGGCTCCGAAACTACCGGCGGCAGTGGCGAGGTGAATCGACCCTTCTGCTCGCTCTCCATGAATACTTGAAAGCACAATCGCACCGAATTCAGATCTATGCTCGAGGGCTGGAAACGATGCGAAAAGCCAGCTAAAGAAAGCAAATGCAAAGGGTTAAACTTTAAGGCTAACAATTTTTGTGTTGTACAAGACCACCTACTCTTAAACGGATCCACACGGATCTCCTCGCGCGCCTTGAGCGCCGCCTCAATGTCCTTCTTTTTGACACACTGGATACCCAAGTTACTGAACACCGCTCGCATTGTCTCACTGTTGATCTCCAGTGTACAGACGCCCTTCTTGCAGCCCTCCTTGCCAACTAAATTGTGGGGATGAGGACTGAAATGGGAAAGGGAACACAATTATTTAATTATTTTATACCTACATATATATGTATCCTTAACTCACCGATATGGCGTATCCTTTGTGACGCAGGAGACAACAACTACGGCGCGTCCCTTGTAGCCCACAATTTCGATTGTCGGATAGGTCTTGTTCTCCGGCGTAGAGTTCACGCCCGGAATGGATCCCGCCGAGCGTCCCTCGCACTCGTAGCGAAACCTTAGCGCCTTTCCTGCCGGTTGTTCGGTGATCTTTACGTAGGGCTTCTTTCGCACATTTTTCGTGGACTGTGCCAATTGCTGCTGCTGCTGGGCGGGCAGGCCGTTGTAGTTGAGGCTCTGT
1 TTATTAAATTAGTTTCTTATTAATTTTGTATTTACTCACTATCTTTTCTATACTTTCGTTTTTTTTTGTGTCTCAATTTTTCTCAGTGCATATTTCCATTTCTTGCGGTGCCTGAGTTGCATGAGCGAAGGCAGACAGACAGGCAATGACAATTGATATTATTTGTTTTGCATTCGAAGTCAATTTGCTGTTTGGCATTGTCTGTGTGCCTGCAGTAGGAAAATGGCAGGGAGTCTTACTCGGAAATAAATAGATATGCATATAGCACTCCAGGTTGCTTTTACCCTAATGGCGTTCAATACCCAAAGTTATGTTTCCCTTGCTTAGGACTCACAAGTCAAAGTCAAACAAAACCAAAAGTCTGCAAGGTAATTAGGTAAATTCGATCTACTATTGTCCAATAAATAGTTATTCTATTTGTAATTGATATTGCTGCGATTTAATTACTACTTTTGGCCTGCCTTCAAAGGCGAACAAAGGTAACTATGATTAAATTGGAAGCCCAATAAATTACTGTGCACCGTTCACAAAGCGAATGCCCAGGATGTGCAACTGAAAGGTCTATACTTACGTGCACTCGTATTCGTTCCACAAGTCGACGCAGTCAAAGGGATCGGGACAGATGACATTCGAGCACGGCCTGTTCGAGGGGCAGTTGCGCTCCAGGTTGCGGGCCATCGTCGCCTGGCCCCATTGGGTGCCATTCATGGCGGGCGGCAGGGGCAAGTGCTTTCCATCCAGCCTGTTGTTGGTCGGGAGAGGGGAAAAATGGGAAAACTACGCATGAATGCCGGCAATCGATGGGCTATAAAACTGTGTCCTTTTCCTTTATCTTTGGTTAACAGATGTTAAGATG
0.4474826801851546 TATCCTACATAATTCCTACGAGATATTCTTAATTTTTTCACGAAGTTACCGCGAAGTTACTTTCGAGCGACAAGCACAACAGGGGTTAATCAATACAAGTTTTGACAGCTCATGTTATCAGTGATATTCGATATGGTTATGTTTGGCGTGGGAAAACGCGGAGTGGAATGCGAGTAAGTGGTTGTATTTTCTTGTGGGTGCGCACGCCACTGTCGAGGCTTCACTGTATCCGCATCTGCTCGTGCGCTTGCATCTGCATCTGTATTCGTGTCGTGTGGCGCTGTGTGCGTTTCAGTTTCGAGTCTGTGTGAGGGCCAGCTTCATTTCAGCTTGGCTTGCGGTGTTAAATGTTTGCAGCAGCATTTTTCATTCAATAGCCCGAACAACAAGAACAACAACAACAACAACAACGGCAGCTGGCTGCCAACATCATCACACAAGCGCACACACACAGCCGCGCGAACCACTCAGAGTGCCTGCGTGTGTGTGTGTGTGTGCGTGTGAGTCCGCTTGTGTATCTGTGAGAGTGAGTGCGAGTACGAGTATCTTTGTATCTGCTGGTTCGCCTGGGCTGTCTGTCACTTCTCAGAAATCGGTCTAAATTAGAAAATGCGTTTCTGGGAATTTCGTATCGCTCTTTTGGGCCCACGGAGCTCAGCGAACAACATATATAAAAAAATATACATATATATGTATATTGTCAGTATATATTGTAGCCATTCCCCTTACGTCCAGTTCGCGGAATATTGCGCCTTTCCCTAAT
0.9952563279870612 CCACAAAAATGCAGCTATATGAAGTCATCAACAAATTGTTGAAAATAGCTAACGCGGAGGACTAAAGTAACTGGCTGATTGCTAAGCGCCATGAACCAGTCCACTTTTGTGCTATTAGAATGCGAATGATTTATGATAGATGGCTGTCTTCATTGCAGCTCTCTTCATAAACTGGCGAAGCACTGGGAAGTTTACAAAATTTAAGTTTAAAGATATTTGGATGATGTGGGGACTAAATATGGAATTATCCTATAGTTGATAAACGTTATCTGGCTAACTAACACTTACTTTTTTAGGCCATCCGGTCCGTTGCATCGTCCTTGCACCAGGAACAGAGATCCTCGATCGGCATTCAGCAGAATGGACACGTTCTGGAGTATCTTGTGGCACAAAGTGCGCACCTCGAGCTCGTTGCAAATGTCCTTCACCTGGTGGCGATAAACAGCACAGTCCGGTTATTTACACGACTGATAAGCAGTTGCATTTGAAAAAGAAAGGGAGCCATGGGGAAATACAGACTGTGTGACTGACGTCTTTCGAGTGTTTGCCGATAACAGCGTCAATGGGCCGACAAACAAACACGTTTGCGGAACTCAACAAATAATCATTGACGAGCTATCGAGATTCGCCGGAACCTTCACTTTGATATCTAATGGTTAAGCATTTAGAGGAAACTTTACTCATTCACTTATTCAATTACTTTTATATAAGCGAGTGTGTCACGTTATTTCCGAATCAATTGCACTTTTGAATCATATTGGG
1 ACCAGCGTGTGAAAACCTAATCAACACGCACACGATCTTTTTGAAAAGTGCCACAAAGTCGAACACAGTTGAAATAGGTTGAAAAACTTTTCAGATGCCGATTATTTCGATTTAAAGCCATTCGCATTTGCAGCAAAGTAATTAATTTTATAAATGGAAATTTGGCTAAATTTTGAACGTTTGCCAGCTGGCGAGTGTCGAGAAACGGAGGGCAAATATTTATGAGTGGGCAAGGTGAGTTTTGAGCCAACAGATAATTTGGCTAAGTATGGACTGGAAACAGTATCAGATAACAAAAAGGGAAGAGTCGGGGAGAAATTGTGGAGGAACTTATTTTTTTAAGTCGTAAATGTGTCCATTAGGCCGTACTACGCTTTAGGAATATGAATTAAACTGTTTTTCTCAAACATATCATGTGCAAGCAAATAGTATTTTCCATAGCACAGTCGAACGCGGGACATTTTCCAATCTTCCCTACCGACTTCAAGCTCAGTTTCAATCAATTTTCCGTCGATCCAACCCTTGACAACCAAACGCGTTAATAACGTGTTAATTAGCCGTTGATCAGACGTTACGTAGCGTCTGCGACAATATTTGTTTACTCGCATATATGTATATATCGCTTGACTTTGATCTGGAAACGTCCGACAATGACACCGAAAATAAATAGAAATATCTTTACAAATATTATTCATTAATGGAAACTTTTTTACACACGAATTTTGGAATTGTCACGGAGTCTAATTCAAGGAAATGAGTCGAGCAAATAAACAATACGGAATCGCCTGTACCCGTACTCGATGCTCCGTTACCATAAGGCAAACAAATGAATATATACAATATTTATTTGAAATTCTGTTGGTTTAGTGCGCGGGAAGATGGTGACTGGAAAAGTTTCAGAATATGTTTATGCCTTCGATCCACTTGTTTGTTTGGTTTAAGCCATAAATCGTAAATAGAGACGCTTAACGAGGATCAATATCGATATCAGTTGGGTCAACAGTTTGGAAGGAACTTTTCCAACTCTTTGACAGGTTCGAGTCTCTAGAAGCCCTCTCCAAATAAACACCGCCACGAGTCTGGGTAATGGATATTCGACTTGGCTTCAGTTGACTTGGCTGTATGCCCGTCAGCAGCATAAAATGTAACACGATGCCTGGATGTGTCTGGGACCTGGGTGATCCGCAGAAAATACAAAAAGTTGCACACAACATTCAAAATATTGCTCGACATTGCACATTAATAAGTAAACAGAAAGGGAAACAGGAAACAGGCCACTACGGCAAACTTGTTCGACTTCTTGGAAATTGGGAAATTTGAAACGATACCCAGTGTATGCCCTTTGCGAACTCACTGAACAGCTGACGACGGAGGAAAGGTTAATTCTTTTGAAGTTTCAAAAGTCTGCACAAATGCAAATGATGTTGACGTCTTGTCTGATAAGGGTAATGAGCAGACTAATGAAATCATAAAT
0.813972970476048 CAATGGAGTAATCTATATCAGCTGGGGCTCCATGGTAAACAGCAATACACTTCCTTCGGGCAAGCGAAGTGCGCTTTTCCAAAGCATTTCCCAACTTAAGGAATACAACTTTGTAATGCGCTGGAAAAGTTTAGAATCTCTGGAAGATAAACAGCCCTCGAACCTCTACACTTTCGACTGGCTGCCACAAAGAGATCTTTTGTGTCACCCAAAGATCAGGGCTTTTATCTCCCATGGCGGACTTTTGGGCACCACGGAGGCGATTCACTGTGGAGTTCCCATGCTGGTGACACCTTTCTACGGAGATCAGTTTCTCAACTCAGGCGCAGTGAAACAAAGAGGTTTCGGAGTTATCGTTGACTTCAGAGACTTCGATTCGAATCACATAACCAGAGGACTTCGTATTATACTTGATAAAAAGTAATGGGTTTCTAAAGAAGCAATCTATTCAGATTTCCTTGATAACTGTTTACTATTAACATTTTTTGATTGTATTATTTTACAGATTCGCGGAAAGAGTTAGACGATCCAGCGAAGCATTTCGCCAGCGTCCCATTCCCCCTATCAAATTGGCCACCTGGTGGATTGAGCATGTCATAAAGTATGGGGGAGCTCCACATATCCAAAGTGAAGCCAGACACATAAACTGGATCGTCTACAATTCCATCGATGTTCTCCTGTTCTGGCTGGGAATCTTATTTCTACTGATTGTCGCCCTGCGGAAGCTCATAAAGATATTCAAAACAGCTTTTTGTCGGGGGAAAATCTCTAGAGATACTAAGACAAAGACGCAATAAATGTTTATTTGGTTCAATGAACTTGAGATTTAGTCAGAGAAATTAATGAATGTCAGGAAAATGGGTCGCATGTCAAAAAGCGTATTCCGAACAAAATTATATTGTATAAATATGTTACTGAGACAACGATTTTGCTTAATTTATTCGTAATTAAAAACATATATAATTAATGTTACATAGCTCAGCTTTTTGTGAATGGAAAGGTCAGCAAACCAAAACTGATAATGAAAACGGCTTTCACTTTCAAATTTATACAATATTATCAGCTCTATTATTAACAGTGTCGTTTTGTTTGTAGCAATTACATTTTTGTAACCGAATTAGTATTTTTTCGAAATATTAAAAGAGCTTGCTAACATGGAAAATTTTAAAGATTCCTAAGAAATGTCTATTCTTGTCTATTGTTCATATATGTATGGTATGTACATATGTACAATATGTACCTTCCGTAAACCGAAAACAAGCCCGTACGATGAATTGTAAACAAGCGGAGCCTTGGGGCAAAACACGCATACATCGGCTGATAATAAATCGGCAGACTTGTGCTTGTCTTGATAGACTTTCTCTACATCCGGTA
0.6412823922323105 GCAATCTGAAGCGTGTGCTGAAAGTGTTGACATGTTTCAGATACCGAGCTATGTGGCGCCTCTGGTAATCCGACTCGAAGTGTAGCGGGATGGCAGCTGACTCGAGGATCGACTGACCAAAGGATATCGCGTTCTGTGACAGCTGCGCGTGGCACACGTTTCAACACACTGAAGTTTCCACACTTTTGATTTCGGAGATCCTTCAGATCGGAGTGCCAACAACTGATGCTGCCGTTCAGCGCAGTCGCGTGTTATCCTTGAAGGGTCCTTTCGGCCTGCCCACTCCACTTGCAAACCCATTCCAATCGCGGTGCCCCTGCTCCGATTCGGAACTCCCGATACTCGAGCAGCACAGTTGCCGTTTTTGTGGTTTTTGTATATGTGTACTTTTCGTACATATTCCATTGGCATTCTGCTTTTATTGGTTTCTACAAATATTTAATGGATTTCAAGTGGCGGCTCCGTTGTTGTCGCTGGCACTTCATAATTTTCTGTTTCAAATAGCAGAAGGGGTTGCCTTTTCCCGTGGCCCCACACCCCTTTTGGTTACTTTATTTGTAAGTGGAGTGCACCACTGTGGCGTATATGTATATGGTATGGTTATATCGATACATGACTCATGTCAGCGACTGAACCAACTGAAGATACTCGCCGGCAGCTGCTATTTGGTT
0.9703050328018973 CTTCGTTTACCTCGCATTCATCATGGCCAGCATGTGATGCTTGCAATAGGGCATCAGGAGTAGCACCTCGCACACCCCGTTTCCCGTGGGCGTGATGCTGGAGTCCACATAACCAATGATGTTTTTGTGCCCACTCAGGTTGCTCTGGGGGAGTGAAAGTGATTGCCCTATTAGATTAGGTTTGTTTGTCCCGATTTATTTACTCACCGCAATCTGTATCTCCCGCTTGGCTACGTTCAGATCGTGCTCATTGTTGACGTACATGCGCTTCAGGGCGTACTTGGTCGCCGAGGAACTGCCTCCGCCGTTGCCCCTTGCCAAAAAGACCATGGCGAAACCACCTGCGTGAGTTTTGAAGAGATGGGGAAGAGAAAAACAGAGCATTAGAGCATGGGGTAAGTTGACGGGCTAGACATCCATAACAGCTGTCAGCTGTAAACAACATAGCATATTTGAATGGGGGAGGAAACTGCGAGTAAGCTAAACCCGATGAATACCCTGTTATTGTATATTCATAATACATATATACGAATATTTTATTTTATATGGCAGGAAGTAGCTAATTAATAAACTAATTTGTTTATTAAAAGGAAATATGTGTCACATTTTTATAGCACACGTATCTTTGGCCATTCCTTCCCACATAATTTATGCCATATATCTACGTGATAATAATGGAATTTCTTTACTATAAACATTTCACGTTCACAAATATCCCCCCGTGGTGTTAAAATAGTAGAGGGTACCCGAATTCGAGTGATAGCAGTTACTGTCTGGCCATGGAACGATTTACACATGTTTTGCCTAACAGGCCATTTGCATGAGGTTTATTTCAGTTTATTGCAAATAGAATTTCAAGTAGAATGCCCCCACATTTCAGCCCTCTCCACCTGTCGCTTTACGCCACTTCAAAATGTACGATAAAAAGGCAACGCAATATAAACTAAACTATTGAAGGTCACGTACAGAAAT
1 CGGGTCGAGCAGATAAAACGAATTGTGGCTAAATGTCGTTGTATTTGAAACGAGTCGATAAAGTGTACAAAAATCAGCAATAGGCGTTTGATAAATACATAAACTGCTATATTTATTAGTTGAATAAAAGCATCGAATAGATGTTCCTAATTATACAAGCGCCCACTTCAAACTTTTCCAGCCGACAACTCATAAACACTCCATCCATCATCGGTGCGGCGAACATATCGTATTTCTGAATAGAAAGCCCCATGCAGTCCCGGAAACCCTTTGCCAAATGAACAGGCTCGTGTCTTTATGGGTCATGAAAACAGACAGGAACATCTGCTGCTAGGAGAGAGCTGTAAAAACCTATTAGCAGTCTAAAATTATTTACGATTTGCCGCCGCGTAATTTACGAGTCTGTCGAAGCGGACCAGAAATGAACTCGCAACCGCTTCACGAACGTTTTATGGTTGTTCGTTCAAAGTTAAACTACCATCCTTAAAAAAGAGCGGCGACTAATTGAAATATATATTTTTATACGTTTATGGGCCGCAAGCACGTTCGACGCCCAAGGATCAGCGGCAGGGACATCAAGGATGGGGTTTGAGCTCGGCTTCGGGTCCGGGTTCGGGTAATGTGTCACCAGAGGGTGACTAATGCTGAAGTCCTCGCACTTGGGCTTGTTATTTTTTGTTACCTCACCATATGGCAGTTGACTTTTACGACGGCCATCCAACCCATTGCCATTGCCGCCCTCCAACCTCCGTCCTCCTCATTCCTCAATCTCAATCCTCATTTCGCAAAAAGTTTCTCCGGCAAGCCAGTCGCTGTCCTCTAATTTATGCGTCTCGTCCTTGCCCAATTTGTGCCCAGATGGGTATGGTAGCATCTCAAGTTCTGCAAGTTTTTACATCCACGAAGGAGATTCATTAACAGGCAATGCGTCGAAAAGGAC
1 CCAGGGAAATCATTATTCATTGCTTGAATATTGTTTTACTCGAAACCAATCAGGTTTTATTTCCTCGACGGCAAAGGTCGCAGGCGCAATTATGCAAATTACCTTTGGACGGTTTATCATAAACGCGTAGCGTTGACATTAATCATTTAAACGATTTTGGTTAAATGTGAGAATCTTTAGGAAAACTGTCTTTACGCTGGTGACTGGCGCCAACTGACAGTTTTTTCCCTGCTGCTTTGATTTATTGTCGTGTGCGTGTGTGTGTGTGTGTGTGTTTATGTGGAAAATATTGTAGAAATGATTTATAATCCTTATCTGCGCAGACTGATCGTGTAAGGGTCACGAGATAGCCGAGGGAGATATACTGAGAAAAGGGAATGGATACCAGGTAGTTGGACCACTTCCATATGCCGCTTAACC
1 TGCCTCACTCTGACACTTTTCTCCTTTCCCCATTTATTTGTTTTCTTTTCATCCACCAAAATAGCTACAAATTAAACTGGCTCCATGGAGATTTGCATAGGTGCAGGGAGATGTGCAACAATGGCCAAAACACTTAATGGAGCATGTCGAAATGGGATGGGCGTGTTGCTGAGTTCAGTTCTACATATGCAAGTGATGAAAAGGTTGACTCAGTGGCGTAGAATGGCAAAGGGGGCTTTTACTTTAGATACAACTAGAAGTATACTACTTACATCTGATTAATCATTAGGCACTCCATTCAACAAACGTACTTAGTTTTCCGATCATTTGCATGTTTGTGCCACATGAAAACATACCTTTGCTTATCCATCTACTCCATTAGTGCCACCACCAGCTTCAACTGCATACAAGCAATATCACTTTATGATCTTTATACCGGACCGTAAATCACCCCCTAACCACGTCCATGTCCCCTGCAATTGAACCGAACAGTAGCCTACACACAAATTGCACAAACATGTCAAAAAGGGGAATGGAAAATACGGGGTTAATAAAAGACTGTCTGCTGCATTGTGGAGTTTTATTAGGTTTTCTGTTCGTCGCCGTTGGTTCAACTTATAGTTATTCCCATCGAAAGTGGAGTATTTTTTTGGCCAGCGGATTGCCTTTCAAAACGCTGGTGGGAAATGCTTTACGATGTTGCCAAATTTCAGCCACGTAAATAGTCCTTTGTTTTCGCTGATTTCCCGCTAATGACTTCGGTTCAATATCTCACAAAACAAAAAAGAAATGTAGACGAATCAGCGCTGACTGTACTGCTTGATGTATGCTGTGTGGCATCGTTCAGAATAATCCAGGGAAACTCCCTCACGGATCTCCCTCGCATATGGGCTCTCTCTTTTCCGGGCAGCTGTCCCAGTTTTCGGGAGGTGACACCCTCCCTCACGATTTTTCCACTTTCCACATTTCGGGTTGCGTGCTTGCGTGGAAAGCGATCAATTAAAATCGGGGAAAGGAGACAAAGGGAATGATACTCACTCGTACGGTTCCCATCATTCCCTTCATCCCTATATCCTGTGAAGTATGTGTAATTTGTGTGTAAGTTCTTATTGGAGGGAAATTACAGACA
1 TTTCACATTTTTTAAATCGACAAAATTCATCATCACATGATATTATTAATACTTGATTTGATTTATAAATAATCAAAACATGGTCAATTCTAACCTCTATCATATTTGCATATCAGCTGTTCTAGAAGAGCTCACAACCTAACTATTCACAATTCCGAATCTGGTCACGAAAATGACCGCAGAGGCAGAAGCAAGGGTTCGAGAAGTAGGATTGTTGTTTATCTAATAAAAATAAGTTTAGCCAGAACTCAAAAGTAAAACTCTAAATCTCAATTTTAAGGGAATTGTTATTTTATACTTTAAGAAGAATTTAAGCCCAAGATTGTTGGACTCAAACACCAGCTTGTTCGAATCGAACTTCAACATGCCAGCCCAGAATCGAACATGCTGGCAGGTTGCAATCAAACTATCTATCTATCTAACA
1 CTCTTACATAATAATTAGCTGGCGTTCGATTATAGGGCTTTGTCAAATTATGTGCGACTTGCGAAATAACGGAACGAGAGTTTTGTATTACATTCTACCTACTTTTCGGCTCTCGATTCCTCACAATTTGACTTTACCAAAAGCAATAAGTCCTGCGAAAAAACATTCTGTCATCAGGTGCAGAAAAAAAAGTATCGTTCTCTCCGAGTTACCGTTACTCTCTCCCACGCGCCCTCCAAGGAAGTCGGCAAACAGATGTTTTTGCTGCTCTCCTGTGCGCATGTAACGGTGCCTATGCTAAACAAAAACAAATTGTCCATGCCGACGCCATTTTTACGTCACAGCTGCCGCTGCAACTCGTAACAATAACAAAAACAATAACATCTGCATTCGGCTCTCAAAAGCAGGCAACACTTCCTGTATTTTCGGTGGGTGGGAGTTTTATATAATTCAGAAGGCACCGCAAGCATTTTGTTTTGTCCTTGT
0.8934825954969022 CTGCTGACGTCGATCGGAACTTGCTGCGCTGACGTACAAAATCGCGAAGTGAATAAATAATATGGATGAGACTCCTGTTTCGCCGACATATATAAGAAAAATTGTCTTCTCAAAAATTGTGAAAAACAAATTGTAATCCAACTTTTTACATAAATAAATAATAAAAGTAAAAATCTTTTAAGGTACCGTACAACTTGGAACAGGTTCTGTGAGCGAAGTAATTAATATTTGTAGTTATCGTCGGAATCTTGTATATGTCGAAGAGTCATCAGGACACTCTTTTTCCTCTTCACTATTCTCGTTGTTGCATAACGTTTTCTGGCGCGTGAGCGAGACATGTCTGTTCTGCTCAACGATCGATCACTAACTGACCCAATCTCTCTTCACAAAATCCGAATTACGCGTAATTCTTAACTCTACACGCATTGCCAACACATTTTGGAGACCCACTCCAGTCCGCACTAGTGCACACCGCATTTTTCTGTACGCTTCCGTTATTCCTGCAGAAATCTACTTGCACCCGCTCCTACCCGCGACCAGAAACTCTAACGGTTCTCTGCCGCGCATCAAAAGAATAGAAAAGGCAATTACTAGAAATGTCGTTACATTTAAATGATCTGCGACATATACAAGTTGTCCACGTACATGTTGATATACAAATTCAAAACTCCAATCTCAGCAGCAGATAAATAACCAAAC
1 ATGCGTTTTCTTTGCAAATCGATCGCATCAAGCGAGCCAAAAAACAATGGATTCGAAGCTCCAAGCCACCTCATGCACCGCCCGGCTGGCTATTCTGGTCAAACATTGACCAAAAGGATAAGGCTAAGGTAGCCAGCGAGTGACGGAAAGACAGAGAACACAAGCCCAAAATTCCAGAGCAAAGACTCCAATAAATTTCGATAAATGCGCACGCGTGCGAAGAACAACAGACGAGACTCTGACTCCGCCTGATTCTCATCCGCATCCTCGGCTTAGTCCCATCCTCCATCTCCTCCTCGATGTTGTTGTCATTGTCAAGGATCGCGCTGCGATCGGTAATAAGGCCGAGAGGAGCAGCTACTAACTCAGTTACCGCCATGCAATTTCGATGGACATCTCTCTTGTTGCCTCTTCATGTCTCTTTCTTATAGACTTTATATACCGGTTGCTTGTAGAGAAGAAGAGTATATTGAATTAGCTGAAAAGCATGTTACAGGTAGAATAAAGCGTCTCCGGTCCTATAAAATAATTAATGTAGTATATGAATTATATACGTTCCTGATCAGGATCACTAGACGGGTCGATCTGACCAATTCTTCCTCTCCGCGACGATCAAAATTTTCTACTGATACGCCAACAAAATGTTGGCTGGCTGATCAACGGGTATCACACAGTCGAGGAAATCGACTTAGGCGTTCTCTCTTGTTTGGTCTCAACTTAATCGATCGGATCACTTTGGCTCACTCACTAGAGGTGGCCTCGTGATCCCAAAAGAATTAGGTAAAATTCATCAGTTTTAAGTTCCGGAATTCATAGCCATGGGAAGAATTAAATGTCAAAATAAACTAAATGTTGGTTTCGCAACTTTTACCTGTAATTTAACATTTACATTTAAAATAGATTAATTAGCTTTTATATGTTTCGACCATAATGTATTTTATTAAATAGTTATCTTAAAAAGTCGTCAATATAGAAGAAGAAAAACATTTCCATCTGTTACAATACCCCCTTGGTGTGGTTGACCATCGCTAAGTCCAAGCTTCCAAGCTGTATCACAAGCTGGAGCATTTTTCAACTCCCTAACAAGCTGATGAGACATGGACGCGCGCGCTTAGCAAATTCCAAAATGTCAATGGGAAAGATCACATTGTGTGCCATTATTTTCGTTCTCAATGCAATGGCATCTGGATCTGGGTGGACCTGGCCAAAGCAGGGTTTTGGCTCCGGCTTCAGCTTTAGCTTCAGCTAATGCAATGCAGTGTTGTCGTGTCTCATGAGCCATAAACATAAATAAAGGCACCTACTCCAGGGGCCATGCTGCGGAGTTTGAAGGGAATGGCTCGCCAAAAATGTCACAGCGAAAACAATGCCGTATGAGAGGAAGAGTATCAATATTATGGATCGATAATCTAAGGGGCATGAATAATCGGACGACACACAATAGCATGACAAAATATAAATCCGACTTTATGAAAATAATAGCAACTGTGAACGTCAGAATCTTAAGAGAATTTCCATTACGTAAAATTTTG
0.4851560352330293 GATCTACTAAAAGCACTATCTTATTTTGTTCTTCAACCTTACGGATTTTGGAAAGCCGAGGTTCACACCGACCGACGGACAGACAGACGGACATAGCAAGATAGATGGAAGCTTGTAGTGATCCAGAAAAAAGCCAATACACATTATTGGCTCACTACCGCATTTGAATACCTCGTACCTCTCTTTCGAGGAATCTATTAAATTCTACATTTTGAGTATCAGGTACGAATAGAAAATAGAGCTCTGCGTTTAACCAGCTTGGTTATATTTTATTAACATTTTAGTACCATGAAGAGCATTATTTTCAAAATTCTCCCTAAACCATCGATCATTTGTAGGCTGCTAAATAATTATCCGTCAACGAAGCCGCCGTTGCTTGCATAATTTACTTTATAGCCTCTTGGCAGGCGGAGTGCAATGATTTGAAACTCAAGCGGCAGCCAATCGCTGACCAATGGCCGCCAGTGGCATAAACAAAACGCTGCTGAGCAACACCAGCACGGAGCAGGCACCAAATGTGGCAGAAGCAACAAGGCAGCTCTATACATGAGCAGCTGATATTTCACAAAAACGACATAAACACTACGAGAAGATCGAGTGCATTCGACGACCAGCCTCGAACGCCATCCTCCAACCTCGAACTGCAATCAGCGGGTTTTTCGGAGGTGTAGGAGCAAGGCAGCGGCAACTCCTGCAACTGTTGCAGTTCCGACAGCTACCAGCAAAATCAGCGGCTTATGCTGTCCCAGAAACAACAACGATCGCTGCGGATGGGCCACAAGAATACAGAAGGCGGGAGGCAAGAGGCTGCAACAACGACGCCATTGCCACCACATCCAATACATCCAATGCTGCAGTTGGTAAACAGTCGCGGAGCTCGAGGAGCAAATATATCAAATGCGATCGATCCCCAATGTCGGGAGCAGTAGGTGCCTCAGCGTGGAGTGAAGGTGAAAATCGGAATTGGATCTGGGGATACTCTTTTTAGTTCTTTAAACATTGAAAGTCAGGTGTGTCAGTCCGTAGTCTTATATTATACAAAAACATTAATGTTTATTTTGGTTTAAGATTATTGTGTTATGTTAAATTGTGTTAAATTACAATATTTTTTAAATTGCCTCTCCAATATAATAGTCCTGAAAGCCTGAACTACCCTTCATCGATATGGGGAACAGTTGGGGACGTAATTTTAATTTGATCTGTGCCGAACGCATTTTGTTTCGGTGCTGATGGTCTTGAAGTGTAGGCAAAACAGTCGGACGGCAGCGAAATCTTGCAGTTTTTCTGCAGAGATCGGAGATTTGCTTGTGTCGCCGTTGTTGTGGACAGCCCGAGACCTGGACATGACTATCGAGGATGAGCAGTCTCCCCATCGTGCTTTGTGCTGGCTTGTTTCCCTGGCTTCTTGATACCGATTGGCAGCGGCACATGCAGAGGCCCTCAAAACTTTGAACTGTTGCGCAGACGACTGCGGACTTGTGCCGGCTTTCAGTTCGTTTTGGCCATCAAAGAACGGACTGGGTATGGCGTACAAGTGGGAATTCTTGTTGCAAGGGATCGAGCGACTTTTGAAAGTCCACAACGGATAGCGACACTTTTTCTTGCGCTTTGTGCATTTTGCAGCAGTCTCTGAGTCCTGAGATCTACGCTCAGATACAACGTGAATTGGAATAAAGCGTGCCAGA
0.8716243098841141 CTTTAAAGTCTAGTCAATCCGCACGACGAGATCTGAGGGCCATCGAGATGTATTAGCACATCTGATCTATAAATTTATTGGCTGATAATCGATCCACATGACAATACCGTTTCTTTGCCCGTGAATAAATAATAAATCAAGGAATGTCAAGGAAGTAGATGAAATGCATCCAAGCATTAGTAGCCCATGGAGACTAAAGGGAGCAACATGCATTCCCAATGACAATGTGATGTGTGCTGCAACGGATTCTGTATCTAAATATGGAACTAATGGGGGTGATGATGACTTCGTCGCTGCCAGACAACATTAAGAATAACCGCGAAGATAGGAACACACAGGGAAAAAAATTTAATATTTGTTTTAAGTTAAAT
