svm_type c_svc
kernel_type wgkm
L 10
k 7
d 3
M 50
H 50
nr_class 2
total_sv 2945
rho -0.194433
label 1 -1
nr_sv 1544 1401
SV
0.5524559254415562 CTTTCACTTTAAGCCTCCGTCTCTTTCGCGCTGTGGAGCGATCTGAGCCTGCTTAGAGTGGACCCGAATTGAGTCCGAACGGGGAAGAATGTCCACACGGATGTATTGAGACAGAGGAATACCTAGTACTAGATCCATTTCACCGCTAAATTACGAAATTTCCCTATTCGAATAAACCATCAAATATCCTCTTATAAGCATATATGCTGCGGACTGAATCTGTACATATAAAGACCTGACAATTCTCTAATTTGGATTCCGATTAAAATAAATTAAATGAAGTTCAATTGTGAGGATACCATCTTATTCAAGGGTAAATACATCAAGCCCTTGCTCTTCCCGAACACTGGGTATAATAAGTGCACACCTTGCGCGACGGGCTGATTGACACGGCCACATGGGGACGAGAGATACCGTGCTCGGTACCAGATATTCCCGATCCCGGTCCGAGTTTGCTGTCCATTGAACTCGTCGGACAAATGGTCACTCCTCGTCCGTCGACGGTCGATGGTCGCTGGTCTTTTGTTTGCATTTCGCCCGTAAATGAAGCGTGAAATTGGCAGCAGTGCAGCGGACTCGATCCAACTCCGACTCCAATCCCTATTCCGATCTGCAATGGAACTCGGAGAGCGTCGCATTGTTTACTTCTTGTTAAGGCCCGACAATGGGATAATATGGCCATATAATGGCAACACCAAACTATTTGTATGCAATTGCCATTAACACTTTATTTATTGCCTTGCGATACAAGCAAATTGGGCAGCGAATGATGGTCGAAGGAGGGGGACGCTTCCAGTGCAAAATGCCGCTGGAATGGATCTGTGGATGTATAAGGCCCGCTTATATAAAGCCTAATGAAGTGGTTATCAAGGAATGGAATCTGTTAGGTC
1 TCTTGTTCTGGTGTCTGTCTTTGTTTGCTGGGCCCGCGAGTCAAGAACGCGGCGCATCCTTGCAGCTATTTTGCATACCAGACTGCGGCCGCTGCCCCCTGCCCCCCTGCCACCGCCGCCTGACCATCGCTGGCCAGCCCTGGAATCAGTCAGCCATGCGGCTTCCGAGCGAAAAGTCCAAGAGGCAGTCGAAGACGATGCTATCCCTACGATAAGAAATTAAATTAACGAGATATGTCAACGATGAATTCATTGCCATGGCTTAAGCGCAAATGCCGCCATTCTTGAGCGACCCCGCCGCCCCTCTTCCTGCAGCCTTTGTCTTGGCTTGTCCTTCGCTTTGCATTTTATTCAGCGTTCCATGGGCAGCGATTAGCCTCGCTTTTTGGCATTCGCATTGAGCTTAGACCCACATGGACATTCAGTCAGTCAGGGACGCTGCAGGTACACAACTACAGGTAGCCCAGGTATTACGGGTCCCTATTCTGTTTTGCTGATGCTGATGCTGTTGCTGTTGCTGTCGCTGCTTCTGGTCCTTTCAATGTCAATGTCTGCCATAGGTTTTGCGGCCATTCTTCAATATAATGACATCACAAAAGCACCAGGAATCGGCCAAGGGTGAAGGGGCTTCCACGATTTTAATCACATTTCTTTTGAATTAGATGCGAGTTTAGCCTCAACTGTTTGTACGCCTTTTCATGAGTCAATCACTTGGCCCTGTTCTTGCTCCTCTGGTGACTTTTCCCTTTCTTGCTTTTTTGCTTTTTCACTTCTTTGCTTTTTTTTTTTCTGCTTCTTTGCATACCCCCAAAGAGTTTCCGAGAAGAGGCAACCGCTGTGTGGCTGCAGTTGCATCTTCCTACCAAAAATGTATATTTTATTCTCGATTCAATTTAACAGTTTCGCGACACAGCATTCGCATTCAGATTCCCTGCGCGGCCTTTCGCTTTTCACGGATTCTCGGCTTCTTGGGAGCAGAAAACGCGGTAGAGAACTGTCAGCGCAGGTGAATTTATGTGCCCATACCCAGCTGGACACTAAATCATCGGCTGTGGACTCGCGGATCGCGAATCTCGCCTTGCTCCTGTCGCTGCCTCGCTGATTGTTGTCCCCGGATACCTGGATATTTTTCTAGGAGTCAGTCCCTCCCCCTGCGCCGCCGGATAAACTCTGTAACCCGGCCTCGATTTTCGATTTTCGAGACACATGTTCGAAAGGAGCAGCTTGCGAAACGGCGCGACCAATCCAAAAGCTAGCTACGGGGTTAACATCATTATTTCACCTTCTAATCAAAATCAGCAACATTGTTGCAGCGTG
0.9489483253401114 AACCAAAAAGGATTGCTGGATCTGTTACGACTCCGACAAGCCAGAGCCCCTCATCCAGCCCTGCCGCTGCACTGGCGACGTAAGTTCGGTGCACCACGAGTGTCTCAAGCGCTGGCTGGTGGAGAGCTGCAGCAATTCGGAGGCGCAGTTGTCGTGCAAGGTCTGCGGACATCCCTACGAGATCGAAAAGTCCAAAAAGTAAGTGCCATTTGCAAATAGGGAAATGGGTCACCGCCACATAGCTATCAGTTAGACCATTTTATAACTGATGGTAAATAACTGATAACACGACACTCTATTACAGACTCGAATGGGACAAGGGCTTCACCATTCAGCATTGGTCCAAGACGGTTATATTGATCACCTTGATGTGCGTAACCGGTGCCACCGCCTGGGTGGTGATCCAAATGTACGTTGATCCGCTGGTGCGCGTGATGACAGTGGGCATCGCCGTGCTCATTGGCTATGTGTGCGTCAAGTGTTTGGGCGAGAACACCGTGGTGGCCTATCAGCGGGCCAAAGTTAGCTCAATCAACATCGTGACCAGCTCGGAGATGGAGAAGTTGCACACCATTTGCGAGGAGGTCAGCGCCAGCACCTCCGCAGAGGCGGTTCGGGCGGGAGCTGCGTCCTAAGAGGCTACCACACACATCAGCTGAACCCCCACAGACAAAACATTACTTACTTACTTACCTAGTTTAGCATGCGTTTTGCACAGGTTTTGCTCAATGCTCAATTATTAGTTTACACATCACACGCGAGGTGGGTCCTAGCACCCGCCTTTCTATCCTCAACCGTGTACATAGGTTTAAATCTCTAGCGAGTAGACAAGAAGAGTAGCGAAAAGCGTTTCGATTAACGAGTGAATTTCGTCTCTCAAATTATCATGCAGATTTCCAGAAGCAAAGTGTATTACAAGAAGCCAAATATTACGTAGAATAAGTGTAGGTCAGTATCAATTGCGAAAGCGAAACGGAAACGGAAACAGAAACGAGAACATCCTGAGATTATGATTACGAACGCGTTGCCAAGTAGCCTGAAGAGCGAATAAGCGAGAAGATAGTGCTTAGATGCGCCAGTGAGTCAGTCCCCATGCTGATTTATAGTTTATAGTTTTCTTTTATTTACACCTAAATTATGAAAGCATTTTGATTTCCTTCATTTCATTATCGGTTTCATCCATGGATGCAAACAAGAAGCAAGCAAAAC
0.6592983155679508 ACCCTTTCCCTTTAATCGAGCCAAGGGCCAAACTGAAAATATTTGCATGGCTAAGCGACGGCGATTAGGGCAAGGCGAGCAAGGACATCGAGGAGGACACAGCTTGAGGTCCACGAAATGAGATTAATACGCGCTAAGCTAAGTCCTCGTTCCGAGCGAGGATCGATCTAATCCTTGCTTAACTCTTTCGAAACGGTAGCTAGCATGGGTGTTTGGGCGTAGGTAGGACATTGTAGGATTCCCATTGCCGACTGCGACTGCATGTAAACAGACCATATAAACAGCGGAAGCGACGGGCTGTCCTCTAAAACCCCGCTATCCCATCCTTAACCCCTTCAGAAACACCAATCTACGGCAGGTAGCGGTAGCCTTGTTTGCATGGACCGCGCTGATCCGTTGGACAAACAAGCTAATCCTGCGGTTAAACTGCCATTGAGTCTATCAAAATAAGGCATATACTCGTGCATATACCCGGAAGGACTTGCGCGTAGGCGTTTCTCCACGGGGCGTGGCAACTTTACGGCCAAGAACGGGTTGGGCACCACCGAATTCCCTAAAGGGTTAAGCGTCGCGGATTTATTTCTGCCAAAATATCAAAAACTACGTGCGGGAACAAAACTAAATGCCTGCTATAAATCTGGCTGATTAGTAAAGTACTCTCGCCCCCAAAAATGTGGAGTGGGTGTATATGCATAGATCCGATCCCAAATCCTGAAATATAAATCCCCTTTTGGTGCTGCCATATGAATCTGTCTCCTTTTCGGCGTTTTGATCAATG
1 CTACAAGGGGTTAAGGTTCGGGCGGGCCTCAATTTATGGTTATTAACACAATATTTGTTGTCGCTCCCTGGTTAATTAGCGGGCGCGGTCTTTCTGGGAAACGGAATCAAATGGTTCCCATGCAAATCGGCTGGCCAAAAAATCAATTAAAAGCGCACGTGACGGACGTTCAACTACCCACATCTGCATCCTTTCCCGCCTGCTTGTCATTCCACTTGGGTGTTTTTTAGTTGACCAAGCACTTCCTGTCCCATGGGATTTCCCTGGGAGTCCGTTAGCTGGCCTTGTGTTTCCTCTGGATGATTAAAGTATCTAAAGAGAAAGGGCGTGGGAGCCACTCTGACTTTCAAATCAATTTCACTGGCTTTAAATTCTATTGATTTATAGGTCTGCGGGTTTCAATTGATGAGTTTTTTAGGAGGGAGGAAGGATTATCAAACAGTGATCTATATTTTTGTTGGCGCTTAGGGTGGCTAGGGTGTTTGCCAAATTGAATTGTTTACTTGGGCTGAGTACTCAGCCATTAAATTGGATTTGATTTATGCGAGACAAGTGCCTAACTGATCTTGTTAAAATTTATGAGTTCCTGCGAAGGGTTGCAACTGTGTGAACTGAGGGCGGCAGGGATTATAGGGGTTCACATTGGTTGGTTTAAATATTATTTTAAGATACACTCTTTGTCACACGCACTGACCACAGTCAAAAGTTTTGAGCTGAAATCGAAAACCACACATTGATGAGACAACAAGAAGTCTTCAATCAGGTCTACGTTATCTTTTTACTCGTGTAACTCGTTTCTAGAGAGGAGTAATATAAACAGGTAGCTTCACTTTCTAACAATGATTGGTTGGCAACCTTTTGCTTTTCAGTTTCTTCCTCTGAGTAGTAATGAGCGCTTTTTTAAGTTGATAATTACGATGAAACAGCAGAAACGGGGGCAGAAACAGAAGCCGAGATTCAGGAATACAATGGCAAGCACAGCTCATTTGGTTAGCCCCAAAGGCCTGACCAAGATGAATTGTATTTTCTGGTTAAAAACTTCAGGGGCGAGCAGGCTTAGGTAAAACATTTGTTTACACATGAAAATACCAGTAGCCGATTGCTTCGAAACACACAAAGATCTGCTGCGAGGGATCCAAAAAGAAAAAAAGGCGGTTAGAATGAGTGATATTCTGGGAGCAGCGTGGGAAATGCCTTATGTAACTCGCTTTAAGGTGTCCCTCAGATTCCCAGAGACTTATTAAATACCATGATCTGGTTGTAATTTCTAAGCTGATTTGGTTGAACCCCTTTGCAAATCAATTAAGGACACAGAGAATAGACTT
1 AGTAGATACATAAATACATTTTCCAAATGATCCGATATAGAGTAAATGAAAAGTATTCAAGGTCTTAGATGACCCTTAAGAAGTTCTCAGCCAACTTTCCGCTGGATTGGTACTGGGTTACTCTTTCGCTGATGAAGGGATGTTGTGTCTTCTATGTGGAGAGGATGGTGATGTATGTAAGTCTCGTTCGAGTTTTATACAATGTCTCCACCTCTCGTTCCCTCTGACAATCGCGTCGCTCCTGCGCTCTTCCGGTTCTGCTGTTATGCTGTGACCTCCGACCTGTCCATATCCTACATACATGCATATTTAATATTATCATTTATTTATATTTATATCTGTGTGCAATCGAATGCACTGCACCCATGGGGTGTAAGAGCAGCCACTTAGTTACGTTAATTCTGCATTCTGCATTTTGCATCAGCACATCGCATTGTTCAGTAGATACAGCATATAATTCAGCGAATGTGAATGCATATATAATTATTTCCGATGCGTTACAACTGCTTTGTGGGTCTTGATGTTCGCAATTTCGCAGTGAGATTCGCATGTCGTACATATAGGAGTATGCATATAGTGCCATGCCACTGCTGAATCCTCTAAGTTCACTGGTAATAAAAATTATTGCTTTCTGTTCTGAGTGTTTGTGTGTGTTTGTATCTGTATCTGTGTCTGTATCTTGTCTTGTTGCTTCCTTAACTTGACTGCGAGCC
1 AGAAGCAGCCGCAGAAGCTGTCGCAGAACCTACTGCTGCCCCAGAACCCACACCTGTTGCTCCTGCTCCTGTTCTAGCAGCTGCAACAAATATGTTGGAGGCTCTGCAGCAACGTTTAGAGAAATATCAATCTGTAGAAGCGGCAGCCAAGGCAGAAAACAATAGCGGAAAAGCAAGACGCTTTGGAAGGATTGTGAAGCAATACGAAGATGCCATAAAGTTGTACAAGGCAGGCAAACCAGTGCCTTACGATGAGCTGCCTGTGCCACCAGGTTTTGGACCGCTGCCTACGGCTGATGCTGCTCCTGTCGCGCCGACACCGTCGCTGCCCACTTCGCCTACATCTCCACCGCCAACAGCAAGTACTTCCGCAGGAGGAACACCCTCCAGTTCCAGTGCGACGACACCTACAGCTCCTCGAAAAGCACCTTCACCTCCTAAGCCCAAAGAGTTAACAACACGCACGTCTGGCAATCAGCAGAAGAATAATATTGCCGAGCAACAAATGAAACTGCTCCTCGAGCGCCAAAAGGAGTTTAAGCTAGCTGCTATAGAGGCCAAAAAAGCGGGAGAAATAGATCAGGCGAAGGAGTACCTCAAGATCTTCAAGGGATTCGATTCCCTTCTTAATGCAGCGAGTAGTGGATTGCCAGTGGACCTCAGCACTGTAAGTTTTGCATTACATCTTCTTCTTGTATGGCTAACTATATATTTTTTTTTTTCAGCTTCCCGTCCCGCCTTCACAAAGGGATAATCTAGAAGCCTCCTTTGCCATTGTATCTGCTGAGGAATGCGATCCGACAGATGATATCTGTGAAATTGGTGTTCGCATGGAGGAGCAGCTGGCAAAACAACTGATGATGTGCAAAAATACGCGAGATCATCACAAAGCTATGGGAGATGTAGCAGGCATGAATCGGTTTGAAAATTTAGCCTTAACTGTGCAAAAGGATTTGGATTTGGTGCGATACTCGAAACGAAAGAATGAACCACTGCCAAAGTTTCACTATGAAAAGCGTAGCTTCAACATTGTGCATTGCAACA
0.9276555557572306 ACTCGACCCTGACTTTGACTTCCCTCTGCCCACACAACCACACAACCAACCAGCGGACCAGTCACGTACCAAAGCGGCAGTACAAGTACTTTTTCTTTTTTTTTGTCAAGGGTCCACACTTCTAAGCCCTCGAAGGTATGAAGGGGTCGGCCGGGTTTGGGGCACCAGCATGCCAAGTATTTTCATGCAAAGAGTTGGTGGAAAACCTTGAGATGCTATGCCAAAGAACGAACTCATTCACATTCTCGTCCACAAAAACCCCCCACACACACACTCACTCAATTGAAACTGACACACGGCGCCCAGCATGAAAACAACACAAAACCATTTTGCCTTGAAAACGTTTTCATAATGGAACCCAACTCGACACTAAATACAGCGCGAAACAAGAAAATAAAATCTCTGTTCATAAATGAACTGCATATGTCTAATGCTCGAGTTCCATTGTAAGGGCATCATTTCATAGCTACTCAACACAATGGACGAATGGTTGCTTGCCAAGGATCTTTTCTTGTTTGGTTGAACACGTGCGTGGGCCAGTGGGCTGTGATATACATTAGATGGAATCCGCGGAAGTAATGTGATGGGATGCCTGGGTTTATTAGGCTCAGACAAGGTAATCATGGGCACACAATAAATGGGCCTGAATATTGTTAG
1 GGCCCATGGAACTGTTCGATACCACGCCCCTCGGCCGCGTTGTCAATCGCTTCTCAAAGGACGTCGATACCATCGACAATGTCCTGCCGATGCTTTGGCGCATGGTCATCAGTCAAGCGTTTGCGGTAAATGTCTATTAAGGAGCGCGTTTCGAAGCTGCAAAAGTTTTATATCCTCATTTCTTTCATAAAAACAAAAAAATTGCATTAGTTCCACGGACAGATTTTCAAATTGGCTGATTAGTGCAATTAAAAATATGAATCTTTTCTAAACTTATTGTAAGAAACGCTCCGTGCACGAATCTGAATCTCACGCTTTTTGTTAGATACGGTTGAAGGAAATCCTAGGGTATGTGATAGTTTGTTGCACAAACCCTTTCCCTTAGAATATATCGATGATACACACACTAACTGGTTTCAATTGGCACAATCCCAATGGAAAATCCTATCCTAATGCTATGTGGCACTAACTTCAACGATATATGTTGTGTATTTATATGTAAATATGAACACTAACCTGTTTAAGGTGGCTTACACAAACAATGTTTAGCAGCATGATCAGTTGAATCTTAAGTTCTGTTTAGAAAGTTAGTTTCTCCCTAAATCCCAAATGTAATGCATAGCATCTAAACCGATTTACGTTACATGCAGTGCTATCCAAATATTTATCGGGCCTCGCCTTGGCCATCGGAGGACTCCATTGCTCAATGAATGTATTCAACAAGCTGCTGAACACAGGCCTCAAGTGGCCAATGGAACTGTTCGATACAACGCCATTAGGTCGCATTCTGAGTCGGTACTCGAAAGATGTCGATACGGTTGACAGTGTACTGCCCGCGATAACCGTGCAGTTGTTGAACACATGTTTCGGGGTAAAGATTGACCCTTAACCTTCAGCCTCCACTGCCTGATTCTAATGGAAGTGGGAGATGCTTAGCTTCCAACCCTGAAACCTAACAAAAGCTGCATACCACTAACTATGAAAACTGCACGATTCTTTTAATTTACTAATTATATTTCAACCTGCATTCTATTTAATTCCTTGCAACATCTTTAATTCTCACTTTATGCCATTCTTTCCCAAAGCATTTCACTATCAAACAAACTATCATAAACCCTACCCTTCTTCACCATTTAAGCCTTATACTAGATTTCATTAGTGCCTTGCAAGATATTTTGCCTTTTATTTTGGATCAAAAGCGCCTTTACTTATTATTCTATTCATATTAATTAGAAAGCCCATATTTTGGATGTGCGAGTTGTGTGTGCGCGACAGCCCGAAAGGGGAACTCAAACTACTTAAGCTTAAGCCCATTCTTAATCAGGGGGCAGGGTCACCAAAAAAAAAACACTCTGCAGATGTACTGGTCTCAGAGCCCTAAGTGTTAAGGTTTATTTATAAGTGGGAGCTGCCATTATGCTTAGGTTGAACGGCCAGTTAGCTAAATGATATTTGTAAAAGATCGCCTCATTCCGTCATTCGAATATCGAGTATCCCAGACATTCACCGAGTGCTCACGTGTGCACACCTGTTCCGCTCTTCCATATTTCCGATTGTCCCAGGTGTGCTAGCCTACTTTGCGGTGGTCATCGTCTACCTGGGCGGCTTCCAGGCGGCAAAGACCATTCACAATGAGCTACTGGCCGTCATAATCCGAGGCTCCGTGTGCCGCTTCTTCGACATCACTCCGATCGGGCGACTCTTGAACAGCTTCAGTGGCGACATGGATGTTGTCGACGAAGAGTTGCCCGCCACCATGGA
0.9331580868824512 AAATTCCTAGTTTGCTGAAAAAAAAGACCACTCGAAAAAGACACTCGAAGACTTGTAGAATTAGCGCGGGCGCGACCGGGCGTATGTTTTATTGTTCGTAGTTAGTTTTACACTAAAGCTTATTCTAATGCGTTGGGTTCTCCCAAGCGCAGCGGAGACTCCTCGGAGACTCTGTGGTGAAGAGCGGGAGAGCGTAAGAGGGAGTGGAGAACGTAAGAGGGAGCGGAGAGCGGGTAACAGTCCAAACCCCGTAACTCGAACACATGTCGTGCAAGATATTACAGACAAAACGGAACAAAACACAGCCGAACACAATATAGACTATGTACTTCTTCCCAAAAATGCTTTGCCTATTCCCTCTTATGCTGGTAAAATAGTCCACATGGATATATTCTCAACAGATATTCCTTACGTGTGTCGACAAATTGGCAATCGCATCAAGGGCAATCGTGGACGTAAAGTCACTAATATTAAATATAGCCAACTTCTTTCCAAACGTAAAAACCATCTATTGTGACAACGATAGGTCACTAAATTCAGAAACTATTAAATCAGTACTCCTCAACAATTTCAGCATTTCAATCGCAAACGCACCACAGGTTTCACAGCACACACGCAGAAATAGCCCGGTGCTTCAAAATAGAAAAAGGGATAAACGACACCACAGAGGTAGTTCTTTTAGCAACTGCCAAGTATAACGGAACCATACATTCAGTAACAGACATATTTGAAATGGTGGAGTAAAACGCGAGACGATTTAGTTAAAGTTTAATAACTGTTTTATTTGACATAAGCGTGACACCGTTGTGAGTCGTTCGGAAGTTAACACAAGAAGAAGGAAGTTTCCAGAAAAACAAAAAGAACTTATTCAGATCAGTGTGACCAACTTTCAGTATATATATAGCCAAATTAACATACATAATATTTTAGTATTTCAATAAGACAAAAAACCAATAGAAATAATACAATAACACCAGTAGAATTCGAGAAAGAAATTAGCGACAAAATTTAACAAGCACAGAAAAGGAGCTTTGAAAGGATAGGACGGATAAAGATTACCAAGTGAAGGCGATAAAGTTTTCTTAAAGTCAAACAAAATCTTGGGAAATAAACTCTCGCCGCTCTGCTCTGAACAAACCTAAAGGGGAGGGTGGTTCATAAAGACAATCTTCGTTAATCACCCCTTACTTATTTTTGTATTCCGTTTAGGTTAGGAGCATAGTTTCTACCTCTAGTAAAGCGGCTGTGACGACGGACGCGGTGACAAAAATCGGTAAGTACACGAAATCGAGCTACATCTCTATAACGGACGGAGACGTAGTAATATGGGACAGCTACGGATACTTTCAACACTCAACGAACATGACGTCCTACGAAGACTACGCAGACCAAAAGGTTACGGTGGGCTTTACAGATGACCACAGGACACCAGTAGTAAAGGCGGACCTTCAGCACATTCGCAATTTAGTTGCTACCCTTAAAATACACCATAGGGGAACTAGGAGCATTAATATACTGGGAACAACGATAAAGGTTATTGAAGGAACTCCCGACGTTGCTGACTGGGAGCAAATAAAATTTAATCAGGAGCAATTAAGTAGAACGGAAGAAAGTCAAAACGAGTT
0.5743618393341714 AGCTAGCCGTTGCAATTCGTAGCGAGGGGAACGCAAGAAAACGCAAGTTTACAAAAAATCAACTCAATCTTTTATGAAAGCAACAGAAAGATGTCCGCTGCGTAATTACAAGGGCACTGTGCGAAGGAATGCTTTAAACCGAGAAAGAAACGCAACCCCTGGTACGCTTGCGGGACTTTCCTACACTATGTTCGACCAAAGACACTAGAATACTATTCTAAAATATATTTATTTCAGATCTCCCACAAAGTATTCCAAATTAGGATCGTATAAGTTTATAAGTACCTATTCTTAAGAAACTTACCACATACCTCCAAAACTATTTTAAATACTCAAGCTTGGACACGATCAGTCGTGTTATGGCTGCTTCAGGTGCGGCGTATGTAGCGTCAAAACCAGCAGCTTATCTTTGGAATGAGGTGAGGAAACACGCCTATCCGATGTGTGCGACAGAGACGGCACACAAATGCTATGCGTGCTGCCGAAACGCCACATAAAACTATGTACATATGTGTGCGCCGACAAGAAGGGAGAACGGAGATCTGCGAAGGAGTTGGGAAAGACACCAACTTGGGGTGACCCGCAATCTGCACCTGTTAAGCAGCAGAACGGAGAAAGCTCAGCTTTTCCGTGCACGTGGCGGGCTCTACAGTTGCACGCAGATGTGTATTTTTACTGCGATGAAGTCGGGACCATACTCCATGATCCTAGACGAGTCAGGCAGAGCTGCTATCAAGTGTTGCAGCTTTCTCCAAGTCCAGGAACTGGCTGCATCACCGATGCGGGGAATCGCACATGCAAAGATAAAACACGTGCATATGTACAGCTGCTATGCTCCGCCTAGCGACACTCCCGACCAGTACGAGGAGTTCCTGGAGGCGCTTGGGGACCATGCGAGAGGGCGAAGCCCGAAGATCATTGCAGGTGATTTTAATGTCTGGGCAGTGGAATGGGGCAGCAGAGTATCCAACCCCAGAGGCCGAGCAGTGATAGACGTCATGGGAATGCTGGACCTAGTACTGCTGAACGACGGTCGAAAGCCGACATTTAACAACGATAGGGGTACATCATTTATTGACGTTACCTTTGTCAGTAGAGGGCTTGTTGATAACAACAACTGGATGGTCTATGATTTTGTAACGCTGAGCGACCACGCTTTGATTTCCTTCATTCCCTCCCCGGAGGGTCTGCCTGGAGACGGCAGAGTAGAGCCGCCGGGCAAGCTTGGGACACCAGGAAGATCGATGAGGCCATGCTGGCCTATCAGATCTATTCCCAAGTGGGGATGCAGAGAGTGTGTCGGCTGGCCTTATGAACATGCTGGGCAGCCTTTGCGACGCATCCATGCCAAGAAAAAATAAGGCACAGCGCAAACCACCTATGTACTGGTGGAGTGCCACCCTAGTCCAACTTCGGTCTGACTGCCTCAGGGCTCGGAGAACGGCGCAACGAGCCAGAGGCTGCACCCACCACGAGGAGCTCTTGGAGGCTTTCAGAAGGAAACGCTTAGAGTTCAAGCACGGCATTGCGGCTGCCAAAGCGCGGTCATACAAGGAGCTGCAGGATAGCGTAGACAGCGATATCTGGGGCCTCGCCTACAAGCTTGATACCAACAAGCTAAGGAAGAGAGCGGCAACCCCATCTGACCATGGCCCTCAGGCTCTTCAGAGGTTTCAGGACCATATCCGAAGACGCGGCGCTCTCAGCCTAATGCGGGGTGGCGCTCCAGGCTGGAGGCACACGAGTGGATGCTGGGTGAGTGGCAGAACAGATGGCAAACGTCGCGGCGGGGAAGGTGGTCACACCAGCTCATCCCTGAGTTGACGGTCTGGGCAGAATGTCAACAGAAATGCCTGGACTAACATCTAACCCAGTTTCTCACGGACCATGGCTGCTTTCGGGCCTATTTACTCAGGTTCCGCCACGTAGAGTCAGCCCAATGCGTGTTCTGCGTCGATCGTGAAGAAACAGCTGAACATGTGATAATGCACTGCTCCAGGTGGGAGCAGCTAAAGTCGCTGGCAGGTACCCCGTTCAGCCCTAGTGG
1 CAAAAATCCATCCATCGCTTGCAGAACATCCTTCACCGAGGCTCCTCGCTCCCCTGCCCTCGTCCTGCCAGGATAGCAAGCAAGTAAGCAGGAAAGCAAGAAAGCAAGCAGGAAAGCAAGAAACCAAGCTGGCATCCAGCAAGCTCGCAAGTCGGGAGGCGGGAGGAGTTGGAAATTCGCTCGCCTGGTGTCACGTAGAATAGACATACAGACATGCAAGTGACAGACAGATGGAGAGACACTGTGACACGACACATTGACTGACAGCTGCAGGGATGCCAGTGGGCGTGGGCGTGGGCGTGGGCGGTTGCGTTGCCAATGGGGCGTGGCAGGTCTAAGAGGCTGCCACTGGGGTTGCAAGGATTTTGTGCAAGAAGTGGCGTGTGCAAACAAAACCGAAAGACAAAAGCATTGATGGACATGCACGGGGCTGCAGGAGAGCAGAATGAATTCCATCTTCCATCGCCGGTCAATGGAACAGTTTCCTTAGTCAGCATCTCCGTGGGGCATTTAATTTCAAAAGGATTGTTCGACGACTGCAAGTTAAAGAGGGGAAATGTTCAGGGATCTGAGAACATACTCGCTATCAATTCCTTTAAGGTCTTTTACGTTTTCCTCGTATCGTGATAGTAAGAAAAAAGTCCCCGAAATTTGTTAGATTTCCGATCCCGACATTTGCGAATCAATTTTTGAGGGCTTTAATTATTTCAATATTAGAATACAGAAGACCTTAACAATGCATTATTGAAATACCCATAAAATTAAAGCGAAAATGTGAATATTGTAAATTGTTGTATTGATGTAAAGCTATCATAGATATCATTGTGCACAAACGTATTGGCGTTTCATCTAATAAACGATTTTTAATTTAACCTTGACATCCATATGTATATTCGTCTAACGGCATCTTGTCTAGAATGACAAACATAATTTTTAAAACGTTTTATTAGATTTTATCCAAATGACCCATCCCCGGAACTTCTAGCTCCCGTCAACAGAAAAAAAGTACGGCTTTTATTGAGAGCTCAAGTGACGAAACCTTAGACGAAGGCAAATCATGAGACCACAGAAAGGAAAGGGGCGCAGGGAAGTGCCCTAAGGACGCTTTATGCAAAAAGTATTTTTAATTTCATTTTTTCACGTTTAATTTTTGCTTTTGCATTTTTTGACCAAGCTGAAAATCATAAACCGGAGCAGGGCAAGGACGCGAACGCGGATGCAGATGAGAACGGGCAGTGAAAAATAAATAAGAGTAATTAAATTTCGTAACAAACATGACGAGATAATGGACCGGAGCCATTAGCAGAACGTCGAGACAGGGCTGACGGTCAGTCAGGACCCCGAAAGATGACGAAAGCAAAGTCCTTTCCTCCCCAAGGACGGAGCCAACGGTGTGATGGAGCAGCTGGCGCCTGGAGTCATAGCGCCTCCCACTCCCCGGCCCGGTCGTCATATATCACGGATCCAAGCAGCAGAAGCTCCTGGTAATGTCCTGTGCATTTTTCAAACAAACGTACGTCACGACAATACTCTTTTCCTGCTCACGGATACCATTCTCACTGGCAAATATCTCTTGATTTTTCCTCAGCCCGGTGGCCTTGTCGTCCGAAAGTTGAAAACAGTATCGCATCATTTTTGATGGCCATTTGCGGGAGCGGAGGGTTCCAGAAACGGAACGTGAGAGTGACAAGAAGCGTCTGCCGGCTGCAAGAAGCCGTGATGAGTGTCTGGACATCAATAAAAAATATCCCCTGCCATCAATAGTCCGAAAAGACGAAACATTCTGAGGCGAAGGGTGGTAGGGCTTGTGCGATTCTCACAATCAGTTCGATTATAGATACCGTTTTTTGGTTGAATTCATTATTCATTTTAAAGTTTCTTGCGAGTTACTTGGTGGCTGTGTCGGACTTCTAAAGCAGTTTACTGAATAATAGAATACAGAGGTTGTTATATTACTATTAAATATATAGGAATGTATACCGGAAATGATACGTGGAAGGCAGTTTAACAGTACATCGAAATTCACATAACATATTGTGTCACCAAC
1 CAATAGACGACTTGCGGAGCCTTATCGAAAAAGGCGCACAGCTGTTGCACTTGGCTCAATCATTCCTCAAAACTAGGACTAAACGGAGTCAGGACTAATATTGCAGAGCACTTGAAACTTCAAAGGAAATGCCTATCGCAGTCAGGGACATAAATTGCGCTGACAGCGAAAAATGTGAAAGGCTGTATTTGTGCATTTAACGTTCACGATGCAAAACCCATGGCTTCACGCCCTGAACCACTCCACTTGGGCGTTGAAATGTATACAGGAAAATATTTTTGAAATTGCATAAAGCCCAGACATCAATAAAATAAATAACAATAATTTTGCAAAATGCCCATAAATCCCGGTAGTGTTGTCATAACTTTCGGTTTTATGACTGCAACTAGACAGACTGACGCTAAAGGCCCCCTGATCCCCAGGAGAAGGTTCGCTGAAGTGAATGTTCAACCTGCGTGTGCCGTAGTCGTCAATTGCAACTGAGTCAGTGCTGGCAGGTGCAGTTACAAAAACTGAAGTCATGTTAGTGGTTAATGGAAATAAATACTATACACGATTGTCCTTTGCGATATCCACGTTACCCGTAGAATAAAAGGGTAGGAAAGAAATTGTTTCCGATTGTATAAAGTTTACATATTCTTGATGAGGATCACTAGAAGAGTCGATCTGGCCATGCGCGTCCGTCCGCCTGTGCGTCCGTCAGTCCGTATGAACTCTGTGCCCTCGAGGATCTCGACTGTAGCGTTCGTTCATGTATTAGCTTGGAGTTGGCTCATCCGAAAGTACTATTAGCAAAATTATTTAGAATAATTTTTTAATGTTTTGTTACCACTTATTTATTATGAAAATAAATACATATACTTACAAAAAAGATGCCTGGAAGCCAAAGAGACAGCACTGGTAAATGCACAACACGTGAACCAGGGCCACGTCAGTCAGCAATAAATAAATGCAAGCTGGCAGTCATTTGGTCGTCACACGTCCTGACAGTCCGACGACCGTGGAGGAATGGCCACAAAGGGAAGAGTTCTAGCAGGGCTACGGCTGGGATTCGGGACTGAGGGAGGGAAGGTCTACGGGCTTGGGCGGTGTCCTGTTATGGCCCGCGGAAAATTGCAGTTGAAATTATTGCATTTAAACAGCACATTATCACACACAAGCCCAGAGACACACTCACAGCGACACGGGTACAGGACACCAACTCGGACTGCGAGGTCCTGGACGTGGCAGCAAAAAGTGCAGCAGTTGCTTTTTGCATTTGTTGTTGCGTTGTCAGTGGCGCTTTTGCCGTCCTCGATGCTGCTGCGACTCATAAATTAAGTCCTCATAACGGTAAAGTTATTGGAGTAATACATTTTTATTCTGACGTTTAGCAATCGATGTGCCGCCATCGCAACATTGCCACCGATTTCACCTGGTTAAAATGGAAACATATTACGATATTGACACCATATCGCTATTAGGGGTTTACTATTTCCCGAGGAGAAAGATGATTCTTATACCCGTTACTCGTAGAGTAAAAGGGTATACTAGATTTGTTGAAAAGGTAGGAAGCGTTTTTGACCACATATATCTATCGATATCCCAGAAAAAGTATTAAATTTGGCGCTCCCATTTCCACTATCTGAACAACGGGTATCATTTAGCATTTTCTTCTGTTTACCTGTTACTCGTCGAGTGAAAAGTATGTGAAATAAATTTTCTTAAGGGCAATTAATAAATAAAATTATTTATAC
0.9991356324328446 CTCTGTAGGGATCTAGCAACTCATAGCTAGATCCACAATGATTTAATATTAGGGGTGGGGTATGTAGTTTCTAGGGAATTTGGAACAGACAAATTTAGCCGACAAATCAAGTCGGGGCTATCAAGTTCAACACGAATAAGCTTACAAATGACTGTTCCAAGCATCGGTCTACGGTTAGGTAGTGCTGGAAGACCCTTATTCCCTTACAAAAAACACATTGGCCTTTGTAATTAAATATTTAAATTATATATCGGTTTTGGTCACTTTTATTTTTGCCTTCCGGTAAGAAGCTCTTTTTACCTCTCCTGAGTTTTGATCTCTGTTATGTAAATGTCTGTGTTGCAAAGAAGACATTAAAATATAAAAGAAAACAAGTTTTAAATTTGAAATACGGAAAAATACTGTTCTTATTATTGTGGGTTTTATACTAAATTTGGTTTTCACTAGCAATGGAAGGTAAATTATTTAAAAGTAGTCTACTCAAATAAGGAGGTTACAAAAGCTCTGCATCGCACCATAAAATTTCACCCCTGGCCTTATTGACAATAGTCGAAATATGGTCTGAAAATTTTAGTTTAGGGTCCAGAAGAACACCAGGATCATCAACCCGTGTTATTCAAAGGGTACCCACTTAGAGTGTAAGTCATGTGTATTGGTTATAACTTTACACTTGGAGCCATTTCAGTTTGGTTATCACGGTAAAAGCTGTCTAAATCGGATCGTAAGTGCAAAAGACAAAAAATGATCTAATGCTGGAGACATATTTTAATATCGTCTGCGTACATACATTTAGACTCCGAAACTATTAATTCTCTGATTTCTCTTTTATTACCTTTGTCGATTGTCACCTCGAAAGTATGATGATCAGGACTTGTTACAAGACACGCATCCAAAAATTGACCACGAGAGTTTCGAATATAATTAACTTCAGACAACGAAAATTCGAGCAAACCGTTAATAAAGTGCTATAGGGAGAAGAAAATTCGATTTTTTTGGGGACCACATCTTGACAGGTATATTAAAATCAATCAATTGGTCCATATTAGACTGTTTTTGAGACGAATTGGATAGTTAAAAAATAATTTAGATACTCTGGAAATTCAGAAGACGACGGAATGTAAGAGCACATAACATAAACAGATCTATCGGAAAATGACAGCTTTATGCATTTGAATTTTAAGCTACGGGACTCGTCAAAAAGTAACTCCCCCGACGTGAGGAAGGACTTAACCTCAATTATCACTCCACCTCCAAGTCTGGAGGGACGATCAAACGTGTTGTGAGGAGTCTTAAAACTCAACACAAATCTAGATGCAGGGGAGCGGCATATAAACAGCGAAGACGGATGGGATGCAAGAAGAGTCTAGGGCGGTCATGTCGAACGGTAATTAATGGAAGATCGAACTGTTAAAAGTGTCTGGCAGTGAGAAACGCACAGGCCAAGGAAGGAAGGACGAGCAATACAAGGTGGATATCGATTCTTGCAGTGGAGGAACAAGGACCTGGTGTGTTTCAAAGAGACAGTTGAAAAACTGGTCAGCAAAAGAGGTCCCAGGCCGAGCGGAAAACTTCAGTAAACACTACTTTATTGAATGCTATTTAAATGGTTTAGTTTGCTACGCAAGGCTCTATCTTTTTGATAGACGTTGGTATTTTAAGGAAGAAGTTCATGGACCACTGCGGATGTTGCAGTGGTCTGGACGGGCCCCTTTTCTTATATTTTTATCCTTGGTTTCGAAGTATTTTACCGCCATAATATAAATATATATGGTCATATGGTTGAAAAAAGCTCATTAGGGACAGTTATCTTAAAAGATGAAATGCCCCTTGTGTAAGAAAATTGTATATTTGATGGGTCAACTTGTGCCGGTAGTCCGGACTCAATATTCACTTGTGGTCATAAACTAATCGGGTCAGGTGAATAGAACGGAATCTTTTTGCAATCCCATGCTGGACTCCCTCCCGCTGCCGATCCTAGCAACATTTGTGGATTTGCTGCGATTGAGAGCTGATCAGCTGTGGAGTCCTGTTGCCAGTGGCTGGGTGG
0.7736670770521747 CTAAGAGGAGAAGAATCTTGTGTATATCACGTTAAGTCAAGCAGAACTGCTATTTACCCCAACATCAATGTGGTGTCAGGAAGTTACATGTTTTCCCGAAACAAGCTGTCCGTCTAGTCAATCACGTAACGCATGGCCTCGATTCCAAGTTCTATACGGTGACAGTCTTCCCCAACGTTAAGCAAGCCTATAGCAAGGTATAACACAAGGGACAAAATGACCGATATTCCTCCACCACTTCACAACTAAATTTTGAGATCCTTCATCATCCATCGGGCATTCGAGGAGTCATCGTGAGACTTTGGTCAAGAACGCCGGTGTTCCCCGAGGATGTGTACTTGGACTCTTCCTGTATACCATCTGCACAGCAGATATTCCAGTTTCATCACACTATACAGGAATGGCTTGTGTCACCTTCCCGAAATAACATATTTTTTTTGCAGAGTAAATAATTCTTGAACTATCAGG
0.650205527930805 TTCCAAAAGCGAATTATTAGTTGCGTGAAAATCAGAAGGAAAATTATTTAACGTGTTATGCCACGCCAAATAGCCGCGCAATAGGAAGCTAGACTATATAATGACTGCAACGAAAATTGTAAATTCCAATTAAAAGGATATTATTGTGCGATTTCACTTTAATTCTTATTTCAAAAAAGTTAATTATTAGTTGACGGAAATCAGAACGAATTTCACCGCAACGTCTTATGCAGCACAAAATGGCGGCGCAAAAGGATGGTTGCATATACAATAACTTCATCTCATTCAATCTCTCCTATATTACCGCAAACTCGAAAGCCAAAACACGAATGATGAAGAGGGATAGATTTTATTGGGACAAAAATGATAGGTCACGCGAGAGGAGTGGTCTAAATTTTACTCTCACAAAAATGTTGGCAATACAAAATGGCGGCGGAATGAAGAGGTGAAAATATATTAAAATTGCCGCTCATTTTCTTCGCGGTAGAATTAGGACTGAACGTTGCCGGGTATAGGATCTCTATTGATGGCCTTTACTTATAAAGTGTATTTCTACAGATCAAATTACTTTTTAC
1 ACATGGTGTTGACGAACATGCACAAATCGAGTTACACTGATTTGGCTTCTGAAAAAGAACTTACCGAAATAAAAATAGCAATATATATTTAATTAAAATGGATATCGATTCGATACCTGAAAACACATATGCATTTGTACATGCGCACATACACATATAGGTATTTCTACCTGTCATTCTCGGCATGGAGCTACAAGAGCAGGATAATGGAACGTCTCAATCACTAATTGCTTTTAGTCTGCGTGGACTAATATCTGGTCCTTGCCAATAGTTTGAACAAACGCCTGGGATATTGGAAATTTCTTGAAAAACTAGCGAAGTCAGGTAGTGGTGACTTCTGAGAATATTCATGCTCAATGCCTACCTTCTGCGGAACATAATGTAATATTTGTTGCGTATTTCAGCTTTTGAGAAGCTCATCGAAATCAAATAACCTTTTATCTATTAGCCATTTAGCATAATTAGAAGGCTTTGTTACTCGATCAAAATCATTATCAAAAATTAGTTGAAAGTGATATCGTCTCAATTCAAATTCCTTTCATATAGTAAACATAACGTTGCCGTAATAAGCACATGTCCCTCCATGTGACGTCACGTTCCTTCTTGTTACGTTTAGTAGTGGAACCAACCGGCCTTGGCACGTGGTTATGGAAATTGCGTAACTCACTTCTACCGATACACTCGTTACTCAATGACCCAAGTTAGTGAGCTTAATAATAATTCAACAAGGAGAACGCTATAGCCGATTTCCTTCCCTCTATCAGATATCTCAGAAACTAAGATAGGGAAAGTGCGAGGGGCACATATGTATGTATATTTTTCTAAATGGTCGGGGTGCAATTTTTTGCAGTTGACGTGAACAGACAGAAGGACATGGCCGGAAGGACATGGTCTCAGATAGAGAATCGGATCAAATATCAATTAAATAATAGATCTAAAAATATTCTGAAAAGCGTTTGGTGAAAGGATTTCCAACAGTAGCCTACTTAAATAAAATAAAAACAAATATTTACGAAAATATGTTCAGATCCGAATTTGTAACACATGGAATTCTCTGCTTGCTGTAAGTGCCAGCACATGTGTTTTCTTTGAGAAGAGGCGTTTTTATTTTCTGGGCCTTTTGACCTTTGCCGGCGTCACCCAGTTTGCAGATTTTCATTGAATCGGCGCCGTCGGCGACTAATGGCACATATGCTGACCAGAAGGATAGGAAAAACAGACATCCTTAAATTCAAGATGTGTGAAACTTGCATACAGTGATGTGAATGGCGACAATATGTCTTTTAATTTGCGTGGGAATATGTTTAGAACATGTTTGTATGTGCAGATATCTGTCTTAAAGCAAGAGTATTGTAACTATGTCCAGTGCAATATAAAAAG
1 CCAGATTGAAAAGGATGTGAAACGCACAGATCGCTCTTTGCAATTCTTTGCCGGAGAGGATAATCCCAATCTAACCCTTCTCCAGGGTATCCTTATGACATACGTGATGTATAACTTTGACCTTGGTTATGTTCAGGGTATGTCCGATCTGCTTGCGCCCATTTTGGAGATCCAGGTAAACGAAGTGGACACCTTCTGGTGCTTTGTGGGCTTCATGGAGCTGGTGTTTACCAACTTTGACATAGACCAGGCGGGCATGAAAACGCAGTTCGCCCAGATTCGTCGCCTTATTGAATTTGCCAATGCCCCGCTATTTAACTACATGAGATCCCACGACTCGGACAACATGTACTTCTGCTTCAGATGGCTCTTGGTTTGGTATAAGCGGGAGCTAAACAGCGAGGACGTTTTGAAATTATGGGAATGTCTGTGGACTCGGCTACCCTGCCCCAACTTCCACCTACTGTTTTCGGTGGCCATCCTCGATCAAGAGACTAGAGTGATCATCGACAGCCAGTACGAGTTCACAGAAATCCTGAAGCATGTAAACGAACTGTCTGGAAACATAGATGTTCAAAAAACCTTGCAGGTAGCTGAGGGTATCTATCTGCAGCTCAAGGGCTCTGAAACGTTGCCCAATGACATACGTAGCATCATTGGCGAACCACTCTTGCCAGCAGCCGCTGGTGAAGAGATTGATGGGGGCATGGTAGATGAGGAACCTACTTACTCGGACGATGGCTTCGACGAATTGGTGAAAGAGCTCACTCCCGAAGAGAAGGTTAGGCAGCAAGCTTTGCTTGAGGAGGCCTGCGAACGCTCCCTCTTCCTTCAGTTCCACTAATTAAAGTGGAATAAAAACGATGGACACCTGGAAAAAACAAAGCCAATAGCCCACAGAAAAGTATGCGCAAATTACGCTGCCCTTCAAGATGGTTGCCTAACTAGATTATATTTGCGGTTGCAAACTGTGGGTCGTATCTATTAATACTGTGGCTCATATAAATTCACTGTTACAAAAAAGATCAATCGAGAATCTGACTGTTTCTCCGTGTTTAACACGAGTCGCCCGTAAGCGTCCGCAAAAAAAATCATATTTTGGTAAACAAAACATTGGAGCAGTGTTAGCTTAGACTATAAGACTTAAAGTTTACTCTCGCATCGAAGCTAAGCGAGGCGGGCCAAGCGGATACACTGATTTATATATTGTATATTATACATTTGTACTTTTTTGTAATTATTGTAAGTTCTCTTCCTCACCTCAAAACCAAAACACCCTCATCCTATATTCGATCACCTCTAATTATATAAAGAAATTAGTTCTCGTGCCTGTGAACTCAAAACATTTTAGGTATCACTTTGCTTTATCGGACTTCAACACGCCTGTCTTTTTTTTTAAGTTTAGTCAATTACTGTGAATATACATCCGTATACAAGTACATTACAAATGCATAGCAAAAAGATCTAAAATACAACTCCAAAATTCACACATAAAGAACATTGCTTTTTATATGCTGTTTTAAGGATACATTTCGGAATTAATCCATCAAGAACTTGACTGCCATTTGTATTCGGGTGGCCATATCCTGGAACGGTACGGCGTGATCAAGGCAAATGCCTTGCGGAAAAGTTTCGTTAAGG
1 ACGATCTCGCTTCTCCTTGCGGCGACGGGAACGGAGCCCTAATTGGATTTAAATGATTAAAATGCTTTACATAAGAATTTTCCCTTTTTTTCAGCCTTACCTATTCCTCCCTCCTCGTCGCTATTCTCATTGGAAGATTCCTCGGAATTGAGCTCCATTACGTCCTCGTGGCCGTAGCGTTTGATTTGGGTGCGTCTTCTGGGTTCGGACAAAACCAAGTCCTCCGTTTCATCCCTTTCGCAAGCATCGGGATCAATGTCAACCTTTTTGGCCCACTTGGTCCAAAAATCAGGATCATCTATCGTAATATCCGACCGGTTACCGGATGCAGCAAATGAAGCCTTTGAGAAGGTTGAACCCTTCTCCGATTCCATTGTGATGACTTGAGTGCGTCGCTTAAGGATTGAATCGATGTCCTCTTCGCAAAATTTGTCACCAGCATTGTCGTCATCCATGACGGCCCCGTAAGCACCCTTTTTTAAAAGATCTTCAATTTCTTTTTTGGACAGCTGCTTGTTATTGCCATCTTTAGACCCTTGGGTGTTCATCGACTGCAATACAGCCTTGTCCAATCCAAGTTTCATTGAAGCTTTGTCGAACATTTCACGCTCATAGGTATTCCTGCAAAGCAATCTATAAATCTTTACCATCTTTCTCTGGCCAATACGATGGCATCGGGCCTGAGCCTGTAAATCGTTTTGTGGATTCCAATCCGAATCGTAAATAATAACAGTATCAGCAGCTGTTAAATTAATACCTAATCCACCAGCTTTGGTGCAAAGGAGAAATACAAAGCGATCGGAACCTGGCTTGGAGTAACGATCGATGGCCTCCTGGCGGAGATTACCGCGAATGCGCCCATCGATTCGCTCAAAGGGGTATTTTCTGTACACTAGATAATCTTCAAGGATATCCAAGCAACGCACCATCTGACTGAATATTAGAACGCGATGGCCGTTTGCTTTTAGTTTAGGTAGCAATTTATCAATTAAAACCATTTTACCAGCGGAAAGAATCAGATTTTTATAATAGGACTCAGGATCTTCGCCATGCTGGGACTTGAAATCATATTGGATTTGTTCCTCCGCTCCATTCAAGAGATAAGGGTGTATGCAGCACTTTCTCAACTCCATCATGGTGTTCATAAGGTTTGGGATATTAGCAGATGTGGTCCCCTTTTTCAGGAAACTAAAGTTCTGTTCCAGTATACCTCGATAATATTTCTTTTGTATGTTAGTTAGCTCCACTTCGATAATGGTTTCTTCCTTGGGCGCCAAACTTTTCTCTACGTCGTCTTTTAGACGACGTAACATCATTGGTTTCAGTAGAGCTTGCAGCTTATTTACTTCTTCTTCAGTGCGAAGACTTCCAAACTCAGACATGAACTCTTCCTGTGAGGAGAACTGCGAGGGTTCCAGAAAGTTTAACAGCGAGAACAGCTCGCTGATGTTGTTTTGTAGGGGAGTTCCGGAGAGCAATACTCTGTGCTCCAAATTTAACTGTCGCAGACCCTCAAGGAGTTTGCAATTCCTATTCTTAAGACGATGTGCCTCATCAATCACACAAAGGCGCCAGTTAAAGGCTTTTAAGTCCATGTAGTCTGTCACGATCATTTCAAAAGTGGTGATCAAAACGTTAAACTTGATGGGCTCCTTCAATACCTTTCCACTTTCTGTCTTATAGTAATATTCATAGTCCTGTATCATTTGTTTACTTGTCACCGAGCCGTGATAAACAACTACGTTCATATCCGTCCAGCCCTCGAACTCTCGCTGCCAGTTTGGAATTGTAGATAGAGGAGCTATAACTAAGAAAGGTCCTCTAATGCCGTACTCATATACAGAGTGCACAAATGTCAAACTTTGAATAGTTTTTCCAAGGCCCATTTCGTCAGCGAGTATGCAGTTGTGGGTGTTGTACCAAGAAAACTTCAACCAATTAAGACCCTCAAGTTGATAGGGTCTAAGGCTATTTCCTCCCTTATAGACGGGCGTCTTTTCCAGTTTTTTCCACAATTCTGGATGCGGTCGTTTTTTAGACTTCCACT
0.4163836957521214 GCTGTACATGGAAATTGTGGGGAAATCGAAGGAGGTGTGGAGGGGGGTGTGTGTGTGGAGAAAATGGGTCTGCGTGTATATTAAATTTCGTGTTGATACAGAACAGGAACGGAAAAAATTATGCGAAGCGTGCACTGGAAAAACAATGGAAACACGAGAACGGTTCGAAAAAAAAAAAAAATCAGAAAAATTAATAGAGTGCAAATATTTGTAGATTTTTACACGAACTATTAACGGGCAGCAAACAAAACCCGACGCAAAACCAGAAGCCAGAAGTCCAGGATCCCGGATTCGAGTTCGGGATTCGGGATTGCGGGTAACTCGAGATCGTATCACATACATAGGCCTATGCAAATAGAAGGCAGGAATGACTGGGCGCAAAATGGCGACCGAGGAGCGGAGTTTCAACTAGCGGAGAAGGAGCCAAGTCGGGTCAAGATAGAATAAATTTGAATTTAAATTTGGCCATCGATTCGAGTCGTCGGAGTCTCTCACCTGAATGGACCTGAACTTGCAGCTCCGGCTGCGCCAAAGGAAAATAACAAGATGGAACTTTGGCAAAGAGAAAAACAAAAAAAAAGAGGGGAGGAATAACAAGCTGAAAAGGACACAATACGGCCCAAGCGAGACAACTTGTCAGTCAAATTTGGGGCGACTCAAAAGCTGGGGGAGGTGAAGTAAGTCAAACCGAGAATAATTTCGAGGCAGTTCCTCCAGAAACTGGAAAATATCTAACGAAACACTTTCGAGTTGGTAGTATCTGTGAAAGTAGGTACATCCCGGAAATTAAATTCTGTACGATATCTTTCCATACAGAACCAATCCCCACTACGGTAGCTGTATCTGTATCTGTATCTAGGCAAATATATCTTTTGTATCGCCAGCACACCTAAAGTGATTCGCTCTGTGCAGGAGATGATTTGAGTGGTTTTTCCATCTTGTTGTGGCACGACCCCCGACCGATTCGCAATGCAAGAATGAAAATGGCCAACAGATGCCGGCAGAGGACATGCAGATACATCTGCCGAGGAGCGGAGAAGATGCGATTGCACATGGATTGCCCGGCCCCGTGCTTCGCCTCTCCAGATCCTTTGTGTGGTCCGTGTCCGTGTTCTAGTTGATTGGAGGCGAAGCCATCAAAGTGACCATCGAAGCTGCTAACAGGCTGACCGCCGCCACCCACTTGCCATTTTCCTGGTCCGTTTGCAGTTAGACTTGGATCCCCATTACCATCTCCCATTTGTGGAGTGGCAGGTGTGAAAGCTTCTCGCCGGGTCTTCCCACTTATCATCGAAGTTTCCCGACCAGAGTTAAACGACTTTCCGGCACTTTTGTTTGACTTTTGGCGAGTTTTCGGTTTATTTTCGGTTCTCAATAAGTTAGTTTAAGTTTAACATTAGAATTAATCGTTGGAGGAATGACACTTAGCTTTCGTGTAGTATGGTATGCTGGCTTATTTATCAATACGCTTTATGCAGACTTGACTGTATATAGATGCAATAAACTTTGGACTTGGACACAGGACACGAAACAAAGACCACAAATGCATTCACCCTCTAGTTTGGTACATTACATTCGCGCACATACACGTTCACATTCACATACATTTAGGTGACTGTACAATTTTACTAAATATAATTAAGATATTTTCTAGGTCTCCCTCCTGCTTATCGACTTACAACCTAGTAACAAAAAGTGCTTGAAAATGGGCTTTTGTCTATTTACAAAACAAAGTATATGAG
0.7230772735726427 TAACCTTCAATTTCAATAGATTTAATAAGAGCAGCAGCTCTGTCATCTAGTCTTATTTAATATTTTCCGCCTGCGACAAGACCGCGGAAGAAAAAAGCAGAGGGCATGGAAGAAGATCCGGAGCAGGCAACTCTTTTGTTGGGCTTAGCACTAGTCCAGGTCGCATTTATTTTCAGGCTGCGGGAAAGCACAACGCCCGAACCACTCAAACGCCTCGACGGGACTCAATTGTGTTTGAGATCAATTTGCAACTTAATTGAAATCCATTTAAAGTAATGAGAGTTACTAACTTGTCCTGCCCCGACCCTAAATCCTTTCGCTACCCTCCGCACTTCATTGTTTTCCCATCAGCACCGCTTTTGCTACCCTTTACGGTGGCCGCAGGCTTTATTTTGATCCCGTGCTCAAGAATTATAATCCCACGCTGCACAGTAGTGGCCGAGATACAGATACCTGTGGCGGCATCCTCCCATCTTCCGATTGTTCCGATAGTCCTGATTGTCTTGTTGTCCTGCGGCCACATATCTATTTGCGAGCCGTGCAAATGCAAATTGTCCCTAATGTAGCTCAAGTAAGTAGCAATCGCCCAGTTCCCCGCGGCGAGGATTCTCCTTGGAATTCGAATCG
1 GATTTTATGATTGATTCTTGATTTATATGCGCAGCAATAATTTCAATCGCCATTTTTCTGTCTGTTCTAAGGCATCCAGTTCGTTCCTAGCTGCAGTTGGTATGATTTCAATGGCCGTGATTTCATTATGAGGTTATGCAAACAAACCACCCAACAGTCGCCGCTGATGAGGATTTTCCCTGGATGTTCTCTATTTTTTCCCTCTAGTTTTCCTCTCCCTTGCTGATGAATGAAAATTGTTGCTCATAATGTGCCGTTAGTAGATGCTGGCTAACTATCTGCGGCATTCGTAAGTGGTCCAGTGCTCGAACAGTGGCCAAAACCAACTGCCCAACCTCTTGTTCCTGTCTACTCTGCTTTTTTATAGCCGAATTTTCACAGAGGCGACGACGACAACAGCTCGGTGTTGATCTTATCGCTGCGTTTAGCATTTAATACCAAATTTGTTTTATGCAAATGAACCACAGCATCAACACCGCAGTACTGTAAAATGAACACTTGGTGACAAACGGCAATAGCCAACGGCAAGCAAAAAGT
1 TCCACATACGAGCTGGCCAGGATGTCCAGTTGACTCTCGCAACTGGGCGACAAGTAGATGTTCTTCGGTTCCATGTCGAATCGGGATGTTAGGGCGTTGGTGGCACAGCCCGATGTCACATTGGCCTCCGGTCCATAGGAATTTAGTCGGATTATCAGGACGCGATAAGCGCGACGACCCTTGTTGATCACTCGTACTGGAAAGCGGTGGTGGTAAATGCTCTCCTGGAACTGCTCCTTAGTATCGGTGTACAGCAATCCCGCATCGAATCCCTTGCGGATATCGGGCTCAAAGTAGAGGGGCACCCCCTCCACCAGAAAGGTGATGGGCAGCATCATCACATTATCGAACTGAAGGTCGATGTACAGAGTGTTCTGGTACAAATCGGGATCGGTGAACACCGACACCAGGGTGGTGTACATGCTCTGTCCCGTGGAAGCCAGGGCTCCTCCCCTCGACGTCAGATACTGGAATTCTATATCTTTCTAACAGACGAAATTGGAAAGGAAGTCAGATGTGAGGTGTATATATATCCAAGTAACCTTACCAGCCGCATGCTGAGCTTCGTGAGCGTGGGAGTGTAGTTGTCGATATAGAAGTGGACCACACTTTTCTCGTAGACCTGTAGGCGCTGGTGCACGTACATCGGTGTAATCCGAATCTCGGAAGGCAAAACGTTGGCGAACAGGTGGAAGGCGTATGGTCGTTTGGCGCCCACCACACTGACCAGACCCGATAGCCTGGTGCTGCCCAACGAGCGGAAGGTGACCGCGCACTTGGCAGTGACTTCCGATTCGCCGTCGATGAAGAACTTCCAAATGCCGTCGCGAAAAGTCATGTCGTTGGGCTGTGAAGAGAAAAGTGCAGTTAGTCAGCTGTTTGGATGAGCATTTCACATTCGGCTCAAAGGACCAATGTCCATTTCATCAGGGTTATCCATGACTTACAACCACATCAAAGTGAAGAAAGGCCCCTATGGTTGATCGGTTGGTGAAGTTCATCTCAAAGTCGTAGTCCTCGCCAGCGTATATGATGCGACTGGAGAGGTCAACCATGTTGGACCAAACTATATCGGGCACAACGCAGTTGTACTCAAACCAGAGCTTCGAGCAGAGGAACTCCGACTTGATCATAGCCTTCATAATGGGGTGATCATCGCTGGATTCCAAGGAAGGGCTTGCGACGACAGGACAAATCCGGACGGACAGCGATCGGTGGAAGTAGCCCACCTTGTTGGGCACCAAAAGGATGGTGATGCTGCGCCCGGTGTTTGGACGCAGGTAGATTATCTCATTGTCACAGAACACTTCACGTGGATCGCTGGGGACGGCGTTCCAGTCCATGAAAATGTAATTGTTGTGCTTGGTGAACACGGAGAAGTACTTGGAGTTGAGCAGACCCATCAGCGCCTCTTGGATGACTCGGCGATCGGTCTCTGATTTTTCGAAGATC
1 CCTTCGGCTGGTCACATGTCCTATCGCCATTTATCTTGATTTGAACAAACCTAACGACGTTTAAATGCTTGTTTCAAGCATTTTGCACCATTTGCAACTCTTTGGCTGGCATCACGTTTCCACCGTGCGCCTTTTCCCTTTCTTGCAACAATTTAGCCCCCTTTTGGGTTCGTCATCGCTTTGGTTTGGGCCATGTTTATGCTTGAATAATGTTGACAAAATCGGACAGCGGAAGAGGAGGAAACTCTTTCGGGGGGGGGCATGACACTTTTCAGAAGCGAAGCGGGAAACGAAGAGAAATAGCTGCAAAAAGATACAAACCAGTTACACGCCATCGTGGACATGCAACCGAAAACCCCTCCGCAGCCCCAGGAAAACCCACTCCTCACCCTTTTCTGTGGCACCTCGCGAATTCGCAGACAAATTGTCCAGCTGAGCTGCCTTTTGGCCTGGTCCGCCGTTTTCCACTGTCTTGGGTGTGAAAATGTTAGCAAAGTGCCAACAACAATGCCCAGCCTCTGTGTTCCTCTCTCGCTCTGAGGAAGTGAGATGTGGCAATAGATCTAGAGATGGTACTAGTTCGTAGAACATTAAATTTAGGTGTTCAAAAGTATGCTGCAATAAAGCTTATCTTCTGCAAGGAGGTTTCTAAACATTCGAATTGAAACTATAAGTGTGATAGTTATTTCTGTACGATTCCTTCATGATTTAGTTTTGCTCCGATTTTCCCACCACGCATTTCCTGCCATCTCTAGATGGCCTGCTGCATTCGGTTTTCCTTTTTGCCGTTGTCTCTGTTTTCCGGCTGATGGCATGGGTAAATGTTTTAGCAAAACGGTAACGGTAACTCACCGCCGTGTTATGACAAGTGGCTGCGTTCCATGTGGCAGCCATTCCGGGCCATAAACCAAATTGATGATGAAAAACTTGCCGCCATGTCATGGCCTGTTAAATGTTGGCCATAAAAGTGAAAATTCCTGTCAGCTTGCGGTCGCCGTTTGTTGGCCGAAATCGGTATCGGTGCAGTCTTAAAGTGTTTGTCATGAATTTGTGTTTACTTATGCTTATTTATGTTTATTCATTTCGACGTTATTGCCGCAATATTGGTTTGCGTCAAGCGCACCTGCGACAAAGTCATAACCATAAAAGGAAGCTTCGATTTATTGGGGCAAAACG
0.7770862558660494 GACTTTAGCCCTGGCGAACTGGAATCCTGAGTATATTCAGCACACTTTAATACGCTGTTGTTTCTCTAGCCATGGCTATGCCTCAATCCACAGTTGGCCTCAAGTTGCGCATCGCAGTTTATGTAAATGAGGCTGGACCGCCGCCTGTCCGGCTGACAGGACCTCTATCTCCAGGACGTGAGTGTGTGCAGTGCGTCCTTGTCTTGGGCTAAATTGCCACCAGTCGTTGCGGCCACGCCCCTTTGGGCCAGCTCAGTTCGCCTTCGGTGCCCAGTGGGCAACTCTAATTATTTGTTAACATAACACGAGTGGCAATTTAAATGCAATTAGGTTCGGCCTGGGTTTCCCGCCCAGGACCTCGGATTGTGCTCATTAGGAGGACTTGGGTCCTTCGATTGAGTGCAGATTTCAATTGGCAATTCAAATCGTTTCCACTGGCAAGTTGG
0.8937234801521556 TACAAAGCCAGTGGGTGACACTGAATGTTAAAGATTATGTGAGTACTCTGAAAAATCCTACACCTGGAGACAGACGACTGGAAGCCCCTGCCACAGGCACTTAATTTCGCAACCGTCCTCCGAACTTATCTCCATCTGAATCTGCATTGTTTTTTGGCCAGACCAAATCTATTTAAAACCAGTTCCTCCTAACAAATGGCATTCGTCTCCGACTTTTGAATCCGAGAAGCCGACCAAATGCGATTACACGGGCCAGGGGCCAGGACACAGAAGGCGGAGGAGCGGGACAGAAGGGCCAGGAACTTGCCAGATGTCCTCCTGTTTTTGGCATTGTCCTGGAAGCTGAATGCACTGACCAGAGATCAGGCTGCTAAGTCTCTGCTTGTTTGCTGCGTGTGTTTTACTCAGTATTACTCGGGTATCAGGTATTTGTTGGGGGGATTACAAAACACAGATTCGGACTGCAAGGTGTGGAATGAAATGATGACAGAAGGATAAAGCTGGAAATAATTGAAATTAACACTTGGCTCGGGGGTAGCGGAACGCTTCCTTAGTTTCGTTATTGAAAAATAATAGAATTAGCATTTGGAAATTGATTGTAATCCAATTTTAATTTTAGTTTCCATTTAAAAAAAATATAGGGTATTCCTCAGCTCTAGCTCTTAATGCGTCGCAGCCAGAAGATACATCCTGCAACAATGAAAGATAAAAGCACGCAAAAAATGACGAAAGGAAAATGGCAAATGGGAAAAACATGAGTAAAGAGCACCCGGAGTGGACAAATGTGTGTCCTGCAACGAAATGCATGCAAATGAGCTGAATAATGAGCACTTCCTGCCTTTCCGACCTCCGACCTCTGGACAACCCTTTTGTGGCACTAATTTCCCGAACAGCCAGTCGCTTGTTCCCTCCTCTGGCAGGGTCCAAAGTGTCAGTAAGTCAACAAGAATGCACTCTGACACCGCCTGAAGGAGTTTCAACGAGGGAAATCGGAAGGCTGTGGACACGCTATGAGAGCACTGAGAGAAAAAATGCCAAACATTATGTTTCTGTTCAGTAGCAAGGAATCACAAAATTATAGTTGCACTAGGATGACAGCAAAAAAAGGATGTCGGGAGACTGAAGGACATAATTATTACTTTTATGTTCTGTATTGAAATTAGAAGACATTCATTTCGCTCAGTGATGCAATCTGTGCGATGCTTGCTTCTGTTGGCCAGTCGTAGTCCACTCGACACTTTGAATGTCATTAAGCTGTCCGTCCAATCTGGATGCCAGAACCCCTTTCGCTCCTCCGTGATCCTCCTGCTGTTTCCTGCCCCTTCTCACTCCACTGCCTCCCCACAGCACCTTGTCCTCCGTCCGGACACTTAGTCAATGTCTCACTAACAATCGTCAACAGGCTCAAGCAGCGTAGGGCAACAATCATGGCTGCTGTCCCAGTTTCTTTGCTCTTGTTGTCACCCTGGCCTCGTGGCGTCCAGAATCCTCCCGAAAGGACCCGGCTTTGTTTGCCAGCTGGTACGTTGGTATATGTTGAATGCATTTTGGGCCCAGAACGTTTGTCAATTTTCCGCTTGTCGACTCGGTGAATTGGCCTTTTTTGTCCGGGGCGAGACTCTTGTATTATTGCTGCATGCAAAACGCGTCCTGCGTGTTGTAATTGTCCTAAGGCCGACACTGGTGGTCAAGTTTTTCGGGGCACAGCTGCTCCAGGTGAAATATGTTCGGAAATACCTGTGAAACAGGTGAGACTAACGATAAATCGGGTAGCCACAAATGGCTTGGCAAAAAAGATAACTGGCAGTTGAATGGAAAAGCAACTGATATGTAGTAGGGCTTGGAATTGACTTTTACTGCAAAACAGCAGGCATTAAATGACTCCTCTGTTAATGACTATTAAAAATATCAGAAATGCTAATACTACTTTGGGGCCAACTGCCTTTCAGCCAATAACCTCGATATGTCAGATTTTCGAAGTGACCTACGAAAAGTAAGACCAATCCCTTGGCTCAGCCCAAAAATTTCATCCACGCTGGTGACCCCG
0.6000664289295849 TGTTGTGGATAAAATGGACTCAATAGTTGAAGAATCAAGCGAGGGAGATGATAAAAGTGGTCATGAGGAGCAGAAGATGGAGCCGGAAAGAGAGCCGGCAAACGAGCTTGATTCTAAACTGGAGGTTCTGATTCCCGAAATCCCTGAGCTACACTTGGGCACAGCAGATGATCCCATAAACTCTGATTGCGATTCTCTTCGCACTGCTTATGATTTTCCACCAGGTCACGATGATCGCGCGAACGAAGAAGAGGACGAAGATGACGATGAGAATAAAGGAGATGTGGATGATGAGGAAACCTGGGATGAAGTTGGCCAGGGGGATCGTAGTGCCAGTGCCAGTCCCAGGAAGAATGAAAGCATAACAGATGGGACTCTTAACGACACCATATGGAATGACACAGATGTAACGATGATTGCCAGTGTTTAAACATCCTCATCTTCGTACGCCGCCCATCGAAATCCAGTCAAAAGTGGCACTTAACCCATCATAAGCCCCCATATATGAACTTAAGCTCTTAGCCGTAATAACACAAGCACAAATGAATACCTCTCGG
0.4750853254183048 TCCACCTGCCATCCGCCTAGGCTTTTGTGCACCGCGAAAGGCTTCGATGTGTATTAGCCGTAATTTATATTCCCACTCATCGCAATGCGTACTTTCCGCTACCAAAATGCGAATGAAGAGCCAGTCGGATTTTCCTGAAATTTCTGTTTCATCTAAGCGATTTGCATACCTGCCGATCCCTAGATCCTTCTGTCCTCGATCCATCGATCCACCCCTCATATCATTCACGCAAGCGCTGTGAAATCACGCGGAAATTCCACGGCTTTCCAAAATGAACAGCTAAAAGGACACGAGAGTCCTTTTACCTGCTCTTCCGCGACGACAGCTCGGCAGTGACCTTGAAATTTTTCCTAAGAATTACACCAGGACCGTTTAGCGCATGCGCTAAATGGCTTTTATATTGTATTTGTAGGAATAACAATTATTATTAAAGCGTATTTCGCATTATTTTCCGCAGGATTATAGGGTCGAACAATAAAGCAGTTAGGTGCAGGTAAGCAAGCCGCACAAACCAAGTGTCTAAAGCCAAGTGTCTAAGCCGACTGGCGAGTCGAGTTTGTCTTGGTTACGGTTCAGTTCTGGCCACGTCTTTAGGCTGTGGCATCTGTGCCGTTGTTGGTTTCTGGTTTTCGGACTCGGAACCCAACCCTCCGGTTGATTCCCGCTTCCCAAAAGAATTTACGACTCGCTTGGCTCTTTGTGCAAGGTACTTGAAAACGGCAGCGGCGGCGTCGATTCAAATTAAGATTTTTCGGCAAGCGTGCAGCGTTTGCACCTTGCCGCACAAATACATATACTTTACCTATATGTGTATATAGACAGATCCGAAAAGGTAGGCCGGTGTGGGCCAGGGTCTTTAGCACAGGCGCCAGTCGTAAAAAGGCGGCTGGACAACTGGAACGTGCGATTTTCGACCTACCTTTGTCGTCCCCGATTTCCCTGCACTTTCCACGCTCTAGAGTAGTGGGTGTATTTAAGCAGGGGGTACTTACTGGTCCAGGAAACCAGGTAGATGAAGGAAGGTGTGTCTAATTATCTAGCCGGAGATCCGAGCCCGCGTTATGTCCCCACAGATAGAGGCT
1 CACTGTGGACAGCCAGTCAGCCAGTTAGTCAGAGCCATGAGCCATGAGCCATTCACCAGACGAGACTAGAACGGTTCGGAGGAGAATAGCTTGTCCTGCCCAAAACGGGATGGTTCGACTGGGATGGGGACTGGGATTGAGATGGGGATGGGGTACTCAGATGGGGCGAGGCGCAGGTTGGCTTCATTGTCATGCGGCGCATTTACAAGATGCCAGCTGGCAGTGGCAACATTTCGCAGCAATTGGCTGGAATTGTTGCGGCAACATTGCGGCTGCTCAACATGTTGCTGCCCCATGTTGCATACTGATGGATGCGGCTCCTTTTTGCCGATCCTGACATGAATGGCTTTAACCATTTTTGGGCCTACAGTTAAGTGCTGCCCGGTGGAGCACATCTGTGCCGCACGGCACTGCCAATTGCATTGGTAATGAGTGAGTCGAGCCGCGGATTCCCTATGAATGAAGCTCGTGAATGGCGAGTGCATAAGTG
0.2086013333258509 TGGTTCGTTAATGCAGAGCAATTAAATTGATTGCACAGAGTGAGGCGAACGAATTAAATCGCATTTATCGAATGCAGTCTGCTGAATGGCCAAATAAATGGCAAAGCAAATAAAGGGCGAAGAGGCGGACCCAAATGGAATTACCCACAGAGCAATTGACCTTCTGCGGCCTTACACAAACCGCAGCCGACAAACGACGACCAGATTCCATTAGTCATAATCGACAATGGTCGGTAAGAAGCCGAAAACTGAAGATACAAAGCATAGAAGTACGTGTGTACATTACATATGTATGTATGTATGTATGTATGTATGTGCATATGTGCCAGGCAAGGCAAAAAGGCATATAAAATGCCATTGCACAACTGCAAACAATTAACATTACAACAACTGTAGAGTGCTAGAGCTAACAAAGTCATAAGGCCCACCCCCAATCCCACCCCCTCTCCCTTCTGCCATTTTAACATTAACTTTTTTTCCGCCCAATGCAATTTGGAGTTTGTTTGGAAACTATTATTAAATGGACGCGCAGAGAAAACTTTTTGTGCGGTAAAAGCCAAATACAAGTGCTCGGCTAAAATTGTGGGCGATCCGCTGGCCGAAATACATATATACATCTCCATATATATATATAAAAGAGATCCAAAGAGTGAGCGAGAG
1 CATCGGTGCCCAGGGGTTAATGGTTTGGGCTGCCAGCAAACAGTGCATGCACCATACATTCGCCATTCCGTCAGAGTTTGCTCTCCATCTGTCGGAGACACCTGCGCTCCCACCCGCAAAAATGGCAAAACAAATAATGCGAAAAAAATAATGGAAATAAAATGAAAAATAAAAAATTAGTGAAAAGTAGAATTTGTTTTGACTGAATGTCGTTGCAGTCAACAGTCGTCAGTAGCCGGCAGCAATGAGTTCAGTTCAGTTCAGTTGAGTTCACTTTAGCCATTCTGATTTTGCCTTTCGTCCATGGAGTCTATGATGACCATGATTAAACATTTTTATTTGTTTTTCCTGATTTTGGCATTTGTTTATTGTGCCCCGTTTCAATTGGCTGTTAATTATAACTGACTGACTTTAATGCCATGACTTCGGTGCTGTCCAAAAAGAAGTATTTGGTTTTGATGTCGTCCTAAACTGCATATTCCCATTTCCTACAGTATGTTGCTACTCTGGCAACTCTGCATCATTTAGATGGCAACACCTTATAAAAGGTGGCAACACATAATTATTGGAAGAATTTGACGTTTGTTAATGCATGATTTTAGTTTGCTCATCTTGTTTATTAACTTTGGAAGTGATATCAAAAACTAACTTAAGCATCTGGAAACATTTTGCTGTTTAGCTCTTTATGTTAAATTGAGG
0.5018306117735204 TATCTTGTGGCGCGCTCAGCTGACTGCTGCGCTTTCGCTGCAGCCTGCGCTCTCACTGTCTCTCCCGCTCTATCTCTCCGCCCATATATCCTGTTTATTTTTGCCGCACCCAAATCAAATGCATACGGCCTCAGCCGCCGTCCTTATAAGTTCCTCTACTTTGCTGACCCGTTACTTGTCCAGAACTCCTTCGCTCGCTCTCTCTCTCTGTCTCTCCTTTCATCCGCTGCCTTTGCCTTTGCCAAGGTGTGTCACTTTTTTGTTTTGTTCCTGCCCTTTGAACACTTCTTCCCCATTCTTCCAGTATTCGTAAGTGTGAGTGCGTGTGTGTGTGTGTGTCTGCATAGGTATGTGCCATCAAATCCATCAATTAGCCGGAAACAATTTCCAACTATTTATGAATGAAAATTAATGGTTGCGCCCCCTTATTTTGGGGGCGTGAATCGAAAGAGGAGGAAAGAGGAAGCTTCCTTCGGTTGACTGAAAACAGAAAAG
0.3320358214079078 CGAGAAAACTATGAAACCAGCAAATTTATAATTTTTACATGGAAATCGCAATAATGTTAACATTTAAAGAAGACGAAAAACAAAGAGCATATCTTGAAAACAAAGGAAGAGTATTGAGGAGGGATCTCAAGCAACGGAACGATATCGAAGACACAAAAATCGACAAGTTACCACAAATTTTAACTACCAAGTGAATGGCTTAATTACGGCACACTTTTATACTTTTACACCAAAACAAAAGAAACGAATCGAAACGAAACAAAAGCAAAAACCAAAGACGTATGTATAAATGGCGATCGATTTAACCGTGCAAAATCGTTTCTCGATGCACCTTCGCGTTCTGAAGCCAATATGGTTGTGCAAATGCCTGCAGACGCCACCGGAAACGGAAACGTCTGCAGAGCGCCCTCTTTAGGCGGCTTGTAAACGATGCAAACGTGCAACCCTGCAACCGCTGCATCGTTTACACTCGGCTTGAAATGTCTGTTTCTCTCACACAGATCACACACACACCCCACACAGACACACTCTCTTATCCTTACCCACTAGTCTCACTTAAATGAATGTTGAATAGCAAGGAAACCCAGTAGTACCACGAGCCACTCGTGTGCAAACGAAACGAAAACGGAAGGAAGTCTAGCAGTTGCGATCTATCTGAGAAGTGTAATTGATGGCTTTTAGGCGTAGCTACACACATACAAAGAACTGGCGCCCCCAGATCGTTTGAATTATCGGGGCAGGAAATCGACTCCCCACACATTTTCGCCTGATTTTGAACTGTACGAACAAACTATCTATCCCGGCCCAGATCTTTGTTTCGGCTGTAGCATCCTCTAAGAAGAACCAGCTATCGATCATATTGCAAGGAATCGAATAACATTTTGTAGTGCAAGTCATCAGTAAGTTGCGGACGGAAATACGCTCTTTATATGTATATGTTTAAATGTTCAAGCAAGCAAGAAATGGAAACACTTAAGATATATTATAAATTAATTAAAACCAAATCTTAGTC
0.8970784086238276 CCTAGCCAAATCTGATCCCCAAATTAAGAGTTGCCGACCAGCGATTGCAAATTGCCTCAACCACGCCTGCCGTCGCCGTCGATCCTGTCCAGCAAATTAATAGCCATCATGTTGCTGTCTCCGGCGAAATCTCTGTCTCAACCGAAATCTCAATGTCTCGATGGGTGACAGTCGGAGTAGATTGTAGATGATGGCCAGTCGAAGACAGCGACATTTATTTACCTGACAAGGACGTGTTCGCAATTAAAGTGTTGAAATTAGTGACTTGCCGCCGTGAAACTGGCTCAGCTCAACTCGACTCGACTGGATTTAATCCTTTCGCCAGCAGTTGAGGCAATTTCACGTAGCGCACTTTGTAATTTATGGATTTAAAGCAACGGCGATTGTCCTTCGCATTTAATAGCGCATCGTAAAAACCTAATAAAAATGCACACGAGCCTGGTCTCCTTCGGCAAACGATGTGATGTCCTTGTGTCCTACCTTGCTTCCTCGGTTTTCACACCGAGCTGTGAAATCTCGCTGGATCACATCTAAATAAATATTTGTGTTGCAACTATTGGAACATCAGTTTAGGCTTTTAGTGGGAAAATATTGCGCACGATTGCCGCGTTCCCTGGAATTTTCCATCCGGCCAAAGAAATCCCCTGCATGTTTGCATTTGCGGCCTGACCGGTAGCCGCGTCCAACAAGTTAGCCAAATATTGTGGTGTACTCTCCCGTAATTCCCTCTAATAACACCGGGTTTGTTTTTTTTCGAAACGTGCCTTAAACAAACACAAGAACTCTGAATAAATATGCAAATTGCTTGCGCAACG
0.7227176613401087 GACCAGTTGGCCAGTTGACCAGTCGTCCAGCCGACCTGTCGACCAACCGGCTTACAACATCATCATTCTGGCTTTTCAGGGTGGTCCCGGCCCAAAGGCGAACAGGGCCAAGTGCGAACGTGTCCTGGACAATGGGATGTGCCCCTATGCCGATCCTTCCTTTTCCCCCGGGCAGCTCATTAAAATTGCATGCTCGGTAGGAGCAGAAAATAGGAGGAGACTGCCCCTGTGGCAGTAAATGGCTCACTTTTGGCAGGCGACTTTCCAGCACGTCCTGCCACTACAATTTACAATGGCAGGACATCCACAGGACACGGAGCTGCATGCCACCCTAGTTGCGGAACCGATGCGTTTAATTGTGGCTCAAAATGGCCCAAAAAAAAAGGGACTCACAACCCCATGCGGACACATATCAATCTGGTCGGGATAACTCGCCCTCCCGCTGTGACTTTCACAAAATATTTTGGTTGTACGCAGTGCAATTATGGACAAGGTGTGTCGAAATGCCAGGACACCAAGATCCTCGAGGTCCTTAGACTGCCTGCGGCGAAGTGTTGCAAAACACGGAACACAAGTCCTACGGTTGACCACCCGACCAACTCGGCCAGATAAGACTAAGGTTAAGGTTTGGCCAAAGTCAGCAGGATATGCATGGCCAAGGGGGCGCGGCCAGGATACTTGTCAAAAGTAATCCTGGGCAAAAAAAAAGGCATCTATGTAGACATCAATTGGCGAATACGTTGGCACTTTTCTGGCACGAAAACAAAGCAAATCAAAGCCAACACAATGAGAGGGCCCAAATCAATTGTACATGGCCATAAGGCCCGAGAGTATGTCATCAAGGTGGAGAAAATGGAAAATGGAAATGCTAATGGAAATGGAAATCGAGCAGCAAATGAGGCAGATGCAGACCCCTCATGCGGGTTCCCCCCGGGGGTAACCAGAACGACCTCAGGCCTCAATTAAAGACAATCCTATGCTCGATTTTGAGACAAAGATCACAATCTGAAATTGACAGTTCTGAGTAAGAAGCGTGCTAAGAGAAATGCAATTGCCAATG
0.9005518307362745 GCTTTTGTAGTTATTTTTCTTGGTTTTTATTGTATGCTTTTTGTTGCGCATTTTTCCCCAACCGACTTTATTATTGTTGGTATTTACCTTTGTGTTATTTTCATTTTATACACATCATTTGATTCGATTTCATTTCTCGAATGCTGCTCGTTTTCCTTTCTTAGTTATTGTTGTTATTCTTAAAACGCCCCAATGCGATTGTCGAAACTACCATTGAGTTTTGATTTCTGAAGAGAGTCTTCTGCGCGTTTGCGATCGATGGATCTGTTTCGTATGAATGGTGCACGGGTTTTGAAAGGTGGTTGATAGATTAAGATGAAATGGTAATGGCGGTGGTTGGGTAAACAACCCAGTTTTCCGTCAAGTGCAGTCTATCCATTTTGGCAGAAGGGTGGTGGAAAACATTGGAATGCCATTCGAGGATTGATTGATTGAGGGAAGGTTTTGTTAGGTGGTATGTTTTCAACCAAAACTTTGTCCAACCATTTGTTCTTTGAATAAATCCATTTTACATAAGCACAGGTATACAGTAAAATTACAACTTTCAAAGGTTAATTTCCCACTTCAGTAGCTTCATTGGTCAAGTAATGCAACACTCATTCCGTGACCAATCCAGATGCCTGGCTGTCTGCCAGGTTGGCTGCAATTACAAGAAACAAACGTGAGACGAATTTCAATATCGATTCCGAAATCTTCCCGCTGCCAAAATGACCAAACGGTTTTCGGGCCTCCTTCAACTTGAGTTCGAGTTCAGCTCAGTTCGGTTCTTCTGGCCGATCATCCCCCGTAAACAATGGATTATCTAACCACTTCACAAAGTGCGTGAAAAAAGAAGAGCAGAGCGAGAGACACTTGTGGAATCGCATGGATCTTCGAATTCATTTTTGGCCGCGTCAGCGTTTCCATTGTCCTGGGGAGATATAAAAAATAAAAAAAAAAACTAAGAAAAGGGGGACTTTGGTACAATGGCAAACAATTAATGTGGCTCATTGTTATCGGTCGATGTCCATTTCGGGGCATTACGTGAAAGTATTTTTCCGGGCTCTCTCCCTTCCGCCACTCGACAGAAGTCAATTCTAATCGAATTGTATTCCAAATAAAGGGAATCTGGATTCCCCAGAATCGAATGAATAGCCAGCCCATCGAATGGGGCGACAACAAATTGTGGGAACTTCTCTGCGTTTTTCCCTTTCTGGTCTTAGGGTTATAATGCCGCAATAAACTCAAGTGGAAAAATTGCGGCAAAAG
0.4936847363053435 AACTAATCGAACCTGGGTCCACGGTTAACCCCAGACTGCCCGCTCCGTCACCTTGGACCACACACATCCTGCATGGCAGGTTGGATATCCAGCAGGTTGTGCTGCAGATCCCGCTGCTAACTAGTTACAAATAATTATCTGTTTGCCAAATACTCGGGGACAACTTTATCCGAGAAAACTGGACATCCATCCAATTGCAATTATACGCCAGTGACCTTGAGTCGCCGTTGGTACGAGGTTAGCCCAACCATCAGAGTTTTGGGTTTCGGAACTGGCATATCGAATGCCAAGGAATCCTCGGAGTCCTCTGAAGTGGAATCTCTGCGACTAATGCTGTGATTAGCATCTGCGTTGACAAACACAGTGAGCGGTCCCAAGGCGAAGATTCTGCGTTTCAGTTTTCTTCAGTTTTTCACGTCTACGGATCAGGGAACTGGGAACTGGGAACTGCGAACTGGCAACTGCGATGCGGAACCCCACCCAAGATGAATAATTATGGGTGATCTTTATGCTAGCACCGGCTCCTCGCTGGGACCGTTAATGCTCAAGTTGAGTCGCGGGGTTCCAGGGCTTCAGGGGTTTCACGGAGTTCCATGGGTTCCGTGGGCCCAGGCGGAGGGCTACCTGCGGCGTTTCCTCTGGCATTCCTGAAATTTCCTTCCTTCACCTTCAATTGATGCGCTCGAGTCGCGCTTTGTTAGCAGATATATTCACGCGTATTCCGCCGAAACTCGCTAATGGTCACAGCAAGTCGTCCGATACGATGCGAGGCGATCCGAACTGAGACCATGTTTCACCTTGGTCCCCGCCTGTGTTATTAATGATGGAAATTTGAAAATACAGAAGGTTCAATAATTGCAACATCATTGGGTCTTCGATTTCTCAACCTTCGGCTGACTTTTGTCCCCGGCCGTAAACAAATTGCCAGGCAGTTCGCCACACTTTCCGATTCCAATACTTCAATACCGATCCGGGGCTTGAAAAACATACGCGCGTCCCTGAGCAGATATACATATATCCCGATTCCGATACCGATCCTGAAAATATGGCTTTACGGACAGGGGCCTCTACCTACGATCCGTACAGATCCGATCGGCAGCACTGCGTTTATATTGCAGCAATTTCGAATCAATTGAATAGTTTCCACGAATGCGCACAAAGGCCATAAAACGCGTCGCGTGGTGAAGGCGCAGCTACAGATACGCAAACTATGAGATATTGTAACCGGCAGAAGGACAAACTTCTGCTTTTTCACCAACTGCAACGGCAACGGCAACAGCTTCACCTTCACTTCGCCCTTGCCTGTGTTGGCCCGTTTTATTGGTCTTTTTGTCGTCGTAATTCACGTGTAAAACATGCCGACTGCCCAGTTCCCTTTTGGCCATTTCCCCTCCCTACCAAAAACTGCACTCGAGGATTGCGCGTGCGCACCTCTCCATTTGTTTACACGGCGCGCACGCCCATCCTCGGCCACTCGGGACTTCCTTTTTAGAGGCGTACGCCCGGAATCCGGAATGCGGAATCAAGTAATGGACAAACAGGATCCATTGTCGATTTCCCCGAATTTTCGGCG
0.5419342036152273 GGGATCTCTTACCCAGCCGTTGACGAAGGGATGTGCAGGAGTCAAGGCTGTCGACGAAAAGGAAGAAGACGGGTGCACGCGGCATTGTTGCGATTTGAATTGCTTGCGAAAAGTATCTAAACACACCATAAACGCGTCACGCCCGCGACTCCGCGAATCGTAAACCCAAGGACACCATGGCCCTAAGTTGCCGCGACCAAAACCAAAACGCTGGCTCGTCGGAAAAAGGGGTGTACCCTTTACTAGCGTAATTAAAGGGGTGTGGGCGGGTGAGTTTCGGGCCGGGGCAACCAGGTAGCCAGGATGCCATCGGTATTGTCGCTGGCATCGTAAAACCGGTATCCTAGAAAACCTAACCCTAAACGTTACCCTGAACTGGACTTTGGCTTCGGGGCCATTGTCTTTCGCATTGCGGTGGGCGCGTCGCACTTTTACTCCTTCCCGAAACGAGGTACCTATGTTTCACCAGATATTCCCTCGCTCACGCACGACCATCGTACCTGGAAGACCCTATCGCTATCGCGGACAAAAGGAGTAGCTAAGGGATTTGTGAACTTGGACCGAGTATCCTTCGAGCATTTGCACATTCCATGTTCGCGTCCTTGTCTGTTTACGTCTCGCATTTTGAGTGTAGCGAATCCAGGAAGGGTTGATCCGCAAAAGGGTTGCACTTTATTTGGCAAAATAATTAGATTGATCCGGAGGGCAGTTGACTTCTCTGGTCATATTAGTGCTGCG
0.8857103448497167 CCGACTGGACAACAAAGGCTTAGCACACAGATTTCCACCAATCTGCAGGCCCTTCACCAGCCCCATCCCTCCGTTTAGCATTTCCCATCCGTTCTGCTGCACTGTGGAAAACTAACTAAAGCTGTTGCGCTACCCGAATTTCGTTAAACATTTTATGGAGTGCACATATGGTGATCAATGTATCCGGCTCGAAGGACCAACACTAGAAACGACACATTTTTCAATAAGGCATTTATTAAATTTTAAAATATTTCAAAACGACAGGACTTACATGGGATTTTCCCATGTGCATCTCGTTTTCACTTGGCGTTTTAGGGAGCGCAGTCCAATCGAAATCGTTGCGCTGTTTAGTGCGCACTTAATTGAATTTCGCGTGTGCTGCTCCAACGTCCACACACAGATACCCACGCACACACTCGCCAGCCAGCACCCTCACACAGATTCACACTTGGACACAGCGAGTTGTGTTGCATTGTCTAGGCCACAAACATTGCCAAGTGCATTTCGTGCAATTGGATAATTGCATTTGGCTTGGCGTCGCCAGTTGCCGGCTGCCAGCGGCAGTTGCCACACCAAATGTAATTGCAGCAGCAACAGCAACACCTGCGACAACTCCACTTTCCCGGTGTGGGGGAATTCGCAGGTGATGACAATTAGCAGGGTCAGCCCAAAAGTAGACACTTCAAGTGGAGTAGGAAACGGTCAGTGAATTAAAGACAACTTCTGGCAATGAAAGAATACAATATTACAATATTTTATATAGAAAACTGTATAATTTATTAGGTAGCTTACAGTGTAGCCAAATAAAATTTTTAATGTTACCATTTACCATTTTAATAAACTGAATCCCCGCTGTCAAGTATTCATCGATG
0.6531662593841705 GCCAAGTAGCAGGATTCATTCAAAATCTGGGATTGACACCGGACTTATCAATAAACTGAGCCTTATGCAGAAATGCCCGAGTGAAAGGACCTGATTAGTGACAGAACTCAGCGTTTCGGATGCATAAAAAATCACTGCACATTTTTTTCATCGGGTGTGCAACGATAGATCGATCATGGCCATTGTTGGGACCATAAAATCCAGTACATGCTGAATATCCTGTCGACAGGACAATGACTGAAAGGCAAAGTGCGAGGATGAGGATGAGGGCGAAAAGACGACTCGCTGTGCGCGACAAATGCCGAAGATATCCTGCTGATGTCGCAGCCATGTGACAGTCTCCGAGGATCGGATCGTTGAGGATAGGACTCGCAGCGAGTCCTGTTGACAGCGAGGTTCCTCAAAAGGAATATCGCACATTACGATCAATTATGAGACTGAATGCTCACCCACAGTGGAACGAAAACGGGCGAAAGTCCTGAAGGAGGGAAATCTTGTGGCGTTAATTGAAAATTACATGCACATTGTCTGTGGCCACGGTGTCTACTTGGAATTCGCTTATGCATCTCCATAGTTTTCCATAGTTTTCCATAGTTTTCTATAGTTTCCCTACGTTTTTGTGAGCTAATGAGGCAGGCGTAGCGTTGCCTCGAAGCGTGAAGCTCGCCAAGGAAACGCCTAAGTGTGGTTTTGGCAATGAAACCATAATGTCAAACAGCGTGGTCCTGATCG
0.8920237725435378 ACTTTTCTATTGAAGGGCGGACATATTAGACAACAATTGGATCGCTTGATAATCTGCTTTTTGCAACCACAGCAATTTTACCCGCAAAATATCACTGACTGAATAGCCAGCCACTTCCATTTGAAGGATAACTCACTCCTCGAGGATTATGCCAAAAAATTGCAACCAGTATCTGAGGCAGAGTTGCTCAATGTTTCCCAACATTTATCTAGGACATCTGCAGCAGAAAAGGTCAAGGTATCTGAAAGTCTACACCTCGCATTTTCAATGGTCTTTTACGTTAATCTGGGCAGCTGGCCAGAAGTTGGCCAATAAGTCCTTGGGTAATACGAGGAGAACAAAAACAAGTAAGGATAATATTTTCATAGGCAAAACAATTGTGGTTGTGCAAGGAAGTGACTTTTGGGAACGGGAGGCACTTGCAGCTGCCCAAGTATATCCACCATATCCCATATCCTTTTTCCGAGTCCCTAATTTCCTGGGAAAGCTTTCGGTGCAGTTCGCCAGCCAAAACACTTGAGCACTTAAAAAGGCGCATTAACTCGAGTCTGGTTTCCGATTCCGATTTCGCTTCCTCCTGCCAACTTATTTCTATATCTTCTCCCTTTGTGCCCTGTGTGTGTGAAACAAAAACGTTTGTTTCAATACGTTGGCTTCGTGCATTTTACGGTGTTGGGAAACAGACGAAATGGACTCATTGATTCCAATTGACTGATTTCAATTGATGTTAAGTGTCTGCCACAGTCGCAGCCGCAAATTCAGTGGCACAACTCCGTCGCAGCCAAATGCCATTTGCTTTTCACATCCAGGTCGAACGGCGTTGCCTTGTTGACTTTGTTTTTGCTACTCATTGCCGCGATTTGGGTTAGGCATGGGGTATGTGCGCACTGTGGGAACTTTGGATTACTCAGATGAAACAGCATTTAGGACACTATGCAGCTGGAAAGATAAACTAGTTGATAGCTACTCATTTACTCATTTA
0.9860863054316698 TCATAGACCAAGCGGCCATTGCACTCAGGAAAAACCCAGACACCGTACAATGGGAGACAAATGCAAATTAAACCCGTAAACAATGCCGCATATTCATATATGCCAGTGGCGGCGGCCCAAATAAATTGGCCTAAAAATATAAAAGGGCTAACGCCACCGCGTCACAGCAACAATAAAAGTTGTACATTTCGCTTACATGGCAATTATGTTAAAATATTCAGGCAGCAATGCGATGCGAGAACTGCGCACAGGTGACACATAATGACTGCCAGATGACCTTTAATGTTCCAACCAGACGTGGTTGGTAATGTTAGCTAGAAAAGTTACGTGGAAATTGATGCCAATAAGATCCATGCTGTTTAAATACATTTAAATGTTTTTTATCCAATTAGACGTAAATTTATACAAGTTTCACGGCTTATTGCCAGCTTATGAATCGATGAATAGGGCACACGAACGATAATGTATGGCAAATGTATATATTATAAACAATTGCTGAAGCCTAGAAACCGACAGGAGCAACAGCAATCTACAAACAAATGCGCAATAAAGTCATTAGAAGTCAAGTGCAGCACTCAGCTGGAAATTGTGCTACGAATTACGATTGTCGTTCGCTGCTTTGAATTCGTTTGGCAGCGCCGTGCAACATATGTTTCGCATGAAATTTCATTAAATAAATACAAAACGAAATGGCAACACATCCAGTGCATTCGCCCAACAATTATGGCAGGTGCAGGGAACTGGGTGTGTTATTTTGCGGCCTTCCGCCGGAAATGGCACACTAAAAATGGTAGAAATCGCAAGGTTGTCAGCTTCAGAACAAACAACCGAAACAGGCAAAAATATATATGTATAGTATGTATGTATGTAGATGGCAAAACCTAGAGGACCTGAAACCATTACAAGCTAATGAGATAAAAATGCAAATGCTAGTTGCTAGCTAGCTAGCGTTGGTCCCGTGGGCGTGGCCACTGGCTATTTGTGTGTGAATGTTGTGGCAAATGACTAAATTTACATAAAACCATTGTGCCGGCCAAACGGCGTGAGAAGCGGTTAACCCACCGAAAACTCTCACCTGTCCAGAAAATTAGCCCATCAGTTGAATGCTTAACCAAGTTAGT
0.6708512712468293 TGAAGGACCATGGCACCAATGCTGGCGTTTTCCGCCACCGAGGCAGAGTATTGCTTCGGATCGAAGACGGGACTATTGTCGTTCTCGTCCAGAATTCGAATGAGCAACTGCGACTCCGTGGACTGGGGTGGCTCTCCACGATCTCGGGCTGTGATGTTTAGCAAATAACTTGAGCGCAATTCACGGTCCAAGGCATCGACTACGCGCAACTGTCCATCGGTGGGATTCAGGGAGAAGGGCAGCGGATCCGATTGACCCATGTCCTCATCTCTGGCCTCCTTCATCAGATAATCGATGTATCCGTTGCGGCCCTCGTCATTGTCGACAGCCTTGACAGCGATAACGACCGTATTGATGGCCACATTCTCCATGATCGCCGTTTCGTTTGCGGAAATGAAGACGGGCACTTCGTCGTTGACATCTTTGATGAGTATCGTCACCTGGAAAAAAGGTGCGGATCAGTATTTGGCTAATTGTGTTTCATGGCATTCTATAGATAAAACGGTGAATGTGAGTAGGTTTTTCAAACTGCCACACAATCGATAAAGGAAGCAAACGGGTTTGGCCGTGCCTGAAACTAGTCTTCTATTTAATTAGGGCTTCACGAACTTAACGTTTCAGTCTGACCTGACAGTCTCGTTAACAGCTTTTCTCTTCAACAGCAAGATTAGAACTAAAAGCCGACTTTCAAAAACTCATGGTTCCAGATTTTATATATCCTGGAATCTGGAATCTTACCTTTACAGTCGAGGAGAGCCGCTGCTGCTTTTGATGGGCCAAAAACTCTTGACGTGTTTGTTGGTACTTTCTAGGCGATCGATACTTGAGCTTCAGCTGCGTCTCCTCCAGTTCGCTGAAGGATGCAAATTCATCGGCACAATCTCGGGCGGTAACCGTAAGTGTGTACGTCGATCGGTGTTCCCTGTCCAAGTTGCGGCGAGTGCGTATAGTGCCATTGCTATCGATTCCAAACTCTGAGTCGACATCTCCTGCGGTGATGCTGTACTCAATGAGCCCATTGTTGCCTGTCATAAATAAAGTGTGTGATAAACTAGGGAATCTGCGGGAGGCAACAGCTTCAAATTACCCGAATCTATATCCTTTGCTGACACAGTGACTACCTCTGTGGCGATGGGCACATTCTCGAACACCTCGCTCGAATAGCTCATGGGATCGAAAATAGGTGCATTATCGTTCAGATCGAGGACATTGCAGTAGACCGTTATGGTGGTGGACAAGCTGGGTTGGCCATTATCCTGCGCCTGAACAATCAGGATATAGTGCTGAACCTAATGAATAGAATGAAGTAAGTAGAGTTGAACTCCGATTATATCATATCATCTTCCCACCTCTTCGTAATCCAGTCGCGCAGTTAGGGTCAGCATTCCTGTTTGTGGATTCAGGCTGAAGACATCGTTGGCCCAATCCGAGACCACGCCGTAGGACAATTGGGCATTTTGGCCCAGATCGGCATCCCTGGCCACAATCTGACCCACTTGGTAGCCCCGTTGGGCATTTTCCGGTATGTCAAAGGAGTACACGGTATCCTCGAATAAGGGTGGATTATCATTGGTATCGCTCACCTGATGGGGAGTTTAAAGAATAATTTAAGAAAATACTCGATGCTGTATCTAAAATGGTTAGAAGATTTCTCACCTGTATAGTGGCATATGCCTCTGTGTACTGCACTCCGTCGGATACGCGAATCCTTAGCTCATACTTGCTCTTTGTCTCCCGATCGAGGGTATCGTTGAGGATCAGTTTTCCAGTGGACGGTTCCAGCAGGAACTTGCCATCGTGCCCATCCATCAGAAGGAACGTCACCGAACCAAGCGTATCCGGATCGTGGGCTCGCAGCGTAGAGATGGTGTGTCCAATCTGTAGATCCTCGCTGACATTGTAGACGAACGGTGTGTCGAGGAACTGCGGTGGACTATCGTTCTTGTCGAGAACGGTTACTCTGACCTGCAGAAAAGATACATACCAAAGTATTGCGTTGCGTCAATAACACTGACCCACTTGGCAGGAGGAGGAACCACAAACTGGC
0.5125732783440142 AGCTGTAGTCGTGCACAACCCGAGGACCACTCAGCACCAAGGCCGGACTGTCTTGGATAACAAAGCTATGGGCATCCAGCAGTCGCATGGTGGCACTGCAGACTCCGCCATTTTCACAAACATCCGGTTCACTGCAGGGTTCATAGCCCACAATCACCTCCTTTTGCAGGAGTTCCGAAAACGCTGAACGCTTCTCTCGCAAGCGTTCAATCAAATATTTGGGTTGTTGGTAACTGGTCTTCGCCAATCTGACTGCCATTAGCAGTTGGAGATTGGTGGAATTGCCACTGCCACCCTCTAGAAGACTATATAGAATGACCTCATCCTCGTTACTCATTCTAGACTTAATCATCTCCAGAATTGGTCGATAGTGATTAGCCAAGAAGTGGTAAGCTGTCATATTTCGTACCATGATGGACACTGAGTTGGCCAATGTTTCGTTGTTAAAACTCTGGAAGGCGACACTAACTTTGGAGCTAACATCCCCATGTTTTCCGTCATTTCCCGTATAGCTGAAAACCGAAGCTATTGGCGTCGTATGTGAGGTGGTGATCAGATCACAGGCCCGAGGAATAGCCAACTGCAGTTGACTCTGGGCGGGATTCTTCTGGAGGCGACAACGATAATCGCCCACGATGTCAATATCATTGGGACGCACATCGGCCAGCTTCACATTCGAAGGCAGATCGCCGTTGAACAGACTGACTGCTATGTGCAAGCTCCTCGTGGTCGATGGATTATCGTTCTGATCCAATACAGTGATCGTGAGCAGGTGCTGGGACTTTTGTTTGGGCTTTCCACTGTCCTCGACTTCAATTATGGCCTCTAGAATGGGTGTCATTTCGCGATCGAAACTGGTTGTGGACCTAACCACACCAGAGTTTCTGTCCACACTTAGCCAGGACTTGTGCTTACCACCAATCAACTGATAGGTGAAGGGTCCTCCATTGCGCGGTAGATCGGGATCACTGGCTATTAGTGTCATAATGGAAGTGCCAGCCGGTTCATTCTCGGAGATATAACCATTCAGACCCTCAGGTGTGAATGTGGGTCCATTATCGTTCA
0.7759085284430469 CAAAGAACAAGTAACTAGGAGGAAGTAAACAAGTCACGGGCATAAAATTAAATGGTCTGAACTAGGGTTACTTTTATACACCACCACAATAATGCCATACTTATCTTAATCCAAAACCATTCCGGCAATCTAAAGATCACTTGCCAAAGGAAGTCAAAGGCACACCTAAATGAAATCCGCCAAATCGAATTGATACCTAAGAACGTCTGGGCCAAGACATGCAGAATCTTGTGAAATTCTCCTACCTGTTTGTTTCTGAATCTCAGTGCCTGGTACCGCCACCATGATCGGATGACTCACCCGACTTTGCCGAACACGTTTGCGCCTGTCAAAGCCTGGGAAAAAGGAGCAAGATCGAACCCATGGGGAAACTGCCGCGGTCTGGAATCTTTGTTAATATTGTGGGTGCAAAGGAGAGGGGTTACCAATGCGTAGAAGACTTCAAATTCAATGCCTGGCTCCAAGGAATTGCGTTTATCGTTTGGCCAAACCTGTTTTGGCATTCCACATTCCCCCGCACTAGAGCGAGTTCGTTGCCTAAGTCTTTTGTTCGAAGCGCCGCAGAGTTCATTGCCTTTATAGGTAAACAAAATGCATTTGTGTATTAAGCTATATTTGTAGACTCCGGTAGGTGATAGGCCAGCCATCATGAGTGTGCACTGGGTTGTTAATTAACGGGGGAGAAGCTGGGATTGTCAATTTGCATAAAGCTGGAATGCACAATT
0.7740648045653555 ATGTTTGGACAACTCTTTTCATTTAAGTGCTTTAGCCCAGTCTCTTTGCTTGTAGCGTTAAGCGTAAAGCATCTAACCATAAGGTTAAGAAGTCGCAGGACTTGAACTTGGCTTGTAACTAAGCTTTGGGAAGGATAGTTGACCATATCAATAGGCGAAAGCTTGATACGGCTACAGGCTGTTAATTTCTCAGACCTATGTACACTTCCACAAACCTTGCGAGGAAACAGATTGACAAGGCCCAAAGGACTAATCAGGAGTACGGGGCTTTGGTCAATACATTTCGTCGGGCAAATGGGCTTGTGTGCTTTATCGCTGATATATTTATGTTTTTTTTTTTTTTGTAAGGGGACAGACAATAAGACAGAGCTAGCAAAAGGTGAGAGCGTGTGTGAGAAAGAGCAGGAAACAGAGATATTCGAGACGGAAACGTAAGACACTTTCACTCGACAGAGAGCTGAGTGACAGAGAGTACTTTTGGTGCTTTACCTTTTTGACATCCATTCTTGGCATCGGCTATAAATCCAGCTGGGCAGAATTTACATATCGGCTTGTGATCCTCGACAATGCATGGCGAGTTGGGTGCGCATGTGGCAAACTCGCACGGATCGACGCACTTGAGCTTCCGGCAAGCCTGGCTAGCCGGACAGCCGGCGTCGCGCAGGCAAATCGATATGGATGGCTGGCAGTCGCGCATGCAAATGCAGACTGGCTTGTGGTTCTGCACCTCGCAGGACTTGTTCTCGGCACAGATTGCGGCTCGGCCCAGGGGCACGATGCAGGGATTGCGGCACTTGCCATCGGAGCAGGCCATGTTCGAGGCGCAGTCATCGTCGCGATAGCACTCCCGCTTGTCCGGGGCGCACGTCAGTTCTCCGTACTCATTCACTATGAAGCCCGATTTGCAGATACAAACGGGCTGGTGGCGTCGCGTCTCGCACTTCTTGTTGCTCTCGCAGATGAAGAGCGGATTGTTGCACGGATCTGTGCATTGGCCGTACTGGCCGCACTGCAATGTCTCTGGACACTCGGAGTCTGTGGAGCATGGGATCTGCTCCTTGGTCTTTGGATCCGTGTCCTCGGCCACGCACTTGGGATCAGACTTACACTCGATCTCTGGCCGACCGATGTGGCAACTGGGGCAGGAGCAGCGCGGTCGATGCAGTACGGTTTTGCAGAGAGCATTCAAACCACACACGCCACGCATTGTACAAGGATCGCTGCAGTGTCCTTGGAGGCATGACTTTTCACTGGGACAATCCGTATCTGAGTAGCATTGTTCGGTGTCTATAACATTATATCCAGGGCAGGGAAGAACGAGAGAGAGATAGACAGGAGTTGTTTGGTTGTTTAAATGTTAATCGTTGGTGGGTGCATTCAACTATTCGGTGGCATAAACGGTACAGTACGCTACTAAATAGATATATCTTTTTGTGGGTATGGAAACACATAGAAACGAAAGTGCGACATTGAAATCGTCGAGTCAAAGTTTGGACTTGAGCTTGATGGACAAAGCCTATAGTCTATATAGTCTGGTGGAAGATTCAGATTCAGGGCTCGTTGGGATATTGCATTAGAGAGTGTAAACACAAAATTTTGGAAACATGAAGTATAGGTGACTCGGATAAGACTTAAGGCTAAACGTTTCTAAAAACAAAAGGAGAAAACTTAAACGACAAAATATATAAAAAGTATTTTTCAGTTCTTTTTTATAATGGTTGATTTG
0.7863207214401504 AGAAACCGCATCTGTAATCAGCCGCCAAGGGTTCCTCGAAATTCGCTTTGCGAGGCTATTCCACCGTGTCGTATCATTAATAACTATGAAAATAGGCTATAACATACATATATAGAGACTATGAGATACAAGTGTTCCCAATCTTTACAATCTTTCCACTTAGATTATTTTAAAGTATTCATATTTCTAATGATTAACACCTGAGCTAAGGAATATCTTGTTTCTTGGCTACCCTTTCCTTCTGTGCCATATATCCTTCTATCCTTTATCTGTTGTCTTAGTGTTCTGCTAATCTTCCACCTCCCGTTGATCCTTACAAATCCTTTTGGAAACCTTATCATTCAATTACATTTTACAGTCCCATCGATTTTGGTTACTTCTTTTGATCTCAGAAGAAGTAATTTTACCTGAGTTCAACCTTGCCTTATTTGGTGATCCTTCGATATGCGAAAAGTCCTTGTTCCTAGAAATTTGCCATGCGAATTCAGGGGAAGTCAGCTCATGACCAATTCATGATGCCCTTCCGGCCAGGGTATTAACATTTAACGCATCGCTGCCATATGGCAGCTCAATAATTAGGCCGGAAAAAAACCCAAACGTAGCCAAAATAAATTGGCTGACAAGTGCGATAGCATGCCACAGGTAAGGAAGCATGCCGCAGTCGTGGGCGGGGTAGTCTACCCACCATATAGAGAAGAAAGGGCCCGGGATTGGAATGCGAATGGCACCTGCGGTGTTGCGTCTGGGTTTCCCATCCCCGCGGGGATGACGCCGTAAAATGTCAACGATATTTTTATCCATCGAATCAACAGAAAGTGTCATAGCAGATCCATCGCTATAAGAAACGCAACATGAAAAGTTTGACAGGGAATATATTTAAAGTGGAAATTTCAACACTAGTAGTTTGGATTACTTTTCTCCAATTCACCAATA
0.4065845051669623 CCTGAACGAAAAAGTTACTATACCTTTATAAAAGCACCTAACTTAGACGTAACCCAAATATGTAGATTTGTTGTAACTTAGTTCCTTTTACTAATTGATATTAACCTTTGTAAAAGCCCAGTAATCAGAGACTACTAATGGTAGTGATAATAATAAAATCTATATTAACCAACTTGCACGTTTTAATACCGAGCTGATCTATATCCCCAGCGTATACGTAGTTTTCTTCGCAGATTTTTCACACACGAGAGCACAAAACACAAGCACACAGAATCACGCATATCGAGCACTTTTCCTGCCACCCTCCCCCCACACGACACAGTGCCGCACAAAAGTGTGTGTACACGCAATTACCGGGTTCCCAAATGCAGAAAATGTCCATTATGTGTACCGCACGTATATACGCGTATGAGTTCATTGCCTCGCCTACCGCCCTGCTATCAGGAATTTGCGCGCAGAGTACTCCCTGCCACAGCTATAAATACCCTACCCAACCGTTCAGATGCGATCCCATCCCATACGATACGATCCGATACGATCCGATCCATGCGGTGCAGGCCGTCTTATTTGCTCGAAAATAGTCTCCCGTTCATTTTAGAATTTTTAGTCTGCAACTTGCAATGAACGCGTTGGGTTTGACTGCGAATCCCGAAGAAGTATTTCTTTCAAGAATCTAAATATTTTGTTAGTGCCAATGTGTGTGTGTAGTGCATTAAGAGTAGGTAAACAAGATCTGAAAAGAGTTATTTCGAGGATTATTCTGAGTTTGTAATATACAAGTATAACGAAAGAAAGTAAGTCTCTTTACCATTGCATTTAATTTTCCAACATTACCTAAAGACAGGCAGTAAGAACCGCATATTCTGGTACTTTTGTCTATCCGCC
0.7983380829952635 TCTTGTGTGGTTTGTTTTTAAATATTTAAATATATCATTTATTTGTTTATGTGTGTTGTTTGTTTTGTTGCCTGTTTGTTTACGAAGCGGTATATAAATTATTCATACGTTCTATACAACATTTCCTCTTCCATTAACGTGTTTTCTGTGCTTTCTGGGCTTATTGCAGATTGCAGATTGCAGTTGGTTGTGGTTGTGGCTGTCCGTCCGGTCGGTCCAAAGTGTTTAAACAAAGTCCAAAGGATGGTGTGGTATGCAATTATGGTTTCGGGTTCTATATACGTTAGTTTAGCGGATCTATATGAATATATGCAGAGTTATGCTAGAGGGTTGGGTTTTACATACGCTTATGCTTTGTTTTGCCTTGC
0.2584311259877825 GAATTTGTGTATTTCTATTATTAACAACCTGATTTTTGCAGCTCTTAAGTTACGTATTAACAAAGTAAAAACCTGTAAAATCCGAGGCTTCTGTTCACGAAACTCATCCCGTTTATTCCTTTGTTCTTGTTCTCTCCTATATCATGTCTCATCCATCCAACATCGCGCACCTCGCTAACCAATAATAAACTGAACAAAAAAAAAAACCTATGAAATACTAGGCCCAATCCGACATCGAGTGGAAATTTGGCTTGTCCAAGCTTATACGCAATATGCATCGCACCACAACAGCGCCATCGCCGCTTAATTTAGTTACCACCTGGTTTATGTGGATCGTCGAGAAGGTCAAGGTAAAATCTCAGGTGACGAAGGTCGCCTTCCAGCCGCTGTCGCTGTGTCTCTCTCTCTCTATCCGTATCCTGTATCCTGTATCTTATACCTGTTTCCATATCTGTTGACTATATAAAGTGCAACTACCAGAACCGATCCTGAACGGGTGTAGTTTGCTGACCTTTTCCCCAACCCATTTAAAGCAATTTGGCAACAACCGCAATGAGTTTGAACACAGTGAATGCTTTAAGTGTGTTGCCCACATAAGAAAATCACCTTGTCACCTTGCACTTTCTCTGTAACTTCAAAATAGGAGATCGAAATATAGGTATGTAAATGTTTCGATCCCCTACACTGTATGGCACTTTATGTCCAGCACTTGGCACCCGATTGCTTTCGATGTAATGAACATTTGCTGACTGCGTTTATGTTGTGTCTCTTGTCTTGTATGTGATCTATGTCCCGTGTCTAATGCGCCTTGATCTAACCCACAAAACCTGCAAACAAATCCTGCAAACCGCAATTCAAAAAACACGCGCCTCAGGCACGCATGAAGAAAAAGAAGCGTCCAAGTCTGGTTCAGATGATGGGAATACGTCAGGCCAGTCCGCGTACCAAAGCCGGCGCCAAGTGGCTGTCGAAGATCAAGAAAGGTGAGACATGTATGTATCGCTGCTGGGCTACTCCGACCAGGATCCGTCCATATCCTGGAAAACACAACCCATCCATCCGAGGGGTTTTGTAGCTAACAGCGTGTCAGCCCAAGTGTAACTCCTAACTTTCCTTCAACTCAACTCTTTTCTCTGGAACAATTGGCTCGCTCTAGCTCGAAATTATTTCCTCAACCTTTCGCCTTTCCAGTGCACAAAGGTAGAAACGCCATGGATCTCTATAAATCCGACATTATATTGAATTTGAGGTAGAAGTCGTGATCTTTGGCGTTTGTACCTCAGTGCATCTTGCTGTATAGTGGAATCCAAAAGCTAATGATATTACCTCGAATTCCCAGACTCAGTGGCCCTGTCGCAGGTCCATCTATCGCCTCTGGGATCACAGGCGAGCTTCTCGCAGGCCAATCAGAATCGCATCGAGAACGTGGCCGACTGGGAGGCGATTGCCAAAAAGTACCGGGCACTGGTTGGCGACGAGGAGGGTGGATCGCTCAAGGACTCGGATGCGG
0.6876158475446198 CAGTTGCCCATAAATTGGCTCGCCAAATGGTTTTTGCAGTGTCAACAAAAATTTCATGCCATTTGAGTGAATGTGTGGGGTCTATTTCCTCCAAAAGGGAAACTGTGCAAAAAAAAAGGAAACATTTGTGTACCTGCGCAGGAAGAAAATGAGAAAATCAGAGCTATGGGCGTTGCTGTTGTCAGCGGGAGAATGGGAACAAGTTCAATCCAAATGACCACGGGTTGTCCACACCTTTGCTCCCACACACCTGACCACACGCACACAGGTCACACATATAGATAGATATATATACACCTTAATGATATTGTAAAAATCACACCTCGGAGTCGCAGACATCAGGGCGGTCCCCGATGCCCGCCTTTGGCCTTTTTGGCCGGAGGTTATGTCACCGGGTTTTGGAGGGACATTAAACCACAGGATGTAGACAAGAGGGATACACAGGTTTGTGACTCAAAAAATGAAGGAAGAGTTTCGCTTTTGTCTTCATTGTCTGCACTTGTCAAAGCAGGGAGAATCGAAAAGGAAAATA
0.9912219074190949 CGAACTGCAGCGGCAACAAAGACAGCGACACTTGCCACCAAAAATTGCATATATTTGGATGCCCCCTTTTTCGGGGGAAAATTCACGATATCAGACTTTGGAGGACAGGACTTGGAGTTTTGGGTGGGCTATGTGTTTGGTGGGTTCACTGCGGTTTAGAGACAGCCTGCGGGTATAACATCTTCATTCGCCGCGTACACTTAAACGAAAAGTGAGAGCACATCACGGTATTTAATATATATACTTTTAGTAACTTGCAGTTGATATACATTTAACATAATAATTATTCTAATTTCCTTGGAAGTACGAAAGAATTGGTATAACATTTATGAAACTTAAGTCTTTTTAAGGCTTTTTTGTTTTGAGTGCATTGTCGCCACATTCTGCGGCGTTTCTCTGGTCGCTGGCTCGTTGGGTTAACGTTAATTTGCACAATTTTTGAGTTATGCCAATCGATTTCTAATGGGCCTCGCCTTGTATGCGATACACAATCCACCTCCACCGCCATCGGGAAAACTGAACTCTTGCCATGGCTGTCGCGCGGAAAATGCCGGGACACTTGTGTGGGAGAGTTAGCTTCATTTGTAGTCCTAAACTGCCAGGATTTCACATCTCCTGACTTGGGCTTCCAATGATGGTGGGTGGCATCATTGATGAGCAACAAAGTGTTTCGCAGTGATTTCATATTTGCCAAGCTGACATTGATGTGGTAGACACCTGCCCACTTTTTGTGGTAAACACTAATTGATGATTTAAGGTAGACACTTTGTTATTTCTTATGGGCTATGAGAGATCATATAATTATAATTTATTGCAAAGAACGAATTGTACTAAAAATTATTATCAAATAAATTACTAAAAAGTGAGCTTTAGTGTCGGGCTTAACAAAATCATGGGAAAATGAGTTTCACCACAAGCAGAACCCCTCATTATTGGCATAAAACATCCTCTTCTTTTTTTTTGCGATAACCAATGAATATGTCGTATGTCGTCTGTCGAAAATTGCATATGCAATACGAATTTCAGCCCATAAATATGCAAAGGTTTTTGCGCAATTATCGCAGACGAGGCCTAAACCACATGCAAACACATTTATTTATGACATTATTGCATAAAATGGTATAAAAATAAATTGGATATATACAAATGAAGGTGTCCTACCCCCAAATTATTTTAGGCACCGCTGAAATTGTGCAGCTGCGTTTGTGGTTGGCAAAAATTGGCTGGGGGTTTATTGGACTTGGAATGGGGCAGACGCCATCAAATGTTGTCATTAAATTCAGCGGATTGCCGCAGGAAGAGAGAGAGATGAATAAAATGAACGGTCATAACCTGGCTGGAAAACCCACAGAAATTGCAGTATATATTTTATTCATGCAGCGGAAAAATTGCCACGAAATATTGTTTGTTTATTCGCGTTTTCCAGGCTCTGTCATTGCGGTGGAGTATTTGTGTATATAAATGCATATGCATATATATGTATGTATATGTATACAGACGGCTCTCGATTCCTGGTACGAATTCAATTGCACTTGCATTGCCTACTTATGGGCGAATTATGTGTTGGTTTTGGTCCGAAGGACCCTTTTTCGCGGCCATGCACATGAAATGCATTGCGTAATAACTGTTAATGCTTAACATCGACAGCATTGCAACAACTGCAATAATTGCAAAAACTGCATTGTTTGGCTGCTGCATTTGCAAATGACACAAAAGCCAGCCCGAAATTTAAATCATTTTGGGGTGGTGGGCATGGGGCCATTCGGGTGTTTTGTCTATCTGTCCGCAGTTTGCAATTTGGTTTATTTTTCTTTGGCAGGTCCCATATAGACGTTGCTCTATTCGGTCGCCAGTTGATAATGGAAGCCTCGTTATGCCCATCTCATCTCATTTTGGCCATCTGGACGTGTTGGTTTGAGTTTCTGCAATTGGCTAGTGCCGTTTTCGCCGCTAAAATATGCCTGCGTTTTATCTAACGCTTTGTTTGTCCGACAGTGACTACTCGCTATGATAGT
0.8539655881543018 TCCACAGTTATATTGCATGTTAACTGTTGCAAATAACTTACAGCCAGTAACTCGGAAAATTTGTGAAGGAGGGCCGCACAAATGTGCACATAACTCTTTCCAAACATCTTAAAGGACAAAGGACCAAGTTTCAGTACCTAGCTACAAATTTTAACAGTCGCTCACACTTTCCAAAATCCAAACATCATGTAGTTGGCTTATGATATCACTTTAAAACACAAAACAAGCTGCACAGCATGCACTTCGTGTTTTAAAATATTTAGCATGCCATATGGCACTTTCGCAGGGTCAGCCAACAAGGGAATATTAAGGATTCGAATAGCGGGTTGGGCAAAAAGGACCACAGCCTCAGCTTCTGCCAACTTGTATGTCCGGAAGGCAATATCTGAATTCAGGTAACTGCGACGCTCAACCAAACGCCGCGCACAATGCAAAATTTATTAGGTTTGGCAAGGGAAAACCGAAGGATAGCAAAGTGGAAACTCAGAGAGAGAGAAAGAGAGATGCCCTAGAATTGGAAAAGAAATCCAGCTATGCTACTGCAAATGAAGATTACAAAAATAACCAATCAATATTCGGAACTGGAATATGATTAATATTTTCGTTTTTACTGCTATCTTAATTAAAAGCTGGAACAGAACTACAAATGCACAAGCAAACCCGATTTTGTTAATATTTACATTTT
1 TCTCCTTATACTCTCTCTCTTCCGTCCGCTCTCTTCGATTGTCGGCGTCGTTGCGCTTGCGCGCCACTTTTCGCTGACCAGCTGCGTTTCGGTTTCTCGGCCGCCAGGCCAGAAGAAAGTTCCCAGAAAGAAGGTCGCTCTTCGAGCGCTCTTGGCGAATTCCAGCTGCTATGCGTTTTTAAGGTCATCTGTTCCAAATGCGATCTACCTACATTGCTCATTCGGCACTAATCCATTTTGCAGGCTCTGCAAAAGAGGCTCTATATACATATTAATATAGTTCATTCTCAACTCCTGTTTTGTGTTCTGGCACTTGCACCTGCCTATCGATGTATAGGCAGGGATTAGTGGCCAGCTCGACCCTGAAATGGCACATCAGCTACCTGATGA
1 TTGGCTTGTTATTATTTTGACACTTGCCAAACAATTGGCATGCGAAATGAAAACCCAGCTGCCTCCAAGGAGCAACAAAAAGAACAGAACGACGTCGGACTGAGGGAAAATTTTATTATGGAATTTCGTAAATTAAATATTTACACGACAGCTGTGCGAAGGTCTTAAGCCTGTTCGGGCGCCATTGGGAAGTTTATATACATGGCTTACCCTCGTTGATTCAATATTTTGCTTGGGCAATAATTGAATTTAATAGATGACTGGGACATTCCTTTGGAAATGTGGTTGTGAAGAGGCGGTAGTGCAGTTATATAGTCAGTTTTCTTTCCGTTACGATTAGCTCTTTAAGGGCAATAATTTAATTACCCCAAGAAGTCAGCTAACCAAAGTCAACAGCTAAATTGGGCGCTGGAAAATAAAAACAAAAGTAAATACTTCACAAGCAAGAAAAAAAAGAAAAAAGCGAAGGTGCGGAGCGAAAACCATTTGAAACGAGCAACGTAAACTCGCTGAATGTTGTGTCACTAATTCAGGTAATTTGTCACTTTATTTACATTTTAAATGAATGCCGCGCTGTTTGTTGTTGCTGGCAGAGAATGGTGTGGTGGCTGGGGTGTTGGTGCTTCTGGTAAGGACAGTAAGTAACCGAGAGAAAACCAATTTCCATTTTCATTTTGCGGGAAACGCAGCAAACGGAAGACAAAAACAAATGAGTAGCTGACGTGCGGGCCAAAGCACGAAACACGGCATACAGAAGCAGAAAAAACCCTTTTCCTGCTTCGCCGCCTTCTTGGCCAAAGGACCTTTCACCACCCTCCTACTCCTCAACCAACCAACACTTGCACACACACACACACACACACAGAGAGAGACAAAGTGTCGAAGCCAAAGGACAGGCGAGTAAAAAGGACTCGGCCACGACCAAGAAATGCGATTAAAATTTGAACATTGAGGCAAAAGGCAAAAGACGCTTTTGTGGCAACCGTCACAGTCGTGAGTCGAAGGATCCTGTCCTAATTTGAATGAAGTGGCAACATTGATAATAGCCCGCTTCTGCCGGAGAAGTCCTTATGCCGTCTCTCGCAGGTATCCTTTTTTTTTGGTACTAAAAGAACCAATACCTCAGTAAACACTTAAAAAGACCTTTGCAGAGGTCTTATCAACCTGCAGTAATAACTAAAAAAATTAAAATTGTAATAAACACTTTGTATTGCTGCTAATTGTGGGTATTGTTCTTTAAATATGTGTTAT
0.9189905077196536 CCAGACCCAAATCCAGCCGTGACTGCCGATGTGAGGACCGTTTAATAAGGCACGGATTATCGCCCGGCATTATTTCAATCACATACCAAGTGTCGAGTATTTAGCAGACAAGGAGCACGCGCTCGCCTCCACTGCCCGTTTCATTTCCAGGGTACCATCCCTGGTCCTGTCAGACTGAGGCGTCGGTTGACGTCGGGAGCGGGGGAGCGGGGGCCTTCCTAAAAAGCCAATAAAAATACTTTGTTTGACAAATAAAAGCCACAGTGAGAGAGGGGCTTTGGCGATAAAACGCTTCAAGATATCGGGCGAAGCGCCGAGGTTCGTTTGTTCACAAGGCCTGGCAGGTCGCACATGTGTGGATGTGCCGGCGGTTCGGGGTTCTGCAGCTTGTGCCGGGTCTTCACATCGTTTGACTTTAAGAGGCAGTTAAAGTGCCCCGTGACCGTTGGGTGTCTGTGTTTCTGTCTCTGTCTCTGCTTGGGCGGCACATCCGGTGGACTGGAGGTCGTCGTCGGACAGCAGAAACGTATGCTACATTCTGGGGGTATCTAGGAAATCAGCTGCCATATTGTCGAGTAGGGTCTACTAGCACACCTGCAGCACAATGAGTATGGTAATATAGGTGATACCCAGTAAAATTACCATCTCATTCTGAAGGAAGCAGGATTTTTTCCTCAAGAGGCTCAAATCTGATTTTGCTCGAAGCATTCCGTTTCCGGTTTGTGTATAGGGTATTGTCTGGCCCATAGGTTGTTTGGCCTTTGGCCTTTTGGAACCAAGACTACCGAACCAAGCAGATCTTGTTGTTGATGCTGTCGACAACTGTCCTTCGTTTTTCTTTGCCCTCTGTTTGACAATAATCAACGCTGACGACGTTGCCGTCTCACATGTTTGCCAACATGGAGCGGCCATCACGGATATGTTTATGCCTGGGCGTTGAGTTTGTGCTGCCGCTGCCGAGTATTGGTTCATGTTGTTTTTTCCCGCACATATTTGCTCTTAGATAGATGACCCCGTGGCACTGCTCCTTCGACTTCTCTGATTCCTTCGTCATCCGACATCCAACATTTAAAATCCGGCTTTTCAACGGATTTTTAAAGTTATGCGGCGAGACATTACCATCAGCCGGCTGCGTGACTTTGGCCCCTGTTGTCGGCTTCTTTTATTTTTGGCGCTGGTTAAAACTAATTAAAATTGTGCCGCGTTATTTGGGCCGAGAGAAAATATGCAAACGAGCGGTAGCAGTAGCCGAGTGACGAGCATAAA
0.8114191317143455 CGCCACGCATCCGGTCCGGCGTGCCACTGATGTTTGCTCATATCCTGCAATCAGTGGACACAAGCGCAGCCTAGTCAATCGCACACACTCACATGCACACATGTACACACTCACGCATACACCCAGTGGAGTCCTGATTACAGCTGCCATATTAATCAACTGACCAAAACATACAAATCGCCGATAGCCCATCGTTTATGAATCGCCACAGTACTGCGTTCGAAAATTGTTCAGCCCAACGTTTGTGTGTGTGTGTTAGTTAGCAATTAGCAGATCCTCGTCCTTGCAGGACTATTGCGTTTGCAAACAAAAATCGTCGCTTGACTGCTACAAATTTCAATAAATGATTGCTTACTTTCGAGTGCTGAATTATTTGTGGCACTTTGGTACGAAAATTTAGATATCTTGTTGGGCTCTATGATTTCAAAAGCGATGTAATATTATGCTATGTTTTTCACACTGCAGTTGAGCATCCTGTTAAATATGTTTATATGCAATATTTCCACTGTTTGGCTTATAAAAGTATATGTATCAAATGCATAATACATTTTATTACTAGATATTTAACCCATTTATTAATATGCT
0.9677030706160842 ACTCATATGATTAAAAAATAAGTTACCTTACTTTACGTTAAGGGAATAATACAAAGAGGAATCAGAAGAATTCATTAAGTTTCAGTAATGGGTGTTACCAGTCACGACAGACGGCGTTGCCGAGTCTTCTCCTTCGAAAAATAACCTAAGCCCAAATCCTACTATGTGCAGCATATGTGTCCTTGCATTTCCATGCGATGTCTGTGCCTGTGTATGTTTCTGTGTCTGCATGTGTCCCTTGTGTCTGTATGTGTGTGTGTTGCCACTGTGGTACTTTGGGCCCAAACTGTTGCACGGACTGCCTGCTGATTCTCCCCGTCCATTTCACTTCATCGTCCGTTGCCATTTGTTTGCGCACATATTTTTCAAGTTTTGCCACAAAAACTGATTTATGCGAATGGACCGAGGCACGCCCATTTCCCATTTCCCATTGCCCATTGCCCATGCCCATTCGACCCTGCAGGAGGCAATGAAGGCTTCTGTGGAATAGGATGTGGATGTGGATGTGTGCCAGTGCCGTTCGGTAGCCGGATGATGTTGATTTGTCAACTTGAAAGGCGGAACTTGTTCCCAAATTCCAGCACTTCCTTGTAGTTTGTCCATTCTTTTTAAGGATCTTTATAATTATATTGGTTTTTAATATTGTTTGTTAAGTTATTTCCAGAGTTTTGGATTCGAACATGATGGATCACGCATATCCATGTAGTTCTCAAAAGTAGAGTAGGGTCGAAAAGGGACTAAAAAAAAACTAATATCCGCCGACAGATTTGGCAAATGAAATGAAAAATGCAAAGGACATGGTAGGACCATAGCGAAGACTTACCCACTACTTTGACAAATCCATACTGGGTCTTGGCCGTAACCGTATTGATTTGGCACATGTATCGGCCCCTGTCCTCCTCCTGGACATTGTTGATATGCAGGAACCAGGTGCGGTGCTTGTCATGCTTATCGTGGGTGACACTAATCCTTGGATTACGCGTTATCACGTGGTTGTGAACTGTGAGAATGGCCGACTGCTCGAAGTGCATCCACGCGACCTGAAAGACAGAATACGTTAATTATTCAAGGCGTTGCTATTGACCAACTTATGATGGATGTCAACCAAATGCGGCAACATGTACATATGTGTGGGTCATTTGACGACAAGCTGCCAACGCCTTTATTGGCCAAACTTGGGGCCATCATCATCAATTTCAATGAAGGATTAACGACCGCATTTGGTACTAAACTTTTTCCACATGTCACAACCGATGCGCAGACCATCGTGAACCTTCTCCTCCTCCAGCGCTATAGGCTAAGCATCATACTCCCCCATTCATCCACACGCTTATGCAACACCACCAATAGTTTTCTTTTTCCGCCCACCAGATGGCGGGGCAGGAGTCGAGAACAACAAGCAATTTATGCAAATATAAGCACCCAACGCATTGGCTGAGGAGACATGGCGAGCGCGGGCAACAAAGAAGGTCGATGCCATTTCAATGATAAATTCCGTAGAAGTGTCAGGGAATCCATGGTAATGGTGGGCGCTGCTCGCCCAGTGGCGTCGGCGAAACGGGGATTGAATGAAATATCCCGAAACGCTGCACTATCAACATCCCCCGAAGGACGCCGCAGGCAGGAGGAGCCAAGAAGGATTGTGACTGGCAAACGTGGACTGATATCGGTTAATTTTTCAACGTCTGCTCGGGAAACGTGCAGCCCGATAGACGATGAGCGGGAATCGGAGACACGGCGACGAGGAAGTCGCCATCAAATTTGCTTATTTTACATTTCGGCGCCGTTGACTTTGGCATATTA
0.6367900770307353 CTCGATTTAGCCACAAACGGGCTGAAAGACGCTTTCAAGAAGCTTCTCAAAAGTAAGCTGTGAATTTGAAAAGGGGGATTTGAGACAAATAGTTTGTCATAGTTTAAAGTTAAGCTAAACCGTTTTTATTGGCAAATCCCCTTGTAATTCATTTTACTTATTCAACAATGATGTTTAGCTCTAATTGACAACCATTAGATGTTGCCCCACTGTCAATGTTTTGGTGATCTATTCCAAATTATTCACCAAATTGGTGGCCAGGAAAGAGTTGGGCACTATATTTAGTGTAGTGATGGCTATCTATAGACGCACGTTGGCTCAAAATATGCTGTCGAAAGTGACAATTGATTGCGTACAGACGTTTCGCATTTGACTGGGCTATTTCTGTATCTGCCACCATTCAAATTTAGACCAGGAGACAACAATGAGTCACAAGGCTGGAGAGAGCAGACAAAGCAAATCCCTCTTAAAATGGCCACAGCAAGGTACAAATATTTGTAATCATTAGAGGGCATTAGGATCGGAATCCAGCGGAAAGGAAGGGACATTTATCCATCCATCAGGCAGGTTGCTCTAATTTTCCGTTCCACGTCTTCATCTGCTGACAGGCGACATAAAACAGGATAAAAGGACTAAGCAGCGTCGCCAGTTGAGCGGATTATGCGAGCCTCTGGTGAAACTGGAACAAAAAGCAGGTCCTTCGAGCAGGAGCCTAAGGGATAAACCGCCTCCTCCTCCTCCTACCCTCTCCATTTCTCGCCCTTTTTCCAGTGCTGTAATTCAAGAATGATGCATGCAAATTTATGCCATACATTCTGCGGTTTAGACTTCGGATATGACGTCACAGCAAGGACTCACGGCTGATGTCAATGGAATT
1 AAAGGCAGCTTATTCACAGGTTAAACGAAACCCGTACCCTGGTTGGGTAATGGATCTCCACTTGTACCTTTAAGGTACTGGAGTGGTAACTACGTTTTATTGACCAATCACGGCAGTTTCGGAGGTGTCTTAGCCGACCGGAAGTGCTGAAGCAGGAACCATCAGCGTGGAACCATTCAGCTTATTGGCCAGGGCGGTACGGGGGCTCATCATCTGGGCCTGGGAGAGCTGCAGCTCACTGGTGGCCTGCTTCAGAGCCGCCACGATGGGCTCTCCTCGATGGAGTGCCTGCACGGATATGCTAATGGGCAACCTCGGACCATTCGACTTCCGGCCAAAGGTCCGGCCAATGGCGTGCATGCCTGTGCTGTCGATCTCGGATTTAGTGCGGGTTAGGCGGCGCGTAGGCAAACTGGGCGGAGCAATCAAGGGTGGTCCTTTAGAGCGGGCCGCCAAATTGGAGGAACCGCCTGCTGTGGCCGCAATGTTGCGCAAACTGCGCCATTTCCGTTCGCTTATCGCCGTGGCCGTGGCTGAGTTAGCCACTTCCGGTCGCGCATCCTGCATATTCTCATTTCCGTTGGACGAATAGTTCTTGATCAGGATCTTGAACTTTTTCTCCGTGCTCTCCACGGGATTAGTGGAACTCAATCGAGGGCCACAGCTACGCTGGCGTTTAGGTGGCAAGGCGGTGCTCTGTACCTGCTCACCCGACAGAGATCCCCCGGTATTCCTTTTGTGGGTTGCACTTAGCAACTGGGTGATGGAACGACCCGCCTGCTTGAGGATGTACGAGCTGGTCGCTCCCGACGGCGTTGCCGTGAGGGCAGGAGCCGCCGATGGCGACTTTTGTGGCAGCTGGCTGCACAAACTGCTGCGACTGCTGCTCAGCGGCTCCACCATGTACTTCTCCATGTATTCGGTGGCATTGAAGGTGGGCATGGCACGGTGGATTCGCGATATACTCGTTGCTGGATGGATTATGGCCGAGCGTTGGCGGTAAACACTGCTGGTGGCCAACGAGCGCTCCTTTCGCTGCTGCTGGTAGTAGTAGTGACCGTGACCGCCGCCATGATTCGCCTTTTGCAGCACCTGCTTGCCCTTCACGAAGAGGTTGAGGCCCATGTAGGCGGGTGTGGGTGGCACCACCTGGCGGTAGGCCAGCTCGAAGTTACCCAGTTCCGCCTTGGGATCCGTGCGGCGATCGATAACAACTGAAAAGGGTATCACATCAAATGGGTTTCGTTTGCCCGACTTCAACTCACCCTTGACAACATCCTCCAAACACTGGGGACACATGCGCGCCGTCACACTCGTGGTGGCCCCTAGATCCGGACTGGAGTTGATCTCGATGAGCCAGGGATAGAAATTCTCACAGATCATGAAGTCGGCGCCGAAGAGCTCGAAGGTATTTGGCCGTCGGTCCATGTTCTCCTGTGAGGCTAGCATACAGCCAACGATGGCCTTGCGCATTCCGGGAAAGATCCGCTCCAGCCACATGTTGTACTTGCCAATTTGACGCAGGTACGCCTGGAAGGAGTAGCAATCCCACATGTTCTCGCTTGGCAGGCGCTTGTCCCGCTTTCCATTGGTGTACTTCTTTTGGATGGCGTAGTTGGTCAGGTGCACGGACTCGTGGTGGTTGCTCAGACTGTACTCCTGTGAACTGAATCGCAGGTAGCTCTCCCGGTAGAACCACACCACCAAAGGCTATGGATTTAGTAAAGGAGATTATGATGCGCTACTTGGAGTGGGTCGATATTCGCTCACCTGGGTGTTGGTTATCAGAAACCACTGTCGAATGTCGAATTTGGTTTGGAACAGAATCAATGGGCGTTCTGCAAGTACATAAATGGTTAGCTATTCCCTTGACATTAGTAACACTTTCTTAAATATTTCACACATAATGAAATTACTTATTATAAATAAATCCTTTTCATATTGATTGACTATCTTCATTCCGACCAATGACATTCCGGTCTGAATAATAAATCAATATCCTTGCGGCAAACCTGTTGCACTTCTCAGGCAGACAGAACAATAAAGA
0.2933973277846831 AGTTACAAAATACGATGCTTAGAGTTGCGTTGCACATTTTTTTTAAATTTTCATCGTTTGCCAAGCAGACAACAACATCAGCAAAAAAAACCAACAACCAGCTAGAAGTGTGCACTACTGCAAAATCATCAGTCAACAACAAGAACAACACCATCAACACGCACACCCACTCACACTTAACCCCATTTAGTACCAACAACAAGAACAGCAGGAGCGAAGCGCAGAGAGCAAAGAGGAGGGTAAAGGAAGAGAATGAGTAGAGAAAAAGAAAGGAGAAGAGATGAAAAGGAAAGGAAAGGAAAGGAAGAGAAGAAATTTAATTGATTATGAACATAACATATATACATATATCTTTAATTACTTATACATATTTACTCTTAACTACTCTGCACGCTCACTAAACAAGCGTGCATTGTGTGTAAAACAAGATGAACGTAAACTATTTTAATGATGATTAATGATTGCGATTTTACAATTTATTATTACAAAAAGAATGATGGAAAAACAACA
0.4916900958116155 ACAAATATTTCGTATTCGCTTATAAAGTAGATATTACTGGCGCAATTGGAAAATGAGAACGAATAACCTATTTCAAATTGTATAGTTTCCCAGAATTTTGTTTTTACACTCATAGATATTCTTAGAAAATAATATGTACATATGTATATCTTTACATGGGTACAGGGTACTATTTCTTCTTACAGGGTGATACTAGAAACAAACTCTTGTATTTTCTATTTATTACATATATGTATTTTGCGGATGTGGATATGTTTTCCCGTGCGGCGTGCAATCATTATGCCAGATCATATCGCGTTGAAAGTTTCAGCAGGAAATTAAATGCAATTTAGTGAGGACTTAAATGCCGGACGGCTCAGTATGATAACTGCACCTGTATGTATCTGTGTATGATTGTATCTGTGCTTGTCTGTATCTGTGTGTGCGAACGTATGTATGTGTGTGTGGGTGCGAGAGCTCCAATTTAAGCGCTGCTGGCATTTCCTGGTGGGAAGAAGTGGGTATGTCACCCACTTGAAACTTACAGGCAGTGTGTTTGTGTGTGTGTGCGTGTGTATGAGGTGGGAATTAATTATGCAGGCATATCATGGCTACTCCTTTCGCTCCATCCCTTCACCTCACCACCCGTCCCTTACCCACACACACACACACACTGAAACAGTAGCATCCTTTCCGTGTGCGGTTTTAATTTGTGAGCTCGTGCCCGTGCATTTTGCCTGATCCTTTTCCTTTCCGTCGTTTGCCATTGCAATTTCCCCTGCCACGCCCACTTGCCGCCTATCGCTTGTTGCGGGCTGGGAAATTTTTGTTGCTGTTTTCCTGCCCCTGTGTTGTTTGTAATTCCGTGTGATTTCACTTGGCCGGCAGGAATCGATGAATAACGCAATTTGGAACAGCGAGTCCTTGAGAAAAGCACTTTGAGGTCGCGTATCCAATGGGTGCATTATCCG
0.6122259993801349 TAATTAGATTTGCTCAAACACATGGCGAGATGTTAATGGTTAATCCATCATGCTGCTAACAGCAAAAGTGTTATTAATCCGCCATAAAAAAAACCAGCCAAAGCAGGTATACCAAAATGTTTTGGTTATGTTAAGAAAGGTGTTCCCAACCTTTGCGACTTTGCTCCCTGGGATTTCCATATCCATTAGCCATCAGCAGGATGTACTTAAGGACACACGCAGTCACTTGACATACCTGCCCGCGTGTAATTGTACTCATTCCTGAGCTCAGTTTTAACAGGATATTCAGTATCCATTGCCACCCGAGAGCCACATATTCGTGCTAATTATAAGACTGGGGTTCGTTGGCTTAAGGAGGTTTACATCTTAAATGAATGGGCTTAGTAGTAGCCAGCATCTTGGGGGTCTCACTTTTCAATCGATTCCCGCGAAGGTTGGGCTACCGATATGCCAAGATAGAGATAGAAAGATAGGAACGAACTTGATGTGGGTACTGGCCATGAATGTATTCATCGATTATGTGACAACATTTGGGGCTTTTATTTAACGACAATGTTCTCTGGGCTTTCCTTTGCCCTTCGATTCCCTTTGTTTGTAATCTATTGAACATTCCTCGCTAGTTGTCGTTGAATTCGCTATTATGTAAAATAGTGGCACAAACGCCAGACAGGTGGGGATATAGAAAGAGGCCCAGCAAATTGTCATTAGCTCACATGTTTGGTTTGCCACTCGGTGGCAATACAACTTTGGCAGTGACTTGTTTGCTTAGTTGGCCGGCAAGAGTAGTTAAAC
0.6519295311094995 ATATAAGCTACTAAAATAACAGATTATATAGAAAATAGGCGGAAAAGAGAGTTCCCTCCCCAATTATGGACAAAAATGCCCTAATGGTGTTGATCTGCCATAAGAGCCCACGAAAACATTTACAACCTCTTGCACCGGGTTAATCGTCTCATGTCATGCCCATTAGACTCGATCAATATCGACCTATGGCCGATCATCTGGCCCGATCTCTGCAGCAGATTCGAGCGTAAAATCGAGTGCAATAAAACATGCAGAAGACACACAGCAAGTGCCCGACTGTTTTCCATCAACAAAGACACGACACGCTCAGCTGAAGATCTCCTCCGATCGCGAGCTGTCCATGATCGCAGCAATGATCACGGGACCTTAACCTGAACCTGGAACCTGGAACCCCGGATCCCGATACCGATCCCAATCCCGATCGAAGCGTAGCATTTTTGCACGGCACATTAGCTGTTTGAGAAACAGGAGGCCCATAAAGTTGTAGTGTTGCAAATTTTTATTTGGAAGCAATTTTCACACCCTGCGAGGGACGAAACGGGCCCAGCGAGTCATGCGGCGATCGGTGCTGACCTATGACCCCTGGCCAGTGGCCGTAGCTGCTGCTGCTGCTGATTCTACCAATTCTGCTGACAGGACACAGCGTGGCTAATTCGGAAACGCTTGACAACTAAATATTCAGAGGGTAAAAGGCGAAAATTGGGAGATGGAGTCGGAGTCACAGAGACGCAAAGTTGCAAATGATGCCAAATGATTGCCGACCATATAAATTCCGATTGTGAGCGATTAGCAGGGAAGTCTGCCTGCTGTCCAGGTACAGGACCACGCCCTCCGCCTCCAGCGTTTTAGTCGCGCTTCAACGCCGGCGATTATTTGCAATTATGAGGCGAGATTTTACACTTTTAGTGAAACAACTCCCACTGCAAAAAAGGTGCTAGGAAATGGATGTGGAAATTCAAATGCAAATGCAACGCAACACAAGTTTGACTTTTCGACTTGTTTTCTAATCACCTGAGTTTGGGAAACTCCTCTGAGTCCCAGCTCCTTGTTGGTTGACCAAATCGTAGACCTTCAATAAATTTCCAAGGACACGCACCACTCGTTTGGAAAATATTTGGTTCTCTTCAAGGTTGAAACTCTCGGGGGTTTTGGACGTCGATCGGTTTTGGTTTGTTTAGAATTGTTGTGGCGTTGTTTTACGAATAGATATTACTTTGATGGATTAGCCATATCGCATTGAAGGTCGCCTCTTGGTTAGCCTCGAATTTGTTA
1 TCAACTGATGCAAAGGCTGGGAAATCATTTGTCGCTGGCAAATGGAAAATCATTAACATGCTAACCTATGTACATAGTGCTCCGCTCACCCCCTGACTATGCAAATTTTCTTCACCGTGTTTCGGCCTCGATTCGCGTTAAGTTACACAAACAGAGGCTACCGGAAAGGATAGTATTCATACAACATAATCTGAGCGATGGCTGGATTTTTGGGCCGGCATTTGCATATATTACAAGTTATGCTGGCGCTTTGATGTTTGATGAAATTAGCCAGAGATCCAATCCTGTCGTATTAAATTTATTATAATGATGTCAATGCAGGCGGGCCATTCGCCCTTGCCTGGTATTATTTTTTTTCCTTTATTTCCCATTATTCCCTCTTATTTGTATTTATTTTGATTTTTATTTGTTTTCCTCGGCGGCTTATTAAACCATAAATAAGCAGGTTAGCAGGATGTTCGGCTTGGGTCGGATGCGGAAATTATGAAAATACTCAAATTGCCCACATCCTGTTCGAGAGTTTTCCTTTTAGCCGTGGCTGGCTTACCTTACCTACCTACCTGTCTTTTGCCCTTCCGTTCGGCATTTTCCTTAGAAGTCTTTCGGGTAGCCATTTGCGTGGCATACTTTGCGGCTGCTCGGCTTTTGAGTGCTCGCTCTTGGGTAATTTATCAAGAAAGCGTAGGCCAATTATATGGCTTAAACAAAAGCCTGAAAGGTTTTCATATTTCATAAATTTAAGGCCGTCAAAAGGCTTTTACCCACATTTCGTTCGCCTGCACGCAGTTTTCCCTCACATGCTCGTTAGCCACTTTTTGGGGA
0.9493425675021778 CAAAGGACCTTCGGAAGCGCATCATCCACTCAAGAGAAGCCATCAGCACAAATGCGACCACATTAAGGTGTGCAAAGTCGCAAGAGGAGTGAAAAAATAGTACCCAGAAGACGAAGAAGATGCCATAGGATAACACACCCTCGAGCAGGACATCTGCTCTGTAATGCAGTTAAAGGACATGCCGAGGTGTTGAACTGGGTCAGAGAATTGCCTGCGTGGCATTAATCATTTTTGGCCAACGCAACAACCTGACAAGGCACTGAATAATCGCTCGAAATGCGTCGGCAATTATATAATTCCCGATTTCAGTGAGTGGGTTAGTTGGGGATGAGGTGTGGCTCATTTATCATGCTAATACCTTTCGGTCAGTGGCATTTCGGGTTTCCCGTGTGCGCGAGTGTGTTGTTCGCCATCATTAATTATCTGCACATTGCGTCGACTCCTCCTTCTCGTCCTCTGGTCACCTCCGATTCCGCCGCCTCCTGTTGACACAACAACTTAAGCATTTGTGCAAACAGGGAGTATCCGATGTCCAGTCTCTAATCCCCTGGACTCTCGGAAAAATCACGATGAAATTAATCATCCGG
0.8183203973873402 GGAGAAAGTCCTTTAAGAGAGACCCATGCGAACGATTTTGGTTTTTCGTTCTGGCAATGACGCTCCCTTTTGGCCTGCGGGCTCCTTTGGTAGTGTGTATGCGAACATGGCCAAGTTAACACGAGGCCACCACGACGAGCGGAAGTCGAGCCTCAAACGGGCCACCTAATTGAGACCACAAAGGAGGCGATATGGGTGTGGGGGAGGTGATATATGGATGGATGGCAGAGGGCAGATAGAAGGGACGGAGGTCGTGGTGCCAGCCAACC
0.9497670566247491 CTCCCCTTGAAAGACTCAAATTTATTGTCATTAATCATGGGGACGACTCGCCGCATCGGGTTTTCGGCTTTGACTTTAACTTCGGTCTCGGACTTGGACTTAAACTTGGACGCGGACGTGGACATGGACAATTTGCTCCACGCCGCCGTTGCAACTGCTGCATAGCCATTATCATCTGTCCCGGAGTCCAGTCGAGTCGAGTGGGGTTTTCTTATTGATCAGCAACATGTTGCCGCAACATGGCAATTAAGGCTGGGTTTCGGGCCGCAGAATACAAAGTTAGTTGGCAGCCGCCTTGGCCATCATGGGACTAAAATTTATTTGTTGCCCGCCAAGGCTTTATTGTCTGTGCCACGGAAATGAATGGCGAATGGTTCCTGAAACGGGGTAGCTATCATATGAGACCCATTTGAATGGTGCAGAATGTGAGAACGTTTGGAAGGCATGAGAAAATCGAGAAAGGGTTGTAAACTTGTTCTTTTGCTTTACACTATAAAAACGACTTTTTTAATTTAACATTAAAATATTATATATTTTATTAGGTAGTATTAAGTATGAAATTGATGTAGGAACTGTTGAAATTTTATGCTCAATTTAAGAGTATTTCTTTCTCCACAACAGGAGCACCCAAAAAATCGAAACTTCCCTCCGCTTTGTATATGGCAAGATAAATGTTGACTTTGTCAGGTTGCCCCAATAGCTTGCAACAGCCAGTGCAACTAACACAGCAGCAACTGCAACACGAGCAGCAGCAGCAGCAGCAGCAGAAGATAGAGCTCTCCGCTTCATTATG
0.5616321175835944 CGAAAGGCTCCTGCCAAGGGGCTAAAGGAAAATGTGGGCGACGAGCATGCCATATCGCTGGACGAGTCCTTTGAGGGACGAGCAGCACTCATTCACATGCTAAGCGAAACCCATGATGTGGAGCCCATTTACAGCAATGGCACCACAAATGGAACCACTCCCGAAGTTGAAGAAGTGGTGGTGATACCCGGAATGATACCCAAGTTTATCAAGGTTCTCAATTCGGGCGACGCTGCGGTGGTAAGTGTTTTGAGCCCAAAACACTACGACTACCGACCGTTGGTTATCAAAATGCATCGGGACAACGAGACCAATGGGTTGTGGTGGGAGATTCGGGACTATTGCAACGACACCTTCTACAACGAAACTCTATCGAAGTTTGCATACAGCAACTGCACTTCGGGAATTGTGATGTACACGTTCAACGATAAAAAGTTTCCATCCACGTTCAGTTTCCTCACAGCGGGAGGGTAAGTGGGCAAATGAATCCTCAAGAATACATGTACAAATTGTTCCATTTACTCCTGTAGCATCATTGGTCTGTACACTACCTTTGTGTTATTGGCCTCGCGCTTTATGAAGTCCTTCATTGGCGGGCAAAACAGAAAGATCATGTTTGAGGATCTGCCCTATGTTGATAGAGTGCTGCAGCTCTGTCTGGACATTTATCTGGTAAATCAAACCATATTTGTTTTTAGCCCTCGATGACCTCTTTGCGTTTTCCAGGTACGGGAGGCATTGGAATTCGCTTTGGAAGAGGACCTGTTTGCCAAATTACTCTTCCTATACCGATCGCCCGAAACGCTAATCAAGTGGACGCGTCCCAAGGAGGAGTACGTGGACGATGATGGCGACACCGACTCGATTCCCAGTCGAATGAGCGTGCGCCGGCCGGAGCAACTGCAGCCACAGCAACCGCAATAACATAGGCCTAATCCAATCGCTTAACTAAAGTAGAGTTTGTTTACGTATTTATTACGTATTGCGTTATCGTAGGTTTCATAGTCTTTTT
0.7860286744438612 TGTTGTGCCTCATTTGTTCGCTAACTAAGCCGCCCCCATGCCATGTATATATATATATAATCTCTACCCGATTAACTGCATGAAATTCGGTGTGCTGCTATGTAAATTGAATGCATAAAGAAAACCCTACTACTCCTAGCAACTATTTACTAATATCTATCTAAATGTTGTTAAACACCATAAATGCAACACTTCGCTGGAGCCGTAATAATGTTGTTTTCGATGTTCCCTACTACCCTAGCTACCCGTGCTGGTGACTACTATATGTTCGAGGAGATGGACGATAAGTTTGAGCTCGACTTGATACACGACGAGATCGACTTCCTCGAGGAGGAGAACATCACCGAGAGCGAGATGAAGATGCAGCGACGCAAGACCCTCTACGATGTGAGTTTCCACATATTTCTAGTTGGGATTCCTCTGTGTTTAGGCCATGCTGCATGCAATACTTGCCCGCATGACTTTCGAACCGTACTTAAATTCTTGTAAATTCCACCCCCTCCCAAAAAAAAAATCCAAAAACCAAAACCAAACCAACCAATTGCCCCGACTTATGATCGAAGGTGTGGAAGGATCTGAATGATGCCGAGTATCGTCGCCACTTCTATATGCGTGAGCGTTCCTACGCCTCAGAGCCCGGCTCACGCATTCTCCTGAAGTTGGACGACGAGAAGGAGAAGATTGGGCCCGATCTCGGCCTGGCCAGCGACCACGATGAGGACGACGATACCATTGAGTGCGACCTTGGCATGCGCACCTCGACGCTGTCCGAACCGCTCGACTTTGGTCGTCGCAGCCAGACGCTGCTCGAGGTTGTGAGTCTATGGAGCAGAGATACCTGCATATCTTGTCTTAAATTGGCGCACCTCCCGTTGATTTCACATATTTTGCTCACGAGCTCAAGTTTTTCAACTGCGCCCGCAATATCAAGCTGCCGACCAGCAGTTGGGTGCACTCACCTTAAAATACTGTACAAAAAAAACAAAAAATCATATAAAAACTACAAACGATTTCTTGTAACTGCATATTGTATAAGCTTGGTTTTTCGTTAATATCGTGTAAATGTCTTTCTTACAGCTATTACCAGCCAGTGGTCTAACTCGCTATATTTATTTGAACCCACAGAAGTCGAAGGATGCACCCACAGGCGAGTTTCCCTCCACCAGTAAGGGTATTTCGAAGGAGCGCGATGCGGCAACGGCTTCCAGTTCGGCTAGTCCAGCGCCCACTAGGGATGTGGGTGATCTGCCTGTGATTCCACCACCCTCCACTGGCCTGGGACGTGAGCAAACCTCCAAGGAGACCTCCGATAGCAAGTCCAAAATGGAAGTGGACAGCGGAGAGGTGACGGCCAAGGATTCGGATGAGGACTTCGATACCAATCCCATTATCAGACTGCTCGAGGGCTTCTTGGTCACGCTGACCATAAGACTGAACCGCTTTTCGCGCAACTATCGCTTTGTGAATCGCATCCTGGCCGGCGAAAAGAAGACCCTAAAGGTGGGTTAAATCCATCCTATTTATGTGCAGTGTGCCTAAAATTCCTAATTTTGCTTTCCATTAC
0.7760013169395324 AAAGCGGATCTTCTGCTTCACTCTAGAGATGCCGACGGGGTTTCCCTCTGCCACGGTGGCCTGGAGATCAACTGCATGCTGAAGTACAAGGACTCCAGTTCCAAGTTTCTACCCGTTGAGGTGTCGGACAATCGTGATGGCACCTACAACATATCCTTCACCCCGGATGCCCAGGGCACGTTGATTCTCACGATCACCATTAACGACCGGCCCATCAAGGGAGGTCCTTTCACTTTTCAAGCGCGACAGGTTCGTCCGCATACGGGCATCTACCACTGCTGCTCCTTCTGTTCCGGAAAGGGCAACCGGAACGTGATGTGCTCGTGTGAGGGTCATATGCCTGGATATAGTGGCTGCGGTCATGGACATGCTGGACATCCAGGGAGACGTCATTGGTCCTGCTGTGGAAATGTCCTTGAGAACTCGGAATGCAATGTGGCCAACAAACTGCTTAATTCTTAAGTAATTGATTAGGATGCAGGGCTATAAAACGAATAAATTAACATATAGCCAGGTTTCGCCATTTTGTTTGTTCATCTTGTGAAATTTCAAAGATCTTGTAGTTTATACGCACGCGCAGATAGACAACAAGGATACTTCAAAATAAACGTTTTTCTACCTGCAAAATACATGCATTCCAACAGACCCGACAGTCCATTTACAATGTGCACACAATAATCTCAGATTGCTAAGGCTACAAAATCCCTTTCGACCTCTGGAATTACCAATTGAATTCTCCTTATTACCATATGGTCAGCATATGCGCGTCATATCCTGACCGTTGAGCAACAAGTCGCAAATAAAAGTTACTTATATAGGCTCCAGCAGAATAAAGGTTTTTTTTATTTATTGAAAATGGTTATCATAAATACAGACACTGACTCTGGACATTTATGGAAAAAAGTCCGATGCCTTAAGAGTTGGTTGGGTGGTTTTGAAAGCGCCTGCAAGGAGCTATAATTCTAAGTGGGTAATTTTTCGTTAAATGTATAATCGTTCTTTTTCGCTTTCGATGATCCAACTGTTTAATCTTCATTATCAGAGTACCAGGATAGGCGCTCTTCGTAGAAGTGGATTACCATTCGTGGGATTTTTTCATTGGCCACTGAGGAGGGCACCATTTCTGCTTGGTCCACGCCTT
0.8239332844251261 GATTGTTGGATTCCATTTATTACCTGACTCTGGAGCAGCTCTGCGAGTGGACCTTGTTAATGATGTGAAGGGGGGCGGGAGAAAGCGGTGAAAGTGTCACAGAAGTCAAAGAGTCAGCAGCAGCAATACGAAAGAAAAACTGGGTGGATGCATCGATAAAACAAACAAAAACAACTGAGGGACACCCTCGATATTTTCGTCCTTAACGCTGCAGATACTGACGGGCGCTCAGCAGGAGGCCCACCATGGCTGCCACGCCCAACGCCGATGCGCCCATCGCTCCGGCTCCGTTGCAGTTATCCGTATCGCAGGAGCAGACCACCTGCCGACCACCAAAACCGGCACGCTGATAGCAATAGTTGGTGGAGGTCTGATTCTGATAGGCACAGGTCCTAATCACACGGCTATCCGGGGGCACTGCAATGCGATTGTTGTCATTAACCAGGCTAACCATTCACATGATTATATGGTATTGTTGTTCTACTTACGGCTGTTCACCGAGAACTCGATGATCTGCGTAATCTTGCGGCAGTATGTGGGTATTCCCTTGCCACGGGACGAGTACTGCTCATCGCAGTCCTTCAGCAGATTGTCCGGC
0.7922463277945245 TGCTAAATAAGTGGCATAAATCGTTTAAATTTCAGTTGATAATCTCAACCGTCAATACTTTTTCACTTAGATTTCATAGTTGAAGAGCTTTTCGCCTGGCCTGCCCATGATGTGATCAAACTGGTTGGGATAATGTGGCGGCTTGGAAAGCATGTCGTTCACAGAGCGCTCGTAGAGATCAATGTAGTAGAGGAGGTTCTCGTCCGTGTACATCTGTGATAATCATAAAATCAAGATTAGTAATGCGCCTTGCTGTTTGTACACAAGTAGTAAATAGTTAATTGGTGATCTGGTTAATAGGTTATATATATGAGATTAGTGCCCGAATGAGACCAGTGTGATTAGTACATTAGTTCATTAAATGGCCAACTCATACTGATACCTTGGATTGGATACATTATTCCTTGACCTATAAATGCAGCAGCGAATGGCATTTGAAAATAAAAAGTTGTATAGAGTGTAGCAGATGGTTGCATGGAATCAAACCAATACCTGCAGATAACAGCGCACCGTAAAGATGATCCGGCGCAGATCATGGATAGCCTGATAAATGTGATGGTATGAGGAATTCTCGCACCGCAAAATAATGGCACGCACGTCTATAAAATCATCCTGGCAATGCTGATAGAAATTTGGATACTAAAATGGTAGCTCAATTAATGGGCAGCTGTAGGAACTTAACATAGATAACTGACATAGTTGCGAGTGAACTGCTTCTTAAAGAAGCGCTCCAAGTTTTTTAGCTCCATGACACGGTCACTGAACTCGTACAGCTGCCGGGTAACCTCTTTTCCGATCGCGCTAAATGGATTCGTGTACGACCTCACATCTCGCGGACGATCCGACTGTGGAGATGATTTCGGAGTTGGAGCGTTAGGAATCTCTTGAGATGGCAAAGCCTGTTGGTTAGCATTCCGCTCCACATAATGGTCATTTGGCTTGGCTGGCGGCATCTCCAGTTGCATCGACTCCTTTTGCAGTGGTTGATACGTTCCGGTTTTCAGATAAGTACCATTGGCATCTACATGGCGTTGGGTTTCCTCCGAATCCTCTATCATGGTGTACAGATAGTTTAGATTTAATGCACATTTCGGTTTGTAAAGTGCAGATGAAGTGGGTTCTTGGCCTTTTGAGGCTGCATTATTACGTATTTGGTTATTAGGTGTACTAAAGGCACTGGGTCCATGTCCAGTGGTCATTCCCAGGTACTTCTGTGCCAAGCCGCTGCTATCGTTGCTATCTATAAAACTTCTTAGAGAGATGCTATTGCTTTGGTTAATGGGAGCCCCATCTTTTCCGGAAAAGCTGTTCTTCTGCTTCTGCAGCAGCTCATCCAGATTTACAAAGGATTTTACAATCATCTTTACGATGGACAGGGTTGAGATCTGCCAAGAATCAAAGGAAGCCATAAAGCCCGACGGCAGCTCATCTTTAATCTTGTTCAAAGCATCGGGAGTATTATACACGTAGCCCTTCAGTATGACCCAGGCATTCACAATGCGCGTAAAGACGAATATGAAATCCTTAACGGCCCAAGCAATGCCCTGTGAGTTTATATTTGGCAGCACGCCATCCGGACGCAGCAGATCCTGCTTCAGGCGGGCGCACAGTG
0.6975735904579319 GTGCCGGAGATTCCAGCAGCCATCGTTAGATTTCTCGGAGGTGGCATACTGCAGTTTTGAGTCGGGACCTTTGGGACTAAGACGATACTCCATGTTGGCTCGACGAATTGTTACCACGTTCTTGTTTATCACGCAAATCGGTTTCTGCTGCGTCTACTTCCTCTTTGTGGCGTTGAATATCAAGGACGTTATGGATCACTACTACAAGATGCCTGTGCAGATTTACCTGCTTATAATGCTTGGACCCATGATCCTGTTGAATCTGGTGCGGAATCTGAAGTATTTGACACCCGTTTCGCTGGTTGCCGCCCTGCTCACAGTTGCCGGACTGGCCATTACATTCTCGTACATGCTGGTGGATCTGCCGGATGTGCACACGGTCAAGCCGGTGGCCACTTGGGCGACGTTGCCTCTATATTTTGGAACCGCCATCTACGCGTTCGAGGGAATTGGTGTTGTCCTGCCCTTGGAGAACAATATGCGCACACCCGAGGACTTTGGCGGCACCACAGGTGTCCTCAACACGGGCATGGTGATCGTGGCCTGCTTGTACACAGCTGTCGGGTTCTTCGGCTACCTGAAGTACGGCGAACACGTGGAGGGCAGCATTACCCTAAATCTGCCGCAGGGCGACACGTAAGTCCTTAAACTTTCCATTGCTAATCGGTTTTAGTTGTAAGACAGAGGGATTTAATATTTCTCATGCTGATATACATAATCTACATGCTCTTGCTATTTGAAAAGCGCTATTCGAAATATTGATAGTTCAGATAGTTAAGATCGTTATTAACTTTACTGTCTAAATAATTTTAAATTACATGATAATAAAGCTAGCAAAAGGTGTTATAACAATTTTTAATGATATTCCCAG
0.915429811001608 TGGAAGAGAATAACATTTAATATGGCTGGATTAATCTCATTTCATCATAAAACATTGCGAAGGATACCCTGATTCAGAATATATATGAATACCTTAAAAAAATACATACGAATGTTCGCGACCTTCCCACAAGATCTATTTGCGGACAAAAGAAAGATTTGTCTTCCTGGAACCCACTCATTAGCAGGCAGAATTTCTTACCTTGCCCAAAAAGGCAGTAGCCTGTCCTGACAAACGACCGTCGCACAACAGGTAGTCGTAGCTGTTGAGGAACTTGCGCTTGGCCTCAAAGGAACCCATCTCGTTGCGCAGCTGGTTGAATGGAACGACGGTTAGGCGCTGTTTCACACCAGCCTCTCGCAACATATCCTCGTAGTGTTGCTTGGTGGGATCATAGTCAAACTTGGCTCCACGCTGCAAATCTGGCACGATGAGAGCCACATCGTCGTCCTTGCCCACCAACGAATGCTTCAGATTCAACTTGACCATGCGCTTTGGGCAGCTGGGGATCTTGTAGCTGCAAACTTGCAAAACATAGCGGTAATCAGAGAAGATCGAGGTGTTCTTCTTCTTTTCCACCTCCTCGGAGACAACAGACTTCAATGCCGCGCACACCTTCGTCACATTATTTTCATTGACAATCTCGTGGAACCGTTTCTCGTCAAAGGCCTTCAATTCGAAGGTCAGCTCAACTGGTTTTTTAGACTTGGCAGGCTCTTTGTTGACAGCGTTGCCTTTGGCCTGACCAGGCTTGGACTTGCTGAGGGCCTTCTTGGATTTGGGTGGACTGGCAGGCTTAGACAGCTTTTGCACCGCCTTTGCCTTCTTTTGGAGCTGCGAAGCGGGCTGAGCCTTTGCTGGTTTAGCTGGTGCTGCTTGTTTTTCGGTTTTCGCAGTCTTT
1 GGCCAGAGCGGAATCATTCACCCACATTTCCCTCGTGGAGAAACAATGATGGGTAATAGAAGCTAGTCCTTATTATGAGTGCTACACCCGTGTGCACTCGAGAGCCAGGCAAAGGGTTCATCATCATCATCGTCATCGTCGTCCTTGTGATCAACAACAACGTTGTGGTATTTTCTTCGCTGACGAGTTTTGTCTCAGGACTATGGACATGGAGAACCAACTGGGGCAATCATTCCAGCAATCCTTCAGCCAGCCGCACTTGAAATTTTTGTGGTTGTTGTTTGATTGAAGCAGCTCAAGCCGTTTGCAACGGAAGTGTGTTTGATTAAACGCAAAAGGACGAAACAGGAGTGGCAGGAGATGGATCGCAAGTGGCTCAGTAATAGAATGGTGGGAACGGGCAAAAAACAGGGGAACAGGTTAAAAGGGTCCCGAGGACCTCTTCTTGGGGAACAGTACTTTAAATCGCAGGTAATCGCACTGAGATACGATTTAAGATTACGGTAGTGAATTAGAATAGAAGGGTAGAGATATAAACAAGTGTAAGCAGTACAAGTTTACAGGTAAATTCAGATTCAGTTATTTAATTTACCATACGATCGAAATCTTAAGCCCCCTAACGAACTTGTGCTCCATAATATATTTTCCAGTTTACGTGTTTGGGATTATTGTTTTAACAAATTATCATTGCATCTCATGCCTGATGCTTTTATTTTAATGGTACATATGTTGTTTGGAGGAATAGTGGTTGCCCTTAATCGATTATCGATTAGTGGTTAACGCCTTGCTGGGGTACATCCTCGTCACGTCCCGTGCTTCTGGTCATCCCCATCTCATCGAGAATGGCATTCCATCCGTCCCGCATGGAGAGTGTGTGCCACATTGTTGCAACCTAATCCGTTTATCTAGCTTCGTACACCGTTGGACTTGATACCCCGAAAACTAGCTGAGCGTCCAAAATCCCCGCCCGAGTTGCACCAATTTCTCCTGTTGCCCAGGCCAGGAGCCAAATGGAAACGGGATGTGGGTGGGATTCACTTGAAATTTTGAAGTCCATTCGACCGTATAGTCAAGCCCCCACTCTGCCTAGCGGTTTCAGTGCGACTTAGTCGGGATCCAGTGCTCCGAGTCGACATCCATTAGCAATCGCAGTCATACAGACTTCCGCATCATACTTTCGACTTCCGCATACTTTATGCTCCACTCTCTGGCACTCTCCACTCAAAATGGCGGATTCGGATTCATGTTGGCCATGCGCGAGCCTCGACCTTCCGACTCCAACTCGAGTTTGGGACAAAAGTTTGCCCGTCGCCTGGGAGTTTCTATTTCTGTGCTCTCGATTCCATGCGATCTGGAACCGATGCGAATGGCTTTGTTGCAAGTACTTTGGGGACCGGGTGGCCTTCGCCAGCCACTTGCAACATTTCTGCGGAGTTATGATTGCTTTTATTGGGGGGTTTC
0.7022892508871774 AGGTAACCTATTATTTAATGTAATTTCCCAAGCTGTTCGGAACAAGTGATCTTTATTAGCATTCCCACCGTCACCAGCACCGACAGGATACAAATTTTACGGCTCCTGCACACATTTTCCCACCAATCGAGGAGGGCGGCATTCCCAATAAGTCCCATGCAATTTTCATTGACAATGGCCAGCCGCAGGATATATTCGGCATGAGCAAATACAATAAAAATACCTGTTGGCTGTTGCTGAATAGAAGGATGGATGCATTTACCTATATCATTATACGGCCATTGTCGGTTGACGGGCAAGTCGGGAAAACGGGAAAAACGGGAAGCTGCAAGTGCCCTCAACCCGAACGAAAAACAGTTAGCGAAACAATAATGCGAGTCGGTACTTGAGAAAAACCGAATAATAAGAGCAGGGCCAGTGGCAGAAGAAAACTGGTGGATGGATGTAGGGAGGGCTACTTGGGCCCATTGTCTATCGATTTTTTGCACTTCAAGGGAATTGCATAAGAAATGCAATTCATTTTCACACGACACATAAAGGTGAACTGTGGCGAAAAAATTCATGGAAGGACTTGTTGGTTGGTGGGCGTAATTTATGGCACTTAATGATTTGCCTTTACCACGACATTCGATCGATAAGTGAATACCAGACAGCGAGTATTTAAATCGGGCCTAGAAGAAGAACTTTCACCCAGCACCCATGCCACCGGGCGTTTTTGGATTGGAGTGGAAAATTTATTGTTCAGTCATAAATCTTATGGAGCTGCTCGCGCGATTTTTACGACCTGTG
0.6899113048687138 CATAGACGCATACATCCAGAGCGAGAGCCTTTTGTCTCCCTGTGGCAGGAATTCAAAAAGCTAGACGCCGAGCAGAGCAACCTGTTGCCAAATAGCCATACACTTACACACATTCGCATTGCCATACACATGCGAAAACGACCTGAACTTCGCCAGGGAATGCAATTTTCAACAACGTCATCATCATCATCACCATCACCATCTGTAGCAACAACAGGGCCTTCCATAGCCACAACGCGTATAATACATTCAACAAACAATTGAAATTTCGTATACAATTGCGAATTGAATGAGGAAATGAATGTGTAAAATGAATAAGTCTGAATAGGGTCTGTAGATGTGTCTGCGTGTGAGTGCGAGTGTGAGTGTGAGAGTGCCTCTCCTTCGCACATTCGCCCCATCTC
0.2663936782812555 ACCGAATGTTCGCACAAAGCCATGTAGAAATTTCCCACACTAGGTGGGTCCCGGAATTCCAGGACACACAGCACGATCCTGGATCGGAGACCCCGCCGCCCAGCGGGGAGAGCATTTTTCCAGCTAAACCGACTGGGAGATCGTAAAATCTTTCACACCTCCGGCACTGCTGGGAGTCGCAGGACCAAGGCGACAAAAGTCGACTGATTAATCGGAATATATCGATCAGGCCCGAGGCGATGCAGCAGACAGCCTGGCGTTAATGTTCCGCTTGCAGGCCTTGAGGTCCTTGGGCTGCCTGCTGCTTCTGCCTCGCAGCCCGAAATCCTACACCTGTGCACGTCCTGCGACGATTCAGGTGTGCACATTAGTCACAGACACAGACACCAACTCGCAATACAAGTATATGTTGACACAGGGTGGGGGTAGGGAAAGATAAAGCCAGGCAAGGACAACGACGAGGACGCGGACGAGAACGGGAACGGCAACGAGGACATTAACGAGCCAGGCAGTTAGTTGCTTTGCCTTCGATGATGCAGCACTTTCCATGGTAATTTCGGGGGGGATTGTGCTCCTCGGATCCCCTGGGTTCCGGGACCTCTTCGTCACCACCACCACCCCCTCATCCAAACGCCGTGCATATGACAAATGTTTTTCATTGCCAGAAATTTTCACAGTCATGGTCATTTAAAGCGGTTCTCCTCATAATGCATCGGCTGGCCCTGCC
0.9429033647961327 CCAACTGATCGGACACTTTTCGCATTCATTCCACTTGGCCAGAGTCCATTTTCAAGCGGCTTAAGTGCGGTTCGTGGAAAATAATGCAGACGCCGTTCTGTCTAAGAACTTCCACTTGGCCAAATGCCCAAATCAGGTAACTGAACAATTTTCCGTTGCCCCCCGCAGAAGCGACCCTCTAACTCTACCTGTTTACTGAGGCCGTGAAACGCCTAAAACTAATTGAGACCGCCCTCATTGAATAATTTCAGAAGATTTTTCTTTCTTTTTTTTCTGAAGCCAAGATTTTCCGCAGACAGAAAGGGGCCAGAGGCGAGCGGAGTGGAAAATAAAATGGAAACTGCAGAGGGACACTGAGAGCTGTGGGTAATGATGATGTATGGGTAATTTGAATGATTAATGGACTGCGCTTTATGCCAGTGTTCCGGTCACAGTTGAAGGTTTGCCCGGGTCTGTCCAAGTCGCTCGGCACTCGGCAAAGGATATCTTGGGCATAGATGTGAAATTTAATTAAAATATTTTTATGGTAGCCCGTAAGAATGGAAAAGGTGTGTAAAGGCAGTTGCGAAGGCATGCGAAAAGGTGCAGCA
0.615545827812219 GCATTGCTTTGCCGCAAAGTACCAAAGTCAGTGCCAGCTAAAAATAAAAAGAGTCAATGGTTTGGCATGTCTATGCCGACGATCTGTGCGAACTGCCAGCCAGAAAAGCCGGGATAGCCAGAAAAGGTAGAAAAGGCGACATGCATGCCACGAACTGGAGGACATATGGACCATGAGCCGGACTAGATGCCACATGGACGACACGGACGTACATGGTAGAGGCAGAGTCACACGGAGTCGGGAGATAGACAGTCAATCTTATGGCCACAGACAGACGAACACGACCGGGCAGACGACTGCGACTGAGTTTGCGACTGAGACCGTGATGATGATGGTGCAG
0.6933591284265319 AAAAAGGAAAAGCACCGTCTCCTGTGTGAGTGTGTGGTGATAGCTATGAATTACATGCAGCCAATATAAGTACATATACAACTGGGGAAAGGATGTAAGGCAAGCCTTACTTACAGACGCCCAGCTACTTAAACATGCCATTCGACTAAAGCTAAACCGGGTCTCTCCGGCTTCTTCACCTTGGGCAGGAATTTTCCAAGGGTTTTTCCCATTTCCCTGCATGCACTGCACGTTTCTCGTTTGCAGCACATTTTCTTGTTGCTCTCATTTACACCTCAATTTGATTCTATTTCCTGCGTTCCGACAGACTATCGAATGGGCTCCTAGCAGCCAACTCACGCTAACAAGGCCGTCTTTGATGGCTACTTGAGCCGGGAAATCTGGCACTCCGAGTGTCCCCTAATGATGGCCGCAGTTGGTGCGAGTAAGCCGCTTCCAACATTCATGGTAATGATCTGCTTAAGTCCCGTCAAAAGCAATGGCATTTGATTGGTGGTTTCGGCAAGAATGCAAACTGCAGTCTGCAGGCTGGAGTCAATGGATATTAATTAGTGGGCTCGTTCCCCATCGCGCTGCTAGCTCATTTGCTATGCACTCCCGGTTTAATCTTTTAAGACATGATTTTTATGCCAAGTAATCAAATCATTAGCACTCATTACAAGCTGCTTAATTAATAAATCATTTCACGTCCCTTCTCGTACAACCCCATTTATTGTGGCCCTTTCGCTTTTCCTGCTCTGTTTGGATTTTTTTTTGGACTTTTGGCCGAAAGGAAAACGGC
0.7839590617185279 CACTGTACTCTCTGCGTTGTCTGTCTCTATCTCCTACTCCATTAAGTATGCAAGTTTTCAGCAGTTGGCAGTCGGGTCCTGGCCCTTTTCCCTGCATATCCTGATTCTCATGGATGCAGTGGGTTAATGTATTTTTAAGCTAAATTCTTTGTTTATATTTGCCTTGCTGTTTTCGGTTGTGTTTGTGTGTTGTGCATTGCGTTGCAGTGGCAACAACTGCTGTCCTTTATCAATCGCAACAAATTTCCCCTTCGACTATTTTTTTTGCGAGTTGTCCCAAAGTGAACTCTAGTGGATTCATTTATTCGCATATAAGTTTGTTTGGGAATTTTTCACAGATTGAAGAATGGCGTTGTGTGCGTGTCTGCCAGTTTTCGGGATTTAAGGACTTCGAGGGTCCTGGAGATAGTCTCGCTGTTTGTTTACTTTTTGTTGGCATGAAATGTGCATTAGCAGAGTTAACTGTTAATTGTTTACCCATTTCGAGGGCCTGACAAGTGACATGTGAGTTTGTGGTCTGGATTGTAGCTGTGGTTAACCATTAAATGGAGTTCAGTTATTTGAAATACTCGCACTAAGATAAATCGAAGTCTTTAATTGCATTTGAATGATCTGCAGTCCCAAACATAAACCTTTTACATTATATATTGTA
0.8726301038604081 CCTTAGGATCAAAGAAAAGAAAAAATATCATTTAGGCTGGCAGCCAATGGGCCAACACTTCCTGGGCCAAGTTCAAGGGCTGCTCTTGCTTCTCCTTCGGCGGCTTCCTGTTCTCGTTTTTCCGCTGCACACATGGCACACCAAATTCTCAACACTTTTTGCGTTAGCATTTATATCATTTATTTTTTTTTTTGTTTTTGGCAGACCTAGAGTCGCCGGGCCAGGGACACATCTAAAATGATGCTGAAGATGATGGTGATGATGAATTTCTTAGAAGCCACCAGAGAACAACTGAATTTCTCGTTTTGGTTTCTGCTCTTTTATTCATTTCTTAGTGTTGCGCGGCAGGATCCCGTCTTTTTTTTTGTGTGTGTTTCTGGCCGTGTGAACATGGCTCGTTTTGAGGTTCTTCTTGGGCATAAAATGGGTTTTTCGGGCAGCCACCCCACTGAGAAACAGGCAGGCGCAATTTTCCATTTCCCGTTGGCAAATGCATTTCAAAAGAGCTAGGCAATTGGAATTGAAACGCAGCTTGCCATCTGAGTGACTGACAGTCAGGCACCGTCAAAAAGATAGAATGTACAATGTGGCTAGACCGGAGGGAGTCTGCCGAAGGTCGATAGGGTGAATTGCTTGAGGAGATTGTGAGCTATGGCTGCTGAGAGCTTAGTGGAAAAGTCCACAAGTAGTCAAACACAAGTCACAAAAGA
0.8512021811946028 AAAATTTAAAGAAAATCTATGATGGGGATAGAATGTGAAATAAGGAGTGAAAACATTAAATGGCTATACAGTTGATATATTTGATTGGAGTCTTTAATTTGTGAAATGTGTAAAAGCCACTCATCAATTATCCCGAACTTTGTACTATTCAACCAGCCAGCAACATTTGCACTTTCAATCCCGCCCCTTTACATCGAATCCCTTTGGTGGGACAACTTTGAAAAGTTTTAATTAAACCAACTTTAAAGCTTTTAGTGTTCCTGCTGGTCAGTGCTGTCAACATGTGCTAGGACATGCCGGATGGGATGGAGAGGGCCATGCTCCATATAAACTTCCCTGCTATAACTTCCCCACATAAGCCCCCAAGACCTGCACATGGGCTTTATTAAATCTGAGCTGTTTTACAACAATTTTGCCATTAACACATTTGGCCAACAGTGTCACCAGACACTGAGCTTTAAGCTTTTCTGGAAAAACAAAAATTGCAAACAACCCGCAGGTTGTCGAGAGGAGCAACTTTTCCTCGAAGCGGCAGAAGCAGATTGGGTTAAAGCCTAAAATCCTTTAGCAACCTGACAGCTGTAGAAAAGCGAGTTTGGTCCTTTGGCGGAAAGAAGAGGGAAATGAAGAGCGGGTAGTTGGTTGGGTGGAAGATGCAAACAAGCCGTGTGAAGGGGTCCATAGACAATGGACCGAGGACTTTGGACCTGTGTCAAAGTTGCCCATCGAAGCGACAAAAAATGATGTATCAAACTGGACAGGAAAAAGGCAGTCGAGGGGGTCGCGTTTGGGACTGCCCAGTTCGTCCTTTTTGTATTTAAAGTTACACCTACAGAAGCGTCAGCTGTGCTTCGGTGTCATCCTCATCCTAGGGCTGTCATGTTGCGTCTTTAGACGGTTCAGTGGGCTTGGTGCAGGTCCTGTTCTTCCTCGTTATCCTTTTTCGTTTGTGATGTGGCCTATATCGAAAAACTCATCCAGTTGTTGCGGCTTTCTGCGGCTTTTTATTTGTGTGGTTTTATTAGATATCTATCATAAATTGATATTTTGTTGTTGTTGGTAGGTTATTATTTTTTTTAAGTACAGATCTTCTTACGCTTAACATTCCGTTATGAAGTTGGACTGCTTTTTGTGTTCTCGCATGCGATTTTGGACGCCTGTTAATGCTAACAACGTCTGTAATGGTTCGTGTCCTAGCTCAAAGGTGACTGTAATGTTATCTTATGCTGTTATGCTAGCTGCTATATAACAGAGATGTTACTTGTTCTTAGTATTAAACAAAATGTGTAACTAAATATTAGTTACACATTTATAAAAAATATTGTAAGCTTTAAAGTAATATAACCCATTTACCGTTTGCTTGATTAAACAAGAAACTTGAATGCCCATTTCCTGGGTTGGCTTCTGGGTTAATCTCTTTCGCCTCCCTGTCTTTGTTTAATCATCCCCAAAGTATCTAAACTTTTGCCCTTTATCTCACCTATTATCTCCATCACTGTCCGAATTCACCCCCCAATAGGGCTCTCTTTAATGCCGGCCCAAGTGTAAACACCAAAATCTAATTGCCTAAGGACACGCAAAATGCTTCTGGGTTTTTCGCCCCCGCATTTTCCGCTCTCCATGTGTTTTCATAGCACGCCCTTGTGTCAGAGATATTTATGGAATACGAAAGGATCCAAGCATCTTTAACTGGATAAACATGG
0.7599806802245702 CATATGAATGAAGCAAAGTTTGCCAAACAAATTCCTTGGGCCCCTTGGCGATCTCAAGTCAGAGATAAACGAAACAAACATAATCATTAAGATGACGAAAGGGTGAGGAAACTCCATAATTTTCACACTTCCACGACAGACCAAATGCCATGCAATTATGACACGAACTGAGCGAGCAACCCGCGGCGCCTTTCTGCCAAGGAGTCGCCCAAAGATCAGGATCGTAGCACGCGATAGGAACTCAAAGGATTACGGCGGACAATGGGAAAGGGTGCTCCGACCGGGACTCGAGGGGCGTTGACACAGAAGAAAGTCATGACGTGGCATATTATGAGGCTGTGCTGGGGAAGCACATCCTACCTGGTCCCAGATTCCCGCACTCAAGGTGGGTGTGTCGCCTTAATGATGCCCGGAATTAACTGTTCCGTTTCAATTACGAGACATCACTTGGCAATCAAATTTATTTGACACTTTCTCTGCGGGGGCCAGTGGAGAACAGAACTCTTTTCTTTCCCAATGAAACTCAGTCCAATTGCGGCTATAAAATTCGACCAAAAATTACGCATAAATGTCATCGTAAATTCGGCATCTACCCTATCCGTCGGCGGTGTCGTGGGAAGTTACGCCCCTGGCATATAGATAGTCTGTTCTGGTCGGAAGGGATTTGGCCAGGGATTATAACGATTGCCAAACATATGGCCATGGATATTCACAATATGTGAGTGAGTGCTCAAAAGATTTGTTGACCGAGTGTAGGATAATGTGTTCGTTAAATG
0.7839891304137517 ATAATACCAGAGTTTTACAATAACTCGACCCGGTTTACAATACAATATTTCAACGACATTGTTTTTGGGAATCTGTCACGCTGACCCACCCCACAACTCGAGGTCGAACCATTAACAGGCCGCACAATTTGCGGGACACGCATGTCACTCGCATTTTTCAGGTCGCTTCCTCGGATCTCCGAGTTCGAGTCCAGGACTCATTGAAGCCACATTAAGCGCGCCTCATTTGATGCGATGCCATTGTCCTTTCAAGTGGCCACTGCTAAATAGGTTCGGATGAGATTTCGCCAGGCGCTTTATTGTGGCAACACGCCTTTGTGGCCTTTGACGCAGGCGTTTCATGTGGCGTGTACTATAAAGTAAATAGTTAATCGTTTTTCCCCGAAGCTGCAGCTGCGGTCTTGATTTCTCCGCTGATCCGTCTATGATGTGTGAAGAGTCAAAAAAGTCACACTTGAGTTCGTCGGTTTATGTCAACTGCAAAAGTCCGTCAGTCAAATGCTGGTAGATGGCTGCATAAGTGACCTGACCTTTTCCAATCAGCGGGCTTATCAAATGGATAACAATTGGCAGAAGAACCATTATCCACAAAGCTAC
0.4000261041253761 AGCGCGTGTCATTTTGCAGTGCTAGACTAAACCAATTTCCCAGAACTCATGTCAGATATTTTTCTAATACGCAATCAAAGTCCCGATAAATTGTGGCCAAGAAAGGAGATCGACGGCTTCTGAAAAAAAAACCAAAATTTAAACCGTAAAAAGGAGAAGATTTTTCACACTTGCCAGCGGCGACAAAGCGATTTGCGACACGCAATAAAATGTAATTAGTAAACTCTCTCTGTGGAATTAAAAAAAAACCGAAGCCGAAACTGTAAAATTTCAGGTACTTCAGTTAAAAAACACAATAATTCGACATGGCGACGACACTTCAGCCCAAACAAAGATGCCCAGACAAAGGACACACGTACAGGGATATATTGACAGGGACGAGGTGCATGGTACAAGGACACCCCTCTTCACAGGAAACAAAAACCACCCGATCCTTTCGTCCAGGGTAGCCTCGAAGATCTAACGCTGTTTACTCAAGCGCAAAAGCGAAACTTGGGAAAACAATCGACGAGCAGTTGAATTGAAAATTTTTTACAATTTTAAAAAATCAAATGGCAAATAAAGTGGCAAGTTCCTTTCGCAGGATGCCCGGGATGGTCGTGCGCCGCGTGTCGAATGCTGTCAATATTTCCGGTGTGTCTAATGACAAACGCATGTTTACACGAG
0.8173063112817498 GAAACGAAACGATATGATAATTGGCCTGCTTATACTATATAGTACATATATACTATGTAGTGGTGTAAATGAGTCCGATCGCAGAACGAGTCTTTCGTAACTCCCATTCATAAGTCGACTGGACTGAAGCTGAAACTGGAACTGGCACTGAAAGTGAAGCAGGTGTAGGGCAAGTCAAGTTCAGACCCCTCACCATCACCACCAACATCACCATCTCGTCGACTTAACAAGTGGCTCGTGCCCAGGTGAACTACCCCAGTGTGGCTGATTATAATGCTAATTAATGCCCAGTCATGTTGTTGATCGGACGAAGTAGCCTCTAGCTAATGGTCTGGGTTTTCTGATCCAATCACACTCATTCACGATTCAAACTAATCGCATCCACTGACGCAAATTTTGAATACACCTGTGAAATGTGATGAATATCTCACAAGTTTTCATGCCCAAGAGAAAGAACTCTCTCCATGGGGATTATTCACCTTGAACCTGTTCCAAGATACGGGCTGTCAGATCGTACAGATTGATTTCGACAGTGCAATTAGACGCAATTAATGAGAGACTATCTATA
0.9306819908517107 CTAAGGCGTATTTGTACAGCTCTAGGGTTACAAACTGATTGGTAAAGCTATACCTACCGCGATGCCTCTATAGTAACGGCTTTGATTCGTGTGCTCAGTGATTCGGGTTCTCTGGCCTAACTAGCTTAGCTATTCCTCTCTACCAAGCCAAGTATCAAAGTTTCGATTGAACCGCCATACAAACCTCTACGATATCTGTCTAAACACTAACTTGTACACGGTTAACGCATTACGCAATCAAGGGGAACAACTCTACGTGGCAGCATTCAGAGTTCTCTGGTGGTGGGTATTGCAATTGAATTTGAATTTGGGGCCAGAAGGCCATTGAGATTGCGAAGGACTGACAACAGCAACAGTGCCGGACATAAGTGTAAGTGCAACTGCGGCTGCCTGCCCTCGCGCCCAATCACACTGCAATCCTTCCACCACTTTCACTCTTGTTTCATTTATGGTTTGTTGATGTTTTTGTCTGACCGGACCAAGAAAAATACCAAACAAAAAAATGGCAAACTGGTTAACTCAGCTGTTGGGCTTTTTTGTAAGTTGGTTAGTTGGTTTTCGTTTC
0.5824811937180454 GTTGGATTCCTTCTCTTTTTATCGCAAAATCGATTTGCTGTTAAATCTAAATCGTCGAATTTCCAACATAATTGATGGCATGGCACCCCATTTCAATTCACTGGCTGTGGGTTAATCTGCATATGCGAGTGAAGTGTCCTTGCGCTGCATATGAGCATATTCACATCTGTATATATATATATATGTATGTACCTATGCCCGAGGTCCTGTCTGCACCATAAAACGCAATCAGTGCTTAATGATCCATACAGCAATTGGATTAGTGCCCGCCAGTCTGAAGGGAAAACTACTGCTCGTCTGCCGAAGGACAAAATCAGGACCAGAAGCAGTCGCAACTTCCAGACCGATTTGCATTTCGAACGGGGCGTGGATTAAGCTGATGATGCGGCTCATGTCCAATCGATTAAATACTTAAGAAGATCTCTTGCCAAAAAACAAATTCCATTGTTTGTGTGCACTAGTGCAGCATCTAATTTATATCCTTCTTATGTTTCGTGTTTAGTATTTTATGCTAAGCAATGAAACTTATGTATGTATGTTCTTAGTACATATGGTTAGTATTTTAGTATAAAATATATATATTCTTCAAACCAAATATTTGTATGTATCATTTTTTTCGATCGTTTTCCCAACACATGTTACTTTCATATCGCAAGTTTATCATCCCATCCCTGTTTTCTGTTTTATGCCCCATCAATTTTGTGCCGCTCTAATCCGCATCCTT
0.8347774379344949 TCCAAAGGACTCTCCGAGCTTGTATTGGATCTCCTAGCCTCCTCCGACTTCTTCACGTCCGGATTGGCCACCTCCATCGCCGGCGGAGAGGAGGCGTTCCGTGACAGCGGCTGATGATGGGTCACATGCTGTGGCGGCTGCCAGGATTGAACTCGTGGTTCTGGTGCCGCCGTTGCCAAATCACCACCATCCACACTGCTCTCCGCATAGCTGCTGCAACTGGTGGCCAAAACACTGCGGCTCAGCACATCCCCACTGATGGAACTGGACTCCGAAGTGGCCGTCAAAGTGCTGAGGCCACTCAATCGATGGCTGGAATTGGTGTTCCGACTGCCACGACGACCAAGAGTGTGCCGACGCCGTGGACGCATGATGACATCATCTCCCTGGCACTCGTCGATGGGCAGCGGAACATCGTACATCAGATGCCGGGAACCATAGATACTGGAACGTTTGCGCTGCAAGTTGAAGCCACCACAGGATGCATTACCGATGGGATATGACTGCGGATTAAAGGATATGGAAATATTGAACAAATTGAATTACATAAGCTAATCTACCCGTACCACAGACACTTGATCATCCTCCTCGACCACATTCGATTGCATATTGGCCACCGATATACAGCCACTGCCATCAATTGCATCCGCGTGGCATGCCACATTCGCATCCATCGTCACCGAAATCGAGCGCTGTAATCCCAGTTTGCTTACGTTCTTCAGCAATTTCCAGCGCTCACCTGCTGTCTTTTCACCTGGACTGAGTATGTTTATGTATTACTATTGCAATTCGTACATAGAAGTACAAGTGTAGCATTTACTTTTGGGATGGGTTATCATTCTTGGCCTTCGCCATCGCAATGATCGCGTTCCACTCGGCGGTAATTCGCGGTTGCATCAATTCAATGTCCGCATAGCTGCCACACGCTTCAACGCGACCATCTTTTATTGCAATTAACTAAGGGTTAAATAGATAAGCTGTAGTAATATATTTTATACTAAATAAAATCGAATAAGATAGGAATAAGATAAGGGTTTCTTAAGATACAACTGCAACTTTTGCGGACTATAAATATGCAAAAAGGATGAGTTTAAAGACCTCTTAAGAGTAGGTGAAGTAAAGTAATCATATAAAATGTGTATTGTGTCCTAAAGGACTTACGTATTCTGCCTCCTTAATGCGATGCAATTGCTGAGTCACAAGGATAAAAGTTCGATTCGACTTTTGTAGCATCTCACGTATGCAGTGCTGGAATATGTGCTCACCC
0.6887728996787575 AAAAAAAAAACGAAGGATTAATAGGTTATAAGTTATTTTATCAGAAGCTATCTTCACTCACCAATATAACTTAATAGAACGGGCAGAAAGATCAACCCGTGCGCCGCCCCAATTACAACGATTCCCAAGTACATACGGAAATAAAACACCTGGAATATCTGACTTTTTGCAAAGGCTAACACTAGTATGCCCGCAAATTTGGTTAAAGTGATTCCGGAGAAAATGGAGCTACCCATTTTGGAAAGGCTATCTGCAGCTCGATCAATTTGACTAACTGATTTCGATGTGGCGAAGCTGTGCACCAAGTGCGAACAAAATTCCACGGATATGCCGACGGCCATGACGAGATTCACCAACGAAACAGCATTCAACGAAATGTTCCAATAATACATAAGGCCACCTAAATTAACAACAATCATAGTTATCGTTATGACAACAACTAATGCGGAATGAACATCGAAGCCCATCAAAACAAATGTAACAACGAATATGGAAAGAACTGAAATACCCATGCTCTGTAGCGTATCCGACCACATGGTCAGATATTGTTCGTAAAACACATAGAATACTGAATATGGAAACACTTCGACCGTAAGGGCCGATGCCATAGGAACTCCATTTGACATTAGTCTGCCCTGCAACATTTGCGTAATATTCGCGGATATCTTTCTAGCCGACTCTAGGGCCAGAAAGTAGTCGGCCGAGGACTTAAGTATGGTGTGGTATGCCATAAAATACGACGCCTCGATGTTCAGTCTTTCATGGCTGTTGGAATACCGAACAGCTCCGCCATAGGCGGCATGACCGGCCTTGGCGCACGTGTCATCGGGATTGTCCTTCAGGAAAAATGGCAAATACTTAACAAACTCCTTTTCCTCCGGCCTAAGAAGTGAATTCTTCGTGATATTACACCTCAAACAGGAAGTATCTGAAATATGAACGAAATGTTATTAGATATTTTCTATGCTCAACTATGGATTAGGTCAAAACTCACCCTGATGCGGACAAAAGTCGCCGCTATCCTTTCTATATTTGCAACAGGATGATGCTGCTGCCGCCCAATCGAAGTAGTCATCGATCCAACTGGATGCTGGACGCGCGATATACGTTTGGTTAGAGTGCCTACTGGCTAAGTAGATCTGCGTGAGTACGCTGTCATCGTTGCAATATTGACCTGCACACACCAAATTCTGATCCGAACTATTCGTATAGGCTAGATCGCCCTTCAGCACAAAGTACACTGGTGGACCAATGTTGAGATTCTCGTTCAACGATTGGAAATAGTGCAAGACGAAACTATCCTGCGGCATAGCCAACTCTTGATCCAGCCCAATGTCGATTCGTGGCGCAATGGCAATGCTGAAGCACAGCCAGGCAAAAAAGATGACCATCACACTGGCGCGCACAATTTTCTTCATCAGAAATGGGACGTAAACACTACTGAAAAATTTGTACAAGAGTCCCTCATTACTAGTTATACTATCCGGCTTCTTGCCCTTGATGAAACAACAAATGTCCATACGATTCTCCTCCCTGCGCTTCGTATCCAACGTAAATAGGCTAACGAAACAGGTTATTTGCAATAGAAAATCAATGATGAGGGCTACGCCGGCGTATAGGGCAAAAGCCCTTACGGCTGGCATATCAGAAAGGCCACCGAGAAAGAAGCAAAAGCTTTCACTCAACGAGGTGAGCAGCATACTGGGTCCAACCTTGCCGAGTATTCGACCAACTTGCTGCTCAAGCGTTTCATTGGGTTTGCGTTGATCGCGCTGA
