svm_type c_svc
kernel_type wgkm
L 10
k 7
d 3
M 50
H 50
nr_class 2
total_sv 1279
rho -0.0445893
label 1 -1
nr_sv 671 608
SV
0.7976650745533511 TAAAATATAAAGTCATGCCAAATTACACATTTTCGCTGAGGAAGTCAGCGAAGCCAGTGGCCATTCGACTAGAATCTTATCGCGTAGCTTTCTGGGCGATATGACAGTGATAAGACGCAATCAGTTTTCGGGGGCGATTGGCGCGTCTGGGCACCACTGGCAACAATCATAAGTGGGGCAGGCCACGAAGCGATCTTTTAGCTTGATCAAATATTAAAGTTCCCAAACAAACCTGATGAAATTCCCATTGTTTAAACAAATGTTACGCTGTTGGTAAGCGACT
0.752454354690158 CCTGTGCAGTTGGGCTCTCCAGTCTGCGAGAAGTCTGCACTGCGGATTGACACCTGACATGGCGGCGGAATCGAACAGCAAAGCGGATCTCGGGGTTTCAGATCTTACACCCGACATAATGAAAGCGTCATAGAAAATATATATGGAGTAGCAGTAGTAGTGCATTTAAGATAGAGCAGCATGTGGTTTAATGGATATTTTTCGCATATTTGTAGTATTTTTATGGGTAAGGCAATCATATATCGTACTTCGTCATGGTAGTAGTTAAAGTGTGAAAAATAACCGAATCCATAATCCAGTTGCCTTCGCAGATCTCAGTACCGTGTACCTTATCTTCGGGCCCTCAGTTCGGAGTAATTTATTCACTCATTCATATGCACATGCACTTTTGAATGTATCCATATAATTATATAATCCCGATTTGGCTCACTTGTGCAAAACCACTGGCCGAGTGGTGCAGGCGTTGAGTTATTGAGCCCAATGATGATTCATTTCATTCATTCGACCGATCGTTAATACTCACCCATCGATCGGCAGATTTATGGGCATGTTGATAGGCAAATTTCCGTTCCCGTCCGAAGCGCAGAAATTAAGTCACAGTTAATAATGGTACAGACTAAGATGTAGTGTGTGAACTCGAAGAAACTCAATCTAGTGACACATAATTAGTAGATCAATGAATAGACAACTACTCATTCTCTGAATAATACACACGCTTAGCACAAATGTTCGACGTAAATTATTGTTTGGAAGTCCAATCAAAAGCTGACCTCTGAATATAATCCTCATATATATGAAAGCAAGGTTTAAATTTATGGGAATAAATTATGATGCAACGCCAAGATGTTGGCTTCGTTTTTAAGTGTCAATTAACATAAATATAAGAGTAATCATTTGATTGTAGGCACATCGTTGCATTGGGTGTTATCTGAGAAAAGGCCCAGAAAGTATACACTGTAAATTACTTTGAAGTAGGTGGTATATAATAACTTTATTGTATTCAGCGTATGCGTCCGCGTACAAATCGAATGTCGGATATTGGTTAGTAAGTATTGCATATATGCAGATACATATTAGTTATCGCTACTAAGTCTGCTATCAGTCTACGAATGCATGTGTGATATTTGGTATCAGTAACTGAAAATGAGTAATTGGTAAGTGATATTCCATAGCCATTAGTTGTTAATTGTTTATCAGGGGCGTATAACC
0.6552072565943972 CGCAACTTGGCAAAGTGTTTGGGCCTGGTTTTGTGGATGCTTGGTCAGGACTTTGAGGTCAAGACAAGTCAATTATGCCGCCGGCGTGACCGTGCGTACATCAATTTAATTATAACTCCTCAGCTGGATTTTCCCCGAGTATCTATACCATTCAGCTTTCAAGCCAACTTAAGCGGCTATCGACTCGAACACGCAGAAAATAGAAATAGCGATTTCTCCCACATACTCTACCAATTTCACAAATGAATCATATAGTGGTAGGTGTATTCCCCAAGTGTATTTACAGACAGTTTCTATGTATTTAAGCATATCTGCCCTGGAGAAACGATTCCATTGATTCCTTCAACGGGAGAATGCCAATTGCAACGCTTAATTAGGCAAAACTAAAGCTAGTTTAGTTCCATGCTTTGTGGAAATAAGTCGGAAAGCCTTTAAGCAGCTCCCAGACGGAGAATGGCCAAAACAACAGAACAACGCACAACTATTTATGTCTGCCCAGGTATTCGCCATTCAGGGTAATTTCCCTAATGCGATTTGGGCCCAGACCAGACCAGAGCAGAACAGAACGGAACAGAACAGAACGGGCCGAAAAGGAACGAAACTAAAACTCGAGTCTTCCCGCCCATATGGCCATAATTAACACACGTTGTCAGTCAGTCGAAAGGAGAAAGGAAAAACAGAGGGATCTCCAGATCTGAAGAGATGAGTGCCAGACGGACGGCAAACCAAAGTTTTGGGGAGAAGTTGGCTGGTGGCGGCTCGGTCTGGGCTCCAAAATACACACATGACAATAATAATTATTGTCTTGATTATGCTCCCGTGCATGTTTTACTTGGCCAAGTTTGCCATTTAGCCAAATTGCCAGACATTTGTCTTTCTCTTGGCCCGTCGTCCGGGTATCCTGCTCAAGGCAAATTCATCTCTGCCACTTTTGTGCTTCGTCTTCACCTTGAACGGCGATGCTCAAGAGCTTTTCATTTAGCTTAATTAACTTATAACCATTTTTACGCAGGTTTATTGTCTTAATTAATAACCCCCAGACATAAATCTTGAGCGGGATTAAAGTGACAAGTGACATTGGCGTGGTTTATTTGAAGGGCTGTGTTCTAAAAATACATACGATTTCTAGGAAATAAATGTATTTCTTCGTCTAATGCCCCACATTATCCGTCACCTTTCTTTGATTTATAGCTGGCTAATCAAAGGACTCAATCAGCCCAGAAGAAATGCGTCTCGAATACAACTAATTTATTTAAAATGCTCATTCATGTCATGCCGAATTCTTGGCCATTCATCAAAAGTCAAACGCAGGGGCAGGACACGGGTCAGTCGTCAGGTCCTTTGTGCTGGTTTTCGACTGACCCGACCCTCAGACGACCAGCCGCCGCCCATCGCCATCTTATCCGTCTTGGTCGGACCTCCGAAGCTGTGCAATTAATATTGAAAAGCTGGGGCAGGACCCCCACCGCACCAGCATCTCCATAAGGATCGGGGCATGAGGGTAGCGAATGGATGAATGAATGGCCAGCCAAATCAAGATGATGATGGAGCTGGTGAAAGCGAGCGTGTGACAAATGTCCTGCTGCCTGTCCGAAAAAGATTTTCCAAATTCTGACAAAACATTTTGTTTGGATCTATGGGT
0.971692206307415 TAATTAATTGCCAATTAATTCATTTTTTTTTTTATCAGTTTATCATTCATCTGGCACTTCCTCCGCTTTGTCACCTCTCACATCCTGCATTCGTTGCATTTGCATAAGGCCGTTTAATAAATCATAATTTGTTAATCAACGAATCGTTGGCCGTATTTGGACACTCTTGCAAATATTTCAACAATGCCGCAAGGTGATAATGAGATCAACAGAACAGGACCAACATGCCAACCGATCCAGAGGCCTTCGATTTCAAGTGGCAAATTCGAGTAAGTGAATTACGAGCCAGGACAAGTTAATGAGAATCGTATTTCATTTGCAATTAGCAAGGAGCACACGCAGCCATTACATTACATTGTCCTGGCCTCCGGTATCCTGCTCTCTATGCAGGATAATCTCGTCCTGGCCAAATTTAAATTATGATTGAGCAATGTGGCTGTGGCTGCGCACGTGTCAGCTTTGTTCTTAATTGAATTTTAATTAATTGCCGTGTGTGACGGCGGAAAGGGCTCGACTGCAAAGCCGCTTTAAAGGGCACAATAATCATGTCTGCTGGTGGAAGAAATCGCTAAATTAACCCTTGTTGAATAAAAATTAATATTCGTGATAGAGCCATGGGGCTTTGTGATTGTAAATAAATTATTGTATATTTCTGCACCCCAGTATTCATCTTGTATACCAATTTAGCCAACTTTAAAACATCATTTGACTAATTTTGTGACTAATTTCGATGGTATGATAGTCCGCCAAACTCCCTGTATGTCTCGGTACCCAAATATAGCCTCAATCGCACCTAAAGTGCCAGAAGGAAAGGAACTCGGCACAAATCCACCAAAATCGCTGCCTGCCCCCGACTGCAATGCAATCTCAATTTGGGGCAACTTGAGGTCCTTGAACAAAGCACTTCGATACCGAGGATCTGGTTAAGTGTGACACTTTTTCATTTGACGCTCGCTTGCGTTCGCAAAGTCATAAGCAAAATTCCCGGGGGTTACAATTTTAAATTAAATATTACAGCGTGGGCCTGCAGAAAGGAGCCTCTGGGCAGGATAAATGCTCAAACAGGATACCCCGCTGCGTTCGAGGACCTCAGTGCCTGCGTGTCTGCCTGTCTGTCTGTCTGTGTGTCTGTGTGCGTGGGGCGTGAATGTGTTTGTCTGCACCTGACGCCTTTTTGTTGGGCCTTTTGGTATTTCATTACAATCCTCTGGCTGTGGACTTATTTCTGGATGAGCGTGCTCTTGCCTTTTGAACCTACCTCATCGTGATAAATGATACGAATGTTTGGCAAGGGAAGTCATATTATTATAACTTTAATCCAGTATCATCGTCTGATGTACATATTTTAAATAAATTATTTTTCTGAATTACTAGCCACTTTTCGCGTAGCGCTGTCTTCAACTTAATGCCCAGCAGACCCGCCCCATTTTCCCATCAGCGTGAAAAACTTCTATCATATTTAACTGAAAAAGGTCAACAAAGAAGGAAAAAGGAAAAAGAAAAACCTTGACATCACCTTTTTCAATCAACTAAAAAGTGTCTTGTTCGCCACGGACTTTCTCCTTTCTCCGCACCACCACCAGCACCACTGACTCAATAAGCTGGCATTTTATTTGCATTTTTTTTCGTCACTTGCTCGTCTGTCCCTAAGGCTGTCTGTCGTCATTTCTGCCGCTCCGCTGGCTGCCAGCCGAGTTTTTCACTTTGTGCCCCCAACGATTCGCATCATTTTTTTGGGGGCGAGCAAGGAGCAGGAATGGCAGCGAATGAGCAGGAGGACAGGAGACGGGAGGCCGGAGC
0.5675623005080541 AATAACAATCAAAATATTAGTTCAAATATGGAATGTCATACCTCGTTGTAATCGTTGCAAAATTCTCTTTCGAATGGCATTCACAGTTCTAAATGTAAAATTTTTGCCATTTTTCGCAAAAAATCATGATGTTACCCCTTACAAAAAATGAAAAAAATGTCAAAAAATTGATTTTCAAAAATCAGCATAAACGTGATAGGGATAGTTAGTTTAGATCAAAAGCTTTAAAAATCAGTCATTATTTCATCTCTGTGACTCATTTAGGCCATGTTATGACCAAAAAACCGCGTAAAATGTCATAATTTGCTTAAGTTTGTACCAATAATTGCCATTCAATCAATGAGCAACAATCAAAACCATAAAATCTTTAATTATACAATGAAACAAAGTTCCAATCGTCTGACATCACAAATTGACAGCTTACGTTTGTTTCAACTTCAAAGCGATAAATTGTTTAATTGTCTAATTGGCCAACAAGTGATTTGAATAGCAATTTGCGATTAGTTTCACCAAGTCAACGCTTAATCGCATCGTGCGGATTTGCATGCAAGTCCGTGGCTCGGACTCATCAAAAACCAAACAGAGGAAAAACAACAGGGGAAATTGAGGCATGTCCCAGCGGGAAAATCACGCCACAACTTGCAAATCGCTCTCGATGCACTCGGTGGTCTGCATCCAAATGGGGGAGTCACGTAGTGCCCACCCTATCCGCGGACTCTTGCAGACCAACTGGCATAATAATATACATATATATATATATATAGAAATGTATATATATACACATAGAAACACAATGGCACACTGCCCCCGCAGCCCACTTTCCTTTTAGTTGGACTTGAGTCCATGCTCCACTGAATGGGCAGCGAAATTTAATTTCAATTTTTATACACTAACAAAAAGTACTATAACTGGGAT
0.4768598248696262 TAGGGCTGTGGGAACCCTGTCTAATTAGGAAATGTTCGTAGGCGACATCACATCCGGAATAATAAATTCGCATTCAAATGGTCAGATAAGTATGGAAATGCCTAGGCTTGACTCTTCTTGAATATCAAATCAATTTAATGAGCAACATTTATAATGCTTACAAAAATGCAAATTCGAGGGTCTTTTACATGTGTAAGCAGTTATGATCTCATCAATATATTTATAATAAATGTATGTCATTAATAATCAATTATAACCCATTATAATAAGCGAATTAAATCACTATATCCATTTTATTGACAGACTCACTCACGCTATTGACAAGACATCAGCAAAGTAAATAAAAATATTAATTGGCTAGCTGAATTAACCTGTTCAAAAATTGCCATCGCCAGCTTCATTGCATTGTATGGTAACTAGCATAGAAAAAACGAGCAAAATCTTTTCAACAGGCGCATTATGAAAGCACAAAAACCGCAGTGTTGTTTGAACTAATTAATTTTGAAAATTTAAATGCGCGCCAAGCTAATTACACAAAATCTACTCAATGCAAAAACAAACAAAGCGATCGCCTGGCTGGTACTACGTACATGACAAAAAAAGTAGTCATCACAATCACGAGGACGAGGATGAGCAGTCAATGAAGGCGGCACAAAATTGTTAATTAAATTTTCCCAATATAAACTGCGCCCCGCGTTGGGCGCCAAATCAAATCAACTGCCACTGGACCGTATTAAATAAAGAGCCGAATTCCAAATCGGTTCGCATAGGGGTCCCCAAAAATCTGACCAGGCCACAGAGGCAATCTGTTAAATTTACCTTCCAACAAATCCCGTGTTTGCCGCGTTTGTCCACCGTTATTGTGTATGTGTGCTTTATTCTGTGAGCGCTGAAATAGCGCAGTTTGACGAAATTACCATGAATAAATTTTAGTCATTCCCACGCGAACCCAGCCATTTCTGATGTCCCACCGTCATTGGCAAATTTGCCAAAAATACGTGTGTGTGCGAGGCAAATATTATTGAGTTTTTGCCGAAGTCGCATGAGGTCGGTCCATACATTTTGCAACATTTCGCGACTGCGCGGAAATTGCAATTAGAGCCCGCTCTGCGCATAAATAACTCGCAAATTGTTATGTGTGGGTATCGAGGCTGAAAAATACCTAGACAACCAT
0.7950826474751895 CTGAAATATGATTTTATCATTAGTTATTCTTTTTTTAAGCACTTTGAATTGTAAATTCCTGTGAGTCAGTTGTGGCTTTACACTCATGTCCTGCACCTTCTAATCCAAGACTTGTTACGATAGCAAATATTTTCTCGCTTTCGTTGCATGCATGCAACTTTCGATTTCGTTTCGATTCGCGTTTGTTGCATGTCTTGACCACATTGTTCGATGCACATTTCCACGATCGCGCGAAAGAGATGCCGCATAGTCAGAAGAAAGAGAGGCAGAGAGATTGGCGTTTGGAGGCTGCCCCAGCTGATGGTGATATTATGTCATATGTTCGTTTGCAGTGGCGCACGCCTGGCGTCAGAGAGATGATTTTATAGTACATTGTCTGAGCCTCATCAAAATCGGCTGGCGTGCACTTACTTCCTCGACTTAATTACCATATGCTGCCATATATATCAGCACCATATACAGAAAAATATCTCTACTATCTCTGCTCCATTGTATTGGCACGTCTTTGAAAATCATCATCATTCGGATCGGAGCTCAGCCCCAGCTTCTTTGTGGCGATATTCAGGCTGCAGCTCGTTTGTTTACATTGTTTTGTGGCCTGACCTTGCCGCATTTGGCGATAAACTAAGCTTTACATAAATAAACTCATCTATAATATTTTTTTATCGATGCGTCTTTATTCACCGACAAAGGTGTCAAAGTTGAACCAGCTGTCGATTGATCATCGATTCTGCGATTTGCATTCGCTGCCTGATTTGTGTAACAATTTATTTATTGTCACCGCTCGAGCATTCCATTCCACTTCGTTCCCATTTCGGGCTGTGATGTCTCAAATATTGGACGACATCCAGCAAAATATAGAGCTATAAGCCATGTAGGCGAAAATGACAGTTATGACATTTTATGTGCCGTTTACCAAACTGCCATTCAGCTCTTTGTCACCAACAATTGCGGCTGGTTGTTGTTTCGCTAGTGGTTTCCACTTTGCTAAGGTGTATATATAGTATAACTGTTTTTGGGTCTCGGCGGTTAAGCCGATTCGCGTTTTGTTTACTGCCATTTTTTGTTTCTTGTTTTTTTTTTTTTTGGCTTGGGCCACCGCAGGGTTCATTGCATTACTGGTCAAGGTCGAAACTGCGGCTTGTTAGCCTGCCCAGCTGACCGAATAGTTGGCTCTGAAATGGATACTCAGTTTGTGATGGTGGGTAACCTCACGAATCCCTTGGTAAAGTCTTTCTAAGAAATAAAAAACTTTCAT
0.9992512794530708 ATTTATTTCAGCATTTTCGCCCCTTAATTAAACAGTCTATCCTCAGCGCTTTAACTGAAAATTAAATTTTAACCACTCATAAGCCAAATGAAATTCAATCTAACTGTTGCATTCAGAATGGGAAATTGTCCATTCGTTTTGGGGAAAATTTGCTGCATAATTCTTCAGCTTTTAATTAACCAACCTGTTCATATTTCGTTTGAAACCGAATCACAATTTTCATTTCTTCTAGCTGTTTAAAACTTGATTTCAATAAGCACTTAATTAATTCGTAAATTGCACTCGGCAATAAATGCTTTGCTCAATATCTGCCGCAAAAACTCTGGCAGCTCGAAATCATAAATTGGACACTTAAGTACTTATGGTTAACTTAACAACAAGCGCTGGAAAAGAAAAACTACGGGGAAATATCAGCTGAAAAGTTTGGGATTTTGCATTGGAAATGAGTTCGACGGAACCGACAAAACGAATTGTGTAATGCGCATATTTATGCATTTGGGTGCCTGCAATTTGAAGATTTAAAAAGTTTTTATTTATATCTAAACTTTATTACGAATTTCGAGCAAGGTCGTGTTATCAGAATTTTCTTTTGCTTCACCTTGAGCCATTTAACCTACTGTTATGTTAATACATTTGACTTCAAATGTAGCTGTCATGACCTTTTTATTTTATATTGATATTGTACTTTTTTTTTAAGGCGATTTGCCTTTGAACTGATTGTTTTTCACATGAATTCTTTTCTATAAGCGCATTAGAAATGAAAATGACTCGAAATAAATGTACAAATTAAATTTGTTTTTCTCAGCACATTTTATGTTTGCATTTAAATGGCTCAGTTAAGTTAAGCATTTTTTCGAACAAAACAAAGCCATCAATTTGTGAAATATTTCAATAAAACAACAAAAACTACACGAACATTTATATTTGTAGCCTGCTTTCGGGCGCTTCAAATTTAGAACGCGAATATTGCGTATACGACATGTGGATGCCCGCTGCCTTGCTAGAAAAACTGTCTAACTAATTGGATATTCAGTCTAACGAATTTCCATTTAGCTGCGAAAATAGAGCAGCTCTTTGTGTGAAACAAATTTAAATGATATTTTCATAAGTCCATTTAAAAGCCTTTTACCTTCGTTTTTTATTAATAGATTGTGCTAATGTGTTTAGTTTGAATTAATTTAATTAGTTATTTGGTTAATAGGTTTTGTTTAATACGATTTGTCGCTTTTGCGCTTGTTGATATTCAATCTGTGTTTCTCACAGATTTCGCTCTCTGACCTTTGCATTTGAATTACACATAAATCACAGGCAACAAGAAAATAAATTGTAAAGTTTTCCACTATTTAGCTTTATGCTTTTGGACATTTGGCATTTTTTGCCACACAGCCACCATGTAATTTACCTACGTTTTTTTGTTGTATTATTTTTTATTGATTATTACTGCCCACCAAACGTAATGTTTATTATAATGATTTGGCATTTTATAAATGTGGGCAAATTATCGGTTGCAGCGCTGCAACTGAAGTGGTAAATTTTAAGTGTTTAAATTATATGAAATTAATCACAAACAAATGAATTTCCAATTGATTGAGGTTGAGTGCTGAATATGAGTGCCGTTTATGGTGATAACATCGGATTTTAATATTTTACTTAAATGTTTTCAGCAATTCAACATTGCAAATAGCTGCTGTAAAAGTCATTGCCAAAGGTTTCGAGGCTGCCTTTAGCCTCTTTGGCCTTTAACATCCCACAATTCACAGCTCACTGCTCTGACACAGGCATATATATTACAAAATGAACCCACATCGCTTTCACACTAAATCTGAGGTCACAGTCATCAGCTCCTCGGATTTCTGCTCTGGCTTTCTGCAGCTCCTTTG
0.9169806783115362 CTTTTCATATCAAATATCTTTATTAGTTAAAGGAGCCCTTTTCTACAAAAACACATGCGTGAGCTTAATTTTCCATCAGTAGAAAAAATGTTGCGAGTTCTCGTTCCTCTTCAATCAAATGCTTTCCTTTGACCATTTTTGTGTGGATGTGTGGGCCAAAAAGCTATTATGGTGAAAAATGGTTAGTTTATTTAGGCATCCGATTTACTTAGATATTTGTTTCAGTTGCTCAATTGAATCCATTGTTCGTCCAAATTCGGGACAAAGAAAAACCCGTGGGCACGGCCCAAGCAAAACAAACTGGATCCATGTTGATCCCTTGTCTGAAGGACCTCGCAGGCAAACAAAGCCGGACAATGGCGGCTGAAGAATAAAAATGCCCAGCAATTATTACCAATTGATACTGGAGCGAAGCACAAGAGGGGCTAAAAGTCCCAGTCCCCCCGCCTCAACGACAAGGGAAAATATGTTGAACAGTTAAGCAAATATTAAAGGGAGGAAATCGCAAAAGGAGTGCCACAAAATATCAACCTCTTAATCAATGTCAGGGGAGCGTAAAAATATTCGCTGAAAATAATAATTTATGCAGTTTAGTTCGGTTAAGCTGAACAATGGAAAAAAGCAAAAAATATACAGAAAACACAAAGGAATTTTCCAGGAAGGGAAAAGCAATTTATTTTGACCTTATTCGGGACACAACTATAAACAAAGTCACCTGGTAATAAATCAACTACATTTTTTATTATGTTAAACATTAAATTTCCATTAAAAAAATATATGTTCTCAACAGAGTTTGCTAGAAATAATAATGTGTAAAAATTTAATATATTTTAGCAAAAGGATAAATAAATCTTATTTAATATGTTTTAGGTCTGCCTAATATTATTTAAGAACAGTTATGAAAATCGTGAAAAAAGGTATATCTTCAAAATTGCTTCACAGTGTAACCTTTAAAAATTTTCTCAATCTGCTTTGGTACGTATTTGGCAAAGTCGAGGAGCAATTATTGCCATTATTAAGAAAGAGATGAAAAAGTGGAAAAGAAATATTCTTTTGTGCGATAAACGTTGAAGTTTCCTTTCATTTTCCCTAACTTTTCATCAATGCGGAAATATCGATTATGTTTAATTGAAGTTTCGCTTTAGTTTTGTTCGATTTTCGCAGCTTTTGGCCCAATTGGCAGGCCGCCAGTTTGGCCAGCAGACATGGCGATGGCCTCCAGCCCCTTTATTCCGTCCTCTTGGGCCTCCACCGCCATCTGTCCAACAGCTGGACTTCATGGCCAGGACCAACACTGTGACCCACAAAAGGCACACAGCAGCAGAGAGAAACAAATCAATTGCGACTATAACGTGCAAAGATTGCACACCGAGAAGATACATTTCCGCATTTTCGTATATATGTATATTATTTTCCCTTTTAGTTGAGCTTAAACTGCATTTGCATGTCCTCATTGTTGCGAATGGGAATTGATTTAATTGCACAACTGATAGCTCACGCTTAACAGCTGGGTATAGGATTTGGCCGAAAACTAAAACCCAATTAAGCATCAATCTTGTTTGGCAACAACAACTTCATTTCAGATATGCCTTTTTGTTTGCTTTTCTTTTCGGTTTTAGCGAAGAACAATTGGCTTATATTTCAGCGAAATGAGCAATTTGGTAGTGTTATTGTTTTTGTGATATTCTTGTTTGCAATTTTCAGACGCTGGCTTCTGAAGCAAATAAAATTTAAATGGCAAAATAGAACCTCGAGCTAGCGAAATGATATTATAATAAATACAAACAGTTTGAAAAGGAATTCTACATTGTGCAATATATTTTCAGTTGGAAAAGCAATTTTTGCCAACTGCTTCTTGATTATTTGAGGCTCGGGTTAAAGATAAATCGATATTTAGAATATATCTGATTGGGAAATAAAAGGTATTCAAGTAGTTATAGTAAAACTTAAGCTATTAAATATATTAAACATCAAAGAAGATACAGTGGGCATCTGAATGTTTATCCAAATGGCATTCTGACTTTCCAATGGACCAAGAGTAATCCCC
0.5320900572429997 AATAAGAAATATTTCATGAATAGCCTTTCATGGATGCCAAATTTTGCAACATGGTTTATAAATTTTAAGGTATTCAGTTAATATCTTTGAATATTGTTCATAATTTTGGCATTCATTGCCTTCGCATACTTCTCATATCCAACGCGACTTCCGTTGGCTGGCTTTTGGTCCTCGCTCCGCGAGCTTTGATGTCTTGCGGTTGCTTTTCCGCCCCGGAAAATCTCCCACGGGAAAGGGGCCGGGGCACCCTGACCCCAAGCCAAGCGCGGAAATTGTGCGCCGCAATCTCTTAAGACCGGCGACAAATATACCTGGCCTGGCATCGGAGGAGGTTTGGGATTTTGGGGCGGGGAGCCGGAGCTTTAGGCATTACCATGATTTAACATCAACTTCTGGGCTTTTGTCGTCTACTCTCGGATGTCTGCGGGTTAAACGATGCGAGTGAACTCAGGTAGAAGAGGACACGCCGCTCGTAAATAATTAATCTGGCCGCAAAGTGCGATTATCAAAGTGTTGGAAAAATGTTAAATAGCTCCCCAGGGCAGCGATGCGGCCGACAACATTAAAATGTGGCGAAAGTTTGGCCCGAAGCACTCGAAAAATATTTTTGAACCATGAAAAAGATTTACAGAAAATCAATGACAATCGTGCAAACTTGTTAATGAAATTAAATGTAATTTTAAATTATATGCACAATTACGTTCAATATGTATCAACTGCTTAGTTATATCTGATTCAAAGAATCCACATTTATTTTCCTAACTTTCTAAATCGGAGTGTATCCTTGTCAGTCGCGTCTTTCAGGACATTTGCCCGCTGACCACTAAACTTGGAGTTCTTGATATTTTTTGACTGCTCCAGTTGATGTTTTTCAATTATGCAAATAAAGGGATTAATTTGTAGCGCAAAAGGGACGTTGTGTGGGTGGGAATGGTAGACACTGGAAATTGTTTTAAAGAATGCGCCAGGCGCTGATAAAAGTTTGTCTCACGCCGCCTCCTTCCATTTTCTTTCGCCCGAGATACCAAACTGTGCGACAACTATAAAAATTTCAATTACGAAAAAGGGATACAGACTTTTCTCAAGGATGAACACCAAAAGGAAGGTGGAGGTGGAAGTATGGGGTTGTCAGGAACAACTTCCAAAATTGACTTCATTAAAGTCGAAACAATTTTTGGGCTTGTGTAATGTGAAAAAAAAGGGTATTATGTTCTGCAACCAGTATGATGTGCACCTAGCTGGTATGGTGTTTTATCAAACTAAGGCTTTATGAGTATACTTCGATTTCAAAGATTTGAAAACTTTTTCTAGGTGAAAAGGCTTATTCAGTGAAACATGAATGCAATGCTGCGCTTCATTTAATTTTATTTCCCTTCAAACTTGGTTGGTGTCAATTTCAGCTTCGTGATATTGTATTTTTTGAGGGCTGTTGTGTTTCTGGCTGCCTAACATTTGTTTTACCCCTTTTAGCCCCCACTTTATTTGCTGTTTCAATTGTCAGTTGAGCTGGAAGTGGCTGTTGAGTATTAGGTCTAAATGGGGAATTGCTAAAATTCCGGCGAAAAGGGGACGAAACGCCATCAAGGAACTCTTTATGGTGATATGGTGAGAATGGCGGAGTTGGAACCCTGAAAAAAGAGGGGTTATGTTGTGGGGGCGTTGCACAAATTAAACCCGAATGAAAATTAAACGATGCATGAAATTACTTTCCTTCTTTTTTAACTTTTCTTCCTGCTGTGTTCGTTGTCGTAGGCAAATTTTCTACTACTCCCCTTAATTTTCCCTCCCGCTCGTTTGCCTTTCTTCGACTTTAGCTTTAGCTTTTGGCTTTTGACTTTGAGTGGATCGGGTTCTTTCTTCCATTTTGCACACGCAGTGGCGTAGCTATGGGGCTTTACAGCAATGCATCCTTGAAGAATCTAAAG
0.9844058773025917 CAAAGAATGCGACTAGAGCAGACACAACTGGAGGGAGTAGCCAAGAAGATGCAGGTATGTATATACAAACAAATTTAAAGGTGTGATCATCACTAATATCATTTACTCAAAACACCCAGGTTGACAAGGAGCATTGCATGCTTTTGGCTTTGCCATGCGGAAGAGATCACGCCGATGTACTGCAGCATTCAAGGAACCTCCAGACCGGTTTCATTACCTATTTGCAACAGAAAATGGCAGCCGGCATAGTGAACATACCCATTCCAGGAAGTGAACAAGCAGCCTACGTGGTACACATATTTCCATCATGCGATTTTGCTAATGAAAACCTAGAGCGCGCCGCTCCGGATCTTAAGAATCGCGTAGCTGAGCTTGCACACCTCCTGATTGTCATCGCTACTGTCTAAACCACTATAACAACCAAACCCACGGACTTTGAACGATAAAATATACCCAGATGTTAAACTTCACAGGCTTACACGACAACATAAGAGGAACCAGATAAAGAAACCAACAAAAACATGTTACGCTCTTCTAGTATTTTAAGTAATTTTAAATAGCGATTAAACAAGCAAAAGTTTAAAAAAAAGCAAAGGAAAACAAAACACAACAAAAACGTAAACAAGCTGAAACATGCAAACTAAAGTTTGAATAAATAAATGCAAGAATGCAAAAGTTCATTGAGGCCAAGATCACATAAAAGTGTAAAGAGATCCGCAAGAGACTCAAACAAAACGAAAGAAAACCCTTTAAATTCCGACACTTTGAAAGCAAAATATTTGTCTAAATTAATTATATAACTCTCCGTAATTAAAAACCTTAAAGAAAAAGCTTGCAAAGTATCGTTAAGTTTGATCTCAAGAAAGAATGTTTTATTTTTGCTTATTTAAAAAGAAAGAAACA
0.8386576129250458 CTGGACCGGCGGAGTTGGTGGGCCTCGGATCCTGGAGCTATATGCCGTGCGGATATGCCAATCGGCCAACGGTGTACACCTCTGTACCCCCTTACATTGGATGGATCCACCAAACGATCGGCGCCTACTACCAGCTTAACTGAGAGTCGTGGTGTCGAAGGGGAGATCTTTGCGTAATACTCTAGCAGTACATTAAAGTAAACACCGCGCGTTTTCGTATCTTATCACAGAGCTCGTTAACGTGAATAGAAAACCTTGTTTTATTGCTCGATAAGTGGACGGCTGATTGCCTGAAATCGAACTACTATTTATAATTGCCGATCAGCTGGCGATTTATGATTTATGATAGAGTCTTTGTATTTGCTGAGTAAGCGGTAAGGTGTAAGCTGACTTTCTAGTCAGATGGGTAAATTTGGTAAGATCATAGTTACTGCAAATTTGGTGACAGACCCTGACGAGAGCGAGACTCATTCCTATCACGACTCTGCGGTAGTTTGTCAGGTTATCCTGTCAACAGCAGTGGCAGGCAAAGTTTTCTAGTTCCATGAAAACTTTATCAGGTAATTTGAGGGGGATGGAAATGGGTTAGGTGGAATATGTATGTAAAGAGAACTAAGCAGGTACATATTTTATACT
0.7005829294318641 TATATTAAGGCAAAAGTTCCACTTCCAGGAGGCAAAAACTGAATAAACTACCAAAGTAAATATAGGGCAATAAACTCTCCTTCGGACACGCTAAATTGAAGAACGCAGAAGGCCACAATGTTACTTGTCCTAAAACAACAGTTGAGTCCCAACTCATCAGCCTAATCCATCATTCGGGGAAAGACAAACAAATGAATTGGCGGTGGCACACATGGGGGCTCCTTGAGCCTGAAAACATTACTTAAGGAGCATGAAGGGAGTCAGGAGTCCCGGAACTTGGCGAATCTCAGAAGCCACTCGAACGGTAATTGCCGGCTGTTTAAGCTTCACGAGCGGGATAATAACAAAGGCAAAGTTTTTACGGCCTGAAAGGTAAAAGCAGCAAAAGGAGGAGACCAGGTACCGTCAAAGAGTCAGAAGTTTTGCCATTAAAAGTAGTAATATAAACTAAATTTCCCGCTGGGAGTCCAGGCAGGTAACAAAGTCTGCTAGCAAACGTGCCACGTGCCAAAAACCAAACTCATGCCAGTAAAGCTCAACATATGAAGTCTTCACATTTATACATATAATTGTTTAAA
0.6935583740473544 GGAACAGACGATGCGTTTCTATCCGCTCATAAAGCGCCTGAAGCCCGAGGATGGGAGTGTCACAATGCAGGAACATGGTGAGTCCACCCATCCACGCACTCTATTCCAAATAACTCGAACATATTTTCGCTTTCAGCCTGCGATCTCATAGATAATGGTGTCGCGGCTATTTTCGGACCAAGTTCAAAGGCGGCGAGCGGTAAGAGAGTGCGGGAAAATCTTGTGTAGAACGCGAAAGCAAAATAGAACGCGAGGAAAATTGGGCACAAGAAAATCGACGAAAACTTTGACGGCATCTCCCAGATTTGTTTGCCAACAGAGCGTATTCGTCATGGGTATCATATCATCTGTTTAATGAGCAGACCTCTACTCTCTTTTTGCAGACATTGTGGCCTTGGTGTGCAATAGTACCGGCATTCCGCACATAGAGTTCGACAT
0.7219658021556977 CTCAGCTGTCGGGCGATCACTTTAAGATCGCCGATCAGCGATCTGTGCTATGCAAATTCCCAGATCCCTTGGCCTCCCTTCGCTCGCTTGATTAATTGCCGCTGCACTTTTAATTATTTTTAAAAGCCGGATTCCTCGGCTCCCCTCAGGGGTTAATAATTGTACGCAGAACTGCACCAAGGCTGCCTTCTCAGAAATTCAAAACCCATTTCCCACAAGGTGCGTCAGCTAGCCAAATATTTGCTCCCCCGGAGACGAACACACCCGCCGTCTAACCCAGTTCCAAATTCTGATTGCAATGTTTGCCAGTTCTCTGGCATTTACCAAACCGTAAACAATTCCACCAACAAATGTCGGAGAGTTCTGTAACTCGAAACGAACCCAGATCCACGGAGACAGTCGTCTTTCGAGAGTCTTCAAATGTAAATACTGCTAAAATAAAAACAAAGACGAATCGGAATCGGCCAGTTGAAGTCGGAATACCGAGAGGCGACAAGTGACGCCTTATCTTAAATGCATGCCCCTCAGAAGAAGCGAGGAGTTGGGAAAGTGTCGCCGCACTGGGGAGTGATTGGCATATCGCATTTCCCCATTTGCCGTCGTCGCAAAAGTGCAATAAATTAACTCGGTGAAAAAGCACAAAATAAAGGAAAACCAAAGACGAGAGCGGAGGGAAAACCAGTAAAATCTTGCGCCGCAGAGCAGGTTGACTGCCCGGTGGACCGTCCTCATCATCAAGTAACCAACTAAAAACCAAATTAATTTTATGACAAACTCGTTGAATGGCAAAAGCTACCAAAACTCTAGACGAACGTGGGCAGGTTACTCGGCCCACTCTGGGTTTATTTTTCAGTTGGCTGCGGAGAACAAAAAAAAAGGAATTATAAAACACAATCCGATGCGGCGATACCTGAATTAAAAGTGCTTAACTATGGTGACCAGGCTCTGGTTACCCGAGAAAATTCATGGGAAATTTATGCGTGATTTGTCTGAGAGGTTTACGGCCAGTGGTGCAGAGAAATGAAGTTGTTGAATATTTTAAAAGTAGTAATCTTATTTAGGAGATAGCTTGAGTGCCCCATATGTTGTATTTAAATAGATTCAAAATTCAAAACAGGAAAATATCATTTCGTTATCTAACCAAAGCAATTAGAACCGCTACATAATAACAATAAAATGTAAAAATAATATCCTAGAACTTACTAAGAGACCTCTTTGGACATTTAGCTGACCATTTCAATTAGTTGGTGCAATATGGTGTCTCCGTCTATTGCCGCATAATAAACACAAAAGATATGCCCAATACTAGGATACCCCTTTACTAGGTAGTATGAATTCCATCTGGTGCATGATCCCTAACTAAATGCTTTCTGCTTTATGGCACTGGCAATGCCACCGCAATATCAATATCAAGTTTATTTTAGCTTTTTAGCATATTTTAGTGTCTTATCAGCGGCCGCCGATGGCAGCAAATGAGCGTGAGTTTGGAGTGAGTAAGTGGTGAGGTGGGGGACTGGACCTGAACATGTTGCTGCTGCAAGAACAAGGCTCCATTGTAGGTTTCGCCTGGGTTGACAGTCATTTAGATTTATGGCTGATTGTCTGCAACGGCAGCGCCTTTTTATAGCCAACTTGCTTTGGCTTTAACTTCACCTTGTTGTTGCCTTATTTGCACGCAGAGTCAGCAATCCAATTTTTGCATGTTTGTTGTCG
1 ATAGCCGTGGGAGACTGAATTAGCGGCACAATCAATCTATATTACAAATATCCGAAAAACGCAAATAAAATTTGATAAACCTCAAATGCTAAATACTTCCGCCTTCGCTTTACACGGCTTACAGACGATGATTGATGGCCCTGTTCCATGGGCCAGAGTTCGCACAGATTCTCCTCGAGATCTCCCCGCACTTCCAAATGTGTTCATGTGGCATAGTGTGTATAGTGTATACTGTACCAGCTAAGCATGTAATCCGCTGAGCCGAGCACTAAGACCCAAACTGTCAACCAGTCGCTCCGAGTGATGCAGCATATATTGGCGAACGAACCTACATACGTACAGTGCGTTTCATAAATGGCAATCAGCGATAATGGTGCCAAAAGAATCGAGAGATGGAATAATGAAAATATTTATTACCTATTCAACTTGGGAAGTTAGGAAACAAATGTGAAACAAATGTGATATGATTTTAATAGGTTATTTAGCTATTTTTAAGTTGTTAAAATTGCTTTAAATAGATATTATATCTCTACGTGAGTTTCGCCCTAAGATTAACTAACTCGGCTAGTAAGCATCGAATTGCGTCTGTGAAAATTAATTAAAACTTCCTGCGCCCCAGCGAAAATGCATCATATTTTTTATGGCGTGCATTTAACAACAATTCCAGAAAACAACAATTAACAGGGGAGCACAAAGAACAAGCAATGGGAACTGGCTGCCGGTTGCCAAGGCAGTTTTAGAGGCCATGGTTTCCCGATATTGACTTAGCTTACCTCTGAGGGCTTCATTCGCGACTTGGCTTCGGAGATTTATTTTTGTTTCCCGGAATAAGCCGCTTACGGGGAAAATCTTTGCGTGTTTCATTTTTGGTTTGTTTAACGTTCAGATTAACATGGTCTCTGATTTGTCATAGGGGTTGCGATTGCCTTGGTTCAACATTTAATTACAGTCGTGGGCCGAAGGTCCTTGGCTGGGTATGGGATGTGGGCCTCAACTTTGATGTCTTCGGTTATTTGATGCCAATTAACTGATGAAAGCTTAGCCCGGTCAGAAAGTAAGATTGCATCGGCAACTGTCCCGTTCCTGGGTTATAATTCCCATGATTAAAAGTGGGTCTCAAGCCGAATTAAGCTTTTGGGAAATTGATTTGCCAGCTGCATTTGAAATGTGCAGATTGATTGGCCATTCAGGCAT
0.4284543808643078 AGTGAGCTGTGTGTCACAAACACAATTCCACCCACACACTCGGGGATTCAGATTCAGACTCAAATTCCGAATCAGATTCGGACTCGGACTTTGGACAAGCGCTCAATGACGGTTTGGTAAATGGCTCAAATTGATTGAATTTTGCACTTTGGCATTCATGATGGCCAAAATAAAATTTGCATTTGCTGGCCAACCGGTGAAGCGGTAGAGCTGCGATTGTGTAAATGTCAAAATGGGAAATTAATGGGCCAAGGAAGTGGTCGGATTGGGTCGAAATGGGAATAACTTGGCCCTCGAAACTTTTTTCATTTTGATTCATTAATGAAAAGTTCGCAACAGCAACAGCAATAGCAGCAGAAAAAGCGAGTAAGAAATTCATTTAATGGATTTTAATTATGCATCAAGGCGTGGCAAGTCGCAAAGTTGGCCACCAACCACCGCCCTGAATATTTGATTGCACTCATTGAGTGCCACTTGCTGCGAAAGTTGTTGCATACTTGGGGGCAAGTTAAACGAAGCAGAAGACACCAGAACTTAGCCACAAATAGAGCTGCAAGATAGATTCCCATTTCCATTCCCATACCCATTGCCTGGGTTTATTTCTTGGCCCTCGGGCAGTGCTCGATTCAATTTGTCCGCATTTCAATTTCCTTTCATTTTACGCTTGAATCTGCCGCATCCAGGAAAATTGCTCCATCAAAGCTCAACCGCAAACAGGCTCACATATGCCCGAGTCCCCACTTCCTCCTTCGATTTGCCTAAGAACATTTTGTGATCTAAAATATACATTTTTTTGGCGGCCATTTCGCAATCCGGAGTTCATTGTACTTGGCTGGACTTGACAAATGAGCATCGCCTCCGGAGTTAGTTATGATAAATTATTGCCAGCTATTTGAGTGTGAGCCAAGTCCTTTGCCAAGCCAAATATTTTCGTCATTTATTTTTGTAGATTTATGCAAGCAAACAATCAGAAATCTGCAAGATTGCCTAATCTTAATTTGGTTGGGAGGATGTCGGGG
0.565882181490226 TTGTCTTTTTGAGGCGGATTGCAACTGTGCTCCATTCGATTTTCATTTATCCAGTCGCACTGCATTTCCTTCATTGTTTTCCCGCTGCAATTTTCGCACTTTCCGCGCATTAAAAAATTTAGTGATGCAATTAATACGCAGAAGAAAACAACAAAAGGCGACGCGTCGCAAATGAAAGAAAGGGAATAAAATGGTGCAAGAATTTTTTAATTAAATTTGCGGCCAGACAGCTGAGTGAGAAATGAGAAATGGGAAATGGGAAAGAGTCGGACGAGTGGGGCGAGTGCACAGTGGAGCTTGAAATATATTTCAGCCCGCTCCTTTTTTTTTGCGGATTTAGCCACGTAATGCAATTTATAAGTTGAATTAAGGAAGAGACAGAGCCCAACAAAAACCCCCAATTGCCATGAAAAATGAAGTCAGGCGCAGCGGACAATTGAAACATCAACCTCAAGAGCCGCCGCCGCCGCCCGCGGGGATGTATCTTATGGATTTCGGATTTGGGGGCTCGGGTTTCGGATTCAGGGAGGCGTGACACAGCTGCCGAGATGAAGGAAAAACTATCAATCAAAAGACAAAATGTTGATTATTATTTGGAATGCAGCGGAGCGTACAGTTTAATTATTACTCTGCGGTTTATCCGCCAGTTGCAGAGGAGCGAAAAGTGGACGGGGTACTTTAATTTGCAATCGAGTAACATCTTCATAAACTTTGGGTTTGCTTTGAAATTATACGGGAAATCTGTACTGTAAATGTTGCTATTTGATTGATTAGGGCACGAAAACGATGCACAATTTTTGTCCGTTTCATGATTTCCTCTACATCACTAATTTGATTAATATATTTTGCATTTTTAAACTCACTCAATCAACATTGATTTGGCCATGGAAGAATGGCGGGGAGTCCATTCACCTGTGCCTTTCCGTCTGAAATTTCTGCTTGAAATCACATAATATAACAATGATCTGCGGCATAAAAACTGTCTCAGACAATAACAAGCGAAAGAGGAGAAAACTGTGTGTCATCATAACTCATGATTATGCAAAAAGGTCAACAGCTTCTTTGCTGACCCTTAAGTCATCGTCCATTGTTTGCTTTTGAGGGGTTCAAAAGGGTTCAAAAGGCGAAAAATGCTTGGGCGGTGAAAAGGGGGCCGCATCACGTGCTTGGCTTTTTTATGATGCGGCCAAATTAAATTAAATGGCCAACAAAAAGCTGCGCCGCGCAACACTTTTTTATTTCGAGCGTTTGGCGGCGGTTCCCTTTTTTGAAAAGGAGTCACCAAAGGGATGCAAAGGATTTACTTTCGCTACGTCTTGCTTACCATGTTTTTATGCCTATTTTATGGCCAAAAGCGGAGCGGGAAAGTCCAACTGAAGCACCTCGTATGACAGGCGGCGCAGCCAGGCAGACGGGCAAATTAATCAAAACTAAACTGCCCCAAGGATCAGATCACTGGAATGGGCTGCCATGGGATGGCATGGTATGGGGCTCCTCTTTCACGCACTGTTTGCTGTCTAACGAGCATGAAAATGAAATTGAAAGTAGCCTGCCAAAACTGATTGATTAAGCTTGCCCACTTGCACTTCCCATGCAGTGAGAAAAACATCTCAAGAGTGCTAGTAAAATAATGTACATATGTGAAATCTAAATAAATGTATAGAAATTGCATTGTATTTCTTTCTGTGTACACTTCTGCTACTAGACACTCACCCCAATGCCAATCCTTGACCAACTGACCAGTGAAAGACACTAGAAAACAGGGGGCGATTTGCCTGCCAGGCGACAGTATTAATTGGGTAATTTATTGCCGGGCTGGCCCAGACAACCTTCACTTTTTCACTGAGTCCCAGCAGGATTGAGTCTCTCTAACTGAGCGCCGTCTTCTCCCATTTACTTGCAGCTCTATGCCGGCACCAAGATGAGACCAGGCCGAACGACAACAGCTTTACCAGCAGCGACCACGCCCCTGCTCCTGCTACTCCCACT
0.699660853627558 CTCCCCACTTGGCTAACTGCCATGTTCTTAGCCCACAAAGAGCGGAGATCTAATCTGCGACGCTGAGAACAATGCAAATAAATCATCATAATTATTGATTATAGTTGCCCACACAAATCGATGCGGACAAAGGCTCATTTCCAGCATTGGCCAGCTTCGAACAAAAGTAATTCGATTGGCAATTTGCATTACAAAAAGCATTTGAAAATTGTATTGTACAATCCGAAAATGACAATGAGGCAAAATGGCATTTTAATTACAAATTGCAGAAGGTGGGATTGCAAAGGCGATAAATAGATCTCCGCAGACAGACTGTGGATGGATAGTTTGTAATTCCAGTGCAGTCCAGCGATTTTTCACGGCGCAAATCAAAGGAAAAAGGCAGCCAAGTGGCACAGCAGCGAGTTACACTGTGAGAAACTAAACTGGTCATGTCATGAAGTCATAGTTGATGTAAGATTTCGTGTAAACTATTAGCTACTTAAATATATATTCAGTAATTATATAAACTATTAAATTCGAATAGTAAATAATATTTTTTCGTACTGTGCTACAATAAACGGCTACCAAACAGCAACAGCAGCAACAATGAGCAGTCTGCATTCATTTGAATATGCGGCGCATGCAGGCGGACCCACAGCTACCCAGATACCAGATACCGGAGCCCCCCATCCCCCGGGAATCCACCATGCCAACCATGTCCCCGACTGTATCTATCTGCCTAGCATCTGTCAGAGCAAGTCGCTTGTAACTTTCCCCCATAAACTAGCGCCGAACTGCGACTTTGCCATGGCACAAGATAAAGAAATTGGCTGCACAATTTGGGATCCAGGGGAATGTATATGTATATGGCGATGGTGATGGAGATGCAGATGGTGATGGGGAGGGTCGGGCAATCCAAAGGTGTCTGTCAACTGTGCATTTTTTTTCCAGTGTGCTGCTTTGTTTGCGTGTCAATCTGTCGGTGGTGCAGTGCGTTGCGCGCTCGGATTTTGTTTGGCCATCGGTTTGGTTTGTCAGCCTCTGTCTCTTTTCTCTCCACTGATGCCTGATTATTTCACTTGATTTGTGTTATGCAAATTGATTTTCTTTTCTGTCGTCTCTTGTGTGTGTTTTGCTGAGTTGTTTATGGAAAGGTAGCTACCTTTTTGATTGGCCTTTGTGCAACGGCAGAGCTTATGATTGCACTTGAATCAAAATTTCCAAAGAGTCTAGTTTATGTGTGTCGACAGAAGTGTGTTGATGCATGTGTGGGAACAACAAAGGGGCGAAAATCCCAATGCCCTAATGTGCAACTACACATTCAAATGCTGCCAGTTGAGTCCATAAGTCATAAACGGCAATTACCATATTTTCTGCAAATAGCCAGTGCTCAATTCTATGGCTTTATTTAGCAATTGACGCAGAGACTGAATCT
0.870541832765336 TGTTTATAATCTGCCACTGTGCACATGTGGGCGTGGCAGACCAATGAATCGCGTGGCAAACACGAGAGCAATGAATTGTATTTATTTGGGCGCCATAATTTGCTTACTTTTGTTTCACGCTGTCACGTCGGCCTGAAAATTCCCACTGACCCGTAACTGTTTTCGATTTTTTGTGCACACACGTTGAAATAAAAGTTAAATAAAGTACAATAAGTTATTACAGCCGATTGCGTTAATGATCATTTATCGCTGGCGAATTTGTGGGCTTATGTAAATGGTCTCTGGCTGCCTGATATCCTTCCACATGCGATGCCGTCCGCAGGATGCACAGGACAAAGTGTCCGGATGGCCGGGAGATTTATGCTTAAGTGATGTAAATGTTTTGCCATTTGACAGTTTATTGACTTTTATGAGTTAGTTTATTATGTTCTTTTTTTATTGCCCCAAAAGGGGGAAAATGAGGGTTGGCAGGAGGGTGCGAAGTATCCTGGTAATTGGGAACGTGCTTGGCATTGCCAATGAGCCTTCATTTTGTCCGAGGCTTTGTCCTTGTCCCAGGATGTTTATGGACTGAAAGCAATGCGAGATTTGCGATAATGAGTATGATAAACATTTTTATGGCGGCAGGTGACAAACAAAGATAACCATCGGAAGGCATCTTTAAGGGAGAGGAAGCCAGGAAATTATTCAACAAATGGGTGGCGGCTTAATTAATTTAGAGCTCTACTAATGTAATTAGAAAAGAAGATAGTCTAAGTACCAATATGCATACTTACCTACCTTACAACCCAGAAACCAAAATCAAATTAAAGTCATTTTTATACACATTCAGTTGAATTTATTTTCATATTACTCATACGCACTGCTTACCAACTAAACATTTCTTTACTTTTTACTTCGGGGTTCGATTCTCATTTCTGGTATTCGATTTTCACTTCAATTAAGCTAATTCAATCCGCTTTCTATTATTGATTTGCTCTGCTTCCATTTATCATTTGTAATCAATAATTTGGACTTCCATTTGTGTTTTGTAAAATTCATCAAAGTTTTCGGTTCTTTTGTGTGTGTGTGTGTTTACTTGTATATCGTTTTAGTTATCTTTAGCTTGAACAACATTTATGTAGAGTTGGGCGTTTCATATTTAACTATAAGGTAGAGTTGACAATGCATATGTATTGTATGTATCGTAAGGATTCCACCCTCTTCAAAATCGTTCGATAATAATTTCTCATAAAAAACGTACAAAAAATGCGATCGATGAATGAAAGTTGGCAGCAAAAATTGGCAATAGGCTAAACAGATGTCGTCTATATATAGCTAAAAGCATTTCGTTTAATAATTCGCTCCTTCAACGTTCTCGGGTTAGGTTAAAGGTTAAATTGCACACACAAAGTTCTATCACAGAAGATACACGAAAACAGAA
0.7856450888944941 TTTTCTGCGTCATCCCGATAACCGAAAACTGGCCCCGAAAATGCCAAACCGCAGAAGCTTTCTGTGTCGATGGAACAAGTGCACACATATAGTGCAGGTTGACCAATATACACAATAAGTGTGTATCAATGCGCCATTATTAGCAAATGGAAAATTCCTTGCATTAAACAAAATAATCAATTTTGACTTGGGGCGAATTTTAGATTGCAGAACTGGCGAATCAATTTAACACATAAACACCTATAAGCCAACGACTCTTGGACTTGTAAAACAGCCAAGTACTCAGGGCGCAAGCACACTTAATTTAGCATAAAAGCCAAGTTTAGAAGTTTCCGGGAGCCACATTTTGTTTGCCTTCACCCCGTCGAAATGAAGCTAGACCGAGTTGATGAACTGTAAATGAACTTTGTGTTTGAATTCGATTTAGTTTTATTGCAACATGCTTGAGCAGCACTCCATCTAGACATTTTCCTAAGGACTCGGACATGCAAGGATGCCAGTGCGCCTGTTGGCCTGCGGAATCGAAAGTTGTGGCATTAAACAGCAGCAGCTGCAATTTGTGGTCTCTGATACGGGCAAAACATACATAGTATCCTTGTAAGTGGAGAGACGGGAATGCAATATAGGTTTGTACCAAACAGCCTTTCAGGCATAAAGGGAACATTCTCCCTGTAGATACGTAATGAAAGCCCAGAACCATGGAGCATGGTAATGGAATAACATAGCCAGCTAGCACAATAAGTAGTTAAGGCCAGATAAGGTCTTCTTATCATAACGTGATTACACAAGTGCGCTCTTTTTTCCACAGCTATTGAATTTCCTTTAAGCTGTTTTACGTAAAGTACGCATAATATCCTTGCAAGTGAAGGAAAATGTCATCCTACGGCTCCGCTGCGTATGCGCGATATTCACGCAATAAAGCCATCGACACGAATTCACAAAATACAAACAGCTGTCAGCGACACTTAAATGGCGCTAATCATTTTCAGTTATGAGCTTTTTAAATTTGCCACTTAATATGCATGACAATCTCACAGATCTCACAATCCCACAACCGACAAATGAAGACAGATGAGATGACAATTAATCCAGCAATCGAGCTCGAAGTTTTTCCTCTTCCACAACTATATATAAGTTTAAAATACGTATAAAACTTATCAGTCAAATGCAGGCCGGGCTTTATCCGCATCAACTTCACTTTTATTTACATTTCCATTAAGTCAACACGAAGAAAAAAGAAATTGGGGAAAAAGTGGACGAGGATTGAAACGAAAAGCCCTACTTCAGCAAAAAAAAACCGAGGTGGAAAATTTACTGAAACAAAGTCAACACGAATTTGCAATTTGGTATAAAATTTCCACTGCGACCGCTGCACAAATTGCTAATTCGCTAAAAACTTCAAGTTGACACAAGAAATTTGTGTGAATACATTTTTTATGCGCCTCCTTTGGACACGGCGTTGAATAAAACAGAGCGAAAGAGAGACAGAAAGATTTAAATAGAAAGAGATGGCAAGTGCAAAGTAAACGGCTTGGGAAACTCAAGTGTGACTGAATTTTCATTTTTGTGGGTATTTTGAATTCTCCATGGGGTTAAATGTGGAAATGTTATGCTGCAATATCATTTGGACTTTAAACTAAAAGTAAATGTATATCTAAAATATTGAAATAGCTATTATCTGTATAATATCTATATTGTCTATCTGTATTGTATAAAGCATATTGTAGAAATTGACAAATATGACGATCAGATAAGGTCTTATCATAATTGAGCCGCACAGGTTTCTTATCGCTAATATAACAATGTTCAATAGTAATTGTCACAAAGTTAAGTGGATATTAATATGTGTGATTGGATTTCCTTTTTCCTTATCGCTTATCGCTCATCATTAGCGCTACTTACTTACTCTTGCCGGTCTTATTAAAATCAAAGCAAATCGTTGACAGCAAATATTTGTCCGTCACTCAACTTTGAGTGGATACTTGACAGGGTTTTATGTGGAAGCTTGTCGCGAACAGGGCTTTGCAAACTTTGCAAATCCTCTTCG
1 AAGCTTTAATTAAAATGTTTCCTGTTGGCGGGGCACATGCGAATGGAGGCCAACAAAAAGAGAGAGCAAACAGAGTCGTCTAAAAATGTGCGAAAACTAAATTCAGGCCAGTGGGGCCCTCGATACTGAGCACCACCCACAGTACGCATTTTTCCGACTTTTCCCCGAAACCCAAGCACAGCCTCATTTGTCTAACAAGAGAGGCACTAGCGCGAAGTTGGGCAAACAAAAACAAAGTTCGCGAATAAACTGCCAGCAAACACTTCAAATAATTGTTATGAAGGCTGCCTGCGCCTTTGCTGCAAAAGAAAACTTTTTAATATATCTTTTCAAGGTCAGAATTGGCTCAAAAGTATGCTATGAAAATGTGATATGGACTGGCATCGTGGCCCCAAAAACGAACTTCCACTTGGCGTGGGATGGAAAACATCATCGCAGCAGGAGGCAATTTTAATGTTTTCCACCGACAAACGAAGTATGGGAATAAAAACAGGAACAGCGAAAATTCGTTGGTAAAAAATCATTTGAGCCATTGTAAGCCAGAGCATTTAACACTGCTTTGGGATTTGGTTTTTCCGCTGAACAGCAGGGAAGTTGCGAAAGGGTTTTCATTTCCGTGTCGCGCTATTAAAGCCTGGATAATGTCCTTACATATTGAAAGATAAACGACAGGCAGGCAGGATAAATATAAAGCTATTCCAGTTGTATAAACAATTAGTTACTAACACACAAAATAAAATTAGAACTTTAAGTGGCCAAATAACAGTAATTCCTATGTCATAACCTGTCTATGCATATCCAATTAAGAGACTAGTAGTTTTTACATATAAAGCCACCAAATTGACGTTATCAACGGTAATTTAAAACTTCTGCTTTTGATGGCGTATATTTTTTTTTTTATGGTGCAGGTGTGTACGCAACTTTTTGAGAATACTCCGCCACCATATGGATAACTTCCCATTAAGAGGTTGTCATTT
0.8688143086932557 CTTGGTAATTGCTCCCCTGTGCGAACAGGTGTACTTCAGGTGTCGCGTTCGCAACTTCGCGATGTTGCACATTAATCTCGACTTATGGAATCTCTTTCATATTTAACTCGCTCCCGGGGGGGTTGGAAATGCCACAGCTTTGGGGCGTGAAAATGTTACACATTAAAACCTTTTCTTTTTATATTTGCTCTTCAAAAGTCGTAAAACCGAGTTTTATGAATGCGATTAAGCCCGTGAACTGCAGAAGAGCATATTTCTCCTTCGCCGGACTGGATTCCATGCCCACCTCCCTCCATTTAACTGTCTCATTTTGCCGGCTTGGGTCGTCCTACTTTGCTGTTGTGCCCGGAATTTGTCATTTTTAATGACTGTGAAAAGAATGCGTTCGTAATTACATGGCAGGAACGAAAAACTTTCAGCGACGTATTTATGTGTGTGCGGCACTGGCATTCCTCTGTATCATAAATTATTTTACTTATTATACTCTTTTGGATTATGGGGCGTTTTTTTGGGTTATTTCGGCGGAGATAAGTAAACGGAAA
0.689134273459578 CCCCGGACCCAAATTATGCACGAACTCAATTGTGCGTGAAATTAAATTTTAAGCGCAAACAGGACGACTTGTCGGCTCGGCCCTGTTTACCCCAATAATTTGGCTAATTTCACTTGAGACCGGCCCACAAAACCGACCCACTGGCAGGCGGCCGAATATAATTGAAAATATTTCCAATTGCTCGGTGCGGCCACAAATGACATGTGTGGAAGTATGGCCGGCATTTGTTTAGCACTAATTGGGAGTTTCTTGGCCCAAATGACTTGGCTTCAACTCTGCGGCTTGAAGTCTGAATTAATGAAATATTAATACGGCCTTTAATTGTGCTAAAAGCTATTATCAAACTGCAGAATTGTGTAAAGAGCATATGCTTTTGCTGCACACTTGAAAAAGCAATTTAAGCTTGGAAAATGTGTGTAATTAAGACTTGGGGTATTAAATTGAACATTAAATGGAGTTGCAGCACGGAACGTGTGTCAAACATTTTTTGTTTAGCAAATAGTAACGAAGTGCCCCCTTTTAGTTGCCAAATCAAAGCATCCTGCTGCGTCTCGAAACTTTTACCAATTTACCTTATTTCCATTGCAAACTTTGAGATTCGAGAGCTCAAAGACACACACGAGGGTCAGTTGGAATAAATTGGCAAATTGTCGGCGCAGAATTCTCCAAGGACATAAAGTACGAAACTTTCGATTGCATTTTTGTCGCCGAAGTACCTCTGATTGCCTTAAAAATAATTTATTGAGTCAATTGACTTTTGCAGCGGACTCTCCTCTCCTCCGCAAATAAACGCACTGCAATCGAACTTACAATCTCCGGGGAACCCCACACACATTCACTTGATTTGATTGTGTTGACTCTGGCTACGACTAGGAATCTGCAGAGGGAAATAAACTTAAGTGCAGCAGCCACGTTGCCGAGTTCCAAAGGAACTCGATTCGAAACGACTTGGTTCCATTCGAAATTTGAAATTTATTGCGGCCGGAGTTCGTTCACATGGCAAGTTAAAGCTCCGGTTACATTTACATGACTCATTCAAACTCCGGCATTTGCTCATTTCGAGAACGGAGGATGGAGACGTGGTAAGTCCGGACATTTGCGAAATTCCTACTCAGACTCCGGCCAAATGCGATGTGAGTCACACATGTCAATTCAATTTGATCGGAGGACCGTGACGAACGAAGGAGGCAGGCCTATGAAGGAGTCCAAGTCGAGTCCTTGTTTCCGTTTCCTCCGGGGACCACACAACTCCATTGGCAGCCCACATGTCTAGTATGGCCAAATAAAAACGTCTCTCTTTCATTTACATTGACTGACAGACGGAGTCGTCGAAGATGGGAACTGTCTCGTTGAATGTGTCCTGTGGCTTGTCACCGAAATATCGTTTATAATTGGAAGACATATTCATATGCCAGGACTCACTGCAACTCTGGCTAACAATTTCCACAAGTCGAAGCAGGATGTGAATAATTGATTAAGTCTGAATTGTGTTTATAATAGGAATGCTGAGTATATATGTGATATGGTATTATGATTGAAAGAAAGTATATCTTTTCTAAACCAAGTTATATAGGATATATAATAAACTTTATTATTTGCTTGAAATAGTCTCCACATCTTATTCAGCAATTTGAGTTGAAACTCACCACGAAGTCAGTTTGGCTACATCCGCTGCAAAGCTGCAGAATGTTGTAGCTTTGTGGTCGTGTGGAACGTAAGTTCTTCGCTGGGATTTCGTATAAGAGTTGCGCATTGTATGAACATACAATAGGTAACAAACAAATAATTCAGTAAACCAGTCGAATAAACTAATAAATACATACATAATCACCCATTGCAATACTTTGAATGAATATTCTCTCGCTTCGAATCAGACTTTTAAGTAATTGAATTCATAGACGCATCCAACGAAGCAAGTAAATCTGAGATTTATACCAGCGTAACGAAAAAATCGCATAGGAATTTATTTGAAATTGGATTTATTGCAACTGCTAGAGCGAAAAGATGAAAAATGTGTATCAATCCGTTGGCAAAGGATGCTGCAAAA
0.6567583841795178 AGCCTGGCATCTGGCAAATGTCTGCGAATTTTATAATGAAATTCCAGAGCGTTTAATTATGCCCGGGGCAGTAAGTGCCATAAGCCCCCAGATCCGACAGTGGAATTTGAACTCTATCCAAGCTCAGCTCTGCATGAAATGTGTAAAATTATTACAACAAATGCCAGAAGACTGACTAAATCGAATTTGAAAAATCAACAGCCATGTGCACGGAAATTCGGCCCTTTGGCATTCTCGTGCAATTCAATTATGCAAATGTTGTAATGAACATTTATGGCTTTAATGACGCTTCAGTAATGTTATTAAATTCATTAGACTCTGTCATTTTTTGGATTTTATAATTGTTCGTACTCCAGCTCAGTTTATCCTACATCATCCTGATATTCAAGCAAATACAAAAAAGGTTAAAAAGCACCAAAACCCTTCGAGTTTTTCGAGCTTAAATGCCATCGTTTAGGGCCGTCTTAAAGTCCCTTGTTAACATGCCCGTTCTGTCCAGTCCGATATCATCCATCTATATACATATATACATATATATATAGACGTACCTGTAGTTTGTCCCCTTATCTTTGCCAGTACGTGAGCCCAC
1 GAATTTTCGCTTGGTCCAACTATGCGGTATCGTTTCACTACGTTCAACATCGCTATATCCACTGTTTCGAGTATATGATCTATAGATTAAGGACTTTTGGACGAAAACAGATTGTAGAATCGCTTCCACCTAAATATAATCCCGCCGCCGAAAAGGATCAAGGAGCACCACGAATTGGTTCTGATCAAGACGTTCCAGCTGACTATGAATATTAGAAAATTAATCTACACTTTAAGCTTCTTTTTGAACTTTATAAAAAAACTAAATTCAAGTTGTAAATTGGTAATTCCAATAGTTATACCAACTGAAAAAGATGCGCTAAAATCGAAAGCTTTTTAGCCAGGTTTTAAACAACCAAGTGACTAACACTTGTTAACAAAAAGCGGTTTACGCTTCAGCTTCAAAATTAAAAGATAAAGGAATTTTTAAATTGATATCACCGAATCATTGTTGGAAATAAAACTCATCTGTAATCGTGTGTCAATTTATTAAACTTGCAAAATGGTGGACTATACTTAAGTGTTAATAAAGTAAGAAATTAATTAATTATCGTACCTAATTTACAAAGAAACAAGCGGAAAACCATCGGTGTTAACTAATTTCTAATTTAAAGACAAAAAGGCGTTTAAACTTAAAGCACTCGTCAACAATTGCTTAGGGTAGAGTAGGTCTATAAGTAGCATTAGGTTTATTTAAATATAGGTATATATTTAAGTTATAGTATATATATATATATGTATATATATATGGTTATGTACAGGGGACAGTGTAACGATCTCTTTCCGGGTCCATGTTAACATTTTTATAGTAATTGTTATCTTTAACGTTAGTGTTATTGTTATGGTTAGTGTTAAATTCAAAATACAAGCTCCAAGTGGTTTTAATATGAATGATACGGCTTATCTAATAAATAGTTTGGTTTCCTTGGGTTAGGCCATTAAGTTGATTTTGGACGTGTTCTTACTAGTGGTTTTTCCATCTTTTGGTTAATTTTTGTGCGGAAGTGAGTGCCTCACTGAGCAATTCAAGTCAGGGTACTTCGAATATAGCCAAACCAGCATTAACCTGGCTTCCAATTCGACTCCAAATGGTGGTGAATCCCCCCATTCTATTGCCAAACACTCGCATCTCCATCCTCTTGCGTTTTTGGAACATTAGGGTATTGTGCATAAAGGTACTTTGGAGTCGTCGTCTCCCAACTGCGATATCCCCTTACGCCGACATCGTCTTGACCGTGGACGACACTCCGGACGTGGCCATTGCCTTGGCGCTGCGCGCCACCATAGTCCGTATGCGTTCCTGGAGATAATCACAGATGGAGGTGTACTTTTGCTGGTGCGCCAACTGCAGGGCCGTCAGACCATCGTGGTTCTTCAGCAGGACATCGCTGCCGGCGGCCACCAGCTGCTTGCAGACGGTCATGTGGCCAAACATGGCGGCGGCATGCAGTGCGGACTCTCCATTGGGCAGCTGGCCGAGATTGGGTCGGTAT
0.9416950401231352 AGAGAATAGCAAAATACTCTATTATCGCAAATTGTCATTTTGAAATGGTACCCGCCCAGTGGTAAATTTCCAAAACCCGTTCCCATATCGTTATAAACGTTTATGCTAAACTATGAATATTTTACTTCAAAGGCCCGAAAGACCATGTTTTTCCAAACTTTAGTAACAACATGAGGTTTTAAGCATACCCACCAACGAACTCAAGATGAATTTAATCCCGTCTTGAAGGTTGCTGGGAATGATGTGTCAAAACACGAATCAAACTCACAAACGAGCAAAGCTCTCAAATTAATGGAAGTGAAGTATTGAATTCAATTGTCACATTTGACTTGGGATTATGTCGGATTATGTGTCGGATATACCCCGAAACTGTGCAATTATAACTCCAAAACCATGTCTATAAAATCTTAAAAACAAAAAAACGTTGTAGTGGATGCATAATTCATGGGAGCATAAAAATATGTTAATTGATTTAGTATCCAAAGGCTATTCAAAACATAAATAAAACACAATGATAAGCAGAGTCGTGCGAAATAATCACTGTAATCAATCACAAATCATTAAACATTTATGATGCATTAGGAATAATCAATCCGTCAGATAAACTCTATTCAAAATGCAGAAGCTGAAACAAAGAAAACATTTTAACATCTTTGTCTCTCTAGTCAGTGGGCCGGCGTAGCTCATTCGTTGTCTTTACTTATTTATTCAGCCCAGATGTCCAGATGTACTTCGGCTCACCAAGAGCTTGCTCAACTCTTGGAAATGCCAAGTGGCGAGGTAAATCCGCGCCTGCTGCCCAAAAGGCGCGGCTGTGAAAGATGCGTGACAGGTGAGTCGCGATGACCTCAGGTGAGTCATTGCCATTAGTCTGCGCAGAGTGCAGCTCGGCTGGCCAATGGTTAATGCGAATTTAATTTCTTCCACTTGATCTATGCGCACGGAAAATGCCAAGAGAAGACAAGAAGCTTTTGGCCAGTAGAGATGTTAACTGTTTTGAGTGATATCATCCCACCAATAATAGATTTAATGCTTGTTTACCGCCAGACAATGCACAATAAATCGCTTTTGGATATTTGAAAATTACACTCACAATAGGGGACCGGTTCTTCCAACAAAGAGTTC
0.7162940711877561 CCCTTCATGGCAATTTCTAATTGTGTTTCCCTAATTAAAGTGCCGCTCCTTCAACCCGCCCAACTCGTTTGGCAACCGCAAAATATGCCAGCACCGCAAGACCAGGACTATTATGAGCACTTTTGGCCAAAATTCTTCAGAGCTCGGGCCACGCATTGTTCACCAGGTTATTAATCAAATGAGAAAAGTAATTTTTCAGAGGCTTGGCATTCATTTGATTGGCATGCCATGGCATGGCGGCAGGGCAATGAACTGTTAAATAAAATATATCCCAGGCTTTTCACAAAGCTGCAAATAAATTTAAGATGATTCGAGATGGATTTTGTGGGCTTAATCAAAGTGACAAGTGCTTTTCATTATGACTCGTGGTGCGGGTGCGCATAATCCAATTCAGCAATGCATTTTTATAAATGAAAATTTTTCAATTGCTTGGTGGTCAAGTGGAAATCCAGCCAACAATTTCGAGTTTTGTAAAGCCATCAACTTCCTTTAAGTTTTAGCAAATCCAACTGAAGTATCGAACAAGTTCGCTTGTGGCCGCAGCCTCGAACATGTTGCATGTTGAGTGGCAAGCAAATAGTATGAGCTACTGGGATGAGCCATTAGTTGGGGTCCTAGAAGTAAACATAAAATATTAAACACGCATTTTGACAAATCTGGCAAATGACTTGAGGTTGGGACTTGGCCTTTAAAGTCTTGACATTAATTGCAAGGAGCAAACTGGTTAGTTGCTGGCGTAAAGGACCTGCCCTTTTTCACCCAATTTTCGGGGCACGTGTTGTCCTTAAAAGGGTGAGTGGCAGTTGGC
0.9294343941637799 TGAGGGAATTGATTTTATTAAATCATTTGGCCAGCGAAGAAGAATGAAAATTGTTAGACAATGGGAAATTACTAAATTAGACTCCTTTTTTCATACAATTCATTCGCCATCTTTGATGTGCACTACAAGTTGTGGCATGTGTAGCCAGCTTTTCCAGCTTTTCCATTTCCTATTTGCATTTTTCTTCTGCATTTGCTCAGTTATTTGCTTGCGGCTGCTCAGTCATAAGCAATTTTTCTTTTCCCATTTCCGTTGGAAAATGAAAAGCGAGTAACTGATGGTTGTTTAGTCATGTTTAGTTTGTCCTAGTGAGACAGATTGATGATATAAATAACTTTTTTATCTTTTCTGATCAACATGTTTTGAAAACGTCATAAATTTCCTTAAAGGAGCTGGTAAATGCTTCTATTATTTGTATAAAATCATGCATCTTAAAGACTTACTTATATTGCGTTCCATTAGTGAGCTGACTTCTATGTCCCAGAATTTGTGCTCCCATTTCGTGGCTCATGTGTCACCGGCATTGTTATCCTTTCCCTTCGCTTTGAAAATGAAATACGAGTTTTTCGGTACTCATCCTTGGAGTGATAGCATATCCGAAAAGTGCGGAAAGGAGCTTCTCCGTCTCGCATTTTCTACTGCCATCGTTTGAGCACTGGGCTATATCCACTTGGCCCCCTTCGACGGCTTGGCCATTTATATATGCATAGCGATGCAAATGCTGGCTGGGCTTCATTTATCACTGGCTCTGACTTTTATGCAAG
0.6837807041687506 TGTTGTTTGCTCAATTAATGCAATTGCTCGTTTTGTCTCCACGCCGTTGTTGTTGTCATTCGTGACATTATTAATTTATATTTATATTACTTTTTATAGCTGCAGCTGTTGCATAATGCCCTCAGCATTTGTCGCTTCTGCCGCTGCAGCAAATTGCATTATATTCTGATGCGTTTTAATTAATTTTGAGTTAATTTCGTATTTTATTTTGTGCACTTGTGAAGAGGCCTATGGAAATAAATAAATTCGAAAT
1 GATCGGCGGATGAGCAGTGCGCCCCGTTTCGTTGCGATTGTGGCCCCATTTCTCCCAGTTGGAATCGTAAAAAACAGGAAATCATTTTGTCATTCCATAAATTGTTATGCCGTAAATCTCAGCAATCAAATGGGCTGCACACGTACGCACACATACACAGCGGCTTCCTGCTTATCAATGTGTGGGTGTGAATGTCCTTGGGGCTGTCTTATGTCTTATCCGTCCCGCCTTGTGTTTCATATCACTTTCCGTTGTCTGTGGCCAAATTGTTGCCTTGGTCTCGGTTTCCCTGGGATTGTGTGACTTTCAGCCAGCTGTGATTTGACCAACTTACCGCAAAACCTGCCGGCTATTCGGGATGATCTTTGGCTCTAAGAAATTGTATATCCATATAACTAATTTAAACTGGTAGCCTCTAGAAATTGTACTCATGTTCCACAGGAACTCAAAAACCTTCATATGTGGATGTGTAAATTCCAACACATTGACATATAGATATGTATTTATATAGGAATACAGGTGTCGGTAGACGGTTCGTTTGAGATTTAGGACACGTGCGGAGTTCAACTGAAAGCACAGAAAAGCACAAAAACTGGAGCTGAGTTTAGGCCACAACGGATATTGTAGCCAAGTAAACAGAAAAAGCAACAGCAGAACGGATGTGTAGTTCATAAATTTCGACAACTGCCACAATAACAAACTGGGAAGTCACCAAAAATTGACTTGTCGCCTGCTCACGGATTACACAACATAAGACAAAAACAGTACTGCAGATTCTTTAATAAAAAAATCATAACTATATGTAACATATATGAACAAATATAATCCCAAATTTAAATGGAGATGATAACATTCCACGGTTCCTTTTCCCCTCTTACCAAACATTTTTTCAATTTAGCGGAACTATTAAGGCAGTTTAATGATAAATTATGCGCCACAATAAGCAGTTGGCGCAAGTCAGGAGCTGTGAAAGCATTTTATGATGACGCACTTCCGGCCGGTTCCCCGGTTTCCGGTTGCCAATTCTCGTCTGTCTACGGAGTCGTTTCCATTCACCCAGCTCTTCCCTTGATTCTCCCCGCCATACCACTGATGGTCAACCGAAACTGAAGTTCTCTGCGGGCGTGCGACTCAATTGCGACTTTTATGGCACATCAATCGTAGTCATCGTCCTGCAACGTACGAAGCCGTTAAGTTTTATTGATTTCAATGGCCGGGATTTGCTCAGTGATTGTCCACAGTCCACAGACCGCTGTCCAGGGTCCAGAGTCCATGGCAGCTGACCAGGACTCCAGACTGCCGGCTCATAAAGTGCCTTCAACGCCTTTTGACTTGACCGCTCGCTTTGTCTTTCCCTTTTTCGCATCCCCCTTCCATACTTTATTATTCCTGCACTATCACCCTTCCTTTTCCTCAGTGGAGGTCATTAAGTCAATCTGTGGACATAAATAACCCGCAGGACATTGCAAAAGTTTCTGGGGCGCTTTAAGGATTGCCCGCTAAAGACTCCTGCAGGTGTTGAGCCTTTGGCTTTCGCAGCTGGTTTGCGATAATGTTCCTGTTCTTGGTCCATGAAATGTGGTTAAAAGTCAGTTAAACGAGGCAATCAACTGGGCTAGCTAGGGATTACCA
0.3101840138817404 CAGAATGTGAAAGACATGTCGCTTTGCACTTACGCCATTTATCTCGGCAGAAGAATCGCAAAGCAGAGCATTCACTTTGGGTCCCTTGGCTCATTTAATTGCGGCAATTTCTTTCGCCCACGCAGAGTGAGTCAAGCGCTTTGGCTCATAATTTATAGGCATTATTATTGTAATTTCTCCCGGCAGACAAACGCAGCAGCTCGCACGCAAAACAATAATACATAAAGTGAAAGTTTTGCACCTTTTGCCGCGCAGACAACAAATAAGCGGCGAACGCATCGGCATAAGCAGCTGAACAAAACAAAAATAGTCAGTCAGTCGGTCGGTGAGATGGGATAAGATGAGCCACGAACCAACCGTTGGGGAAAAACAACTTCAACCAAAGTACCAAAACCCACGACGAGCAGAAAAACAATGGCTTACAAATGACTGCCAGCTAGTTCAAACCGAAACTGGCTGACAAATGAGATGGCGCCGGTAGCTTCACTTGTGTCTTGCTTTTGACCAAAAATGCTGCAGCCAGAGATCTTCCATCTCCATCTTCATCAACGAACCCACAAATTTCGCCAAATCCGCCTGCGAAATCTCCGAAAATATCAAACAATCACCGAAAGATATTTTTTGACCTCATCTTTGTTTTGGAACACTTGTGATTGCTTGACAAACTCTTTCTTCGCGCCTAGTAAAAAGTGTGTCAAGCGGGTATTTGAAGCAATTATTTGTCATATTTTCTATTTGCGTTTCGGTTTCGTTACATCCGAAATGAGATGCAGAGAAAATAAACAGCATTAGCGAAGAGGCCCTGACCAAAGAGTCAGTGACAAGGCGTCTTTGGACCCGTTTCCATCTGCGTACTCATCATCTTCGCCTTCCAACTCATCAAATCTCACAATGACTTTGGTCTGAGATTTTTGCACCAACGAAAGTGAACGTTTCATTGTGTCGGCGCTGTTTGTTATTATTATTATTATTTCTTTGCCACACTAACATTTGGTATTTTTAAGCTTATGTCTGCACTTGGGTGGAAA
0.7880441565396866 ACTGCCCGAAAATAAGCAACAATTGGGAAAACAAAAAGATCGAAGGGGTAGTTTGATATAAAAATATTTCTCAAAGGTTAAGACAGAAAGTGATATCCTAAGCGACTAAATAATGTATACATCGTGATAATAAATATTTGAAAATATTTATATTCAGTAAATCTTGGATTGGTGTATCATAGTCTAAAGTCTACTGACCCTAACCACTTGTGGCAAGTGCATCGTTAGAGATTATGTGTGCAGGTAGGTTATAAATTATTAAAGCAAATTAAGCAAGCACAGCAGCAAGGGAATCTATTTTTAGTGGCATGTATCAACGCCACGAAGATGAGCACATCAACTTTGGAGTGGGATGATGATACATAGATAACCCGGCACGTAGGCGATTCTATTGATGACGTCGTTGATTGTGAAATACGGCTATAGCGGCTACTTATGCAAACGGATGTATATTCTAGGGAGATTAACATAGCGCAAGTGTAAGTGGTTAATAAACACTATAACCTTGAAAAGTACTTCTAATTGGCGCAGGGCCAAGTCTCCAGCTGCTCCTTTAATGGCCATCATGCCCAGCCATTTTTGCATATCCTGTTTAATCAGCCCTCCAGTAAATGCTGCTCTACCTTGGCATTAGCTTTTATGTTAGGGGCATTAAAATACGAAAGAAAAGGGTCGACAAGCCCTGAACAGATCGTTAAATTCGAGATTCCCCAACACGAAGGGCATAAAAACGTAGACTGGCATGTAGATCGCAGTTGATTTAGTTGTTTCATTGATTTGAGAGCCCTCATTTGAATACTCCTACACGATTTTTCCATTCAGCGAGCATTAAACATACATAGGTTTCCTCAGGTGTCTAATGGAGATCGTAAAGCTGGCCAGGGAGCCATCGTTAAAGCGTATTAAATGTGAAAAGATTTGATTTAACAAGGCTTTAACTACGTTTGAAATAACGAACATCTAAATTAGGTACTAATTATTTCGAAAATTTGCCTTCAGTTTCAGAAGCTCTCCTTATTCCCCTTAATCCTGAAAGTATGCAGAATATTTGTAAGGTTTACTGAAGCTGTGACTAATAAGTCACTTTAATGTAAGATTTTAGTCAGACATCGCAGTTTACAAACTCTTAAGCTGGAATCTTTCTGATAGATGAAGCTATTCCTGTTGTCCAAAAGGCAAGATTCTCCGCACTTTTTAAAACAATAGCAGCCCGTTTAAAAAGTCAGCTGCAGGCCAGGCATAATGACTTTTAGTCTAGACCAGACTTAAGATACATGAACTGCCCTACAGCTAACAGAGGTGCCCACTATCCAATTGTAACTGTTCCAAATGCGATCGCAGCTTGAAACTAATTAGCCGTCCAGCGGTTCTCATGGCGGAATAAGATCAGCCGGCTGGCTCGGTTGGCTAATTAAAATCGCCAAAAGGCTGTCTCCACCTTAACCATGCTGGGCGCGCTCATAAAAGCGCACATTTCTGTAATAAGCATGAAATGCAGCTAGGACCATGTTGTGGTACCG
0.5493888637873109 TTAGTTTGTCACCAGTTTACGACGCCAACACTCTCGACCCAAAGAAATGTCATAAAATCATATAAATTTCATTTCACAATTTCCGCATGCAATTTGGCGTGCCACAAATGCGGCCCATACCGATTGCGGCATGCCACTGCAGTTCCATATTCACTCGGAAATCGGAACTCAGAACTCAGAGCTCAGAGCTCAGGACTCGGAATCCGATGTTCACGTTACCTTGCTGTATGGCTGCCATTGTTTTAACCCTTCAATTTTTGCTCTTTGCAGCGCCATGGCCGACGGCATCCTCACCGACAACCCGCATTTGGTGCTCCTGTTCTACATGGCCCAGTTGTTCCTACGTGAACTTGTGAAAAGCTATCGCCTCATACAAGTCGTGCCAATGGATATGTCCGGCTATTATGGTAAGTTTAATTCAACGCCAACGCACAATTCGTGACCCAGTGCCAACTGAAAGCATGTTTCAGCTGTCGCCATTTCGATTTCGGGTCATTGCGATTTTGCTGTCGCCAGCAAATGTCAAAGTCAGAGAAGGACTCTGCTTTTGGGTGCCATAATTTGTATAAAGTGGGGGAAAGCAAATCTAATGCATAGTGCATGGTCGTTATGGTGCTTCAAGTGTGTGATATAATTATAATTATTCGGGCTTAACAAGCTTAAACTCTAAATAAGTAGGGAACCTAGTGGCTTGCAAGCATAGGACTTTGATAAGCATTTAAGCTTGGCTGCCTTTATTTCGCATTTGATCTGCCTTATATATGTAGTAAATTAAATGACCTCACTTCCGAATTATTTGCCTGCATTCCGAGTTGGACTTAACGAGGGTGTCGTTTCTTTGACATTGCCATTCAGGGCAGCACTCACTCGTTGCACGTTCAACAATTGTTTGGCATACTGGGGAGTTGGCGGGGAC
0.5488407426587911 ATTTTCCCGCCTTCCATTTTTCCGGCAATGCCGGAAAGGCGTGCCAACGCCGCATTTCGCATATATGCAATTCAATCTGAATCCCACTCAATAGCTCCATGTTATTTGTGCCGCATTCGCAGATGGTCAGCGCACCAGGTGATGTGATTGGAAACAAGCGAAGCTAAGTGCCATATTCCCATAGCCATTGCCAATTTGCGAGCTGAGCGGCTGTTTCGATGGCTTGCCGCAGCTTCAAGAACAAAAAATAGCGGATATCTGTGACCCGAGAGCCAGTTTCGATTGAATGCGTCAGCAGCATCAGCAACAAACTGCAACACTGCAGCAGCAACAGCGGCATCAGCAGCGACAACAGCAAGAAGCGCAACAGCAACTAGCAACATGTTGACCACTCACCATCTGCACCACCTGCACCACCATCGCGGCAGTACGGCCGTGGAGCTGGACAAGATCACCAACCTGAATACGGTAAGTCAAGGGGATCCTTAAAGTTAAACACAAATGTGTATTGGATTTTCAATTCCATTGCAATGAAAGTAATTTGGGTAATTTTTTTATTTTTTAAATCGCTTTAAAGTCAAAAAGCCAAGCTGTCTAGTCTTTGCATCAATAACTTTGCTTTCCGTACTCACAGTCCGTACGCTTGATTGCATTTGAAAAGATACGTTCTAGCGAAGAGCGAAACCAATTTAGCTTGTTCCCAAACTTGCAAACCTCAAACGATTGCCAAATTGCATTTGCTTTCCCAAAGAATTCTTTTGCACTTTGAAATTCAAAGAGCTTGGTTTCTGGCTGCGTGACCTTTCGAAAAAAAAAGTCCATGGTCGCCTTTCGGCAAATGAAGGCGACGCACTAATGAATCCCATTTCCAATTGACCAGTTTAATCCACACTGAAATTGTGCTAAAGCAAATAAACTAATTGACTTGAGCCTCTGGTGTTGCCAAGTTCTGTGCAATTTCTCGCTGTGTAGTGGCGCAGCATCCGCGGTAGAATAATAATAACAAGATTGAGTGGAAAACAAGTTTATGGCTTGCATGTGAAGAAAGTTAGTTAAAAGCCGACCACCAGCCACTGCATTAAAAGCTGATGGAAGTTATTGAAAGGATTGCATTAAGTGAAAGTGGGCGGTGGGTGGTGGCCAAGCGAACGTGGCTCTCTTGACCATATACAAAAGTTCTCTAGTGGCTAAATGAAAAATGTTTTTGTGAAAAATTCGGTCGGAATCGGCCGGAGTGGCAGCGAAAAGGAAAATGTGAAACACGTTTATTGCCATTCATTATATTCTCGCGAGCTGTTGCGCAAAGTAATGAAGCACTTTTATACCAGGCAGCTCGCTTTTCACAGGGCACGCACAGTGCCACGCCCACCCAAACTACGCCTTCAACACTGCCAAAAATATCACACGAACTTCACACTCTACTGTTTGTACATTGACTAAAAGATATT
0.9261841403946146 CTCCACTTTTCCGGTTTTCTGGCATTTGGTAATCGCCATCGAGAACTGTTTTTATGCGAATTCAATGGAATTTCTTCTTTCGATTCGATACTATTCACTGTTTGTTCCGCGTTAGTGTTTTACTGCCTGGTGAATAGGAAATTACGTAATATCTCCCGACCTTACTTTTTTACAACAACTCGTTGTTTGCCTAGTGTAGTACTTAAATAGCCGTCTTTGTCTTCCACTGCAACTAAGTTGATAGTCACCCCATCCATTCTGATAACCGTATCGCAGTGTTAAGCACTTAATTATGATTTATATAAGCTGTGAAGTGGTTTTGTAATAGCCAACCAGACAGTTTGGTGGCTGGGAAGTTATCGGCACGACCATATATTCCCCTT
0.8000943943337746 CTCTATCCACTCCCAGCGGATTTTATCTGTAGAGCTTTTCTAAGCATTCATCTTGTATCTGCCGTGCACCTCACTTGATAATAATAATGAAACCAAGCCCGAACAACTGGAGGATACCACTAATAAGCTCGATAACACAGGCTTCAATTCGTCAGAGCCGAAGCAGTAGGTCCTTGTTGTGGGCCCCTTCCGCAAACTGTTTTGTCATCGTCTGCCGCCTTTTGCCAACTCATTTGATTTGCCTCCGCTTATTGATACATCCAGGCAGCAAGGATATGCCTGCGTGAGTGGGGGCTTTTATGGCATACTTTTCTGGAGGCGGTCGTGTGTGAATATGTGGAAATTTGTTACATATTTTGCGCTTCGTCTTCGGGATTGAAAGTGTGATTGTTTAGTGGATTTATGGGCATATGAAATTAGGATTTAATGGGCATTTGCTTTGTATCTGAAGTGGATAAATGCCACGGGAACCCTCGGATCCATGGCTCTGAGTGCTTAGCATAATGTTTATGATGTATGAAAGGAAATTGTAAATCGCCGTTTAGGGCATGTTCTTTGGAGGCTTTGTGCCCTGAATAAAAACTCGGCTTAAGGGATTCCCCCACAAACCCAACCACATTCTTATTCTTGTAAAGCATTTAGCTCGATGGGTACAGCATAGAAAACATTGGGCATCATATGCAGTTGGAATTTCAGTTTCCTAGCTCATTGAGACGCTCGCTTGATATTATAAAATACTTTGACTTAGTTACCAGTGCCTAATGGAGCACTTTCTCAAGCTCACTAGGCACAATTTCCCACTTTCCTTCCGCTGCTTTAAGCCAACTTTATTAAGTCAAGTCGACTTGACTGGCATTTCAACTTAATAAGCGCAACGGCAACATCCAGAGGCAGAAGAGGCAACAACAAGTAAATGGCGCTATTTAAATGCTAAACAACTCTATTAACTTGCACGACACACTAACACACTCGCATGAGATGTGTTTGAGATATACCCACACATACGCGCATGCAGGCCGCCTCACTTTCTCGCATATCCCATATCCTGCATACATACCATATCCATGCCAAGGGCAAGCCTGACATTTGTCCGCCGTCTCTCTGCTGAGAAAACTGAACCTCAGCACGTTTCAAATACAATTTACAATAAATAAAATTTAAAAGCGAGAGAAAGACTGCTACAGCAGCCAAGCAACTCGTATTCCGAGACACTCGAGGGTGGGCGAAAAGCGGGCAGGCGGAAAAGCGCGGGGAAAAGCAACTGACTTAATGGCGCCGTTTTAAGGAAAAGCAGAGGGCGGGGAATGCTTGATTCAGACAAGGACTGAGCACGTGACGACACTGGGGATAAGTTTAAGAGACATAAAAAGGACAC
0.7334780342126535 CTGCAGCCGTCATCAAAGTGGCCAGGAAGAAGACCATGCTATGATACAATTAAAGAAATTAATAAATGGAAATCCTAAACAGTGCTGCGAAGAGTGGTACAAGTTAGCAGTAGTGAGGGTTTTGGGAAATGTTGATTCAAGCAAAGATCTGATTGACTACCAACGAAGAACCAAATAATGGATTGCGGTGAATTTCGTCAGCTCATAAAATAAAAAACATAAACATGTGAGAAGAGGTTGGTACACGGGTCCATCGTGTGGATTCTCTACTCACGTCATTACCACTCCTGGGGCACAGTACTGCTGGAACTCGATGTCCGTGCTGCCAAAGATTGGTTCCTGGAACTGGACGGGCAGATCTACAATGGCCGTAGATACATTGCAGTCCTTGACAACACTGCGCATGAATGTACTGAACTTGTCACGAAGTTTGCGCTGCATGAAGTACGCAACTTGTTGATCTGCAGAACGACTTTATTAGATTTGAAAGACTTCGCACAGTGACTCTCTTACCCGTCATATCGATGTGGATACTAAGCTCGGCGTGGTCCACAGCTCCGTCACTGGAGTGGATGCCATCCTCCATTACCGAGAGAATCGAATCGCTGAAGTTCTGGGCAAAGTGCAAATAGCCAACGGTTGTGGCCCGCTTTGCATCGTTCAGAGCATCTGCTTCGCTGGCATAGTATTTCCGCGTGGCCACATCGTCACCCAACACGCGTATGTATCTGCAGGATAACTTGTTGAATAGACAGCTCTCGTTGTCGCTATCCTTGTAGACTGTGACCAGGTTTTCATCAAAGCACTCCCCATAGTTCTCCACTTCGCCGGAATAAACTCCTATTTCAAGATTCGTGGGCGTCTTGCCAATGGCCAGATAAAAGCACGTCAGTTGTATGATGGGAAATAGTAGCATGAAAATAATTCCCCTAAAAATATTGTTCATTAATGTCGTCGATATACATGGATGTTGCTTGGAACTTACGAGGGTTGTCTAAAGAGTTGTACAAAGTTCTTTGTCATCAGTGCCTTTACCCTGCCCTTGGTGGTGAAGAAAATCTTTTTGCGATTCTCGTTTAGGGGCTCCTCGAACGGGATGGGCTGTTTTTCC
0.902168986590718 ACCAGTCAAGCGATTGATGATGGGATCCGATATCGCATTACCCAATCGCTTGCACTTTTCACTTTTCAATTTTCCGCTTTGTCGCTGATTCGGATGTGTCGCAAGCATTTCTTCTAGCTAAAATATACATTTATGTACAATTTAATAACTATTTTGTTTGGTACCAGCATTTCCTGCAGTTCAGTGACCCACAACGAGCTGCTTGGCACAAAGGTTAAAAACTGAAAGTTTGCTTAGTTACAATCACCTGTATCTGGCGGATGTAGATTTAATCGGATTGGGAAAAGCTGGAGGCAGTAGCCGAAACTACATTTCCTTTTTCAGGAATTTAATAGCTAACGATTTTAAAATGGTTTTATGGTGGTTATAAAATGGTTATAAAATAAATTATTTTAGTACAAGTTATATAAGTTAACTTGGAGAATAAAAACATTGGGTTTACTTCAATGATAAACGTTGATTAGGTTACTAAAATAAATTTTGTCGTCAATTATCTAGTAAGATGATAAAAAGACAGTGCAGCAAATATACTTAAATGCTTCATTTTGGGAATGTTTAAAGAAAATGTTATACTTG
0.8119111612599144 CTACCATCGGTCCTTTCTTGACAAATTCTTCAGCGGCGAGAAGCTGCTAAACGGCGATGCTTCAAAAAGCTACAATTGCGTTTTTTGTAAGAAGAGATTTAGCGCCGAGGAGTTGCAGTTGCACTTGTCCGAGATGCACTCGAATCCCGCGGATGCGTCAGCGTTGACGGTCATGCTGGAAAGGATGAGGCAGGAAGATTTGGAGAACAGAATTGGTGAGATATGGCAACATTTTGGGTAAACAATCTATGCACACTCATTGTGATTGCCTAAAAGCTTTTGTCACCATTGACACTCCATAATAATAGCAAATTATGTGTCAAAATATGGTTATGGATACATATAAAAGGTGTCCACTGTCGGCTGTCGTGGCAACATCTTCAAGTATCGTTATCCCTCTTGTTCAATGATTGTATACATATACATATTTTTGTTTTGACAAATCATTTTTCGCTTCGTTGGTTGTCCAGCATTCCATTTGATGGATTTGTCTACAAGTTAGATAATGAGAATGTCAAGATATCGATTTTAGGTGATTATATTTCGATGTAACACTAAATTCGTATTGTTTAACTTATTGGCCAAAAGAACAACATTTAAGTTTAGTTTTTAAGGGGGTGGAAGTGTAAAAATGACGTCATGTTGTTTTGATGGGGGGAAAGCCAAGTCGAGGGTTGAACCACGAGGTTCACCCTTAACCGCAACTATTCGATGCACCCCAAGTGCAAAAATATTGAATTACTATAAGTCTCCCTTTGCTTTCCTTCCTCCTCCACAGCCACAGAGATTCGCTGCCAGGAGAAGTCCCGCGGGGGATTGAGCTATGAGGTCATCCTGGCCGAACCGGCACCCAATGTGGCCGTTCCAAAACGACCGGTCACCCCTGGCAAGAACGTTAGCGTCGAGGAGATTGAGCAGAAACTTAAGGCGGCCGAGGAACGTCGCATTGTAAGTACATAAATTAAAGAATTAAAGTTGTTGTAAAGCAAGTGAAATCTTGTTTCCCCAGTCTCTAGAAGCCAAGAAGATGGCTGACATCTCCACTAAGCTGGCTAAAGTCGAGGAGGCGACTCGCAAAAAGGATGAGATCACCAATGAGTTTATTACTCAGACCAAGGAGCAGCTGGAGTCGAAAATGGAGCTGCATGTGGAGAAGCGAGAGGCCATCATCAGTGACATGAAGGAGAAGCTAAAGGTAGGCTACCAAACCTATTGCATCCCATAGTATATTCCCAACTAACCAAGTATTTTCTTCCGTTTAACGAAAGATCCATGCCCAGGATATCGAAAAGACGCGTGAGACTCTTGAGCAGCAGAAGGCCAACGAGCAGAAGGCAATCGAGGAAAAGTTGAAGATTGC
0.7830240943770759 GGCTTTGTTTATCCCAAGTTGCAAAAAGGGACGAAAATACAAGTGCTGCTGCCCCAGAAGGGTTCAAAGTTTTCGCCATTGCAGACAAAACAAAGTCGAGCAGAAAACTCCCCGACGCACTGCATCGTGGGATGACTCAGTCCAGTCGTTATCTGGCCCAATGGAGGCGTGATATGTTATGGCATCATAACAATGGATTTTATTCTCGCCGCTTATTGATATCGTGAGTTGTTCTGATTTTATTGAGGGGCAGACTTAAACCAAGTTCACTGATAGCATTTAGAACAGGCGGTCCCAAAAATAATGAAACTTCCTTATCGTCTTGTCCTTTGCTTTGTGGATTTCTACTTCACTTTTATTAGCACTCATCGTATCAAGATGGATTTGGCCAAATTATAAGCACAATATTTATCGGTGGATAAATCATAAATGTGGCCGAATTTCTTACCAATTCTTGTGCAACGTTTGTAAACATTTCATCCTTAGAAAATAACACTGAAAATTGAAATTGACCCGCAAAATAAACCACCTTTTCGAAGTTTCGAAAGAAGTTAACCTGCCAGAGGTAAGAACCAAACCAAATAATTTTAAGCAGTGTAAGACACCAGAAATAAATTTGATGAACCAGCAAGCACAACATTGCTGAAGCGTTGCTCTCGTAACGAACAGTTTGCCAATTACCCAGGATGGCCTGCCCCCCCCCCCTTTTAGAG
0.7131334046849818 CTTAAAATGAACTTACCGCACTACTGCCTTACCTACCTATCCAATATTCATAATGATTTGCCCAAAAGATAATAATAATAATAAAACCACATTGCTTTTCAGTTTGCTTTTTGGCTTCATGCTTTCATATATATTTTAGGTATTTCCGCTTTTCACGATTTCCATTACTAAATGCCAGGCGAAATTATTGAACGTCTCAGCTAATTAAGTCAATGTAATTACATATTAATTTTAAATTCATATTATTATATTGGTTAGTTTGGTTTTGCTTCATGGAAGAGAAGAAACTTGTTGGATCACAAAGGTTTTGTTTTCGCTTAAGTAAGTAATTCGGCTTAAGTAATTAATTTCCAAACACTCATTAACGAAAGGAGTAAACAAAGTAATTGAATTGAGCTAGCCACCTTAAAGCTTATTTACATTAAACAACATAACTAACAACTTGTATTCGATTTCGTTGGTTAGGATAGATTTCCATATCTGCCCATTGGCCATTTGAGCTCTCTAGGAGTTATTGAGTTACTACTATGCTCGTTCTTAGAATTTCCCATTTAGTTTACGGTAAGGCTGAAGATAGAGTATTAAAATGGTTTTTGTTTAAGAGTAAAAGTTGTTTATAAAATATATATGTATCATATATCAAAGTATAGTTATTTAGTTATGTATAGGCGTATATTACAGTTTTCCCTTTTTTTACAGAGCCGCATTGAGCTTTCATTTGAGCTAATAGTACGTACTTTAACAATACGGAGTGGTTTTCATTTGGTTTTCCATTTGGTTTTCCTTTGGTTTTCATAGGTTTGTAACTCGAATAATGCAAACGCTTGATCCACTAGATGAACTAAACTACCGTATTCGTGTTAATTTGATTTCTCGTGTATATCATT
0.6521740600836156 TAAACAAACAGACAAAAGACAAAAATGAGCGTAACGTATTTACACAAAAATTTATCACAGTTTTTTCATATATACATATATAAATATACACATAAATATTAAAGGTCGCTTTAGTTTTCTTTTTTTCCTTTGGAGCATTGTTGTAATATTTACGTTGCAGCCCAAAAGCAGGCCACAAAAAAATGTCATTGGTGAACGACACAGTTTTACCAATTAAAAGAGAAAACTTTCGACATTCAATAGCGCATAAGGATTTGTATTTCGTGTGGAGGTTTTAAATTGTGCAGAGTAAAAACTGTTTAGGGCCAAAATGAAATTGGCATTGTGGTGTTTAGTTTTAGCGAGGCTTGCATTTATTCATTAGCGATATGTCAATTTGAATACTCTAGCTAAACGACACGTATATTGGGGATTCATGGTATTCAGAGGTATCTCTGTTCCTATTCCAAAATTAAACTGCTTTTAGCAGAATATTCAACAATGGTCTGTTAGAGAGTGAATTTAATTTCGGTGTTTTCGTGTGTGTGAAGTAGATGTACTCTTGTTTTGACAGTATTTTGGTTATTGCTTTGGACATATTTTCGAAAACAAACGCAATTGCATAGTCCGTTTGTTGAAACAATTTCGGGATTTCAGGTTGGCCAATCATTGACGATTGTCCATGTTAGCACAAAGCCACGCCAAATAGAAATTCATTTAATTGCTCATAAATATAACACCGATTTCGATAATTAAACCACCCAGTTGGTGCCTAATTATACCGCAAGGGACAATAACCAAACATCATGCTGTACTAGTTGTGGTCGGCCTTCTGGCCAAAAGTGTTCGACTCAGACTTACCACCGATGTAACAATCAGGGCCAGCACAATGATGATGACCAGCAGCGCGATGAGAATTCCGCGCCAGTTCCGTTGGTTGGGATTGCTGGAGACCAACTGTGGAAAATCAAAAGAAAACAGTCAGAGAGTGCTGCGAAACATTATGGAAATTAATTGGTAAACGCCGGAATGCAAATGCTGCACATAAAGAGCACGTGCGGCTCATTACACCGAAAGTTATGAAGGCCTAGCATGGCCATAATCAACCGGTCAGAACCGCAAATAATTGGTCGGCCAAGATGCAATTAGTAAACTGATGATTCAGTTTTCCCCTACTGCGATGCCTCATAAACGATTTTCCTTCCAATTTATGTCTGCTCTTAAGCAAACACAATCCCCATATTGCGAGCATGTCGAGCACAAAGACCCGGCCAAAACCCCTTGGAAATCAAGGCTTAATGCATATTTAATGTTGTCAAGCAACAAAGGAAAACAGAAACCCAAATTAAATACGACAAAAACTTAACTCACGCAGCCCGCACAAGTTGATACCGATTTTTACGAGCAGTTGGGGTTTTAGTTTTTTGGATGGAACTCTGCCTGATTTCCAACCATTCAGTCCATCATGTCGCACATATAACTACATTCCCGCTTAGCCGAATAATTAATTAAGGGCTCATAAAACTACGCTCCTCGCAACGTAATAAAAAAATGACAATGTATTAATCAGGAGTTGCGTGCCCGAAAGCTTATCCAACTAATTGGACAGAAATATAAGTTGGATTTTATTATTTAAGCAGAGTTTTTAAGATTCCCTAGTTAAACAATGGAATACTCTACAGAGAGGCACAATTTAGCTTATGAAGGTTGCCTGAAAAGGGAGAGTTCTCAATTAAAATCGCATAAATATGTTCCACCTGCAAAGCTTCCCTTTTGGCCATTAGTGCAGGCGGGTAAATCGCGGTTCTTAATTAATAACACGTCGCACATACAAATGGGGAACAAATTGCGGGAGGGAACACGTGT
0.8166750743730884 CTTTTTACGATCACTGCAAACATGCAAGTCATAGCTAAAGGCACTAAATTGCATCCTGCTGCTTTAAATATAATCCCCTGAAATGTTTAATTTTTATATGCAACACATATATGCATATGTGTGTCATTGGAATAACCAGTCGACGGGTTTGTTACTTAATAGCCCACTAAATCGGTGAGTTCAGTTAACTGCCAGAAATTCTCTTCTCGTGCGTTTCGCGCGCGATTCTCATGCGATTCGGTAGCGTTTTCGATCGCCCACTGGCTTTTTGCGATGCCAGCAGCTTAAGATCATTAGTGAGATGCGATTTTTTTTTTATTGATGATCGGCTGCTGGAGATTGCCCCTTTAAGGCCATTTTAGCTGGCTTAAGTTTACCGTTGCAGGCCAGCTTTATTTATCGTCTTTTGTCGCGACCATAAAAAAAAGTA
0.7957213673293243 AGCTTGGATAATTGACCCCCGAACTGCATGACGAGCTGCCATGTGGAACGCCATGTGAATCCATATATAGCGTATATATCTTCTTAACTGACAGCAGGGAGTTGACAGTTTCCTAAGCTGACTGCTCATCAAACTTGTTGTCATTGTTGCGATGTCTAGTTGTCGGTCGGTTATTGCTATAGCTCTTGTAATTCTTAAATGAGTTGTCAGTTGTCTGTGCCACAGGGGCTTATGTTGTGATTGTGAATCGCTGTTGTAAGGGGGATTTTTCGATTTCATGTGCATTGTATCTCTAAAGTGTTTCATTTTAGATGAACAGATGGTACAGATGGACATACTAATGCCTTGTAAGCACTATTTTTGATATGGAATTTGACTCAGAATCACTGTTTATTCATACTACTAGTAAGTACTTATCTATATATCATATTTTATAGTAAAATTTTTGCATCCCCCTTTAATTTGACTGAACGCCACTGGCCGAGAGCCATTAACAGACCACAAAACTTCTACAGCTGCTGGGGCTTGGAATTGGATTGGTCTCGTGTCGTCACTTTGGTGGCTGGCCTGTGGTCCACTTGCCACTCCTCACCTCTACACTTCGCCCGAATCCGCTCAAAATTGTGGGTCTCTTGTTGCATGACAAGTGCAAAATGATGAAATGCGTATGAATTGCATAAATTAAGTTGGATTTGTTTAATTAAAATAACAAGTTGGCCATTAATCAAGCCCTGGCCAGCCACTCATCCAGCGCATAGATCTTGGTTAGCAAGGAGCAGTATGTGGCAAGGGGGAAACTGGGGAAATGTCAGGAAAATGTGCCAAAAAAAAAAAAAAACGTCTGGAGAAAATGGGGAGTGCTGTGAAGCATTTGAATTTTGATTGGACGCATCAGGGCAGAAACAACTAACAATCCCAATAAGTTGACAAAGCATAAAAAGGGAAAATTCACTGGTTCGTTTCAGGTATTTATGAAAATGCTTCAAATTGAGTTTTTACTTAGGTTCGCTGCGTTTCGTGTTGTGTGGTTTTTACGGTTTGTGGTGTGGTTTTGGCTAATAGAAATGCAACTCAACCTCAGCAGCGAATTGGAAAACTTTTCCGCCCCCTTCCAGGCCCAAAAAGTTTTTTCTTGTTTTTTTTTTTTCAGTCAGAGAGGCACAAAATTGCTTGAGAAGAGGGCGCTTTTCCTCACAAAAAGCAACAATAATTGCCGGAAACGGAAGTGCCAAGTGCTGGTGTTGTTACTTTACTTTGCCCAAACCACAATAGTGCAAAAATTGCA
0.760623493912517 TGCTAACTTTTAAAGCTAAAAATGTTTATAGAAAACTCGTTACACAAATCGAATAGAAATTCTCGACTCTTCTTCTGCAGCAACCTCATTTCATGAGAGGGGAGGGAGTACGTACAGATGACCCTGACAACCCTGGGGAAACTCACTAATTTTCCATCGTAAAAACTTCAATTTCCCTTGTCGATAGCGCTGTAATTTCAAATGCAATAGGTGGCTAAAAGGGCGAGAGAAAACGCTGATGATGGAACCGCCACATAAAGAGCATGTTTAAGTCCACAAGTTGCAATGTGTAATTGCTTAACTTTAATTTCAACACAGAAGAAAAGGTAAGCGTATGCACAAATAAATTTATAGCTGTTTCCAAATTTCAGCGTTGATTTTCTTTTTAGAAGTTCTGGTTAATGTACACATTTTGAGCTAATCAATGTTGTTAATTAATACATTAAGGACCATTTAGTAAAGCCTCCAAACGAAAATCGCTTCAAACCAACCCTAATCATCTGCAATTTAACCGTCTTTATCGCGGAGACTTTGTCCAAAGCATTTACCACAATCCACAAACAATTTACCAGAAAAACAAAAAAAAAGTAGACACTTCGACTTTGACTCCTCTCATCTATTTGTCTAGCAATTAAAAAAGTATAAGACCAGCAAATTAAATGCGCCAACTGTTGGACCAAGTTTTTTTCATTATTTCCAAATTCTATTTTCAGCGCACAATTTTTTCAGCTGCTTTGGCAAACTTTTTGCAGAACCAAAACAAAAAACAAAAAAGGCAAACCAACAGGCGTCGCGTCGCCGCACTTAATTAAATTAGAAGGGGCTTTCCCTTCGCCGCACAGTGGCACCAAAACGCTGCGAAAAGTCAACAATAACAAACCAGGGAACAAGAGGAAAATTGAGCAAAATTTTAGCCAAACAGACGGCGACAGTCGCGGGAAATCAGCAAAACTAATGCTGAAACTTTTTTTCGGAAGGGAGTAGGAGTTTTCCCCCACGAAAAAGGGGAGGGTGGTGATGCGTGGGAAAATGGGTGGTGGGCGGAGGGCGTTCGGTTTTTGGAAGGTTAGTGGGCGACAGCTGCCTTTGGTGGTCGGAAACGTCGGGTGGGCGTGGCACGTCACCGAGCTCACTGCGCCGTGAAATGGCCGACAACTTTTATCTGCCAAGAGGAATTTA
0.5504962222234719 AAACCAAATACCTCATTTAGCATATCTCATAGATACTACCAAATGATGATGATATGGTTTACCACAGGTCAACTCGTCAGCAACCATAAGATGTCGAGCAGAGTTTAAAAAATTGCTTATTAATATGAAATAAATGCTTCGGCCCACCAACGAATAACGATTAATGCGACTGGAAGGTTTTGCGATTTGCATCTTATGAATATGCAATCAGAGACTTTGAAATTCAGAAACTCGGAAATTAATAGAAACATTTGGCTTGAATTCAACTTGGTTTTCTGCTGGAGTGGCCACCAAATGAGCGTAGCTGTTGAAATAAAAACATTTGGCATTTTATTTGATTTCGATTTTCGTTATTAAGTTGTATGCATTTCATTACTGCCCTTCGTTTTAAGAGTTTAAGACTGGAGGCATTTTTGATTTCTCTTGGCTGAAGTATTTTTAGTGATGGAAATGAATCAGTTTTGTGCTTTTTATGACTTAATTACTTTATTTGAGATCGCACTCTCGACTTTACGACCGTTGCTTATGGGTTTTTAATAAGAACTGATGGGGTTATTTATTAGATCATTTGGTCA
0.9796557521593203 CCTAAATGGTACTATTTTTTACAGGGTATGCAAACTACTTTCGACTAAAGTCCAACGCGGAATTCTTGAGTGATAACAGCTCCCCAAAAATATTCTGCTTCCAGGGCTATTATCGAATGTTTCATGTTCTAATGGAAAAAGAAGTCCCAACCATTCTAATCACAGCTCATAATCCTTATCACTGGCAGCGTTGCTAGCACCGATAGTCTTTCTCTTTCGGTTTGTTTTACTGAGAAATATTGCTTTTATTGCCAAATCCACGGCGGGTGGTGGTAGGTAGGTAGGTGGTGGTGGGTGGTGGGGGCTGGATCTTCGTCTTTTCACACCTTCGGGCCATTGAATCGGTTCGCTGATCGCGAATATCGAGCCGTTATCATTGTTAGCCGCTTTTGTTGCTGCATTCCATATTGTTATTATTGGTACGTGATCGGGTCTTTGTTTTGAAATTCATGTTCCAAACACAAAACCCCTTTGGTAATATCCACTTATACATACGTGTTCTTACAAATTCAAGTACAGTGAACGCTCGAGAACAAGAAAATATTTTTATTTCTTTGT
0.9129169855459783 ATATAAGCATTTTAAAATTATAAAATGCGTAACTGTATACTCTGTTTTCAGACTTATTGATAGATACTGACGTGTCGTTGTTTTTATAAAGTTTAATAATTTTCCCATTTAAGCAGTGATCTTGAACTATGCAATATCATGAACAAAACGTAAAGCTAAAATGTGAATGATACAGCCTAATGGTATGCTTCACATCTTATATGATCTGGTATTAGATTTGAAAAACTTCCAAAAATATATTTTGTATACCTTTGTGCTCTAACATTATTTAACAATTATTGTCGAATGTGGTCATAAAGAATGTTATTTATTTGAATGCTCACAATATTTGTTTTTTATTTAATATTTTCGAAGGGAGGTCTGTTGATACTTCTTACAAATGTTTACACCATCGTTTCACTCTGGGATCTCAGTCCTTTTTGCAGCCCTCTCCGCAATCGGCGCCTTCGCAGATGTCGCACAGGGAGGACTTCACCTGGTAGTACTCGGTGGCCTTGCGCTCCGTGTCATAGTAGTCGTATAGGGAAACGGAGGCCGGCTTCTGCTTGGCCACCGCGTGAGCCTTGGAGGCCTCTAACGGCAAGCAACGAACATCACCGGGAGTTAAGCTGTCAAAGTAGACGACCACCGTGGAGTCGGAGTTCTTGGTCTCTACGCGCTTCACCCGATCCACTGCCTGGATTTTGCCCAAGCTTGTGGAGTCACCAACGAACCCTGAGGGCAGGGCGATTTCCATCACTGCCATGTTGGAGTCCTTGTCCTTGTCGGCGTCTTCTAAGGGCACGTACTCGGCACAGACGTCCACTATTAGTAGCTGGTTGGGAGTGTCCTTGACCGTGGGTGTTACCTTGAAACTGGGCTTCTTCTCTTTCTCCGCTAGATTGTAGCGATAGGAGAGCTGAACCATGGCAGATCCTGTTCCCTTGGCTGTAAAATCGACCTTGCGAGTGCTCTTGGGCAGGTCATGGGTCTGCAGAACCAGGGAATTCTCTGGGTTAACCTTAATTGTATTCTTGGATTCACCCGCAGATGAGAACTCAATATCCATGGTGCCTGAGCCAGAGCCCGTCTTGTATGCGAATTTTGTGAGCGCCTGAAGACCAATCACAGTATCCTGAGTGGAGGAGAATCCCCCGTTGCTGTTGCGCTGCGATATCAGCCACTTGATAATGGGCAGGGCCTTCTCAGCCGGATCCTTTTCAAGAAGCGCAAGCAGAACATAGGAGGTGATCTCGACGTCGTTACTGCGAGGTTTCCAGTGGAAAA
0.7151220068878887 TAAACAAATTTGTCACCAGGGAGAGTCACGTAGAATATCTATCTACAAGGATGAGACCGGGTTGTAGTCGCCTTTTGATAGACAAACCCACTCGATATCTTTAATATTTCCCAAAAAGCTCGCTATTCAACAAATCTGGTTATTATTATTTCCTTCTTGAAATGTGAAGATTATGCAATGCTTAACAAAAAAGAACTCATTTAACTTGATACATATATGTATCATGTTATTTGGTGATGTTTCTACTTTCTTTTAGTTTTTAAGACCTTAGCGCCGGTATCTTAAAGTCCATAGCTGTGTAACTTACACCATTGACTGGCTTACCCTTTTCAAGTTTCCCTTTTCACGGGAGCGCAGCGAAAGTGTCCCAAAGTTTTTCAATGACGCCGACACCGCCTACTTATTCTCTGTTTTCCAAAGGGGGGTGGCCAGGAGGCCAAAGCACAAACAATTGATTCCAATGAGCCTCCGACATGAAAATGGCAAATCCAAGCCGTCAAAGTAATAAAAATTAGACCAGAAGCCAAGTGGAAGGCACGGGGAAAGATAGCAAAAGTTGCCCTTTATGTCGGTGAGACATGCGAGTCTTCAAAACTATGAAGTACAAAGTGCTTCACTGCGGATACGAATACTTAGAGATCTGTCTGTCCGATGTGTCCTTAAATGCAATTGCAGTTTGAACTGAAGTTTGAAATGAAATGAAATAAACTTTTTTGACGCTTCCGATTGCATTTCCCTAGTCATTAGAGCGCAATGCGCCAAAAAAAGCAACGAAGAGCAGATGAAAGGTGTCTGGAAGTGTTGACGGGGTCTACAAAATTGATATTTTTGGAACACCACAAACTTTGCCTTAGCCCCAAAAATGTGTAAACCACAAAGGGGCTTACAAACCACTTACGCTACGCCACATTTTGCTTTCATATCAACCACAGACTAGCAGCTAATAAAGTTCAAACATTATTCTTAGGGCAACGGCTTGTTCTGCCATCAAACGATATTATTGGTTAGGAAAACTTATGTCTGGCTGGGTTTTCTTACAAATTTAATTTCACTAGATAACATCTTTTCTACTCCTAATAAGTTAAGAACAAAAGTTAGTATATTAAATATTTTAATTGTTGCTTGCAGTTAAAAGAAGTGGAGCGCGAACGAATGCTGATTATCGAGGGCAAGTCAGACGTAATACCAGACGAACTAGCCAACGATCCCATATTCATGGTTAACAAAGATGCCAACATG
0.7676305843758782 CCTAGAACATCGAAAAAAAACTCAGTGTCAAACTCGCTGAAAGTCCCGTGCGACTTTCTTATCATTGCTGGAAATGATAGCCAAATTTGTTTTTAGAGACGTCAAGTAAATTCTTAAAATTTATTTCATTTGTCAAATCAGAGATGTGAATAATCAGCCACAAAACAGCCAAATGGCGCAAAATGTTCTGATTATTAATGGCCTGAATTATTAATTACGGAAATCTTATCTTGTATTGTGAGCGAAACTCAATTTTGTGTCAAAATAAATAATTCAAAATCAAATTAGATGCGCCAAAATAATCCCCTCAATTTATGTGTCTGATCGTATTGAAGATTTTAAATCGCAAAAAGAACAACAAATGTGACAATGTCATTTAGTTATTCCTATTAAATGGAGCACTTAAGGTGTTTATCCACTTTATCGCTGAAAACTTAAATGGGGTTTTCCCCTTTCTCGGTAAAAAAAAGCTGATACCTTAACGCCTAAGCCTTTCCAAGAATCGTTTTATTTCACTTCTTATCTGGGCTAAACAAATAGAGTTCAAGTGGTCTTGGTCTGGATACCAAGGCCATTCGGAAAACGCATCGTTAACGATATGGCCGAATGATTCGTCGATAAGATTAATAACTTACGCATCGAGTGCAATGGCAATTAATACTTTGATTAACCAAACAATAGGCATTCGTTGTTCCCCGGATTAAATTGCTGATAATATTTTTTAGGAATGCACTTTGGACAAAATGAAATCGCTGGACACCTGGCTATTTGACTTGAATAAGTTCTCATATTTCGATAATGGCGCCAACAAAAG
1 CATCGAATTATGGCTATTGGTGCTCGCATGCTTAATCCTAAACTAGATTGACTCATAATGTTAAAAAAAAGTGATTAATAACGTTAAGAGATAAACACTTTTGAAATACTAACTATGTTCAGAAACTACCAAGTTTATTTAGTCGACCCAACTGTTTCTGTTTATCATGCCTTTCGACACAAATTTGATTGATTGTATATATCCCCACGATTAGTTTTTGGTCGTTAACATTTCCGAACTCTTCCTTTCGTCATGTCATATCTAATCTAGAATCGTAGACAACCGAAAAATTGTTGTTATCGTGCTAAAGCCATACGCTTCAAAATTAAAGTTAGTCAAAAGACTTTCGAAATCGGGCGTTGCATTTGCCTTGCAAACGGTGTGGTGAGGACAAGCTGCATTATCGTCAGACGAAATAGAAATAAGTGCTATAATATAGCTTTAGTACCCGCGCTATATGGTCGTGAACAATCAAGTGATTACTGATAAAAATTGAAGCAAATGGGTTGACAAACAAAATACTTGTCAGGCAGATTTGGACGAGATAAGTGTGTATACATATGTAT
0.8855787212496423 ATTAGGCTCTTTGTTCGCGGTCCCGTGGACATTGCGAAAAGTCTTCAGTTCGGCATCAGCATCTGCATAAATGAAATGCAAATGAGGAAATGCCACTAATTTGTTTAGATTCCCCGGGTCTAAAATGGATGCATGCATATCTAACTTCAGCATTGGCCAATGGCTGGCAATTAAACGTTTAATGGCTTCATTCGATATGCATAATGGACAGAGTTTCAGAGTTTGGTGGGTGTCGGCTTTGGTTTCTGAGATTTATAAAATGCAAATGTACCACTGAGTCATAAAGTTATTTCATAGAAAATCGAGTGCGGACAGTTCCAGAAGGGACTGTGAATGTTGTATTAGAATTTATTATAGCTCGGAGTTGTTTTTTATGCCTTTTTAAGCTGATCATAAATGGGATTTATATTACTATCTGTCTTGTAATCATGGCAGTAAACATTTAATTAAGTGTATGTATAACTTTTATACACTTTTAATGAATAATTGATAAATGTACATTTAACTATGTTCATATTTTTATATCCAAAGCAGATAAATTTAAAAAAATAAAACTAAGTGGACTTAAAGTTGCCAACAACCCAAAATCCGTAAATCCTCTCAAAATTTATTAGCTTGGACAAAGCCATAAACAAACTGGCAAAGTAGCCATTTCAATACGAAAGACTTAGGACACAAACTTGCACAAAAATACTTTGCATCGAATGCATATAATTAATCTCTTTATCCAAACTTGGCGACTCTGCTCTAAGTGAAAGTTTCCATGGCCAATCGTTTAAATATCAAAGTGTCTGCGCTCGTCAACTGTCACTTCAATCCACCTCCCATCCTGCTGGTACAATTTAAATGAGCCGTCAAATCGGCACCCCAACTGAGACGCGTCTCCCAACTTGTGTCATTGAACTAACAAATCAAAGCCGCTTACCAAAAGTCGCACAAAAACTCTTGCTTTATAGTCGTCAACGCTCTGGATTGATGACAAGCCAAGTAATGGCAAATGACAATTATTTACGCGGCAGAGTGTCATAAAATAGTGGAATGAAAAAGGCTACAACAAACCTCGAGTAAAACCAGAAACCAAATGACAGCGAACAAAAAGCCGAAATGATTTTATTGACGTCATTCCATGGAACCACCAAGCCGACAGGCAAAAAACTTTTAATGTGGAGAAAATCCAGGCTCCAGCCGGGGGGTTGGCCAGGCCAACCAACCCCACCCGCTGAGCCGTAACCGAAGCCAAAGCCAAAAACTGCCTGCGAATTGTAATAATTGCAAACAATTACAGAGACACTAAAGCGAGGTGAAAAAATGGGATCCATTAAATGAGGTCTATTTTAATAAGACTATTTGATACCTCGTCATTAAAAAACTAACAGCTGATAAAAAATAAATACTTTTGTAAAATAGCTAGGACAGGTAATTTGATAAATCATTTTGGTCACAAGCTTTTTAAGAAATTCCAAACTATTTTTGGACTTTTTCGACAATTTTTTTCAACAGAAGCTAAATACCCCACACCCATTGGTCAACATTTCGCGGACATCAAACTCTGGCCATTGTCTTGTCTGAGATTTTGCCATAGCTTGTGGAGCATATTTTTCCTGATCTGGGGTTAACTTATTGGAGCCATCATATGGGT
1 TTAACTTGCCTGCATAAATTATGTTCACGATATTCTCGTGTTCAGAGGGACGTCACCTTTGGACACTCGTCTTGTGCCTTATTTCTTCGGTTTTTAGTGGATTTTTGGGTATGGGCTTAATGTGGGGCTGCCAATTACGAGCATGAAGGTCTTTGACTGCGCAATCTAAGCAGCACCAAGCACCACAAAACAGCTAGAAAATTTGTAACATTTTTTGTTGTCTTAGTTTTAGTTGATGTTGTTATTTAATTTCGGGCGTTTTGTAGCATTTTCTGACTTGTGTTTCATGGTTTTAATTTGTGCGTCGTTGCTTATCCGATGAAGCCAAGCAATTATATTTTTTTTATTATTGCTTATTTTTTCATCTTGAACGTTTTTTCCTAATATTTTATGAATACTTTTCACGCTCTTGAGTTGATTGGCTTGCAAAACGCTTAAGATATGGCAATGAAAATGCTTGTACAATGTGTAAGAGATAATCGCGATTTTACATGCTCGTCCAATGCAAATGCTATTCATATTTGTTTTCCAACATTTTTTAAGTAATTTTTTCAAGCATTTCCCACTTACACTTTCTGTCATCTTTGCAGGAAAACTGACGGCCGACAGAAACAATTTTTTTCAATTAACTCTGATCGCCAATCGCAATTAACTTTTACACGATTTCTAAATTGAAAACATTGACAGACGATCGTAGTTTTTCCGTTAACCCACTTGCTTCATCACTTGTTTGTTCAGTTAATTTGTTTTACCATTTAAATTTTAATGTTTTAATTAGCTGCAACCACTATCTAATAATCACCTAGAATTTTTACAATTTATTTTATTATTTTTAATAGAATAAATAAATTTTTAACTTCAACAAAAAATAAAAATTTTGCAACAATTTTTGCGTTTCTAGTTCATTTTTGTAGCGTCGTTTTGAGCCTTTTTTTGATAGCTCAATTTCCTCTGTTTACATTTTGATCGTTAGAAAAGTTCAAGTTGAAATTTAATAATGCGGGCTAATTGGTTGGCGTTATATAACCGTGTTTATATGGGGCGATATGCAAATTTTTGTCGGCACACACGTGAAGGTCGTCGCTGACCTAGAATTAAAGACAGAAATGGCTTTTGTATGACTATTGAGGTGCGATAACTGGGCGAGGAAATAAGCAATTTCAGGTTTCATTTTCGGGCTGCTTTCTGGGCCCTGACCCTGAAAATTAATTGACTTCGTACAGCGAGGGAATACTTAACAATACTCTCTATATTTGTACATTATTGACGGCTTGCCTAGTCAGGTTATAATAAGTCCATTGGCCCAGCGGGTTCAGTTATCTATCAGGGTGCAGTACTATGTTTTGTGTTACTCAATACCAAAATGCGGAACTTCGATCAAATTTTCCTATATCTTGCGGCTGTGCCCGACACTCAGAGACAGTCAGACATAATTTCCTTAACTTTTTCAACTTAATTCTGCGTTTTGGCGGTGGCTTTCACTTTTCCATTTCGCTGTTCACTTTTCCTTAACTACTCACTTTTGTATCGATTATTGATTATTGCTCTCATTTCGGTCCATGTGTTTTTTCTTTTTTTTCTTTCCTTTTGAAATGAAAAGTTTTCGCTTCGCCATTTGTCATAATTAATTTTTGCGCTTTATGATTTAATTGTTGAAAGAAATGGCCACAACTGAAAATCAACGGCTGCACAAAGTGAACATTTTGAAAGTCATTAGGTCTGTGGCTGGATTGAAGTCTTTTATGCCTGACCTCTACTGTGAGTTTGGACGTGATGCGGTGTGATTGAGTGTCGTCGTAGGTGATAAATCGACCGAAGCGAAAGTTTCAATAAAAGACTTTGACTTTGCTGGCCGTGGAAATAGATTTTTGAGCAGTCAATTTCTAAAAATAAAATTAATTCTTGATTTAACAGTTTATACCTTTTTTTAATTTCTTCGATTAATCTTGACAATATTTGCATATTTTAAAGCCCAAAAGGCCCATAGGTACTAAGTAAATCATCTTCCATTTTGCAATTTCCCCCGCTGATTGCTGGCCAACACTAC
0.9324201585274857 CTTGTTTGCGTGCTTGCGGCTTATTAGATTAGGTGTGCGCCGGAACACCCTGCTAACCCCGACTTAACCTCGGCGACCTATCCCAAAAAAATTAGAGCCGAAAAGCGATCCTTAAATGCCCGCTAATGGCGTTTAATGGTGAGCACAAAAGGTGCGCAAGTCATAAACTTTGGCGAGGGCACATCCCTTGGCAGGAAAAGGAAAAGAAACCCCTGAGATATCGTCGAGACCCCGAAACTGATGAAGTGTGTGAAGAGATCCATTGTGCCCGTCTTCCTTTCGATCCGCTCGCTTCCTTTCTTCCGATCCTTTACTGTGTGTTTTCTAGATCGGACAAAGGCGTGCTAATTGGATTTATATTGGTCTCTTGAAGGGAAAAGGGAACTGGTAGCTGCTTCTGGCCAAGGGTATCTGCCCCGGGGCAGTGTGAAAATGCTTTGTTTTCCACTCTTTGACGAAGTAATCCAATAAATATGCTACGATCTTCAATGGGAACCGAATGCTACAGAGGGAAGCTATTACAATTTGATTAAAGGAAACTTTTAAGG
1 AACTGGAACATCCGGACACTCGAAACATATAAATGAGCAGACTTTCTGATGGGTTACTCATGCAGTTATGAGTTGGTCAATGGTCTTGAGGCACTGCGAAAGCTATTGAGACCAATTAAAATCGGTAGAAATTGGCTCAAAAATGCAGAAATATATACACAAATACCAAATATAGCTACGTGTCATTTAAGAAGTTACCTCACTGATTGTATAGTAATTAAGTCGAAAGATAAGCTAAACCAAGTTCTCATACGTGATGCAGACTGAATCTTTTCGGTGAGGTTTTGATAAATGTTTATCTTATCTGTCAGAAAAAGTGCAATTGATTTAATTAAGTGCTATTCAAACATTGCCTTATTTAACTGGCATGTAAATATAAACCACTAATGCCTTGAACACGTAATTCCATAAATATAATAATGAAAATAAAACTATCTCAAATAACAGTTGGTAAATTATAAAAAAATGCATGTTCCCTACAGGTGTTAAAAAATCTCGAATTAATAATTAAAGACTTTTGCATAGCAATGATTACGCCATCGAATCATTATATATAAATGAAAATATTCCATCTATGGAGCCAACACGAGCCCCTCGAAGTTGAGCTGGTCATCAAATTGTTATTGGTTCACTTGCTGAAGGTAACTAAATAATGACTATTAAATATTATTTATTATTTATTGTATCTGATTGTTTATTGTCCATGTGGGCGTCTGCCTCTCAGTTTGCCACATGCTCGCCACATAAAATACTTCATCAGGGGGCGAAGGGAAACCAGTTCCGAGTGCCGCAAATGAAATGCCACAATTTTACTAAGCGATTGCAGTGGTCGTGAGCTCAGAAAGCACCAGACTTCAGACGGTAGAGATGGCATCGTGACCAATCTCGAAAGTAATTAGCATTCGAAATGAAACAAGTTTCTAGTTCTACTGCCTGCACATTCAATCGTAGAAGTGGAAATCTCATTAAAAAAGTTTTTTTATTTTTATCACACTACTTTTGAAGACTACATTTGATGATGTCATTCAACAGCTGAGCTTGAGTTAAGTCAAAACAAAGAAACACATCAGATA
0.7287750876354383 AAAGCGAAAAGAAAAGAGGAAAGCACAAAGTTTTCCATGTGCAAATTTCACTTGACTTTCGACCTAGCCACGTTTAGCAGTTTACCGGCAAATCACTTGGCCAGCCCAGCGCCCCCAAGCCGTACCACCGGAAAAAGGGGCGTGGCCGTGTGTGAGATAAACTTTTGGGGCAAAAAAGTTGTGCCGTTGGACTTAGGATCACGTTTGCAGCGAATACTTTTTGGCTAAGTGATTCGTCGTGATTTGATTTGAATGGCAAGCGCTTTTGGCCCACTTTTTAGCGTCCTGCGATCGAAAACTTGCAGCCTGGTCATACAGAATGAAAAAAATGAGAAGAACAAAATTGGGTCAGTTCAGAGTTAACTTTGCTGGTCAATATAGCCAACTTATGCTTAGACAAATTCCAACTGCGTGTGTAGAAGTGTTTTAATCAACTTTTCAGATGCGTCCCCTTTCGCTTTGCACTTATCCCAAAAAAATGAGCATGAGCACTTTTCCATTCGCCAAAAACTTTTTCAATTGCCATTTCCACAGAGGAAAACCACAAATGGCTCGCGATCTGTCCACTGGGCGTGAATGGATGGATATTGGTTTTTGGCAAATGAAATAATGCAATGCCATCGTATGAATTTCCATGCGAAATTATTATTATCTATCAACATATTGATTGAGGCTTAGTTAGGCTGGCCGCATATTAAAATCGATATATGCCAGTCGACATTTTTGTTCGATGCATTTAAGTGGCATTATGCCATCGATGCATTGCAATGCGTTGAACTTTAACTTTAAAACTCACTGTGCAGTTCGCTTTGAGCCGTAAATGTGGATGGCCTTGGACATTGGGGGCGTATTGGCTGATTACTTTGGCGGATTTCCTCGGATCGCCTCGATTCACTAATTAAACTTGATTGCGCGCAAAAAAATTCGATAAACTTGCCGGCCGGTGGTGCGGATTCGGACTCAGTCCATTAAACTTTTTGCTCAGTCAATAAAAACGATGCAAAACTATTTGTGCAACTTCGGGAAAGTTCTTCGAATGGGCGAATGCCAACGCTTTTTAATCGACCCAATTATGCTGCCAAGTTTTTCAGACTGCGTCAGCTAATAAAAATTTAACATAAATTGTTCTTTCGTGTTTCGGCCAGCGACTTTCGGGCTCACATGGTGCATTCCATTGAAATGCCATAGCTCAGGCGAACTCTTGCGAAACTAAATTAATTTATGCGCATTAAAAAGTTCGTTCATCCAACTCTGAGGTAACTATGAGCATAGCGGATATACCTTGTTAGCGGCAGGAGCAAGTTCTGCGATCTTAAAGGTTGAATATTTAGGATTT
1 TTGCTGTAAAGGAGGAAGTCTTCGTTTCCACTGCGCGATTTCCATTTCTTAAATGCATTTGTATATGGCCTCCATGCACCCTTTTCCTCTTTCAGCCAGACGGCTATGCCATTTTTATTTTATGTGCAATAAAATTAACAACGCACACAGGCGTTTTGTGATAAATTACGAAATCACGTGGCTCGCATTGAAACGACTGTTAAAATATGTTGTATGTCTGCGGTGGATTCGATTGCGGCAGCAACCAACCACTAAAGTTTAAACTATTCCACCTACTTTCTTGGATTTTTGTGCGGGCAAACGGATTGACCTAATATCGCCTAGTTCAGATATTTTTACTAACTAAAGCAGCGAGATAAACTTCTAAAATTGTTTTTTTTAAAGTAAACATTAACTGGGTAAGCCAGCTGCAATACAAATTCATATATTTTTCCAAATAGTTGAAAATTATGCAATTAATTTGATAAACGGGCAAACACAAACATATCCACTATGTTGCTTAGCTTCTGTTGCTGTTTGCAGAACTGAAAATAAGCACATAAATAGCTAAGCAAATTTACAGGAGCCGTGTTGTCTGGGTGTTCTGTGTTGACAGACAAGGGAATCGTGCTTAATCTTGGCCCCAGGAAATTGAAAAAGGACTCCCTATGCTTAAGGCAGCCAAGATTTAATGCTTTAAATTAAAACATATTTTTAAATTTGCACAAGTGAGAGTTTTTAAAGTACCTATATCCGTATGTCCGTTTGTAAGTCTGTCCCTGCGATTACGGATTACTGAAAAAAAAAAAAACCGAAGACTATAAGATGTTTACTCACTTATGCCAAAACATGTTGCCTGCTAGGAGCGGCATCTCCATGAGAAGCGCCGATAGCAAGGATGTCTTGCCACTGCCGTTCTTGCCCACAACTATGGTTAGCTTTCCCTTGGGAACAATGATGCCGGGCACATGAAGCTGCACCACTGGCATCTGACTTTGCGGCTGCCACGTGAAGAGGCCGTCGTTGATCGATACGGCAATGTCGTCGGGCATTTTCAACAGTAGGGAATCCCGTCGCCAGCTATCCGTATTTCTGGCCCGAATCACTGAAAATTCCACGGGTCTCTCCATCACACTGCCGCGCATTTTGGGTGGCCGAATGGCCACATATGGTGTATTCCGTAGCAGTTCCCTTCGCTGCTGCACCAGCTTATTGTGGCCCAGTTCTTGGACAGTGGATGGCGAGATATCTTCCGCCGATTCCTCGGCATTTTGCAGCAATGGCGTTGAGTTGGTGGCAAGCTCAGGAGTTTGTGACTTTTGCGCTAGGCGCTTTTCATTTAGCCTATTTTCCGCTTGGGCCGTTCGCATTGTCATATTCGATTTCTCTTGCGTTTCATACATATCCAATGAGGCATCGCTTTTGCTCAAAATTCTGGCCATATTGCGAATGCCTTCGAATTGCTTCTGAATCTCGCTGGACTTTAGGAAACGCTCCAATCGACGCGTCGATACCCTCGCGGCTATGATAATGGGCACGGTGATGGGAAAGATCAGAAGCGGTACGGTTAGCTGCTGGAAAAGTGCCAGCGAGGAGAACAATCGACTGGCATTCAAATCGAACTCCTGATCCCGATGCAGCCACACATAA
0.9593170845213712 GGTCCGGACTTCAAATGAAACTGCGAGGCCGTGGGCTAATGTTACTCCGCGTAGTCACGCTAAAAGCTTTCTAGGTTGCTGCTTCTCAGTCAGTCACAATGGCGACAATAAATCGAATCTAACTCGCAATCCACGAGAAATCACCCAGTCTCGAGACACTCGCATCTATCGTAGATAGCCAAAAGTAGTCCAAGACCCACTCGGTGTCCCACTATAACTAAACAGTAACTGTAAGCGCACGAGAGATCCTTGCCCGAAGGCCAACTACTTCTGCACACCCAGCCCACCAGTCACCGAAGCTCCTCCAAGTGGTCAATTTGTTTTTTTAAAGTATTCATAACAGGTTTCATTCCAAGTTACCAAAAAAAATAAGATCTGGGTGTCCTTTAGGGATATGTTACCAATGGATTCAGTACGATTCGGTTCATTCATTGTTTATCATTTATGTAGAATATCCATATACGAGTATTGAAACAATTGAAAATTCATGCTTTCAACGAGCGGTAAGATATATAATATACCAATGATTGCAGAGGAGCTCCTTGATTGGCGGCGATGGATGAACGCTTTGGGTTAGGAAACTTACAACAATTATTACGTTCCTATATGCGATAAAAAGTACATATATACTACAAGTGCAGACAGACACCTACAGCTCTAATGCGTTTACCTAAGGCAAAAGTAAATCTCAAACTCTGAATTCCTTTACACTAGCTGATGGAGATCAAATCTGTAGGTCTCGGTTCCAAAAAACGCTCCAGTTAAGCATGTGCAGTATTAAAGTAAAAGCTAACGAAACCGAAGAACTAAAAACCACAAGAATAATAACATTAATTCATAGAGTTACATAAGCAAAATACGTATGATTAAGCCATAGAGGGTGAGATAACTATGTAGATAAAGAGCTAAAAACGAGCAAACAAAGAAACATGATATATAGAAATATATAAAGTAGTTATTATGAATATTGATACTGAAACAAAATAGAATGTGCCTGCGTAATATATTTTTAGCCAAAAAAGTAAAACGAAAAAATGAAAACTGAAAACTGAAAAACAAGTAAACCAAAGTTGAGCATTAAAAAGTGAAGAAAAAACAATGAAAAACTGAAAACGATTTGTATTAGAGAAAGTTCAAAATTCAAGGATAATGTTTTTTGTTGATTTTTTTGTTTTGTTCACTAAACTGTAATTCGAATCAATTGGCGGCATAACACTCCAAGAGCAGACATACGTAAAAAGGTTCCTATAATGTTAATCAAAAACACACTAAAAGCTCCAGACAAAACTGGCTAAATGAGGTCCATCGAGATTGCATCCCGATGCTGACCAAATATAAATTCTATTTCGAAACCGACAATTTTACAATTGTAGTTTATAAAGCCCAAAGAGAAAACAAGCAGCCATATGTACAGCGATTGTACAACCGTTTGTATGCCATTTTAGTTTGCGAAATTGTCTGAGGGGCGAAAACAAATGTATCTAGTACGAGTATCTTGTATCTGCGTTGCCTGAAGGAATGTATTTGGAGGCGGCAAATCTATTTTGGTGAACAATAAACAGCAAACGAGAAGACTAGCTGGCTTTTCATTGGTCTCTCTGTTAGCGGAACTTCGATGAGCCCAAGACTAATTCGTACTTTAATGTATCTTACAGTTTCCCGACGCTCCCTGGAAATGCGAG
0.9985420375511824 TGTGTGAGTTCAAAGTGTTTGGCTGGCAGAAGTTCAAAAAAAAAAAAAAAAGAATTAAAAAGTGGCCCAGGCAAATAAAGGAGATATGGAAAGTTTCTGCTGGCATTAACCCCCCTTTCGGCCATCCGCGCCCTGTAAATTTGAGTTGAGGATGCATTTTTCTCTGCGTTAATTTTTCATTTTTAATTATTCGATTATAAAGACCTTAAATAATTGAAAGCCTGCAGGCCAATATATAAATACACGACAGTCGTGTTTTAAAAGCGAACAGATAACAAGACTTCTCGACTGCGTGTGAGCGCGAAAATTGTCTTAAACGAGCCGAGTTCAGATGGTGTCATTGGGAATTAATATTTGTCAGTGAAATGCGTTCAGAGCTCCACTTAATGTCGGCTCAACTCAATATCAGCGAATGCTTATAGCTTCAATTATTTTTTTGAAATACTTTGGGTGGCAAAGGTGTACTTTTCATACCAAAACCATTTACTTGCGCTTCATACAACAGGGCTTAACAAGGCTCTGGCAAATATGTTTACTCACAAGCTTCTTTGCCACTCAAAGTCAGCACAGGCCACAAAGTCGCAAAATATTTAAGAGAGCTCAGAATGCACAAAAATATTGTAAGAGTGAAACAAAAAGAAGGAATGGCCAACAAACAAGCCCCAGAAATGTCGGAAAAGAGAAAGCAGTGCAAGGTATGGCATTTTATTTGGCACTCGAGCAACTAACTTTATAACGAGTGCAACTATTTTCGCAGTAAATAAGTTTGCTGAAAAATCACCGAGCATGGACCAAGGGCAACTATTTGTTAACGTTTATAAACTAAAACTAAACTCAATGCTTAACGAAAGTAAAGCGAGTGCAAA
0.7434731230277714 CGTTGTCTACCTTGTGTTGCTTCTATTTTTAAAATGGCCATCCATTTCTTTTTAATATGGTTATCTATTTTGCATCCTATATACATATATTATGAAGCGTGGCCCTGATGCGCATTCGGTGTTTGTTTGGCACCCAGTCGCAGGTGCTACTGAGCGTATACTTAATATGCCATTTATTTTGGGCGAAAAACTCAAGGCTAAGCGAACGAAACGAAAGCCACTGAGATGAAATGAAACGAAACCCATTCACACAGATGCGACCATCTCGACGACGACACACATAAATAGTCGCATCTGAAGGATCTTGGGCAACTGCAGACGGAGAAGTGTCTTGCATTCGATAGTCGAATTCATTGTCGCCTTTATTGTTGCTCCTCTCCGCTACTCTCCGCTGCGTTCCGTTCCGTTGTCGAGAATCAATTTGGCAAAAGTCATTGCATTCAATTGTCACTTGACAGACGACAAATGGTGTTGATTCACAGACACTCGCATGCAGGAGAGGCAGAAGATTCTGCGACAGCGACGACTGAGTCGGACCAAGATTATTTATTTTGGACACATGTACTCCGAAGACTTTCGGCACACGAGCTTTGGTCCAAGCCAGCCAAGGAGGCATTTAAAAAGTTATAGGCCAGGGCTTGGTGAACTTTTCAATTGCCGGCAACTTTGGCCTGCCAAAAAATACATTTAAAGAAGAAGAACTGGCCCAGACAGAGCATAAATTTGCAAAGTGCCGGGCCTCGGTTAGTGCATAACTTTTGTGGCATGCCAAAAGCCACAAAACAGCAAAGGCATTGCCGTCATGAATAAAGCACTCAGATTCACATCGCATTCGCCATTCGCACCGAGACCCACATTCACACTCACATTCGCACTCATTCAGTGAAGCACTTCAAAGGCATTCACAGTGTGTGTGGCATACTTTTGTGGAAAATCAACTCGGGCCAGTCGGGTGGCGACAGAAGTTTTTGTACGTCTGAGTCCCGTCGACTGAGTGACAGGTCGGTGGGTCATCGAACCCGGACCTGCAAACTAATTACAAACCGATTTCGTACTGCAACCGCAACACACCGCAAAAGCCACAAAAAATACACCAATCTTTGGCATGCTTCATTATGCATTTGGAATTTTTCTGTGAAATTGCTGACAAAATTTATGAATCCTGCTCTTGAAGCTGCCAAAGCTGGTATAATATGCTGAAGTCTTGGCACTCGTGGATGTCTGGCCTAACGATATTTAAAGTTTTTGACTAGCTACTGAATACTTAAGTGCATCAGAATATTTTATTTATCAAGAAAATATAATTTAACTACAATATTTGCTGCGAGACTGTGTCAATATGCTCAGACTTTATGATTTGAAGTTAAAACAGCCCACTTTCGTCATACCATGTTCAATGACTTACTTAAATCGGCTAAATAGCTGGAAAACTATTATATATCTATAGACATTATCGCCATAGCATGCAAATTTCTTAGCGCCAGCTCTGTCCTATTTCTGAGCGAATGTTAGTCCGGAAAATGCACCATCCGAAGGTCCTCGGGTGACAATTCGCGTCTCACAGCTGTTGGCATTGTGGTAACTACATTTACCCCCTGTCTACATCCACTAGCTCGATCTCCCGGGGACCAGGAACAGGACCAGAACCAAGACCTGACCCCTTTTGAGGCACATACGGTTAATGAAATTGTGCACTCAATCGAGCGTAATGCCGAGCGAAAGTCAGCAGAAATCGAGGCAGTCGCCGATATGCAATGCTTCACGATGATGAGGTTCCTCTTTCCAGAGATGGAGATGCCGATGCGGATGGAGGATGGGGATGCATTTTGCAGCTGCCAATCCCCACCTGGCTGGCTACAAAAATTAACATCAACGACACTAAACTGCTATCGCTGGCAGCATAAAGCTTGGCAATGTGTGTTTGCAGTCGAGTTCGAGAGGGATTCTGTAGGTTGTGCGAACAAATAGTAAAAAAAAGGGACATAAAATGTTGTCTGGGGCCATAAGCGAACCGCAGCTGAATCCACGATCCCCAGGTCCAATGTGA
0.8860242219041801 ATGCGTTACGTATCCGCCACCGGTATTCGTACCCAAGTCCGAATATGTACAACCATCAGAGGAGTTGGTTTCCCGGAAGAGCAACCAAAGTATAGGCAAGTCGACTATCGGCGAGGTGGACATTTCCAAGGCCATCAATGAAGAGATGGCCGTGGCCAAGAAGCAGGCCGAAGTTCTCAATGAAAAAGATCGCATTGATGCGGGTGGTGTTTCAACAACGAAGCTGTCCAAGGTATCTCAATCAAAGGAAGCGGTTTCAAAGGACTCTTTGCGCACCCTAATGCCAATAAGGTCAAACCGTCAGGTCAGTGGTGATGGTAGAGCAAATTCCAAATTATCCATATCACAATTCAGTGCGGCATCCAAGACGAGCTGCACAAATAAGCAAAGTGAGGGTGACGTGGCCTCAAAGTCTTCGAACATAACATTGAAACGATCTGCAATAGGCAACAGTATTTCCTCAAATACCACCCTCACTCCGAAGTCAATTTTGAAGTCGAAACATTTCTCAGAAGCAGCCAAAGCTTCCTCTACCACAATGAAATCAAAAGTTTCAAATAAGCCATCAGAAACTGGAACGCAGCGCTCCTTCAAATTAAATCCTGCTGACTCAGACTCGAAACAATCTCTAAAATCTGCAAAACCAAAGCATTCCGATTTTAAAATGCAAGATAAGAAGCTGACCAGTTCTCAAGAACAAGCCCCGTCTGTTGTTGCCACAAGTAATGCAAGGCAAGACTCTTGGAATGATCGTGTCCCTTCAAAGACCAACAAGTCAAATGTACTACCTGAATCCAAGGATGGCCCCAGCTATATTCATTCGGAAGCAGCTTTATCCTACAGACAGTCCTTGAACCAGCAGGCTGCCGAAATGGCGGATCGCCTAAACGCCGGAAATGAAAACTTTAGGCGTTACAACTCCGTGGCACGGAATCACTCGATCAAAGTACCTCAAAAACTTACCGATGGGGATCGTATGACATTTTGGTTCAGCGATGCTGTACTTTCCTAGAAACACATTTCCTTGACAAACAAATTCTTAGTTCATATTTACTGAGAACTGCTAGCTATTAAATAGAAAAATCAAATCGAAAATTAAAAGTTTTTACAATATACTTTACTGTTTGGTTAACGAGTCAGAAGAGAGAAAACTAACCTGATTTGCGGTCTATCATTTTTTTTTTTACTGATGTTCAGTGTCATTAATTCAAATGCGCTAAAAATTTGCGGTCACTTCGTTCTGAATGCATTGACCCATAAAATATGCAAAAAAGGTGAGCTCAATTTTGCAAAATAAATGCGGATGCAAATAAAGTATACATAAAAAGGACGCGTCAAACCAATTCAGTAAATTACACAAATGTATACATATCTGATCATATGAAAAAAAAGGATATACATTTTAAATGATATGGCATAATATGATGATATATATGAGAAATTGTGTACTTATTCCATTATTCTTATTTCTTTAAAAACTTTGTCTAGAGTAAGTGTTAAATTTATTTCAAATTAAAGCCAGCCCAGAACAGCTCAGCTGACTTTTTGTTTGCAAAATCAAATTAATG
0.7983947920484619 GATGGAATCGGAGTTTCGGGAGCAGCCAGCCAGCAGGCTAAATCCCAAAAATTGCCAATAAATTTGTACTGTTGACTGTGTGTGTGGCTACAAATTTGCTGCTTGCATATTTTATTTGTGTAACGTATGTTGTGAAAATTCAAATGCAAATGCAGGAACTGTGACCAACGTCAGTCCAGAGATAGTCGTTTAAAAATGCTGAAAAAACGAAGAAAAAGGGCGATAATGGGATTGTGGTATTTGAAAAGATATTGTATATTTATATTGCTATAACAGGTTTATGGAAGAGAAGAAAATGACGGAAATCTGAGTTCCAGCACTCTTTACATGAACACAAGAAGAAATTGTTTTTTTTTTTCCTCAAAAACTAACAAAAAATTTGGTTAATTATTAAATGTTTTATTTAAAAAAAAAGCTTAAGAAGCCGTAAACATCAGATGGAAAGGGTCGGAGCGTAGAATTAATGTTGTGTAAAGTATTTCCGAATCATTGATTAGCCAGCTCGAAGGCCGGAAACGCAGCAATGGCCAACGCGGCGTATGAGTGTTGCGCGAATATTTCAGCAGTCACGCAGCACTTACAACTGGCCATGTTCAAGGTATTTGCGGGTATGTGTGTGCAGTCGTGTGTTATTTGGTGTAAATTATATGGCCGAAAGATGCAAAATTAGCCAAATAATGGCTGCCTAATGTGCCGGAAAGCTGGCGAGCAAAAGTTAATGGCGAAAATCCTTTAGTCCCCCACCATAATGAAAACATAAAACGGAGCCACTAAAAGCAAATCGACAGCGGCACATATTTGCTAATCCAATAAGTGTTAGCTGCTTCACTGCCTGCGAAAAGGGGTGGGGCATTAAAGGGTTAAAGGAACGCATAAAATTTGAATACATTTTCGCCACTCAGAACGCTTAAACTCGTTACCTTAGCTAACGCAAATAATTCAAGTCGACGTTTTATTTTATTTTTTGTTGCCCTGTCAAACGTGTTTCGCGGTAATTGAACGGACTTTAAATGCCAGCCAAAAACTGTACAAAATGCGGGCTAACACAAACGGCTTTGGTCCAGGTTTTTCTTCTATTCTCAATTTTTTTTTTTTTCATTCTTTTTTTTATTTATTTGCCTTTGACGTGCCACTAAAACTGAGGTTTGGGTGGGTCGACGGCGAGGGGAAAGTAAAGCCAAATGCAGTTGGGACTCAATGGCGACTCCTATGCAAAAGAAGCAATGCTCGCCAACGCGACGACATCGAAACTTTTCCTATTTTTTGTGCTTTTATTTTTGGTGTCGCTGGTTTTAACCAGCAAAATAATTTGGTTATATAGAAAATAGTATCAGGAAAAAAGTTATGCCCAAAATATAACAAGAAAATAATGTAAATACCTTGAAAAATATGAAAAACCAAAATAAATTGTATAAAATATGTAAATATATGGAATATAATAAATTATATATTTTTGTTTTTTAAAAAACTTAACAAGGTACACATGTAACGTAAATTCTTTTTTTAACCTATCTAAATTAAGGCACGAAAAATTTACGAATGCTATTAAATAGGTTTTCATAAGCCTGCATATTTCTGAAGCACCCCAGTCCGTGTATGATCTCAAAATATTCAGGGTATTATGACTTTCCATGGGGACAAAG
0.6142046145249676 AAAAATGCTCTTTCTGTACAACCTTTTTAAACAAAGCTTTCTTATATTCCTTATTATTTGTATATCTGCATAAAATGTATTTCAATTGGTTTCCTTTACAAAAGTTTTACATTTCCCTTATAACATAAACAATATAATTTTATCAGTCAGAACAATAATTTGATGCGTTATCAGATTTGGTTGACACCTGCCCAACATTTTCAAAACTTGCTGTCAGTCAATCAAAAGGCTCGAAACGGCGTTTAATTTTTATAGCAGACGTTTTTCCGCCTCACTTCTCACCAATCCAAAAAAGAAAAGCGTAGAAAAAAAAAACAAAACAAAGGCAGCGAAAACAATGCTAAACAATGAAGGAAAATAACAAAACAAAAGCGTCGGCATTTCCACGCCGCCAAGCAAACACGCCAAAATTTGAAAAAAAAAGAACGAAAAAGAGTGCGAGAAACTGAAGGAGGAAAAGTCAGCAGAAAGAAAAGCCGCACATTAAATATTTTGAGAACATTTTCGGAAAGCTCTTCCCCTTTTTTTGTGGCGTCAGAGTTTTTTGTTATGAACTTTTCTAAGGTCGCTCGCTGACATCTAAATTTATCTATAAACAAGAACCACAAATCTACTTTTTTCATTATTTATCTTCGCTTGTTTATTCGTTTAAAACCGAAAACATTATGACAGGCTAATTGAATTAATGTGCATTTATTACGCATCTTTATACTCGTTTTATTTTTTGCTATACCCTTTAAATGGAAAAAAATGCCCGATTATTCAAGGTCTGTCGCTTTAATTAGCACATAGCTGCAGATCATTTGCGCTGCACTTAATGACACTCGATTGTCCAGATTAAATCGTATTCGTAATTAACACCCAAAGGGCATCGTTAACATCATTTATGGCAGTTAAGACAGTTCCAGAAAAGCGCCCAGTGAGTGGTCCATCCCGTTGCCTCTTTTGGCCAGATTAAAACCCGTTTTTGGCTCGGAACTCTGCACTTGTGATCATCGCGAGCAACGTGAAGATGGCAAGTGGACAATGCAGATACGATGACAAAAGGCAATTGGAATATGAGGTGGTCGGTGAACTGGAAGGAAGTGGAGCATAAACTCGACGTGGGGATACCCATTAAAGATGATAGCATTTATCAGATGAAGAAATCTTTTAGTTTCTGGTTTGATGCCATTATATTCTAAATTTAATTTCATTTCATTTCATTTTTAAAGTAGTAAGTTTAGTTGAGAACTTATTCACTTT
1 ATTTCATACGCTTAGTATCTTAAGGGTCCATTACTTGAAGAAAACTAAGGGTTTCAATAAAGATTTTTAAATACCTAATTTATATTCAGGTACTTCCCACATGTATAGAACTTATTCGAAATGTTAGTAATATAAAAATCTATAAATATTAGTTATATACAATGTCTAGAAAATATTGGAATATTTTTCATTTACCAAAATTTCAATCATGAAGTTTTTCTTTAAACGTTTATGGATAGTTTGGCTGTAATTTACATACTACTTTCATTCATGCTACTATATCCTCAAGCCCTCATGGGCACATGTTAAACTCCAATTTCCGTATGCAAAATTAGTGGCTGGCGCGGCAACTTCAGCTTGCCACATTGTGTGTGGACCCGCGACTCTAGGAAACTTGGCGGAACTGCAAAACAATACAAAGAAGTCAAGAAACAAAATACGAACCACGCAAATTGCCGGGCCAATGCAGATAAAGCCAGGAGGACGAGGAAT
1 TTTCATTTATTTCGCTCGAGTCATACAAATTTAATCCGCTTTAGTAATCGCCTGCACTTTAAATGCATTTAAGCCAATTGATTTGCAATTTGGTTTAGTTAAAAGATAGAGAGTCCAACCAACCGAATCGATACGATGCGATGCGATCCGCCCGCACAAACAACCACATCACATGGCATCCCGCTTTTCCCATTTGGAAAAACATTCTCAGCCAATTGCACAATTGATAACAATTAATTTGTGCAGTGCGCATTTTGCGTGTTTGTGCAAATAAATTAGTTGCACATTGGCCACCACTTCGGTCGCCTCGCCGCCAAACTTGCAGCCCTTTTCCATGGAAAGTGCAAATATTTGGCGAAATGTTAAATGCCTGCCAATTAGTTATCGAGTCCAGAGCCAGCCGCCCAGTTCAGCAGTGTTTTAATTTATGTAAAATTAATTGAGCATTGCCAAATACTGGAATTAACTAAGCCTGGCTGAGCACACGCAGACTCTCTCTCTCTCTACAAAAGGCGACCACCCCCTCCTATTGGCTCCATTCCGAACCAGTCTACTACAATCCAGTTTAGACCTGGCCCTAACCCACTTGAATGTGGTACTTTTCAATGCCAAAACACAGAGCTACCAGCCAAGGCAATCTCAACTATAGCTATATAGGGTTACACTCGACAATGTGGTTGAGCTGGGGCTTCCGCCCAGTTTTTCACGCAGCGATTAACTTACCAAGGCCAAGGTCTTAGGTTCGGCTTAGATTAATTTAATATAAATCTTACATTTTATAGATGAAAGTAACTAAGAAGTTCTTGGTTTTGAAAGTAAATCAAAAAACATGGTGTGTGCATATTGATAAATGATGTTGCTTTACTATGTTCATATTTTTTCCCCCAAATACATAAATATTCTTCGATAGTTACTGATGGCAATCATTTACTTTCAGAACGCAAACTCTTTGTGGGTATGCTAAACAAGAAGCTGAACGAGAACGACGTTCGCAAGCTATTTGAAGTCCACGGAGCCATCGAGGAGTGCACCGTCCTTCGGGACCAAAACGGACAGAGCAAGGGTTGTGCCTTCGTCACATTCGCCACCAAGCACGCTGCCATTTCGGCCATTAAAGTGGTGAGTAGCGAATACTCGTATCTTGTAGATAAATGTGTGTAATATTTCCCAATCGCCTTCTTAGACCCTGAGCCAGAACAAGATCATGGAGGGCTGCACATCGCCGCTGGTCGTCAAGTTCGCCGATACGCAAAAAGAGAAGGAGCAGAAGAAGATTCAGCAAATTCAGGCCAATCTCTGGAACCTGGCCAGCAACATCAACATACCTCTGGGCCAAACGGCCACCAGCGTGACCACGCCCATCCTGCCCAATCCGCCGCAGCAGCCTTCGCCGGTTCTCGGCGCAGATGCCATTACCCCGGCCTCCATTCAACTGCTGCAGCAGCTGCAGGCGGTGGGACTGCAGCACCAGTTGTTGCAAGGTAAGAAATAGCTAGAACTTAGCCATTTTCATTCAATCTGATGTCTAATGGATTTTAATTCATTGTTCGCTTGCAGCCCTCACAGGACTGGGAGCCCAGCAGAGCAGCTCGGCGACGGACACCAGCGCTGTGGCGGCCGCAGGACTTTTGACCCCGATGACCGTCCAGAATCTAGCGGCCATTGCGGCCATGACGCAGCCGAGTCTCTCGAATGCCGCCGCGGCAGCCGCCGCTGCCACATCGCCTGGAAGCGCCCAACTGACCAACACGGCTGCGCTGCTCTGTGAGTTACTCCTTCACATCCTTAAACAGCTATTTAAGCAGCCGAGATAGTTAGGGGCAGAAGCACTTGAAGCGCCTCCATGGTTAACAATTCATCAGGGCTTACCGCATCCCATAATCTCCCGGCCTTATCTGGGCCATTAGTTGCCTCGGCGGCTAATTATCTAATTTTTTTCTCATTTCCGTATTGAAGTTTTCCTTGTGCGTCACAGGGTTTTTCCACTTCCACTTCTCTATTTTCTTGTTAGCCTGTTGCTGGTTTTTCTTTCCGCCACACTTTCTCT
0.910888315422446 CTTTATTTCCGAAATAGATCGATTTTAAATAGTAGATGGCAGACCAGAAAAGTCAAAACCCATCCCATAGCTGGCACATCCACCGAAGATACAGGATATGCGAAAGGGAATCGGACTGGGGAAAAGTGACAAAAGAAGGAGGAGGCGGTGGCCACCGGTGGACGGCAGTAACCGTAACAGTGGGGGCAACTGCTGGGCAGTTAGGGGAACTTAGAGCGACGACGTATGCCACTTGAATAACAAATGACGTTTTTAAATGCCAGATCCAGGCGCTAGACGTCGGTCGAAGGGGTCAGCAAGTAGTCGACGACTCCGCACTGTGATGGCCAGCAAATGTATGGAACGTGTCCTGTGCGTTCCTTCGCTTCTTTATTTTTTCTATATTTAAGTGCCGAATGAAACCGTTAAGTGGATGCGGCAGACCCGTAAACGTTTGCTGATTTGACCACTTTCGTGGATCCGGAGATTGCACAAAACATTATTTAATTGTGACTTTCGAGTAGAGACCTATTATATGTGGGTTAAAAAAAGTCAAGAAAAATGTGTGGCTATTTTCAAATAGAACTATAACCTAATTATGGACAGAGATAAGTAAACAATGCCAAGTTTAATGTTTTAAAAACTTTTCTTAGATGAGTCAAAAAAAAGTACAAAGGAAAAGAAAAAAACGTCTTCGTCTACCGTTTTCCCTGCTTTTCTTTGCCCATTTTCCGACTTGCAATTTTTATAAGACTTTGCCAAAGGCCCCAAGGGCAAAAGGCACCATCAAAGGTGGCCGAAAAGAAGGGGCGTCCCATATACACA
1 ATTGAAATAGTATACATTGTACAAATTATATTTATAAAAATTTCTGCTTCAAAAGAATATTTCTTTTATATCTCTGTTATTCAACCCACTCGGATTTTTTTGATAGAATTTTGCGTGGTTTGCAGACAAGAAAAACAGGAAATGCGGAAATGTCAGTGCGATGCTGCCATCAGCATTCTCCATTCAGCAACAATGTGAGGCGACGGATGTCGGGATGTGCCACCAGGAATAAGGACTCCCCAAATGGAGCAGCTTACTCAGATGTCATCTGCTAGTCCCCTGGAAGATGGCAGGCGTAACGAATGGCGAACGGAGCTGAGCACAAAGGCAACACATGAGGGCACAAGAAAAATAAATAAATTATAAAATTATTTCAGCATAATAACATGTCAAAATTCCCCTTCTTGCTGCCCCCTGTGGGTTCGAGAAGGCGGAAAAAACAACACTGTTAACATGGAAAAACTCGCCTGTGGCCACACAAACACACAAAAATTATACATTTTTTGAGGATATTTTTTAGATTTTATTCATCTTTTTCTACCCTCTTGTCCATGTACATATGTGCGTCTGGCATCAAGTGGTTTTAAGGTTTAAGGGGTTTTTCTCTGGGCAATCTTTCATGTGGGATTTGCAG
0.7619835919650465 ATCGCGATTGATGGTCGGTTACGCTTTGTCTTCGCGGTTGTTATTTTCGATGGCCGCTCGTACATCGCACAATTTATTACAACAAATTTAAATGTCTCTGCCTTGTGTTCGGCATTTTTATGGTATTTCTTTGGTGTATTCCTTGTCAACTGGACATGCAGATGGAAAATGAAACGTATATCGCATTGATATTTAAATGATACAAATAATATGGAATGCTTTTTTGTCGTTTGTCTATTAGATGAAATTTACTAATTTGTTGACTTTTTAGGGCCACAAATGACACATACCCATATATTGTAGAAGACGCAGCTTTGTCCGTCAATTTTCGCTACGCTTTAACAATGGAACTTCAGCTGGAGCTGTGCATAGTTTTTAAACTCAAATTAAAGCACAAATTGCTACCGCAACGAGCGACTTCAAAGGCCACAAAGCCGATGGATGGGGCCAGGGACAAGAGCTCCGGGTCTCCCAACAGTAGCCCAAAAGATTTGCGTTGCGGCTGGGAGCCAAAGTCCCTGGCCAGAACCCCTCTCACAGCATTCAGCCAGCATTCACATCCATCAATTTCTGACGCTTTCATCAAGCGGCATCAACGACATTTGCCACAAAGCAAAGCAAAAGCAAAGGAGCGGCGTTGAGCTGAGCCGAGCTGAGCTGAGTTGAGTTGAGTTGAGTTGAGGCCATGTTCTGATTATTGTTGCCACTGTGGACCGGATCAGGTTCTGCCGCTCCTCCTGCCCCATGCGCGCATTTAAATTGTCGGCAG
0.7464518004564169 TTAACGTTAACAGGTTTAACCAGGCTAAGGACAAGTGTGGAGACAGTGGCCAGAAAAGCTGATGGTTGGAGTGGGGGGGCCCACAACTGTGGTGTGGATGATGATGGGGCACCCTCATCATTAGTGCGAAATGCTTGAGTTTTAACTGAAAGATTTAGATGAACACGTGTCCCACAGCGACTATGTGCTCATGATGGCCATCAAAGGCGTGCCCGGCGGGGGACAAAAGTTTTACAATGAAAAAATGGACCAATAACAAATGCATGCTTTTTTTTATCGAATTGCGCTGTTTGCTTTATTGTCTCAATATAGGTGTATATTGTGCATAATCCCCATTGGGTACGCCCATGATAACCATAAGATTTCATCGGTGAGATTTCCCAACCGAGGACGGAAAGGCTTCACTTTAATGTGAATAGCATTGTTGCAAAATGTTTAGCAAATCTGATATCCTTTTTCCTTTGTTTTACAGAACAAGTGAAAATTTCTCAAAAACAGGAGTGAGTTTTCCCTGAATAATGGCTTTATCTTATGATTATCTGTGCTGTTTGGAATTATGTTTGATTGTGCACTCAAGCTACCTTCAAAGTTAATTGGATTCACATATATGTATGGAACCATAGGTAGTTGATTAATAAAACCAAAATGTTGACCTTAACTAATGCAATCAAATACAGCAGAAAAGCGAATTAGCTTTTTTTTTATCAGATGTAAGTGTGAATTTATGGAATAATCAAATTATGGCTAATTCAATGCCGATACTTTTTCATTCGAAAATCGCCATTAAATCCCCTACATTTTTTTCCTGCGAACTTTGCCATCAAAGGCAATTATTAGGAGAAAATAATAAAATTTATGTTGCTCAGGACTGGCCCGAAATGCCAATTAGCGTTTCCATTTGGATTTGGTA
0.9099313269474422 TGCTCATTGGCATTTCCGGGTAATTTTGGCAGTCTATGCTCCCTTATGTCCATTGTCAACGGGTCACAGCTCCCTGTCACCAGTGTGGAAGTCCTCTAGCTGCGACAGATAAGAACGACCTACGTAGTCGTGCTCCAATCGCTGAAATTCCACATCAGCTGCTCATGGGCACGAACAACAAGTATAAACATAATATTTGCGTGGAATCTGATGGAATCTGATAACCCATCAGATGGGGAAAGCACGTATGTATGTGGGGCACTTGGACCCAAAAATCATTCTAATCAGCAGAGATTGATCATTGACGCAGGCACAAGTGCTTGGCTTGTCTCCTCCTTTCCACCCAAGTCAATGAACCTCTGCCAGTGGAAATAACAAATGAATGGGAAGCTCTCGTAATAAGAGAGTCCGGGGCCTTAAGGCGGGGCATATATGTACATGTGTGCTGTAGTATAAGATCTATGTATATGGCATACTTTACCCCACCAAGTCAATCCACTTTACTAGGCTCTGGGGTCCGGACGACAGAGCACAAATTCTACGGAGAATCGCGTGATATTTTTTAATCAGCAAACGGGCGTCGGCGTTGCTGTCGCTGGTGTTGTCGCTGCTTTTAGCTCACTCAATTGATTAAGCGGCCCCTGGGTCTGTTCTACATATAGAGTACAACAATGCTAATATGGGTATAGTATGTTCGGCACAGATTTCTTGGTGCGCTGCAAAAAAATCTCCGGGAGCAAAGGTTTCGCTTCGATTAATGAATGGCCCACGTTTTTACTAGCTGCTTTTTATGGTGGTGGTCATCTCTCCGCATTTGTTACTATCTGGGCAAGTCAAGGGACTAGCTGGCATAATCCATCTTTTATTTTTAGGCGTGCATGCAGGGGCATTGCATTTCATTTAAATTTCATTTCAGTTAAAGATCCAGTTTGTTTTGAGTACAACTATTTTCTTGGGAATTCTCTAATCTTCAATGGAAGCAGTACTTAAAATACTTTCCGTCTATCTATTTCAAATGAACTCCTCACAATCGATTACCGAAGAAACCGTCGATGGTGACGGTATTATTTCTTATCACCCGCCATTTAGTTAAGTGGTTACCTTTTGCATGTTATGTTAAAAAATGTTTGCACAAAGCCCGCTGGGTGAATCATTTTCCAAAAG
0.7922467596654175 CATCCGACGAAGGATACTTTAAGCGAATCTCCCTCCAAAATACGCACACTTGGCTGACTTGGAATTTCTGTTAATCAAACTCAGCGTTGAGCATGAAAATGCTTAATTGTATTATTACATAACTTTTATCCAACCAAATGGAGCGTCAAGTGTGGATGCGGACCAAGCATATTTCGCATTTTACTCGAGACACAAGTCGTTGGCAATTAATCCATGTGTTCGCCAAACATAAATCGATGCGGTCTCAAAGGATAATTAATACGTCACCAGAACATAGAAATCTGAACATGACAGCAGCCAGTCGAATTTCATATGCTTTATATGACATAACTTAAGTGCTCGCTCAATAGCATACATGATTACATCCATGGAAAATGCTCAACCACAATGAAATCAACGAATTGCCAAAATTTATAAATGACAACGCACATTAAACACAAACAACTAGACGACCAAATGTAAATACGTAGATTTGTCATATTCCAGTTGCAGTTAAAAATTGATAAGGTACCGAGAAACAGCTTTTGTTGCACAAATATTGCACTTATTGTTAACCAAAACTCAGGTTATGATTTCCTGGAATTCATTAGGAAATTCATTGAGCCACTTTGTGCTTTTTTGAGTGCATTTACGCATTTTCATGCGCATATGCATTTCCCAGTATGACTTTTGTGTTGCAAGTCTTTCCAAGCTAATATACATTTTACTGCAAGGTGGCAAGCGAGGATGATCCATGAAGCCAGGATACGAGGCTCCCATAGAAGTGGCTACCTGAGGCGAGAGAGGTGCAACGTGTGTGTCTGTGTAAACAGGAAGTGTTGCACCGCAGACAATGTTGCTGCAAAATAGCCACTCAAATAGGCACCCTACTCCATGCCACGCCCCTTCGTCTACCATTTGGTATTTTGAAAAAATATTTGCCTACATGGAATTATGAGGAGCCATCATTTAATGAATGGCCTGCCACCTGTGCACGCTCTTAATGAGCTAAAATACGGACTGTGTTGCCAGTCGGATGTTAACTGCGGATGTTTGCCAACGTGTGCACATATGTACATACATATATGCATCTGAATATGAGGGTAAGAAGCTTTTCAGCTACGTTCTGGTTGTGTAATTTTCTTTGATTATATGCACAATGCCGAATACCCTGTCCTTATGCCACACAAAATAAACTAGCAAATATGTTATGGTGTGGCTTAAGCTTTCCGAACGAGTGTAGCTTCCAAATTAATTTCAAATAAATAGTGATACAAGACTGCATTTAAAATGCAATAAACTTTGGAAATTGGTGTTGGAATGCATGTGGAAAAGAGCACTATTTGCATTTCGGCTGACACGATGAGGCAGCAATGAACATTTGTCCTGTTTGTGGCACATTCAAATAAATATTCGCTCACAAAGCACTTGATAGCAATTGTGTGCCCGACTTAAAGCCAACATTAAGTTTGGTTTCTTTCACCGAAAAATTAATGGCCCGGCATTGGAATCTTGTTTATGGCATATATACACAAAATAGTTTGGCCAAAAAG
0.6906967354666034 AAAGAGATTGCAAAGAGTTCAAAGTTTAGGGGTCATGAAAAAATACTGCAACATTTCTTCTGATAAAACTGTTTACACGACTTTTAGCATTGACATTTTGCTCTATTAAACACAATGAAAGTTTAAGTTTTTAGGTGAAGCCATTGAGAACTTTGCAACGCAGATGTTAAGGTCATTATCTATAACTAATATTAATATTTACATTTCGTCTAATCTCTCTACACTTGGATACATTTTGCAGCTTAGCATTAAAATTGTAACATTTGTGTATATTCATATGGATTAGTCATAAGTCCGGTTATGCATAATATTTTATTCACATGTTCCTTGCAGTGAATCCGTCTCTGAATCTAAGTTAAGATAATGCTGTGCAATGAGCGAGTAAAAGCGAAAAGAAAAGTGGGAAAATGTAGCATTGTTACGATGATTAGCTGATTTATTCTATGGGTGTATTTTAGCAGCTGTTGTGCATGTCTCAAATTAAAAGATAACCAGCTAGGGAGTATTTGCCGCGGAACTAACTTCCAAGTAAAGAACAAAGAAATCAAGGAGCTGCAGGAAAACATAAGAAGATCAAAAGAAATTCAAAACAAAATAATATGATATATGTATATGTGTGAGTTTAGAATTTAGATGCTTTTTGATACCCCAAACGGACATTAGCTAGGCGAATGGCAAAATATGCATTGAAAATTTTATAGAAAAC
0.6933028056329196 ATTCAAAGCATTAATCCGTGTGTGTGCAATATTGAACAGAAGTTTTCTGAGTTCAATAAGAATCGAGAGTTTTCAGGTGCAACAAAGTCCTCAAATTCTTGAATTAAACATGCTGCTGTCATTCACTCAGTTCAGTTCTCCTGCTCAAAAGCACTCACTCAACTGGGCGATGTGACAGCGGGAAATTAAACGACATGCAAATTGCATGACCATCAAAAGTGGCCGACACTGTGCAGTGCATTACTCATACGCTCCATACGTCAGCGCTTCGACGACTGGCGACATCTTGCCACCGAAAGTTGGGCGAAAGGAGCGAACGGAGCGAAAAGGAGTGAAATGAGCGAACAACGGAGCGAAACGAGTCGTAAGTGAATTTATTTCAAACAATTATGCAGCAATTAACAAACAGATGACGGCAATTAAACTGCAGCCAGGCAAGCGGAAAGGCGGTGCAATGGGGGAAGATGTCGAGTTGTGTCAAGTGCAGCAATCGACAGGCGGCAGCAGTGAATTCAGACTTGTGAGTCTGCTGCATTATTCAGGCAATATTTCACACACTCACGCGTCGAGAAATGCACTTTATGCCTGCCATTCCCTTCCCTTCGTTGCGAGCTGAATAATTTTTCAATAATTCAATTGGCCTTACTCGCTTTATCCGGGCAGATTACGTATGCGCCGTGTTATCTTCCGGAGATGGCGGTGCACTTGCGTGCCTCAAGTGGCGAGTGTGTTCGATCATTTTTGATTCGCCATTAAAATTGTTTGTTTGTTGCATACTTCTGGGCGCGCAGAAGAGGCCACGAAGTGAATTTCCGGGCGGCAAACATTTCCGGCCGCAGAAACCACTTCACAAATTAAGTTGTCAACAATTTCAGCCATATCGCAACGATTTAATCTTCACACCTAAATTATTTATGTAAAAAGCCACGCTTGCCCCGCTCGCACACAC
0.6399394976679929 CAACTTTGCTGCATTCAGCCAATTGAAATGAGAGTACACAACTTTTTAATGGCCAACGGCTCGAGGAACTTGGCCAACACACTTTCCAGTTGGCCTGGCCAAAAAACTTTTCGAATTATTGGCGAATGGCTAAGCGCTTTCTGTGGGTGAACTGTCCTGGAATGTCTGCGACATTATTTCGCAGCCCTTTTCAGTCAAGGTCACTGCAATCAGACTTCCGAATTAATCGGAAAAGTTTTCGGCTCAACCAAAAAACTTGAAGCCCAATAAATATTAAGTGGTCAAAGTCTTAAAAGTTTCATGAAACACGAAATATACAACAAAACATTCTATGCAGCTAAGTGCAATCATGTTGTTTTAAGCCTTTATTTATATTTTAACTACCACATTTAAAATGTCCATGAAATCAGTGGTATTTATTATTTTCGAAACCAGTGCCACAATCCATTTAATGGACTTCTAAACCTCAATGGCCCACTCTATTAAAACACAGCCATTCCAAATCAAGCCCGATTTTTCCATGCCAAAATTGAAGCCCAAAAAAACCGAAATCAGGCCAAATTAAGTGCTCCCTGGGGTCCAATCAGCTGGAGCTCTCCAACTGTTGGACATTTTGATGTATAGTCATCAAAATTGCGGCCTGTCGCCCAAAAGCACAGCAAGTCATCACAATAAATGCCAATTTATTTTCGCTCTTTTTGAGTTTCTTTTTTTATACAACACAAGCAAAAAAGGACTCGGCATCGGCAGGCAAATCGAACAATGATTAATCATTGCTTCGAAGGACATAATTATTTCGTCAGTTTGCTAATAAAATCGTTGACGGAAAAGAAACTCGCCCGCGGCCATAATGATTATGTAATGAATATGTTGGTCTCGAAAACTTTTGCAAAAGTTCTCTGCGGCGGAGGAGGGTAGCAAAAGTGTTACCTTATTGGACGCTGGTGTCGCCTTCGTGATAAATTATGTTAATAACGTTGAGTAGGCAACTTGGTTGAAAGTTGAAAGAGCTGCGAAAGTTTTTCCTCGCTCATCCTTCGTCAGGAATCAGGCCACGTTCCACTGCCGCACTTATTATTATATTATTATGCTGCTGCCCCGTTCG
0.6784511407156656 CGCCACTTTAACTAATATAATTAATTAAAGCTAAACTGACGTCAAAGCTCAGCTCATAAGCAAAAAGAAATTATCACAGATGAAGTAAACACTTTAAAGTTTGGATGCTCTTAAACAAGAATACGTTTGAATTGATTAGAATATTTAAATCTTGTAACAAACTACAATATTTGCTTTAATAATAAACTCTACTGATTTAATTGATTAGATTAGTTTTTAACCGTCTTCCATGATAGAAGTTATTATGCGTCTGAATATTTAATATTATTTTGCAGGGTATTCACAACCAGTATCCGAAATCTTCCACTGCTTCTTTTGTATAATTCTGTTCTTTTCTAAAAGAGTTGAGCCGCAATTTATGGAATTTTCGGGGATTTTTTGTTGAAAATAAAGATTGTATAACCAAACGAATTAAGCATCTTTATAGCAGATTTGTTTATAAACTCTCAGTCAGCGATGATGCCCAGAAATGTTCTTCTCTTCTATCCAATTGTGCCATTAAAAATGATTTAAATCTAAGACACAAACAAAACACCTTTCGTGTTAGAGGGTCATAAAATATACCACATCTAAAAAATAAACTTATTCAATTTAGTTAAGCGACTTTTCGTAAGCTTTATACGGCTTTCAGCAATAAAAGACAGAAAAAAACCCGAAACAAGAAGTTTGCTATATAATAAAACATTATATACAGATGGTAATTAACAGTTCGAACACAAAAGAGTGTCATTAATTATAGGGCAGAAGCACTTATGAATTTCATTCAAATTCGTTCGATTTATTGGGTGCTGCTTAACATTTGTCATTTGCCATTTGTTGCCAATGGATTTTGGCACCTTCTCCAAATCGCCAAGTCCTCAAGCATTCTCTCGATTCGATTGCTCCAGTTTTGAGATGCCACACATTTGTCAATCGAATGCCGAACATGTTTCGATGTCTGAGCCGTGCAAAAATGCCCCAAAATGCTAAAATTTGCTACGATTTTGTGGCCAATCAAAATTGTGGAACCACTTTTTGTGCTGTTGCCAACTAATTGCGACCTAATGGAGTTCGATTTGATTTCTAAAATGTCTAAAGTGCAACTCTCTGAAACTTATAACTTGATCGAAATACAAACCTATTGGCTATACAAGCTAAATATGTTGACAATCAGTTGATTAGCACAAGGAAGCTGATACCAATCCAAACTCATTATCATCCACTTCTTCTGTTACCTGCTCATCAGTAGATCTTAACCCGGTTAATTTATCATAATCACAAGTTCCGAAAGGAAACTGCGAAGGTAATGCCAGCAAACACCGAACAGTAAGTGCTTTATTTAATTGAGCACAATTTTTTCTTCAAGTTTTAGTACTTGCATTCAGGGTCTTTTTTCGGTGGTAGATCAGGCAGAAATTTATCATAATTAAAGAGACGCCGCCGAGCGACATAATTTGACCCAAATTTTGAAAATTGAATTCGGAATGCGAACGAAGTGGCAAAAGATTTTCTTTGGATGGCCATAAACGTTTTCGTGCCGGAGCTAAGGTCTTTTGGATTTCAGCTAGAGGTTTTGTCTAGATCGGCCTGGGTTTTGAGCCCGGGCAAATAACATTTGTCAATTGAAATGGCCAGAAAAACAGAAACTTGTAGCAACTGCGGGTCGAAGACAATCGTGCAAAACCTTCGACATTTAATTTTGTTTCGTTTTTGTTTATCTCTGGTCTGCACGTTTGGTTAGCAAAGAAAATTGTCTAGAAATAAAAAAAAAATTGTTTACATGGAGCAATTTTTGTTGCCTCTTTTTTCTTCGCTTGATAATTGCCCGCAAAAAGGTCATAAGAGAG
0.6744893841903016 GTCATCATGTGCAACTGTCGCATTGAGAGAGCTAAGTGATTAAGTTTAATAAACCATGTGATGTTTGATCTATTCTGACTTTAATGGACACCGCGAATGCTCAGTTTTCATGGCATCACGAGGATAACTCGAATGGTGAGGAAAGCCATAACAATTCCACCTCGCCACATTAAATGCAATCAACACAAATTTTCGGTAAATTTTTTATGTGGGACCGAGTCAGCGAAGCGCATTAAATAAACGCCACGAGACGAATCTCGTTTAGTTTAACGTCAACAGTTTTCCACCTAACCTGGCTCAAACCATCACCGCTGTTATCTTCAAAACAAGTTCACTGAAGGGGTTAAGAAATGTTCGTCTTTGTAGCTGGTCTGGCTTATCGCCGACAGCTCCAGTTTGTCTGGGCCAGCTCATGAGCTAAATTATTGAAATTTGACAAGTGAACAGGATGGTCAGCTGAGTGCAGGAGATGGAGGGCACTAACTGGTGGTCAAGTGGCCAGCTTGCCAATTTAGCCAATTCAATTAATTAGCTCTTGACAGGGCGACACTCGAGATATGAAATTAAAGCCAAGCGTTGTAGCAATTGTTACGCAATTTGTCAAATATCGATTATTGATTAAGGTTTCACTTGCTTTCTATTATTAGCAACCCGCCGTGTTGGATGCCTTGCCTTGCTTGTAGGGTATCTGTTATTACTGAACCCTAGGTCAAAGGTCAAACGGGGCGAATAATTGATTAAGAG
0.5466647105057316 ACTACTGGGTGAGTAAGCCAACGTCGTCCTGGAGCGACCACCTTCCTCTCTCTACATACTTCGACACCCAAACTCAGACTCTGAGCAGGCGGTCTCTCTATCCCGTTCTTCAGGCAGAAAGAATCATAAAAGAATTGAGATACTATGTTACTCCGCAATGCTCCCGATTCCAGTGTGTGTGTGGAGGTGGAAGTGGAAGTTAACACTCCATGCCAGCGAAAGGACATTGGCCAAGTGCTAAGGACTCGCTGCTGTTGCTCCCTCGCGGAGTTTTGGCCTTGCGGCTGATTTATCGCATACTTTCGTGTGCAAAAAAAACACACAGAGATACACACACACACACCAGTACACTTCAGCAGTACTCGCTCTCTATCTATCTCTTACTTACTCTCTTTCACTCTTGAGCAGGGTTCAAGCTGCGAACTAAAGTTCCGAACTCGTTCCGTTCGAAACTACGACTGTGTTGCTCATCAATACGTGATTGAAAGCAGCTTTCAATCATTTAGGGATGAGAAGGTTTACATCACTGCTTTTTTTTTAAACTTTTCTATGGTTAATTCATTCAAATTCGAGGTCAATGAATACGGAATTAAGTAAGGCACTCGATGAACCCTGTTGTTATCCCACCCAATTACTCGTACTCAAATACTTTCGTACTCCACCCAAAATCACACGCTTATCCAGTGTTCTCCCACTCACTCAACTTTCAAAACAAAACTCCAACAAACAAAACTATCGCAAAAATTCTTTGGGCGCTTTAACTTTTAAGTCCGAAATAGCCGCGTAAACATTTCGTTTACACTCAGTGTAAGAAGCCTGCTTGGATTAGCATAATTCGAGCTCATAAGAGTCCATTTATGCTACTCCAAGTGCAGGCCCCAATAAGTTATAAACCTGATAAAGAGGTAAGGCCCGGCCCCTGAATGCATTTACTTTAGACTTTATTTATTTCCCGGAATATTTGAATCTTTTTCTTGATCGCTGATAAAGGCATGCGGATAGCGTAACGATATGAAACTAACTGAATGCTGAATAGAATCGCTTACTTATAACTTATACTGAGACAGCTATTAAGATAGCTGGAAAACTTTTTGCATTTTGTCTAACAATTATATACATGAGGAAATCTTGGAGAGCTAAAACAAAATCTTTACATACTCTATATAACGAAAGATATTTTTAAAAGAAATATGTAACGTAAATTCCGCTTGTTATTTTTATTTTATCCAAGACCAAAGTAAGGCCTTCGTTTGAAACGCTTTTCTATGACATAAAAAAATTACTTTATTAATTAAAAATTACTTTACTTTATATTAGAAGTCCTTCTAAGAACAGAATTTCAGCAATTAAAACCCCGTTTAATAGTGAAGTTCGGATTTAGATTAACTTAAATTAAAAATGGCTAAATGGGCAGTATGCTTTAATTAGAGGAGAGATTCAACTTGACTAAATCAATTAGAGCACAAAAGACGAAAGATTTCAGTGAAGAAAAGTCAAAATACATTTGCAGTCAATGGGCAAAGTGCAGCATGCTATTGAAAACCATGAGAGCTGAAAATCCAGCCACACCCTCATTTTTCAGGCTTTCCGCAGTCCGGGAAAACTTCGAGCCAGCTGAATAGATAAGTAAAGGGATGGAGCCATTGCTCTTTAGCTGTCTGTTAGAGCCGTGCAGCAGAACCAATTAAGAAATTAAAAGACAAATACTTCTGCATTCTCGCACTTACATACATGCACTGCGAATTAGTGCCTTTTGCAGACACAGAAAGTTTTCAACTCAACACTGGCCACAAAAGTGCAAAAGAAAAATGTTTGCAACAAATTTGGGTTTCATTTGCCAACTCCGCTCTCTTTTATATCCTGTTCTCGTTTTGTTTTATTTTTCTGTGCGTAATTTTTCGGGAGTTTTCAAAAGTTTTTCGCCGGCTTTTTGTTTTCCGTTTCCCCCTTTCGGCCATTCCTTATTTTCTATCCGCATTTGCGGGTTTTTTCTCCACCAGCTTATGCAAATTATTTTGAGTTGGCCAAGTGCTCCCAGACATAAGAG
1 GATAAATCTAAAAATAAATTCCTTTGACGCATGCACGAAATAAGATAAACAAATTTGATTTTATTTTCTTATTTACACAATTCATTTTATTTGCATGCATTTCATTTTGTTCAGTGTACCTAATAAAAACGATTTCGTTTGCCCCAAGCAGTAAGAAGATGTTAGGCACGTCTGCTGATAAGGAAAACTGTAGCCCCAGACTAGGCCAGACCATATTAAATTAACGTCTGGAGGCGCGAAAATCATACGATTTTTTTTTATATTACTTCGCGGTCAGTTGCCAAGGCAGGAGAGCAACCCGTTCGATTAGTGGGTCAATTTGGAAAATGAGTTATTGACTCTGGGAAATTGTTGAGCTGAAAATTTAATCGGAGCCCGAAAATTTCCAATCATGCATTCCCCAAGTGACCATATATGGATTAGTGATAACGCTCGATGCGACCCCCAAAGATTATCAAAAATATTTAATAAGAATATATGAAAAAAAGATTTAACTTTTATGAATTCCTAAGCGTCCTCAAAGCTTCGGGAGAACTGGGCCATATATGACCCGAAATACATGTTTATACTTTAGCAAATGTATTTTCCAATTAGGTGATAGAACTTGTGTGCACACACACATATAGTTCTATATCAACAAACAGGTTTAAGTTTTATGCAAATTGAAAGCTTATTTCTTCCGCATGCTTATCTCTTTCCTTCTCATCATTTGTATGCAAAAAATACATATGAATTTGCAGTAGCCTCCTCCCACATC
1 TATATAATTTTTATTCTTACAACTTCGGTTGATCAAGATATGAAATTTGTCCGGAAAAACATTAATTTTTTTAGCAGTGTAGATATCTATTGAAAATGGCTTTTCCCTTTATTGGTTCTGAGCTCCGTCCCAGATGTTAAGTGTCATTAATCCTATCGCACAGTGCATGCAGCTCAGGAAATATGTAAATGCCACTACACAACTTAAGTTACAAAGTTTGAAAAAAAATTAATACCTACATAGAAGAGCAAACGACATTGCGTTGCCTAATAGGTACGTCATGTTAAGCAAACAATCCTGGCTTAATAATGTTTCCCTGAGGTAAGGCGTTTATATATTTTAAAATAGCTTTCCACTGCTTTACAATCGTTTAAGTATTGATGAAGACTGGTTTCGAAACCTTCTGAAAACCCTCCAGAAACCAAAACTTCCTGCTACTGCTACTCCTACATAAATACATAAATTGTTATGCACCGGTAACAAAACAATCCCATCTCCGAGGAATTTAACAACTTATCTAGAGTTTAGCCTGTCTTAGACAAAAAGCTGAAAACATTCCAATAAAAAATGAATAAATTGAAAAGCGGTCAAGTGAGGCAGGAGGTAAGAAGATCAAATACAAGCACTTCTAACTGGGTTCAGCTGATACCATACCATTTATTTGGTCATCCGGCAAAGTACTTTACAGAAAATAGTGGGTTAAGTTGTTAGAGGGGCAGCCATGGCTAGTACAATAAGCAGAATGCAGTGAACTGCAAAACATACAGCTTCATGGTTATTTTGTTCTATAGTTAGTTGCCATATTTTTCTATCCTCTCGCTTCCTCAGCTCCCCCATATCTCTGCACTTTTAGTACAGAACTAGGGGCGGTTCCGACGCCCACTTCACACAGATATCAACTAAAATAGCTTTATATATTGTTGAACTAATAAGGGTTCGATTGAAGAGCACAGACAACAGCAACTGTATGCATTTGGCTCTGGAGTTCTGCGAACAGAAGAAATTATATGCCGTCTGCACGCTTTACTAGTTTCAGTTCACTTAACTCAGGTACCAATCTCTATATTTTGTATATTTTTATAGCTTATATTTATTTTGTGCAATTATTTATTTAGTTTTAAGTAATTCAGGAAAGTTATATTCTTTGTAAAACATTTAAAATCAAAGGATGTCATTAAAGACCACCAACCAGCGTCGGCAATCCTTTCATATTCAAAATAGCCTGCACTCTGCTTTACCTACCATAGGAGCAGATTCGATTGTTTAATGACCCTTGATTGCCATAAGCCAATTTGCAATGGGCAGGTGTGGGCGAGTGAAGCGAAAACGTTCCGCATTCGAGTTCAAAATGCGGAATAAGTTCATTAGCATTAAAGTAAAAGAGGGGGAACTTCCAACATCAGACTGCAAATGCTTGCCAGAACCTTTTAGTTTAATTATAGTTAATGTTACTTTTATGCTCATATAACCATATTTTAATTTCCCTTTGAATAGGCTTTTTCTATGTGGTTTGGTCAGATGTGCCGTATGGTCAGTTGTATTTGAATTTTAATTGGTTCCATTATAGCCAAGGTCTTTTTAGCTAGCATGGGCTATAAGTAAATGTTTTAGCATATGCCTCTTATTTAATTATCCGTGCATAATTGACCTAAACGAGACGGATTGCGTGTCTGGTAACTTAAGCTTTGAAGGGGAATCCGATCAAGATGAGTTGATTAGGCCGTGAGCACAAAAGCCGTTGACAAGAGATAAACCTTTGACTTGGCCCTGGATTTCAGCCCCATTTTCTACCCACAATTCAGGCTGCAGCTAAGTGGGCGTGGCCGGCTTGTAATAACTCACGCCTTTTGACACAGATTAAACCGGCATAGAGACAATGCTGGGGATAAGGGAACTGCAACGATGACGAGGACAGAAACAAACTTGGCCGAATGGATTGGACTGTATGTATGACCCCTCTCGCATGTGCCTACATACAGATACATGCATGTGCCCATGTGGGTGGCTTGTATAAATGTTAGCCCTTATTGTTTGCCCGGCTGGTCAT
1 AAATATAATCGAAATGCTAGTTTCATTACCTCTTTTCTGGGCTTCTCCTCCAAATAAACCTCATTCACTTCCAGAGATTTCTAACATTTTGTATACTATAAACACATTTGAATGAACATAAACTTGCACCAAAATTTACATAAATTTAAAATGTATTCTGTATTCAGTAACGCCATAATTTAATTTAGTACCGCAATCAAGTGGTTCAAGCTGAAATCGTTTATTTTTTGCGAGAAATGTTTGGAAATTCGAAATGACAAGCGACGAGACCAACAAACACACACACGTCCGGCGGAGTGAGACGGATAGTCCTTCAATTTGGGTGATCTGCTCGTAAATTGGTAGCCAAGGCAAACTCTTTCCCTATATTCAGTCGTAAAGCCAACGTATGCAAATTTCGTATTCACTTTGTCACACATGCACACAAATAGACAAATACACACGCACGAAGGGATGTCCGCTTTATTCGAACTCACACACATACACATACACTCGCACAGGCACATCCTTGTGCATTCATCATCAGCCACATCATCATTTATACATTGTATTTGTCTGCCGTTGTTGTTGCTGCTGCTGCCAGTGGTCCGCAGTACATAAAACTGCTGACATTTGTTGTTTCCAATTTAGGGCAGTGCATCCCCCTCCGCACAAGCCCCTTCTGGCTCACAAAAAATTCGAAGTTTTCGGATAGAGCTTAACATTAATTGATTTAGAATTTGTGGAATTGAAATTATGTTGAGTTGACAGTTTAGGGATAGAGCCGCACACAAGCGTACTGATGAATGTGTTTCATCTAAATGGATAAAGGTGTCGCCGACGGCTTACAGAAATTAATAGGGTGTATAAGGGAATTCAGGCTGGAGACTAAATAGACTCAATTAAAGTGACATGTTGAAGCTCTAAGTTATTCATAATATTAAGTTTAAATAGTTTCGAACTTTTAAATATCATTTCAGTATTTAATATTATAAATAATAAAGAAATCTCACCACTTCGGTAGAAAAATAAATTAAATTGCTAGTTTCTTAAATATTATATTGCAATAAAACAAGCCTACAGCTGCTCACAGAAAATATGATGTTTCAAAAAATACTTCAATTATGGAAAGCACTGGAAATTAGACCATGTTCGTACAATTTTTCTTTACTGTACCAGAGCTGGCTGGCAATTCTTCAGCCAAAAGGCCACAAGCTGTGCTAATTAGCGCAGACAAAAGACTCGAAAAACTGAACGCAGCGCCGCAGAGGCGATACAAGGAGTTGCCAGGGCACGAAGTGTGGAAAACCCAGAACAAGCTCTGACCGAAAAGAAAGACCAGAAGTATGTGTGTTTCTATACGTTTTTATATATATATATGTATATACATGTATATATGTATGTATGTATGTCGGAACGATATGGCTAAAGGTAAAGCAAAAGGAAAGCAACGACGGTAGCGGTAGCAGTAGCAATAATTACAACCGTCGGCACACAAAAGACTTCAACACAAATACACACTGGCAGGCATATGTATGGACAAAAAGTGGAAACATTACGCATACGCCCCGTTGCACGACTGAACCCAGCGCCGCTGCGGCTCCGCGACGTCTGTTTCGGTTGTTGTTGCCCAAACAAAAGCCTCAGCGCACAGAGATAAAGAGAAAGCAAGCCCCTTTCGACTCGGTTTGGACAATACGTCTGCGAAGAACAGAGAAAGCTGGAAAACTGGGTGGTACAGAAATGCTTAAAATGGGTGGAGCGATGCTCCTGCGTGGCACGGATAAAAGCTTATTTACAAAGATTGTGTTAATGCAGCCCGCGGCTATGCAGCACGGACTTTAGTGGCGTCATTTCAGAGTTTTTCCTTTTTTTCGCAGCAGACACCGACACAGATAGGGAAAAAATATTGGGATAACAAAGCAATCGGATGTAAAAAAATGAACAAAAAGCAAGGATTAACTTGCTGAACTAAATTAATTGATTTTATTGATCGGAAATAAAATACTTATAAATATGAAGCGAATGATTATTAAATATTAATCCTTATTTAAAATTTTTTTCATAT
0.7603521239036707 ATTACTTTGAGTATTCAGTTCAGGCCCATTAAATGGCTATTTGCTTATCAATGCCGTCTCAACCCAATGGAGCACCTCTCCAACACCCCACCCCAATGACCTGTGACCCTTGACACTCACTCATCAACTGCTACCCCTTATTCGACTAACTCCAGTCATTTTGGACCCCGGACCTAAAGGCCCATCCATGCATGGAGTACGTGAGACAGGTCTATGTGTCATCAGCTAGAATGCAAAGCAGGGAGCTTCGTCAAATGAAATCAAATGATTTGCCGTGCAGCCGATTTATGTTTAATTTATAGAGCATACTCCAAGGGGCAAGGCCTGACCGGCATGCAAATAAATTTCCAGCAGACCCAATCCGATGAAGACATAAACTCAAACTGACACAGAGCGGCATGGCGAACGAGGCCCAAGCGCCACGAGAAAATTTTTGGTGAAATGAGAGAAAATGGGGACAAAAGAGAGCCGATTCAGCGAGTCTAGAGAAACAGCTGAATGTGGAGAGGCGGAAAATGTTGACCAAGTTTTTGCTTGCGGTAGGCCAAGGAAAAATCGGCTGCCAACGAAGGCAATAAGTGGAGCAACAGACAGGCCAACTGAAGCTAAAAGCCGGCAACAGGACTCTTAAAAACCCGCATATAAGAGAGCAGAACATATATTCGAAGAGAGACAGCAGAAATTGGTAAAATGGTATAAATTTATAACACTTTTATACGATTTGGCGATGGTTTGG
